{"learner":{"attributes":{"best_iteration":"144","best_score":"1.53534096297574","scikit_learn":"{\"_estimator_type\": \"regressor\"}"},"feature_names":["elo_home","elo_away","elo_diff","elo_ratio","elo_diff_normalized","neutral","tournament_weight","days_since_home_last","days_since_away_last","days_diff","home_form_10_winrate","home_form_10_goaldiff_avg","home_form_10_goals_scored_avg","home_form_10_goals_conceded_avg","home_form_10_weighted_points","away_form_10_winrate","away_form_10_goaldiff_avg","away_form_10_goals_scored_avg","away_form_10_goals_conceded_avg","away_form_10_weighted_points","home_form_5_winrate","home_form_5_goaldiff_avg","home_form_5_goals_scored_avg","home_form_5_goals_conceded_avg","home_form_5_weighted_points","away_form_5_winrate","away_form_5_goaldiff_avg","away_form_5_goals_scored_avg","away_form_5_goals_conceded_avg","away_form_5_weighted_points","h2h_home_winrate","h2h_draw_rate","h2h_count","h2h_home_goal_diff_avg","form_diff_winrate","form_diff_goaldiff","form_diff_5_winrate","attack_vs_defense_home","attack_vs_defense_away"],"feature_types":["float","float","float","float","float","int","int","int","int","int","float","float","float","float","float","float","float","float","float","float","float","float","float","float","float","float","float","float","float","float","float","float","int","float","float","float","float","float","float"],"gradient_booster":{"model":{"cats":{"enc":[],"feature_segments":[],"sorted_idx":[]},"gbtree_model_param":{"num_parallel_tree":"1","num_trees":"175"},"iteration_indptr":[0,1,2,3,4,5,6,7,8,9,10,11,12,13,14,15,16,17,18,19,20,21,22,23,24,25,26,27,28,29,30,31,32,33,34,35,36,37,38,39,40,41,42,43,44,45,46,47,48,49,50,51,52,53,54,55,56,57,58,59,60,61,62,63,64,65,66,67,68,69,70,71,72,73,74,75,76,77,78,79,80,81,82,83,84,85,86,87,88,89,90,91,92,93,94,95,96,97,98,99,100,101,102,103,104,105,106,107,108,109,110,111,112,113,114,115,116,117,118,119,120,121,122,123,124,125,126,127,128,129,130,131,132,133,134,135,136,137,138,139,140,141,142,143,144,145,146,147,148,149,150,151,152,153,154,155,156,157,158,159,160,161,162,163,164,165,166,167,168,169,170,171,172,173,174,175],"tree_info":[0,0,0,0,0,0,0,0,0,0,0,0,0,0,0,0,0,0,0,0,0,0,0,0,0,0,0,0,0,0,0,0,0,0,0,0,0,0,0,0,0,0,0,0,0,0,0,0,0,0,0,0,0,0,0,0,0,0,0,0,0,0,0,0,0,0,0,0,0,0,0,0,0,0,0,0,0,0,0,0,0,0,0,0,0,0,0,0,0,0,0,0,0,0,0,0,0,0,0,0,0,0,0,0,0,0,0,0,0,0,0,0,0,0,0,0,0,0,0,0,0,0,0,0,0,0,0,0,0,0,0,0,0,0,0,0,0,0,0,0,0,0,0,0,0,0,0,0,0,0,0,0,0,0,0,0,0,0,0,0,0,0,0,0,0,0,0,0,0,0,0,0,0,0,0],"trees":[{"base_weights":[1.3605483E-3,-1.0227516E-1,3.5427514E-1,-1.9641797E-1,1.3431684E-2,2.4854699E-1,7E-1,-2.8705457E-1,-1.5211298E-1,3.582724E-3,7E-1,2.1404749E-1,7E-1,4.8730206E-1,7E-1,-3.1873584E-2,-2.1151451E-2,-1.2338962E-2,5.5999998E-2,-8.3681755E-4,1.5226113E-2,2.571878E-3,5.5999998E-2,1.332048E-2,2.4330772E-2,5.5999998E-2,1.1473818E-2,3.550498E-2,5.5999998E-2,5.5999998E-2,-1.0632056E-2],"categories":[],"categories_nodes":[],"categories_segments":[],"categories_sizes":[],"default_left":[0,0,0,0,0,0,0,0,0,0,0,0,0,0,0,0,0,0,0,0,0,0,0,0,0,0,0,0,0,0,0],"id":0,"left_children":[1,3,5,7,9,11,13,15,17,19,21,23,25,27,29,-1,-1,-1,-1,-1,-1,-1,-1,-1,-1,-1,-1,-1,-1,-1,-1],"loss_changes":[2.001239E3,4.6075488E2,4.658512E2,9.360791E1,1.5791771E2,1.7919165E2,4.804077E1,1.9228088E1,4.196115E1,4.933014E1,1.7208054E1,3.859784E1,2.798825E1,1.5175827E1,1.6431763E1,0E0,0E0,0E0,0E0,0E0,0E0,0E0,0E0,0E0,0E0,0E0,0E0,0E0,0E0,0E0,0E0],"parents":[2147483647,0,0,1,1,2,2,3,3,4,4,5,5,6,6,7,7,8,8,9,9,10,10,11,11,12,12,13,13,14,14],"right_children":[2,4,6,8,10,12,14,16,18,20,22,24,26,28,30,-1,-1,-1,-1,-1,-1,-1,-1,-1,-1,-1,-1,-1,-1,-1,-1],"split_conditions":[1.1210141E0,-4.7056943E-2,1.288707E0,-5.441769E-1,3.5E0,5.5E0,2.97E0,-1.179356E0,5.6E0,2.6E0,1.6666666E0,1.1961145E0,7E0,3E0,1.2E2,-3.1873584E-2,-2.1151451E-2,-1.2338962E-2,5.5999998E-2,-8.3681755E-4,1.5226113E-2,2.571878E-3,5.5999998E-2,1.332048E-2,2.4330772E-2,5.5999998E-2,1.1473818E-2,3.550498E-2,5.5999998E-2,5.5999998E-2,-1.0632056E-2],"split_indices":[3,4,3,4,35,37,37,4,18,28,28,3,32,18,9,0,0,0,0,0,0,0,0,0,0,0,0,0,0,0,0],"split_type":[0,0,0,0,0,0,0,0,0,0,0,0,0,0,0,0,0,0,0,0,0,0,0,0,0,0,0,0,0,0,0],"sum_hessian":[5.4708355E4,4.2289816E4,1.2418542E4,2.3318316E4,1.89715E4,9.570853E3,2.8476887E3,7.6527544E3,1.5665562E4,1.8765287E4,2.0621194E2,9.020954E3,5.498985E2,1.0736115E3,1.7740774E3,1.289643E3,6.3631113E3,1.5645923E4,1.9639233E1,1.7452732E4,1.3125554E3,3.9278465E1,1.6693349E2,5.9081357E3,3.1128184E3,4.5824878E2,9.164976E1,9.786885E2,9.492296E1,1.7511649E3,2.291244E1],"tree_param":{"num_deleted":"0","num_feature":"39","num_nodes":"31","size_leaf_vector":"1"}},{"base_weights":[-2.109307E-3,-1.1508663E-1,2.7398536E-1,-2.3938273E-1,-4.340972E-2,2.1568367E-1,7E-1,-3.178416E-1,-2.0409745E-1,-5.005261E-2,7E-1,1.6927652E-1,6.099917E-1,7E-1,3.7262723E-1,-2.5676914E-2,5.4617625E-2,-1.938731E-2,-1.4858125E-2,-7.922313E-3,9.91091E-4,3.7789678E-3,5.5999998E-2,7.979929E-3,2.0032376E-2,3.606235E-2,5.5999998E-2,3.521992E-2,5.5999998E-2,2.1999685E-2,5.5605702E-2],"categories":[],"categories_nodes":[],"categories_segments":[],"categories_sizes":[],"default_left":[0,0,0,0,0,0,0,0,0,0,0,0,0,0,0,0,0,0,0,0,0,0,0,0,0,0,0,0,0,0,0],"id":1,"left_children":[1,3,5,7,9,11,13,15,17,19,21,23,25,27,29,-1,-1,-1,-1,-1,-1,-1,-1,-1,-1,-1,-1,-1,-1,-1,-1],"loss_changes":[1.7088951E3,3.4634216E2,4.6875732E2,3.9303284E1,1.582305E2,2.6178815E2,2.5554932E1,1.4177582E1,6.852112E0,7.4985695E1,9.667145E0,7.2196625E1,4.233838E1,1.6856384E1,7.542637E0,0E0,0E0,0E0,0E0,0E0,0E0,0E0,0E0,0E0,0E0,0E0,0E0,0E0,0E0,0E0,0E0],"parents":[2147483647,0,0,1,1,2,2,3,3,4,4,5,5,6,6,7,7,8,8,9,9,10,10,11,11,12,12,13,13,14,14],"right_children":[2,4,6,8,10,12,14,16,18,20,22,24,26,28,30,-1,-1,-1,-1,-1,-1,-1,-1,-1,-1,-1,-1,-1,-1,-1,-1],"split_conditions":[1.4205229E2,-1.16158005E2,3.2E0,-2.9474365E2,5.8E0,4.2841095E2,9E0,4.2E0,-2.1767075E2,2.938195E1,6.666667E-1,2.3966121E2,5.3577594E2,1.3495123E3,6.21E0,-2.5676914E-2,5.4617625E-2,-1.938731E-2,-1.4858125E-2,-7.922313E-3,9.91091E-4,3.7789678E-3,5.5999998E-2,7.979929E-3,2.0032376E-2,3.606235E-2,5.5999998E-2,3.521992E-2,5.5999998E-2,2.1999685E-2,5.5605702E-2],"split_indices":[2,2,28,2,28,2,32,28,2,2,12,2,2,0,37,0,0,0,0,0,0,0,0,0,0,0,0,0,0,0,0],"split_type":[0,0,0,0,0,0,0,0,0,0,0,0,0,0,0,0,0,0,0,0,0,0,0,0,0,0,0,0,0,0,0],"sum_hessian":[5.477961E4,3.8873832E4,1.5905778E4,1.4216185E4,2.4657646E4,1.4307214E4,1.5985646E3,4.4058486E3,9.810336E3,2.4504926E4,1.5272202E2,1.2802401E4,1.5048116E3,1.3553245E3,2.4324013E2,4.39303E3,1.2818797E1,3.175857E3,6.6344795E3,1.3734653E4,1.0770271E4,2.3450235E1,1.2927177E2,6.8966343E3,5.9057676E3,8.859833E2,6.188284E2,2.5763333E2,1.0976912E3,1.8860616E2,5.463397E1],"tree_param":{"num_deleted":"0","num_feature":"39","num_nodes":"31","size_leaf_vector":"1"}},{"base_weights":[1.771567E-3,-1.1962392E-1,2.576218E-1,-2.432932E-1,-5.9207406E-2,1.9606912E-1,7E-1,-3.2825163E-1,-2.0662381E-1,-6.4621255E-2,7E-1,1.4067343E-1,4.4173357E-1,3.650004E-1,7E-1,-2.6671562E-2,4.7098354E-2,-1.6682534E-2,1.1819093E-2,-8.778324E-3,-2.4684207E-4,-1.9341487E-2,5.5999998E-2,9.295449E-3,2.1437194E-2,2.9858222E-2,5.4173753E-2,1.0297427E-2,3.6981165E-2,-6.6802083E-3,5.5999998E-2],"categories":[],"categories_nodes":[],"categories_segments":[],"categories_sizes":[],"default_left":[0,0,0,0,0,0,0,0,0,0,0,0,0,0,0,0,0,0,0,0,0,0,0,0,0,0,0,0,0,0,0],"id":2,"left_children":[1,3,5,7,9,11,13,15,17,19,21,23,25,27,29,-1,-1,-1,-1,-1,-1,-1,-1,-1,-1,-1,-1,-1,-1,-1,-1],"loss_changes":[1.6947877E3,2.7647217E2,5.220187E2,3.7771423E1,1.25561264E2,2.1211292E2,6.649512E1,1.7631744E1,5.8401794E0,6.862904E1,1.275325E1,3.9633377E1,4.6024597E1,1.3657661E1,1.1261353E1,0E0,0E0,0E0,0E0,0E0,0E0,0E0,0E0,0E0,0E0,0E0,0E0,0E0,0E0,0E0,0E0],"parents":[2147483647,0,0,1,1,2,2,3,3,4,4,5,5,6,6,7,7,8,8,9,9,10,10,11,11,12,12,13,13,14,14],"right_children":[2,4,6,8,10,12,14,16,18,20,22,24,26,28,30,-1,-1,-1,-1,-1,-1,-1,-1,-1,-1,-1,-1,-1,-1,-1,-1],"split_conditions":[1.0830843E0,-1.3843227E2,3E0,8.134162E-1,5.8E0,1.2575547E0,1.3857057E3,3.8E0,3.6666667E0,1.011731E0,1.1089827E3,2.2E0,5.3577594E2,3.1E0,2.5E-1,-2.6671562E-2,4.7098354E-2,-1.6682534E-2,1.1819093E-2,-8.778324E-3,-2.4684207E-4,-1.9341487E-2,5.5999998E-2,9.295449E-3,2.1437194E-2,2.9858222E-2,5.4173753E-2,1.0297427E-2,3.6981165E-2,-6.6802083E-3,5.5999998E-2],"split_indices":[3,2,18,3,28,3,0,18,18,3,0,28,2,37,30,0,0,0,0,0,0,0,0,0,0,0,0,0,0,0,0],"split_type":[0,0,0,0,0,0,0,0,0,0,0,0,0,0,0,0,0,0,0,0,0,0,0,0,0,0,0,0,0,0,0],"sum_hessian":[5.455889E4,3.700199E4,1.7556904E4,1.2141884E4,2.4860104E4,1.5587288E4,1.9696172E3,3.6565957E3,8.485288E3,2.4724895E4,1.352095E2,1.2721143E4,2.8661453E3,5.9707935E2,1.372538E3,3.6370518E3,1.954389E1,8.440819E3,4.446872E1,1.4264497E4,1.0460396E4,1.3506841E1,1.2170266E2,1.0672184E4,2.048959E3,2.2228071E3,6.4333813E2,1.7538898E2,4.2169034E2,1.7632069E1,1.3549059E3],"tree_param":{"num_deleted":"0","num_feature":"39","num_nodes":"31","size_leaf_vector":"1"}},{"base_weights":[-3.6334133E-4,-1.1538698E-1,2.397835E-1,-2.3123461E-1,-4.771674E-2,1.8534286E-1,6.600364E-1,-3.193494E-1,-1.9933368E-1,-5.2651722E-2,7E-1,1.3006118E-1,4.143983E-1,4.2689195E-1,7E-1,-2.615051E-2,1.1421863E-2,2.0692226E-2,-1.6055025E-2,-8.824917E-3,-5.5665616E-4,5.5999998E-2,1.2921735E-2,4.6638874E-3,1.3217797E-2,2.8738158E-2,4.7494154E-2,3.0440323E-2,5.5999998E-2,3.3716552E-2,5.5999998E-2],"categories":[],"categories_nodes":[],"categories_segments":[],"categories_sizes":[],"default_left":[0,0,0,0,0,0,0,0,0,0,0,0,0,0,0,0,0,0,0,0,0,0,0,0,0,0,0,0,0,0,0],"id":3,"left_children":[1,3,5,7,9,11,13,15,17,19,21,23,25,27,29,-1,-1,-1,-1,-1,-1,-1,-1,-1,-1,-1,-1,-1,-1,-1,-1],"loss_changes":[1.510729E3,2.8988004E2,4.0514117E2,3.8271057E1,1.1520263E2,1.9854242E2,6.582068E1,1.2745789E1,6.354645E0,6.1241486E1,6.9153976E0,3.186293E1,2.9955261E1,1.5187637E1,1.0325745E1,0E0,0E0,0E0,0E0,0E0,0E0,0E0,0E0,0E0,0E0,0E0,0E0,0E0,0E0,0E0,0E0],"parents":[2147483647,0,0,1,1,2,2,3,3,4,4,5,5,6,6,7,7,8,8,9,9,10,10,11,11,12,12,13,13,14,14],"right_children":[2,4,6,8,10,12,14,16,18,20,22,24,26,28,30,-1,-1,-1,-1,-1,-1,-1,-1,-1,-1,-1,-1,-1,-1,-1,-1],"split_conditions":[1.0848956E0,-1.16158005E2,3E0,8.134162E-1,5.5E0,1.2575547E0,3.1E0,3E0,1.8333334E-1,9.988963E-1,4.1666666E-1,1.1210141E0,5.3577594E2,4.6E0,2.5E1,-2.615051E-2,1.1421863E-2,2.0692226E-2,-1.6055025E-2,-8.824917E-3,-5.5665616E-4,5.5999998E-2,1.2921735E-2,4.6638874E-3,1.3217797E-2,2.8738158E-2,4.7494154E-2,3.0440323E-2,5.5999998E-2,3.3716552E-2,5.5999998E-2],"split_indices":[3,2,18,3,18,3,35,18,19,3,29,3,2,33,6,0,0,0,0,0,0,0,0,0,0,0,0,0,0,0,0],"split_type":[0,0,0,0,0,0,0,0,0,0,0,0,0,0,0,0,0,0,0,0,0,0,0,0,0,0,0,0,0,0,0],"sum_hessian":[5.468561E4,3.6976332E4,1.770928E4,1.3632643E4,2.334369E4,1.5679972E4,2.0293066E3,3.6195793E3,1.00130625E4,2.3242785E4,1.0090337E2,1.2633391E4,3.0465813E3,9.3274963E2,1.0965569E3,3.562245E3,5.7334377E1,2.8522589E1,9.98454E3,1.027331E4,1.2969477E4,7.562104E1,2.528233E1,4.157161E3,8.4762295E3,2.3328022E3,7.1377905E2,8.350569E2,9.769279E1,1.3983948E2,9.5671747E2],"tree_param":{"num_deleted":"0","num_feature":"39","num_nodes":"31","size_leaf_vector":"1"}},{"base_weights":[-2.178667E-3,-1.1359177E-1,2.2474566E-1,-2.411154E-1,-5.8142588E-2,1.7160173E-1,6.2762105E-1,-3.58196E-1,-2.1894193E-1,-6.313395E-2,7E-1,1.22208774E-1,3.7506056E-1,2.88039E-1,7E-1,-2.9537432E-2,4.6371076E-2,-1.771947E-2,1.4337447E-2,-9.573759E-3,-1.2232274E-3,5.5999998E-2,-1.1844522E-3,8.201037E-3,1.7975695E-2,2.3822185E-2,4.0764555E-2,1.8827988E-2,5.5999998E-2,3.3585224E-2,5.5999998E-2],"categories":[],"categories_nodes":[],"categories_segments":[],"categories_sizes":[],"default_left":[0,0,0,0,0,0,0,0,0,0,0,0,0,0,0,0,0,0,0,0,0,0,0,0,0,0,0,0,0,0,0],"id":4,"left_children":[1,3,5,7,9,11,13,15,17,19,21,23,25,27,29,-1,-1,-1,-1,-1,-1,-1,-1,-1,-1,-1,-1,-1,-1,-1,-1],"loss_changes":[1.3838823E3,2.595798E2,3.8583435E2,2.8817932E1,1.06092255E2,1.6001346E2,9.377612E1,1.8685257E1,9.62561E0,6.880657E1,1.2200623E1,2.5863022E1,3.217978E1,1.540876E1,2.058258E1,0E0,0E0,0E0,0E0,0E0,0E0,0E0,0E0,0E0,0E0,0E0,0E0,0E0,0E0,0E0,0E0],"parents":[2147483647,0,0,1,1,2,2,3,3,4,4,5,5,6,6,7,7,8,8,9,9,10,10,11,11,12,12,13,13,14,14],"right_children":[2,4,6,8,10,12,14,16,18,20,22,24,26,28,30,-1,-1,-1,-1,-1,-1,-1,-1,-1,-1,-1,-1,-1,-1,-1,-1],"split_conditions":[1.0848956E0,9.108856E-1,3E0,7.586436E-1,5.5E0,1.2575547E0,1.3857057E3,3E0,3.8333333E0,9.9307656E-1,2E0,2.2E0,1.3681546E0,5.8E0,2.5E1,-2.9537432E-2,4.6371076E-2,-1.771947E-2,1.4337447E-2,-9.573759E-3,-1.2232274E-3,5.5999998E-2,-1.1844522E-3,8.201037E-3,1.7975695E-2,2.3822185E-2,4.0764555E-2,1.8827988E-2,5.5999998E-2,3.3585224E-2,5.5999998E-2],"split_indices":[3,3,18,3,28,3,0,18,18,3,22,28,3,18,6,0,0,0,0,0,0,0,0,0,0,0,0,0,0,0,0],"split_type":[0,0,0,0,0,0,0,0,0,0,0,0,0,0,0,0,0,0,0,0,0,0,0,0,0,0,0,0,0,0,0],"sum_hessian":[5.473066E4,3.6709008E4,1.8021652E4,1.112241E4,2.55866E4,1.5923129E4,2.0985225E3,1.7671758E3,9.355234E3,2.5435986E4,1.5061218E2,1.2814729E4,3.108401E3,6.200572E2,1.4784653E3,1.7474584E3,1.9717424E1,9.296607E3,5.8627674E1,1.1656048E4,1.3779938E4,1.2733431E2,2.3277874E1,1.0752322E4,2.062406E3,1.9770596E3,1.1313414E3,5.6093036E2,5.9126865E1,2.688564E2,1.2096089E3],"tree_param":{"num_deleted":"0","num_feature":"39","num_nodes":"31","size_leaf_vector":"1"}},{"base_weights":[2.5757486E-3,-8.780989E-2,2.618666E-1,-1.7280847E-1,8.829972E-3,2.077385E-1,5.7572186E-1,-2.6585907E-1,-1.2910704E-1,9.003035E-4,7E-1,1.4986503E-1,3.6832172E-1,3.4059548E-1,7E-1,-3.1217935E-2,-1.933338E-2,-1.0474494E-2,5.5999998E-2,-1.0884791E-3,1.4517743E-2,-2.4521593E-2,5.5999998E-2,9.8812375E-3,1.7923808E-2,2.8208025E-2,5.5999998E-2,2.297101E-2,5.5090427E-2,4.1969847E-2,5.5999998E-2],"categories":[],"categories_nodes":[],"categories_segments":[],"categories_sizes":[],"default_left":[0,0,0,0,0,0,0,0,0,0,0,0,0,0,0,0,0,0,0,0,0,0,0,0,0,0,0,0,0,0,0],"id":5,"left_children":[1,3,5,7,9,11,13,15,17,19,21,23,25,27,29,-1,-1,-1,-1,-1,-1,-1,-1,-1,-1,-1,-1,-1,-1,-1,-1],"loss_changes":[1.2885961E3,3.349251E2,2.4135284E2,8.817639E1,1.2951079E2,1.12627625E2,8.1525085E1,2.07724E1,2.7080643E1,4.9651432E1,1.4285873E1,1.7405396E1,2.7443878E1,1.6335487E1,1.4296997E1,0E0,0E0,0E0,0E0,0E0,0E0,0E0,0E0,0E0,0E0,0E0,0E0,0E0,0E0,0E0,0E0],"parents":[2147483647,0,0,1,1,2,2,3,3,4,4,5,5,6,6,7,7,8,8,9,9,10,10,11,11,12,12,13,13,14,14],"right_children":[2,4,6,8,10,12,14,16,18,20,22,24,26,28,30,-1,-1,-1,-1,-1,-1,-1,-1,-1,-1,-1,-1,-1,-1,-1,-1],"split_conditions":[1.11921E0,-1.8822777E1,3E0,-2.1767075E2,3.7E0,1.2575547E0,1.4586316E3,-4.717424E2,5.5E0,2.6E0,1.2E0,1.44E0,7.3333335E0,5.2E0,3.3E0,-3.1217935E-2,-1.933338E-2,-1.0474494E-2,5.5999998E-2,-1.0884791E-3,1.4517743E-2,-2.4521593E-2,5.5999998E-2,9.8812375E-3,1.7923808E-2,2.8208025E-2,5.5999998E-2,2.297101E-2,5.5090427E-2,4.1969847E-2,5.5999998E-2],"split_indices":[3,2,18,2,35,3,0,2,18,28,28,38,33,18,35,0,0,0,0,0,0,0,0,0,0,0,0,0,0,0,0],"split_type":[0,0,0,0,0,0,0,0,0,0,0,0,0,0,0,0,0,0,0,0,0,0,0,0,0,0,0,0,0,0,0],"sum_hessian":[5.4973836E4,4.0763918E4,1.4209917E4,2.168893E4,1.9074988E4,1.2121687E4,2.0882302E3,6.927976E3,1.4760952E4,1.8910695E4,1.6429367E2,8.91275E3,3.2089365E3,8.844677E2,1.2037626E3,1.1243792E3,5.803597E3,1.4736142E4,2.4811378E1,1.7504297E4,1.4063986E3,1.3187673E1,1.51106E2,6.5806665E3,2.3320833E3,3.1564917E3,5.2444695E1,7.6878296E2,1.15684746E2,4.8205185E2,7.2171075E2],"tree_param":{"num_deleted":"0","num_feature":"39","num_nodes":"31","size_leaf_vector":"1"}},{"base_weights":[8.016473E-5,-9.9119596E-2,2.1089742E-1,-2.147878E-1,-3.7314814E-2,1.6407375E-1,5.8549976E-1,-3.2415542E-1,-1.8750316E-1,-4.2307496E-2,7E-1,1.0236039E-1,2.9890895E-1,6.9981927E-1,3.8383916E-1,-2.6474552E-2,5.5999998E-2,-1.7007027E-2,-1.2574198E-2,-8.133641E-3,8.6817105E-5,-1.706528E-2,5.5999998E-2,6.579397E-3,1.4996435E-2,1.9981198E-2,4.3625634E-2,3.882099E-2,5.5999998E-2,2.0647269E-2,4.9788754E-2],"categories":[],"categories_nodes":[],"categories_segments":[],"categories_sizes":[],"default_left":[0,0,0,0,0,0,0,0,0,0,0,0,0,0,0,0,0,0,0,0,0,0,0,0,0,0,0,0,0,0,0],"id":6,"left_children":[1,3,5,7,9,11,13,15,17,19,21,23,25,27,29,-1,-1,-1,-1,-1,-1,-1,-1,-1,-1,-1,-1,-1,-1,-1,-1],"loss_changes":[1.1396332E3,2.648783E2,3.0579218E2,3.84552E1,9.9777176E1,1.2896259E2,4.4354004E1,1.8905731E1,7.8233643E0,6.1889393E1,1.6650139E1,1.8205452E1,5.8819977E1,2.1699463E1,2.0959595E1,0E0,0E0,0E0,0E0,0E0,0E0,0E0,0E0,0E0,0E0,0E0,0E0,0E0,0E0,0E0,0E0],"parents":[2147483647,0,0,1,1,2,2,3,3,4,4,5,5,6,6,7,7,8,8,9,9,10,10,11,11,12,12,13,13,14,14],"right_children":[2,4,6,8,10,12,14,16,18,20,22,24,26,28,30,-1,-1,-1,-1,-1,-1,-1,-1,-1,-1,-1,-1,-1,-1,-1,-1],"split_conditions":[3.5513073E-1,-2.9039502E-1,3.2E0,-8.873903E-1,5.285714E0,7.763783E-1,4E0,6E-1,-6.666667E-1,-4.4038626E-3,8.333333E-1,2E0,1.3394399E0,1.4994175E3,3.25E0,-2.6474552E-2,5.5999998E-2,-1.7007027E-2,-1.2574198E-2,-8.133641E-3,8.6817105E-5,-1.706528E-2,5.5999998E-2,6.579397E-3,1.4996435E-2,1.9981198E-2,4.3625634E-2,3.882099E-2,5.5999998E-2,2.0647269E-2,4.9788754E-2],"split_indices":[4,4,28,4,18,4,32,30,33,4,12,33,4,0,33,0,0,0,0,0,0,0,0,0,0,0,0,0,0,0,0],"split_type":[0,0,0,0,0,0,0,0,0,0,0,0,0,0,0,0,0,0,0,0,0,0,0,0,0,0,0,0,0,0,0],"sum_hessian":[5.4484965E4,3.705049E4,1.7434475E4,1.2900805E4,2.4149684E4,1.5499123E4,1.9353511E3,2.5722E3,1.0328605E4,2.400787E4,1.4181473E2,1.063485E4,4.864273E3,1.2329442E3,7.0240686E2,2.5567295E3,1.5470301E1,5.6458696E3,4.682736E3,1.013966E4,1.3868209E4,1.911014E1,1.2270458E2,8.604836E3,2.0300144E3,4.0578135E3,8.064594E2,4.8206534E2,7.5087897E2,4.61843E2,2.4056383E2],"tree_param":{"num_deleted":"0","num_feature":"39","num_nodes":"31","size_leaf_vector":"1"}},{"base_weights":[-2.188132E-3,-1.0487521E-1,1.9170631E-1,-2.2112213E-1,-5.184944E-2,1.4466842E-1,4.5777264E-1,-3.479596E-1,-1.992347E-1,7E-1,-5.5265676E-2,8.8518344E-2,2.5957972E-1,3.5510832E-1,7E-1,-2.8591108E-2,5.5999998E-2,-1.858225E-2,-1.2915642E-2,5.5999998E-2,-1.0590614E-2,-7.4263327E-3,-5.903979E-4,9.056607E-3,2.1602078E-3,1.8556165E-2,4.3232635E-2,3.0643703E-2,-3.1001233E-3,5.5999998E-2,-1.2258244E-2],"categories":[],"categories_nodes":[],"categories_segments":[],"categories_sizes":[],"default_left":[0,0,0,0,0,0,0,0,0,0,0,0,0,0,0,0,0,0,0,0,0,0,0,0,0,0,0,0,0,0,0],"id":7,"left_children":[1,3,5,7,9,11,13,15,17,19,21,23,25,27,29,-1,-1,-1,-1,-1,-1,-1,-1,-1,-1,-1,-1,-1,-1,-1,-1],"loss_changes":[1.089632E3,2.2052536E2,2.3708936E2,3.1059753E1,8.587505E1,1.0388162E2,7.768225E1,2.03443E1,1.1899109E1,6.875351E0,4.4068207E1,1.6421394E1,4.0918976E1,2.2788391E1,1.4049683E1,0E0,0E0,0E0,0E0,0E0,0E0,0E0,0E0,0E0,0E0,0E0,0E0,0E0,0E0,0E0,0E0],"parents":[2147483647,0,0,1,1,2,2,3,3,4,4,5,5,6,6,7,7,8,8,9,9,10,10,11,11,12,12,13,13,14,14],"right_children":[2,4,6,8,10,12,14,16,18,20,22,24,26,28,30,-1,-1,-1,-1,-1,-1,-1,-1,-1,-1,-1,-1,-1,-1,-1,-1],"split_conditions":[1.0848956E0,-1.3843227E2,4.37E0,7.586436E-1,-6.7E0,1.204401E0,4.1E0,6.666667E-1,-2.1767075E2,2E0,1.011731E0,1E0,5.799002E2,6.8E1,-5E-1,-2.8591108E-2,5.5999998E-2,-1.858225E-2,-1.2915642E-2,5.5999998E-2,-1.0590614E-2,-7.4263327E-3,-5.903979E-4,9.056607E-3,2.1602078E-3,1.8556165E-2,4.3232635E-2,3.0643703E-2,-3.1001233E-3,5.5999998E-2,-1.2258244E-2],"split_indices":[3,2,37,3,16,3,35,30,2,22,3,5,2,9,26,0,0,0,0,0,0,0,0,0,0,0,0,0,0,0,0],"split_type":[0,0,0,0,0,0,0,0,0,0,0,0,0,0,0,0,0,0,0,0,0,0,0,0,0,0,0,0,0,0,0],"sum_hessian":[5.4719574E4,3.5774684E4,1.8944889E4,1.1204478E4,2.4570207E4,1.6100733E4,2.8441553E3,1.6453949E3,9.559083E3,7.037744E1,2.4499828E4,1.0818103E4,5.2826304E3,2.0599482E3,7.84207E2,1.6347931E3,1.06017685E1,5.0941953E3,4.4648877E3,6.122764E1,9.149804E0,1.3726832E4,1.0772997E4,7.7168604E3,3.1012424E3,4.811789E3,4.708416E2,1.9240065E3,1.359418E2,7.657037E2,1.8503258E1],"tree_param":{"num_deleted":"0","num_feature":"39","num_nodes":"31","size_leaf_vector":"1"}},{"base_weights":[6.794479E-4,-1.0789708E-1,1.6270958E-1,-2.1489626E-1,-5.178502E-2,1.09347E-1,4.0371305E-1,-3.1079832E-1,-1.8792894E-1,-5.6865428E-2,6.489411E-1,4.433352E-2,1.9917944E-1,3.2458848E-1,6.60154E-1,-2.5364684E-2,5.5999998E-2,-1.752483E-2,-1.2939983E-2,5.5999998E-2,-4.6514017E-3,1.42218135E-2,5.5999998E-2,5.852299E-3,-1.6628526E-3,1.4504629E-2,3.1710856E-2,1.23177385E-2,3.0381208E-2,1.7863365E-2,5.5999998E-2],"categories":[],"categories_nodes":[],"categories_segments":[],"categories_sizes":[],"default_left":[0,0,0,0,0,0,0,0,0,0,0,0,0,0,0,0,0,0,0,0,0,0,0,0,0,0,0,0,0,0,0],"id":8,"left_children":[1,3,5,7,9,11,13,15,17,19,21,23,25,27,29,-1,-1,-1,-1,-1,-1,-1,-1,-1,-1,-1,-1,-1,-1,-1,-1],"loss_changes":[9.6436285E2,1.9703235E2,2.828246E2,2.9148499E1,7.682758E1,1.05165405E2,8.0693726E1,1.646054E1,7.1494446E0,3.3397247E1,1.8449959E1,1.964279E1,2.6604889E1,2.8616577E1,3.3926575E1,0E0,0E0,0E0,0E0,0E0,0E0,0E0,0E0,0E0,0E0,0E0,0E0,0E0,0E0,0E0,0E0],"parents":[2147483647,0,0,1,1,2,2,3,3,4,4,5,5,6,6,7,7,8,8,9,9,10,10,11,11,12,12,13,13,14,14],"right_children":[2,4,6,8,10,12,14,16,18,20,22,24,26,28,30,-1,-1,-1,-1,-1,-1,-1,-1,-1,-1,-1,-1,-1,-1,-1,-1],"split_conditions":[9.957497E1,-1.331009E2,2.6E0,-3.5495612E2,5.5E0,2.3966121E2,6.65E0,3E0,-2.1767075E2,1E-1,1.3163129E3,1E0,5.3577594E2,2.5E1,2.5E1,-2.5364684E-2,5.5999998E-2,-1.752483E-2,-1.2939983E-2,5.5999998E-2,-4.6514017E-3,1.42218135E-2,5.5999998E-2,5.852299E-3,-1.6628526E-3,1.4504629E-2,3.1710856E-2,1.23177385E-2,3.0381208E-2,1.7863365E-2,5.5999998E-2],"split_indices":[2,2,28,2,28,2,37,18,2,13,1,5,2,6,6,0,0,0,0,0,0,0,0,0,0,0,0,0,0,0,0],"split_type":[0,0,0,0,0,0,0,0,0,0,0,0,0,0,0,0,0,0,0,0,0,0,0,0,0,0,0,0,0,0,0],"sum_hessian":[5.480742E4,3.2816297E4,2.1991127E4,1.1286967E4,2.1529328E4,1.8006451E4,3.984675E3,2.4733208E3,8.813646E3,2.1375555E4,1.5377303E2,1.0448436E4,7.5580156E3,3.047437E3,9.3723785E2,2.4593389E3,1.3982025E1,4.0191672E3,4.794479E3,1.3000986E1,2.1362555E4,7.0618614E1,8.31544E1,7.244943E3,3.203493E3,6.932683E3,6.253323E2,7.46508E2,2.3009292E3,1.577723E2,7.794656E2],"tree_param":{"num_deleted":"0","num_feature":"39","num_nodes":"31","size_leaf_vector":"1"}},{"base_weights":[1.8030262E-3,-9.703631E-2,1.7886318E-1,-2.0099181E-1,-4.1542716E-2,1.4321733E-1,4.873528E-1,-3.3898002E-1,-1.8138237E-1,7E-1,-4.463765E-2,9.566851E-2,2.9093125E-1,3.2424027E-1,6.244646E-1,-2.7926054E-2,5.5999998E-2,-1.7300662E-2,-1.2773648E-2,5.5999998E-2,8.387299E-3,-7.666365E-3,-9.419353E-4,3.5987946E-3,9.621762E-3,2.0100508E-2,4.1999303E-2,1.5730234E-2,3.583796E-2,3.822564E-2,5.5999998E-2],"categories":[],"categories_nodes":[],"categories_segments":[],"categories_sizes":[],"default_left":[0,0,0,0,0,0,0,0,0,0,0,0,0,0,0,0,0,0,0,0,0,0,0,0,0,0,0,0,0,0,0],"id":9,"left_children":[1,3,5,7,9,11,13,15,17,19,21,23,25,27,29,-1,-1,-1,-1,-1,-1,-1,-1,-1,-1,-1,-1,-1,-1,-1,-1],"loss_changes":[9.555059E2,2.0210623E2,2.1504987E2,3.2950653E1,6.7406006E1,1.2314438E2,4.507669E1,1.8683105E1,8.053528E0,4.7472153E0,3.832011E1,1.6532951E1,3.954303E1,1.4556023E1,2.769931E1,0E0,0E0,0E0,0E0,0E0,0E0,0E0,0E0,0E0,0E0,0E0,0E0,0E0,0E0,0E0,0E0],"parents":[2147483647,0,0,1,1,2,2,3,3,4,4,5,5,6,6,7,7,8,8,9,9,10,10,11,11,12,12,13,13,14,14],"right_children":[2,4,6,8,10,12,14,16,18,20,22,24,26,28,30,-1,-1,-1,-1,-1,-1,-1,-1,-1,-1,-1,-1,-1,-1,-1,-1],"split_conditions":[1.0848956E0,-1.16158005E2,3.4E0,7.586436E-1,-6.7E0,1.2457837E0,1.4805496E3,6.666667E-1,-2.3614383E2,3.5E1,9.9185866E-1,1.1210141E0,1.4955572E0,3.5E-1,4.125E0,-2.7926054E-2,5.5999998E-2,-1.7300662E-2,-1.2773648E-2,5.5999998E-2,8.387299E-3,-7.666365E-3,-9.419353E-4,3.5987946E-3,9.621762E-3,2.0100508E-2,4.1999303E-2,1.5730234E-2,3.583796E-2,3.822564E-2,5.5999998E-2],"split_indices":[3,2,28,3,16,3,0,30,2,6,3,3,3,19,18,0,0,0,0,0,0,0,0,0,0,0,0,0,0,0,0],"split_type":[0,0,0,0,0,0,0,0,0,0,0,0,0,0,0,0,0,0,0,0,0,0,0,0,0,0,0,0,0,0,0],"sum_hessian":[5.4589555E4,3.5032742E4,1.9556814E4,1.2190394E4,2.2842348E4,1.7532996E4,2.0238191E3,1.5135216E3,1.0676871E4,6.704621E1,2.27753E4,1.3265772E4,4.267223E3,9.264767E2,1.0973424E3,1.5019298E3,1.1591811E1,4.0895674E3,6.587304E3,5.2588657E1,1.4457558E1,8.90142E3,1.3873881E4,4.3387817E3,8.926991E3,3.6512393E3,6.159842E2,4.5816113E2,4.6831552E2,6.9819183E2,3.9915057E2],"tree_param":{"num_deleted":"0","num_feature":"39","num_nodes":"31","size_leaf_vector":"1"}},{"base_weights":[-9.612521E-4,-1.2240382E-1,1.23128325E-1,-2.170121E-1,-7.6276116E-2,9.3718104E-2,4.3627408E-1,-3.7047163E-1,-1.9876327E-1,-8.637486E-2,2.0042159E-1,4.8398197E-2,2.2986594E-1,3.703307E-1,7E-1,-3.039618E-2,-1.2536211E-2,-1.6175006E-2,3.148896E-2,-9.253106E-3,-4.410862E-3,2.6745354E-3,3.2253433E-2,6.3068303E-3,-1.3136467E-3,1.6835092E-2,4.536946E-2,2.20527E-2,3.744402E-2,7.9032866E-4,5.5999998E-2],"categories":[],"categories_nodes":[],"categories_segments":[],"categories_sizes":[],"default_left":[0,0,0,0,0,0,0,0,0,0,0,0,0,0,0,0,0,0,0,0,0,0,0,0,0,0,0,0,0,0,0],"id":10,"left_children":[1,3,5,7,9,11,13,15,17,19,21,23,25,27,29,-1,-1,-1,-1,-1,-1,-1,-1,-1,-1,-1,-1,-1,-1,-1,-1],"loss_changes":[8.21481E2,1.202113E2,2.4829141E2,2.5233093E1,5.1832916E1,1.5207463E2,5.486075E1,1.8392029E0,1.6571686E1,1.634407E1,2.2060783E1,3.6517086E1,4.0262024E1,1.8283112E1,9.856995E0,0E0,0E0,0E0,0E0,0E0,0E0,0E0,0E0,0E0,0E0,0E0,0E0,0E0,0E0,0E0,0E0],"parents":[2147483647,0,0,1,1,2,2,3,3,4,4,5,5,6,6,7,7,8,8,9,9,10,10,11,11,12,12,13,13,14,14],"right_children":[2,4,6,8,10,12,14,16,18,20,22,24,26,28,30,-1,-1,-1,-1,-1,-1,-1,-1,-1,-1,-1,-1,-1,-1,-1,-1],"split_conditions":[1.0348355E0,-1.6417557E2,3.4E0,-4.717424E2,2.625E0,1.204401E0,5.6E0,6E-1,3.8E0,1.2E0,1.4E0,1.2E1,4.75E0,5E-1,9.9420905E2,-3.039618E-2,-1.2536211E-2,-1.6175006E-2,3.148896E-2,-9.253106E-3,-4.410862E-3,2.6745354E-3,3.2253433E-2,6.3068303E-3,-1.3136467E-3,1.6835092E-2,4.536946E-2,2.20527E-2,3.744402E-2,7.9032866E-4,5.5999998E-2],"split_indices":[3,2,28,2,18,3,35,20,18,18,35,32,33,20,1,0,0,0,0,0,0,0,0,0,0,0,0,0,0,0,0],"split_type":[0,0,0,0,0,0,0,0,0,0,0,0,0,0,0,0,0,0,0,0,0,0,0,0,0,0,0,0,0,0,0],"sum_hessian":[5.450341E4,2.7546318E4,2.6957092E4,9.025962E3,1.8520357E4,2.4644455E4,2.3126355E3,9.5604614E2,8.0699155E3,1.7869574E4,6.5078204E2,1.8491848E4,6.1526084E3,1.9891543E3,3.2348123E2,9.1380597E2,4.2240177E1,8.0245254E3,4.5390373E1,9.217951E3,8.651624E3,3.5803864E2,2.927434E2,1.258509E4,5.9067573E3,5.81959E3,3.330184E2,1.0133122E3,9.7584204E2,2.1304794E1,3.0217642E2],"tree_param":{"num_deleted":"0","num_feature":"39","num_nodes":"31","size_leaf_vector":"1"}},{"base_weights":[7.922E-5,-1.14178784E-1,1.1835528E-1,-2.19634E-1,-6.8344474E-2,8.603734E-2,3.747085E-1,-3.714498E-1,-2.0021048E-1,-7.9515465E-2,2.0223632E-1,3.316652E-2,1.61739E-1,3.1342015E-1,7E-1,-3.200631E-2,-2.46018E-2,-1.6312271E-2,2.7035458E-2,5.5999998E-2,-6.4791837E-3,2.3581188E-3,3.180631E-2,1.4660528E-3,1.0619838E-2,1.1062529E-2,2.4636889E-2,1.2409661E-2,3.1732008E-2,7.597536E-4,5.5999998E-2],"categories":[],"categories_nodes":[],"categories_segments":[],"categories_sizes":[],"default_left":[0,0,0,0,0,0,0,0,0,0,0,0,0,0,0,0,0,0,0,0,0,0,0,0,0,0,0,0,0,0,0],"id":11,"left_children":[1,3,5,7,9,11,13,15,17,19,21,23,25,27,29,-1,-1,-1,-1,-1,-1,-1,-1,-1,-1,-1,-1,-1,-1,-1,-1],"loss_changes":[7.3545166E2,1.3377069E2,2.2153204E2,2.4672028E1,5.839756E1,9.5042755E1,7.458438E1,1.605896E0,1.4955688E1,3.3809837E1,2.579494E1,2.0681803E1,3.3469376E1,3.4460205E1,9.876648E0,0E0,0E0,0E0,0E0,0E0,0E0,0E0,0E0,0E0,0E0,0E0,0E0,0E0,0E0,0E0,0E0],"parents":[2147483647,0,0,1,1,2,2,3,3,4,4,5,5,6,6,7,7,8,8,9,9,10,10,11,11,12,12,13,13,14,14],"right_children":[2,4,6,8,10,12,14,16,18,20,22,24,26,28,30,-1,-1,-1,-1,-1,-1,-1,-1,-1,-1,-1,-1,-1,-1,-1,-1],"split_conditions":[5.8100357E1,-1.7333296E2,3E0,-4.717424E2,2.625E0,2.2547821E2,5.6E0,-5.3041473E2,3.6666667E0,1E-1,1.4E0,2.2E0,4.7765997E2,1.4016865E3,9.9420905E2,-3.200631E-2,-2.46018E-2,-1.6312271E-2,2.7035458E-2,5.5999998E-2,-6.4791837E-3,2.3581188E-3,3.180631E-2,1.4660528E-3,1.0619838E-2,1.1062529E-2,2.4636889E-2,1.2409661E-2,3.1732008E-2,7.597536E-4,5.5999998E-2],"split_indices":[2,2,18,2,18,2,35,2,18,13,35,28,2,0,1,0,0,0,0,0,0,0,0,0,0,0,0,0,0,0,0],"split_type":[0,0,0,0,0,0,0,0,0,0,0,0,0,0,0,0,0,0,0,0,0,0,0,0,0,0,0,0,0,0,0],"sum_hessian":[5.4412582E4,2.7675559E4,2.6737025E4,8.38205E3,1.929351E4,2.3745582E4,2.9914424E3,9.475441E2,7.4345054E3,1.8529941E4,7.635679E2,1.3983467E4,9.762116E3,2.6203362E3,3.7110635E2,6.486619E2,2.988822E2,7.3848223E3,4.9683212E1,1.3665195E1,1.8516275E4,4.063601E2,3.572078E2,1.2172555E4,1.8109121E3,8.415404E3,1.3467117E3,9.047712E2,1.715565E3,2.132164E1,3.497847E2],"tree_param":{"num_deleted":"0","num_feature":"39","num_nodes":"31","size_leaf_vector":"1"}},{"base_weights":[3.3871876E-3,-1.12030484E-1,1.18122146E-1,-1.9694827E-1,-6.1666403E-2,7.766374E-2,3.0028853E-1,-2.9621524E-1,-1.6928615E-1,-7.16624E-2,1.6255645E-1,2.804127E-2,1.5389594E-1,2.7008033E-1,7E-1,-2.4319734E-2,4.2297304E-2,-1.3794758E-2,1.5230585E-2,5.5999998E-2,-5.804315E-3,-1.4807026E-4,2.5995452E-2,4.257471E-3,-2.2947032E-3,1.0141728E-2,2.2575587E-2,2.0120928E-2,5.5999998E-2,5.5999998E-2,-0E0],"categories":[],"categories_nodes":[],"categories_segments":[],"categories_sizes":[],"default_left":[0,0,0,0,0,0,0,0,0,0,0,0,0,0,0,0,0,0,0,0,0,0,0,0,0,0,0,0,0,0,0],"id":12,"left_children":[1,3,5,7,9,11,13,15,17,19,21,23,25,27,29,-1,-1,-1,-1,-1,-1,-1,-1,-1,-1,-1,-1,-1,-1,-1,-1],"loss_changes":[7.245674E2,1.1663312E2,2.0221494E2,2.7838898E1,3.8438637E1,8.49348E1,6.694818E1,1.4512848E1,9.100876E0,1.5906601E1,1.9625122E1,1.9454882E1,3.0785522E1,3.8845215E1,1.0890167E1,0E0,0E0,0E0,0E0,0E0,0E0,0E0,0E0,0E0,0E0,0E0,0E0,0E0,0E0,0E0,0E0],"parents":[2147483647,0,0,1,1,2,2,3,3,4,4,5,5,6,6,7,7,8,8,9,9,10,10,11,11,12,12,13,13,14,14],"right_children":[2,4,6,8,10,12,14,16,18,20,22,24,26,28,30,-1,-1,-1,-1,-1,-1,-1,-1,-1,-1,-1,-1,-1,-1,-1,-1],"split_conditions":[5.5877247E1,-1.3843227E2,2.5E0,-3.5495612E2,2.625E0,2.2547821E2,5.8E0,6.666667E-1,3.6666667E0,1E-1,1.2435493E3,1E0,2.75E0,7E0,7.1666664E-1,-2.4319734E-2,4.2297304E-2,-1.3794758E-2,1.5230585E-2,5.5999998E-2,-5.804315E-3,-1.4807026E-4,2.5995452E-2,4.257471E-3,-2.2947032E-3,1.0141728E-2,2.2575587E-2,2.0120928E-2,5.5999998E-2,5.5999998E-2,-0E0],"split_indices":[2,2,28,2,18,2,18,30,18,13,0,5,33,33,19,0,0,0,0,0,0,0,0,0,0,0,0,0,0,0,0],"split_type":[0,0,0,0,0,0,0,0,0,0,0,0,0,0,0,0,0,0,0,0,0,0,0,0,0,0,0,0,0,0,0],"sum_hessian":[5.47066E4,2.7271305E4,2.7435297E4,1.01502705E4,1.7121035E4,2.2451447E4,4.98385E3,2.2083945E3,7.9418755E3,1.6391848E4,7.2918677E2,1.3601621E4,8.849826E3,4.6728716E3,3.1097855E2,2.1886235E3,1.9771044E1,7.8740273E3,6.784834E1,1.034157E1,1.6381506E4,3.6221826E2,3.6696848E2,9.422902E3,4.1787183E3,7.30829E3,1.5415361E3,4.4894565E3,1.8341507E2,2.8879688E2,2.218169E1],"tree_param":{"num_deleted":"0","num_feature":"39","num_nodes":"31","size_leaf_vector":"1"}},{"base_weights":[2.6809077E-3,-1.1814162E-1,9.978743E-2,-2.1306053E-1,-7.82304E-2,7.8558E-2,3.9286733E-1,-3.5383433E-1,-1.9348519E-1,-8.070225E-2,5.7569736E-1,4.9086697E-2,2.2161546E-1,3.162607E-1,6.7072695E-1,-3.0534942E-2,-2.114994E-2,-1.5779851E-2,6.764244E-3,-8.594617E-3,-3.1388863E-3,5.5999998E-2,2.096429E-2,1.6788009E-4,6.463599E-3,1.6563816E-2,4.185053E-2,2.3157496E-2,5.5999998E-2,5.5999998E-2,-9.6879015E-3],"categories":[],"categories_nodes":[],"categories_segments":[],"categories_sizes":[],"default_left":[0,0,0,0,0,0,0,0,0,0,0,0,0,0,0,0,0,0,0,0,0,0,0,0,0,0,0,0,0,0,0],"id":13,"left_children":[1,3,5,7,9,11,13,15,17,19,21,23,25,27,29,-1,-1,-1,-1,-1,-1,-1,-1,-1,-1,-1,-1,-1,-1,-1,-1],"loss_changes":[6.436667E2,9.2586426E1,1.8924872E2,1.988739E1,2.7996376E1,1.1958185E2,4.3534027E1,2.08078E0,6.721634E0,1.8997543E1,6.803959E0,3.5037098E1,2.1221878E1,1.7547882E1,1.6881805E1,0E0,0E0,0E0,0E0,0E0,0E0,0E0,0E0,0E0,0E0,0E0,0E0,0E0,0E0,0E0,0E0],"parents":[2147483647,0,0,1,1,2,2,3,3,4,4,5,5,6,6,7,7,8,8,9,9,10,10,11,11,12,12,13,13,14,14],"right_children":[2,4,6,8,10,12,14,16,18,20,22,24,26,28,30,-1,-1,-1,-1,-1,-1,-1,-1,-1,-1,-1,-1,-1,-1,-1,-1],"split_conditions":[1.0185827E0,-1.9049416E2,5.76E0,-4.717424E2,5.6E0,1.2457837E0,5.6E0,-8E-1,3E0,-4.1981865E1,2.2222222E-1,1.0830843E0,1.63824E0,7E0,1.4629081E3,-3.0534942E-2,-2.114994E-2,-1.5779851E-2,6.764244E-3,-8.594617E-3,-3.1388863E-3,5.5999998E-2,2.096429E-2,1.6788009E-4,6.463599E-3,1.6563816E-2,4.185053E-2,2.3157496E-2,5.5999998E-2,5.5999998E-2,-9.6879015E-3],"split_indices":[3,2,37,2,18,3,35,21,18,2,10,3,3,33,1,0,0,0,0,0,0,0,0,0,0,0,0,0,0,0,0],"split_type":[0,0,0,0,0,0,0,0,0,0,0,0,0,0,0,0,0,0,0,0,0,0,0,0,0,0,0,0,0,0,0],"sum_hessian":[5.4852094E4,2.4440408E4,3.0411686E4,7.231865E3,1.7208543E4,2.8359404E4,2.0522815E3,8.795305E2,6.3523345E3,1.7144918E4,6.3625294E1,2.3517334E4,4.84207E3,1.6109863E3,4.412952E2,6.6651575E2,2.1301472E2,6.2685073E3,8.382762E1,1.0420867E4,6.7240503E3,2.0735397E1,4.2889896E1,9.478547E3,1.4038787E4,4.621149E3,2.2092099E2,1.5145403E3,9.6445946E1,4.1647113E2,2.4824057E1],"tree_param":{"num_deleted":"0","num_feature":"39","num_nodes":"31","size_leaf_vector":"1"}},{"base_weights":[1.1456999E-3,-9.371137E-2,1.1723121E-1,-1.8354899E-1,-4.6992414E-2,9.3854554E-2,3.593863E-1,-3.1683505E-1,-1.6270335E-1,-5.130142E-2,5.3037614E-1,6.122163E-2,2.2517665E-1,3.3314756E-1,7E-1,-2.6197672E-2,5.5999998E-2,-1.6692616E-2,-1.1617623E-2,5.5999998E-2,-4.211198E-3,5.5999998E-2,1.3437098E-2,7.131339E-3,9.644205E-4,1.7090699E-2,5.5999998E-2,1.1918932E-2,3.2170203E-2,5.5999998E-2,-1.1583809E-2],"categories":[],"categories_nodes":[],"categories_segments":[],"categories_sizes":[],"default_left":[0,0,0,0,0,0,0,0,0,0,0,0,0,0,0,0,0,0,0,0,0,0,0,0,0,0,0,0,0,0,0],"id":14,"left_children":[1,3,5,7,9,11,13,15,17,19,21,23,25,27,29,-1,-1,-1,-1,-1,-1,-1,-1,-1,-1,-1,-1,-1,-1,-1,-1],"loss_changes":[6.019528E2,1.26241486E2,1.3914899E2,2.8557037E1,4.9381905E1,9.607524E1,2.5333618E1,1.5826019E1,7.1262207E0,3.0504784E1,1.6577866E1,2.4646667E1,2.7171448E1,2.6040848E1,5.3185654E0,0E0,0E0,0E0,0E0,0E0,0E0,0E0,0E0,0E0,0E0,0E0,0E0,0E0,0E0,0E0,0E0],"parents":[2147483647,0,0,1,1,2,2,3,3,4,4,5,5,6,6,7,7,8,8,9,9,10,10,11,11,12,12,13,13,14,14],"right_children":[2,4,6,8,10,12,14,16,18,20,22,24,26,28,30,-1,-1,-1,-1,-1,-1,-1,-1,-1,-1,-1,-1,-1,-1,-1,-1],"split_conditions":[1.057083E0,-1.331009E2,3.5E0,7.586436E-1,5.5E0,1.2575547E0,9.666667E0,6.666667E-1,8.3716816E-1,1E-1,3E1,9E0,7.5E0,1E0,4.2E1,-2.6197672E-2,5.5999998E-2,-1.6692616E-2,-1.1617623E-2,5.5999998E-2,-4.211198E-3,5.5999998E-2,1.3437098E-2,7.131339E-3,9.644205E-4,1.7090699E-2,5.5999998E-2,1.1918932E-2,3.2170203E-2,5.5999998E-2,-1.1583809E-2],"split_indices":[3,2,28,3,28,3,33,30,3,13,6,32,33,22,9,0,0,0,0,0,0,0,0,0,0,0,0,0,0,0,0],"split_type":[0,0,0,0,0,0,0,0,0,0,0,0,0,0,0,0,0,0,0,0,0,0,0,0,0,0,0,0,0,0,0],"sum_hessian":[5.4655625E4,3.0077135E4,2.457849E4,1.0287571E4,1.9789562E4,2.2416688E4,2.1618015E3,1.3881307E3,8.89944E3,1.9644213E4,1.4535075E2,1.7957357E4,4.45933E3,2.055441E3,1.06360535E2,1.3749717E3,1.3159128E1,2.4464783E3,6.4529624E3,1.5100315E1,1.9629113E4,7.066547E1,7.468529E1,1.1450232E4,6.5071255E3,4.367084E3,9.224594E1,5.617515E2,1.4936893E3,9.969516E1,6.665376E0],"tree_param":{"num_deleted":"0","num_feature":"39","num_nodes":"31","size_leaf_vector":"1"}},{"base_weights":[3.273471E-3,-1.154896E-1,9.579716E-2,-2.2607538E-1,-8.5721746E-2,7.384044E-2,3.5260075E-1,-3.5198832E-1,-2.0143698E-1,-9.817765E-2,3.95245E-2,3.4853548E-2,1.8218881E-1,3.054099E-1,5.827682E-1,-2.909471E-2,-9.112893E-3,-1.6418645E-2,2.961636E-2,5.5999998E-2,-7.907259E-3,3.519449E-2,7.751998E-4,2.3387983E-3,2.258624E-2,1.1983065E-2,2.2372002E-2,2.1315247E-2,4.0073376E-2,5.5999998E-2,2.1414027E-2],"categories":[],"categories_nodes":[],"categories_segments":[],"categories_sizes":[],"default_left":[0,0,0,0,0,0,0,0,0,0,0,0,0,0,0,0,0,0,0,0,0,0,0,0,0,0,0,0,0,0,0],"id":15,"left_children":[1,3,5,7,9,11,13,15,17,19,21,23,25,27,29,-1,-1,-1,-1,-1,-1,-1,-1,-1,-1,-1,-1,-1,-1,-1,-1],"loss_changes":[6.0071655E2,7.878998E1,1.7326904E2,1.5691864E1,2.9462112E1,1.1958292E2,2.6134735E1,2.2182236E0,9.41008E0,1.347139E1,2.0442776E1,2.8988646E1,2.3619598E1,1.521434E1,2.4638885E1,0E0,0E0,0E0,0E0,0E0,0E0,0E0,0E0,0E0,0E0,0E0,0E0,0E0,0E0,0E0,0E0],"parents":[2147483647,0,0,1,1,2,2,3,3,4,4,5,5,6,6,7,7,8,8,9,9,10,10,11,11,12,12,13,13,14,14],"right_children":[2,4,6,8,10,12,14,16,18,20,22,24,26,28,30,-1,-1,-1,-1,-1,-1,-1,-1,-1,-1,-1,-1,-1,-1,-1,-1],"split_conditions":[1.0185827E0,-2.3614383E2,5.5E0,-4.717424E2,2.88E0,1.1961145E0,5.6E0,6E-1,3.8E0,1E-1,1.3333334E-1,3.5E0,1.3681546E0,1.4955572E0,5E-1,-2.909471E-2,-9.112893E-3,-1.6418645E-2,2.961636E-2,5.5999998E-2,-7.907259E-3,3.519449E-2,7.751998E-4,2.3387983E-3,2.258624E-2,1.1983065E-2,2.2372002E-2,2.1315247E-2,4.0073376E-2,5.5999998E-2,2.1414027E-2],"split_indices":[3,2,37,2,37,3,35,20,18,13,19,28,3,3,34,0,0,0,0,0,0,0,0,0,0,0,0,0,0,0,0],"split_type":[0,0,0,0,0,0,0,0,0,0,0,0,0,0,0,0,0,0,0,0,0,0,0,0,0,0,0,0,0,0,0],"sum_hessian":[5.465903E4,2.393445E4,3.0724582E4,5.0734775E3,1.886097E4,2.8306447E4,2.418136E3,8.2679456E2,4.246683E3,1.7156543E4,1.7044279E3,2.081851E4,7.487937E3,2.0093568E3,4.0877917E2,7.8677637E2,4.001815E1,4.2196523E3,2.7030539E1,6.594508E0,1.714995E4,1.16773254E2,1.5876547E3,2.035823E4,4.602793E2,5.623141E3,1.8647958E3,1.6782308E3,3.3112607E2,2.4452586E2,1.642533E2],"tree_param":{"num_deleted":"0","num_feature":"39","num_nodes":"31","size_leaf_vector":"1"}},{"base_weights":[1.1365415E-3,-1.10493384E-1,8.66684E-2,-2.1480206E-1,-7.774633E-2,6.343629E-2,3.1720805E-1,-3.496905E-1,-1.917771E-1,-8.431877E-2,1.09162726E-1,2.8706416E-2,1.619611E-1,2.746181E-1,5.774367E-1,-3.043265E-2,-2.0786278E-2,-1.5766688E-2,1.396285E-2,-8.839532E-3,-4.3510473E-3,2.5826287E-3,2.6556287E-2,4.0098326E-4,5.8267247E-3,1.0520886E-2,2.5720043E-2,1.6516363E-2,2.9221332E-2,5.5999998E-2,2.8179487E-2],"categories":[],"categories_nodes":[],"categories_segments":[],"categories_sizes":[],"default_left":[0,0,0,0,0,0,0,0,0,0,0,0,0,0,0,0,0,0,0,0,0,0,0,0,0,0,0,0,0,0,0],"id":16,"left_children":[1,3,5,7,9,11,13,15,17,19,21,23,25,27,29,-1,-1,-1,-1,-1,-1,-1,-1,-1,-1,-1,-1,-1,-1,-1,-1],"loss_changes":[5.2093286E2,8.0831085E1,1.654528E2,1.7509949E1,2.2179008E1,9.602919E1,3.121286E1,2.157364E0,9.5026245E0,1.3627617E1,1.0488976E1,2.1700193E1,3.5505127E1,1.4954071E1,1.2605087E1,0E0,0E0,0E0,0E0,0E0,0E0,0E0,0E0,0E0,0E0,0E0,0E0,0E0,0E0,0E0,0E0],"parents":[2147483647,0,0,1,1,2,2,3,3,4,4,5,5,6,6,7,7,8,8,9,9,10,10,11,11,12,12,13,13,14,14],"right_children":[2,4,6,8,10,12,14,16,18,20,22,24,26,28,30,-1,-1,-1,-1,-1,-1,-1,-1,-1,-1,-1,-1,-1,-1,-1,-1],"split_conditions":[1.0185827E0,-2.1767075E2,3.4E0,-4.717424E2,2.75E0,1.1961145E0,5.6E0,-8E-1,3E0,1.2E0,1.0833334E0,1.1172972E0,3.3333333E0,2E-1,4.7142857E-1,-3.043265E-2,-2.0786278E-2,-1.5766688E-2,1.396285E-2,-8.839532E-3,-4.3510473E-3,2.5826287E-3,2.6556287E-2,4.0098326E-4,5.8267247E-3,1.0520886E-2,2.5720043E-2,1.6516363E-2,2.9221332E-2,5.5999998E-2,2.8179487E-2],"split_indices":[3,2,28,2,18,3,35,21,18,18,14,3,33,15,34,0,0,0,0,0,0,0,0,0,0,0,0,0,0,0,0],"split_type":[0,0,0,0,0,0,0,0,0,0,0,0,0,0,0,0,0,0,0,0,0,0,0,0,0,0,0,0,0,0,0],"sum_hessian":[5.4550145E4,2.3663562E4,3.0886582E4,5.6512046E3,1.8012357E4,2.8060947E4,2.8256348E3,8.2065314E2,4.8305513E3,1.7402053E4,6.103046E2,2.074994E4,7.311008E3,2.4306497E3,3.94985E2,6.075238E2,2.1312935E2,4.7625674E3,6.798396E1,9.278405E3,8.123648E3,4.5525092E2,1.5505373E2,1.350444E4,7.2454985E3,6.1418413E3,1.1691664E3,1.3905237E3,1.0401261E3,2.3777103E2,1.5721396E2],"tree_param":{"num_deleted":"0","num_feature":"39","num_nodes":"31","size_leaf_vector":"1"}},{"base_weights":[1.5718573E-3,-1.1380411E-1,8.178533E-2,-1.9881582E-1,-7.7676564E-2,4.167051E-2,1.9510968E-1,-2.9232684E-1,-1.7021932E-1,-8.549769E-2,9.321001E-2,1.1199712E-3,9.961465E-2,1.7858663E-1,5.631361E-1,1.4049062E-2,-2.472234E-2,-1.1978662E-2,-1.876427E-2,5.5999998E-2,-6.9078193E-3,-5.5855163E-3,2.0321095E-2,2.262233E-3,-4.7400687E-3,6.436565E-3,1.4751513E-2,2.3662975E-2,1.1780138E-2,2.9438952E-2,5.5999998E-2],"categories":[],"categories_nodes":[],"categories_segments":[],"categories_sizes":[],"default_left":[0,0,0,0,0,0,0,0,0,0,0,0,0,0,0,0,0,0,0,0,0,0,0,0,0,0,0,0,0,0,0],"id":17,"left_children":[1,3,5,7,9,11,13,15,17,19,21,23,25,27,29,-1,-1,-1,-1,-1,-1,-1,-1,-1,-1,-1,-1,-1,-1,-1,-1],"loss_changes":[5.053674E2,6.876172E1,1.464247E2,1.7813568E1,2.1052078E1,5.5902752E1,5.1164246E1,1.2352463E1,6.7162933E0,1.473381E1,1.816174E1,2.2981806E1,1.5902954E1,2.9570496E1,1.1454697E1,0E0,0E0,0E0,0E0,0E0,0E0,0E0,0E0,0E0,0E0,0E0,0E0,0E0,0E0,0E0,0E0],"parents":[2147483647,0,0,1,1,2,2,3,3,4,4,5,5,6,6,7,7,8,8,9,9,10,10,11,11,12,12,13,13,14,14],"right_children":[2,4,6,8,10,12,14,16,18,20,22,24,26,28,30,-1,-1,-1,-1,-1,-1,-1,-1,-1,-1,-1,-1,-1,-1,-1,-1],"split_conditions":[1.011731E0,-1.9049416E2,2.2E0,7.741197E-1,3.84E0,1.9510703E2,6.5E0,5.3333336E-1,1E0,1E-1,5E-1,1E0,1.288707E0,1E0,1.6666667E-1,1.4049062E-2,-2.472234E-2,-1.1978662E-2,-1.876427E-2,5.5999998E-2,-6.9078193E-3,-5.5855163E-3,2.0321095E-2,2.262233E-3,-4.7400687E-3,6.436565E-3,1.4751513E-2,2.3662975E-2,1.1780138E-2,2.9438952E-2,5.5999998E-2],"split_indices":[3,2,28,3,37,2,33,19,5,13,30,5,3,32,15,0,0,0,0,0,0,0,0,0,0,0,0,0,0,0,0],"split_type":[0,0,0,0,0,0,0,0,0,0,0,0,0,0,0,0,0,0,0,0,0,0,0,0,0,0,0,0,0,0,0],"sum_hessian":[5.4596824E4,2.238959E4,3.2207234E4,6.674286E3,1.5715303E4,2.3789354E4,8.417879E3,1.5592614E3,5.115025E3,1.5029121E4,6.8618176E2,1.399784E4,9.791515E3,8.0581274E3,3.5975195E2,5.299682E1,1.5062645E3,3.8845085E3,1.2305164E3,7.8580265E0,1.5021264E4,3.403966E2,3.4578516E2,9.657319E3,4.3405205E3,7.9902617E3,1.8012526E3,1.6968083E3,6.361319E3,1.6936932E2,1.9038263E2],"tree_param":{"num_deleted":"0","num_feature":"39","num_nodes":"31","size_leaf_vector":"1"}},{"base_weights":[-5.6107744E-4,-1.12234905E-1,7.538467E-2,-1.9335967E-1,-7.3530115E-2,4.466651E-2,2.181221E-1,-3.3917555E-1,-1.7521341E-1,-8.376607E-2,3.7697796E-2,1.9013755E-2,1.317747E-1,1.9577087E-1,5.2727383E-1,-2.996182E-2,-2.1536801E-2,-1.4328251E-2,1.2532367E-2,-5.243267E-3,-1.0190269E-2,1.1120541E-2,-5.442978E-3,3.330955E-3,-2.6948494E-3,8.0531305E-3,1.5981246E-2,1.2559598E-2,2.5277495E-2,3.3534363E-2,5.5999998E-2],"categories":[],"categories_nodes":[],"categories_segments":[],"categories_sizes":[],"default_left":[0,0,0,0,0,0,0,0,0,0,0,0,0,0,0,0,0,0,0,0,0,0,0,0,0,0,0,0,0,0,0],"id":18,"left_children":[1,3,5,7,9,11,13,15,17,19,21,23,25,27,29,-1,-1,-1,-1,-1,-1,-1,-1,-1,-1,-1,-1,-1,-1,-1,-1],"loss_changes":[4.658592E2,6.979944E1,1.4333546E2,1.896045E1,1.7170937E1,6.012216E1,3.994461E1,1.8513794E0,8.341934E0,1.0955566E1,1.3670592E1,2.4804977E1,1.2928238E1,2.5132004E1,1.208432E1,0E0,0E0,0E0,0E0,0E0,0E0,0E0,0E0,0E0,0E0,0E0,0E0,0E0,0E0,0E0,0E0],"parents":[2147483647,0,0,1,1,2,2,3,3,4,4,5,5,6,6,7,7,8,8,9,9,10,10,11,11,12,12,13,13,14,14],"right_children":[2,4,6,8,10,12,14,16,18,20,22,24,26,28,30,-1,-1,-1,-1,-1,-1,-1,-1,-1,-1,-1,-1,-1,-1,-1,-1],"split_conditions":[1.011731E0,8.9255726E-1,2.6E0,-4.717424E2,3E0,1.1961145E0,6.5E0,-5.3041473E2,3.6666667E0,1E0,1.525716E3,1E0,3.22E0,4.4E0,1.1E0,-2.996182E-2,-2.1536801E-2,-1.4328251E-2,1.2532367E-2,-5.243267E-3,-1.0190269E-2,1.1120541E-2,-5.442978E-3,3.330955E-3,-2.6948494E-3,8.0531305E-3,1.5981246E-2,1.2559598E-2,2.5277495E-2,3.3534363E-2,5.5999998E-2],"split_indices":[3,3,28,2,37,3,33,2,18,5,1,5,37,28,29,0,0,0,0,0,0,0,0,0,0,0,0,0,0,0,0],"split_type":[0,0,0,0,0,0,0,0,0,0,0,0,0,0,0,0,0,0,0,0,0,0,0,0,0,0,0,0,0,0,0],"sum_hessian":[5.491708E4,2.2230527E4,3.2686549E4,7.1774717E3,1.5053056E4,2.690015E4,5.7863984E3,7.9117816E2,6.3862935E3,1.3786383E4,1.2666736E3,2.0783166E4,6.1169844E3,5.3983833E3,3.88015E2,5.208357E2,2.703425E2,6.3133594E3,7.2933914E1,9.72815E3,4.0582317E3,6.4768115E2,6.189925E2,1.4543729E4,6.2394375E3,4.2004214E3,1.9165629E3,4.0846443E3,1.3137391E3,3.0617117E2,8.1843834E1],"tree_param":{"num_deleted":"0","num_feature":"39","num_nodes":"31","size_leaf_vector":"1"}},{"base_weights":[-3.735578E-4,-9.385157E-2,8.091498E-2,-1.6846316E-1,-5.112139E-2,5.620553E-2,2.2851273E-1,-2.8470796E-1,-1.4611216E-1,-7.476276E-2,4.3108813E-3,2.852957E-2,1.3024881E-1,2.5045004E-1,1.3093995E-4,-2.363118E-2,3.6506142E-2,-1.2330038E-2,-4.911191E-3,-2.3721585E-3,-7.838597E-3,1.9688869E-2,-4.6781983E-4,9.768498E-5,4.582984E-3,8.301925E-3,1.821359E-2,5.100276E-2,1.8975507E-2,-7.481799E-3,8.93823E-3],"categories":[],"categories_nodes":[],"categories_segments":[],"categories_sizes":[],"default_left":[0,0,0,0,0,0,0,0,0,0,0,0,0,0,0,0,0,0,0,0,0,0,0,0,0,0,0,0,0,0,0],"id":19,"left_children":[1,3,5,7,9,11,13,15,17,19,21,23,25,27,29,-1,-1,-1,-1,-1,-1,-1,-1,-1,-1,-1,-1,-1,-1,-1,-1],"loss_changes":[4.1534415E2,8.104254E1,1.0661499E2,2.4022888E1,2.121201E1,5.1319542E1,2.095192E1,1.208358E1,5.2473755E0,1.1866505E1,1.2017501E1,1.4317471E1,1.7557175E1,1.9536057E1,3.9528923E0,0E0,0E0,0E0,0E0,0E0,0E0,0E0,0E0,0E0,0E0,0E0,0E0,0E0,0E0,0E0,0E0],"parents":[2147483647,0,0,1,1,2,2,3,3,4,4,5,5,6,6,7,7,8,8,9,9,10,10,11,11,12,12,13,13,14,14],"right_children":[2,4,6,8,10,12,14,16,18,20,22,24,26,28,30,-1,-1,-1,-1,-1,-1,-1,-1,-1,-1,-1,-1,-1,-1,-1,-1],"split_conditions":[1.0335717E0,-1.3843227E2,4.37E0,7.741197E-1,1.9125E0,1.1961145E0,4E-1,6.666667E-1,2.6E1,1.0666667E0,-3.2E0,1.87E0,3E0,-8.5E0,1.1E1,-2.363118E-2,3.6506142E-2,-1.2330038E-2,-4.911191E-3,-2.3721585E-3,-7.838597E-3,1.9688869E-2,-4.6781983E-4,9.768498E-5,4.582984E-3,8.301925E-3,1.821359E-2,5.100276E-2,1.8975507E-2,-7.481799E-3,8.93823E-3],"split_indices":[3,2,37,3,37,3,31,30,32,14,16,37,33,16,7,0,0,0,0,0,0,0,0,0,0,0,0,0,0,0,0],"split_type":[0,0,0,0,0,0,0,0,0,0,0,0,0,0,0,0,0,0,0,0,0,0,0,0,0,0,0,0,0,0,0],"sum_hessian":[5.4648445E4,2.5419508E4,2.9228936E4,9.253774E3,1.6165734E4,2.5039748E4,4.1891875E3,1.4889967E3,7.764778E3,1.1334802E4,4.8309326E3,1.8229861E4,6.809887E3,3.8211707E3,3.680167E2,1.4686973E3,2.0299536E1,7.0909165E3,6.738614E2,3.855432E3,7.4793696E3,1.9463394E2,4.6362983E3,9.354639E3,8.875223E3,5.357951E3,1.4519362E3,1.2446874E2,3.696702E3,1.9920847E2,1.6880823E2],"tree_param":{"num_deleted":"0","num_feature":"39","num_nodes":"31","size_leaf_vector":"1"}},{"base_weights":[-6.331337E-4,-9.994212E-2,7.067373E-2,-1.9842786E-1,-6.9922455E-2,3.0275581E-2,1.5329345E-1,-3.6527905E-1,-1.813482E-1,-7.639648E-2,9.694934E-2,-8.916084E-3,7.496362E-2,2.2568248E-2,1.8235254E-1,-1.332516E-2,-3.0581297E-2,-1.5912168E-2,-6.1642462E-3,5.5999998E-2,-6.165999E-3,3.3378147E-3,3.4478333E-2,-1.039158E-3,3.6007352E-2,4.6855016E-3,1.30980965E-2,2.45125E-2,9.901524E-4,4.9435455E-2,1.3998669E-2],"categories":[],"categories_nodes":[],"categories_segments":[],"categories_sizes":[],"default_left":[0,0,0,0,0,0,0,0,0,0,0,0,0,0,0,0,0,0,0,0,0,0,0,0,0,0,0,0,0,0,0],"id":20,"left_children":[1,3,5,7,9,11,13,15,17,19,21,23,25,27,29,-1,-1,-1,-1,-1,-1,-1,-1,-1,-1,-1,-1,-1,-1,-1,-1],"loss_changes":[3.86679E2,6.746214E1,1.0606247E2,1.5148315E1,1.894059E1,3.7417103E1,3.9608612E1,1.5631866E0,8.82222E0,1.0675316E1,1.2075148E1,2.1358406E1,1.452124E1,5.5465193E0,2.7372314E1,0E0,0E0,0E0,0E0,0E0,0E0,0E0,0E0,0E0,0E0,0E0,0E0,0E0,0E0,0E0,0E0],"parents":[2147483647,0,0,1,1,2,2,3,3,4,4,5,5,6,6,7,7,8,8,9,9,10,10,11,11,12,12,13,13,14,14],"right_children":[2,4,6,8,10,12,14,16,18,20,22,24,26,28,30,-1,-1,-1,-1,-1,-1,-1,-1,-1,-1,-1,-1,-1,-1,-1,-1],"split_conditions":[1.0185827E0,-2.1767075E2,2E0,-5.3041473E2,2.625E0,1.11921E0,5E-1,1.25E0,1.5E1,1E-1,1.2666667E0,2.47E2,2.6E0,2.5E-1,-8.5E0,-1.332516E-2,-3.0581297E-2,-1.5912168E-2,-6.1642462E-3,5.5999998E-2,-6.165999E-3,3.3378147E-3,3.4478333E-2,-1.039158E-3,3.6007352E-2,4.6855016E-3,1.30980965E-2,2.45125E-2,9.901524E-4,4.9435455E-2,1.3998669E-2],"split_indices":[3,2,28,2,18,3,30,23,32,13,14,9,33,23,16,0,0,0,0,0,0,0,0,0,0,0,0,0,0,0,0],"split_type":[0,0,0,0,0,0,0,0,0,0,0,0,0,0,0,0,0,0,0,0,0,0,0,0,0,0,0,0,0,0,0],"sum_hessian":[5.4592363E4,2.2817232E4,3.1775129E4,5.327381E3,1.7489852E4,2.1342957E4,1.0432172E4,4.9171524E2,4.835666E3,1.6838326E4,6.5152563E2,1.136879E4,9.974168E3,1.8988167E3,8.5333545E3,4.050219E1,4.5121304E2,4.1366084E3,6.9905725E2,1.0904038E1,1.6827422E4,5.6056805E2,9.095758E1,1.1270182E4,9.8607956E1,8.422421E3,1.5517468E3,6.412719E1,1.8346895E3,1.4013284E2,8.393222E3],"tree_param":{"num_deleted":"0","num_feature":"39","num_nodes":"31","size_leaf_vector":"1"}},{"base_weights":[-7.330478E-5,-1.1289944E-1,5.894144E-2,-2.3300207E-1,-9.058042E-2,2.281555E-2,1.5487991E-1,-3.7540388E-1,-2.0469457E-1,-1.2131981E-1,-6.270585E-2,-5.146374E-3,8.397265E-2,1.4114109E-1,4.4811577E-1,-3.0422037E-2,8.1226334E-4,-1.6976725E-2,1.328821E-2,-1.0907569E-2,-6.6051637E-3,-5.730335E-3,4.3441188E-3,-8.017749E-4,2.7772687E-2,5.776259E-3,1.600852E-2,1.9092942E-2,9.141632E-3,1.9535165E-2,4.671904E-2],"categories":[],"categories_nodes":[],"categories_segments":[],"categories_sizes":[],"default_left":[0,0,0,0,0,0,0,0,0,0,0,0,0,0,0,0,0,0,0,0,0,0,0,0,0,0,0,0,0,0,0],"id":21,"left_children":[1,3,5,7,9,11,13,15,17,19,21,23,25,27,29,-1,-1,-1,-1,-1,-1,-1,-1,-1,-1,-1,-1,-1,-1,-1,-1],"loss_changes":[3.6346265E2,5.0242325E1,1.2419511E2,1.177832E1,1.35392E1,4.4560097E1,3.947374E1,9.936676E-1,6.9458847E0,4.359253E0,8.695015E0,3.0761879E1,1.1173725E1,2.4523178E1,1.19657135E1,0E0,0E0,0E0,0E0,0E0,0E0,0E0,0E0,0E0,0E0,0E0,0E0,0E0,0E0,0E0,0E0],"parents":[2147483647,0,0,1,1,2,2,3,3,4,4,5,5,6,6,7,7,8,8,9,9,10,10,11,11,12,12,13,13,14,14],"right_children":[2,4,6,8,10,12,14,16,18,20,22,24,26,28,30,-1,-1,-1,-1,-1,-1,-1,-1,-1,-1,-1,-1,-1,-1,-1,-1],"split_conditions":[-1.3239017E1,-2.9474365E2,2E0,-5.3041473E2,-1.16158005E2,2.1544498E2,6.5E0,1.7142857E0,6.666667E-1,4.6E1,2.5E0,3.45E2,3.2E0,1E0,5E-1,-3.0422037E-2,8.1226334E-4,-1.6976725E-2,1.328821E-2,-1.0907569E-2,-6.6051637E-3,-5.730335E-3,4.3441188E-3,-8.017749E-4,2.7772687E-2,5.776259E-3,1.600852E-2,1.9092942E-2,9.141632E-3,1.9535165E-2,4.671904E-2],"split_indices":[2,2,18,2,2,2,33,12,30,7,22,7,33,32,27,0,0,0,0,0,0,0,0,0,0,0,0,0,0,0,0],"split_type":[0,0,0,0,0,0,0,0,0,0,0,0,0,0,0,0,0,0,0,0,0,0,0,0,0,0,0,0,0,0,0],"sum_hessian":[5.45731E4,1.874271E4,3.583039E4,2.9343027E3,1.5808407E4,2.6031488E4,9.798904E3,4.8336954E2,2.450933E3,7.512871E3,8.295536E3,1.786225E4,8.169238E3,9.362414E3,4.364893E2,4.7786404E2,5.5054946E0,2.4031975E3,4.7735737E1,5.408429E3,2.1044417E3,7.709671E3,5.858657E2,1.7619934E4,2.4231622E2,7.420557E3,7.486809E2,2.0191326E3,7.3432817E3,1.7624223E2,2.6024704E2],"tree_param":{"num_deleted":"0","num_feature":"39","num_nodes":"31","size_leaf_vector":"1"}},{"base_weights":[1.6314152E-3,-6.418924E-2,9.540842E-2,-1.5115188E-1,-2.9305883E-2,7.537137E-2,2.4507858E-1,-2.8818482E-1,-1.3254963E-1,-3.818511E-2,1.4813013E-1,6.241603E-2,2.0442373E-1,2.184273E-1,5.0209516E-1,1.3654702E-2,-2.4414243E-2,-1.0812326E-2,2.2505362E-2,-1.3239082E-3,-7.040633E-3,9.272134E-3,4.6112902E-2,3.2990782E-3,9.010723E-3,7.2352556E-3,2.4156777E-2,1.6928537E-2,5.5999998E-2,2.3830792E-2,5.2872814E-2],"categories":[],"categories_nodes":[],"categories_segments":[],"categories_sizes":[],"default_left":[0,0,0,0,0,0,0,0,0,0,0,0,0,0,0,0,0,0,0,0,0,0,0,0,0,0,0,0,0,0,0],"id":22,"left_children":[1,3,5,7,9,11,13,15,17,19,21,23,25,27,29,-1,-1,-1,-1,-1,-1,-1,-1,-1,-1,-1,-1,-1,-1,-1,-1],"loss_changes":[3.3769498E2,9.750069E1,6.766327E1,2.3435242E1,3.618935E1,3.327973E1,1.8170547E1,8.711113E0,8.8563385E0,2.3557207E1,1.5090834E1,1.9235909E1,2.0131157E1,1.2606148E1,7.857353E0,0E0,0E0,0E0,0E0,0E0,0E0,0E0,0E0,0E0,0E0,0E0,0E0,0E0,0E0,0E0,0E0],"parents":[2147483647,0,0,1,1,2,2,3,3,4,4,5,5,6,6,7,7,8,8,9,9,10,10,11,11,12,12,13,13,14,14],"right_children":[2,4,6,8,10,12,14,16,18,20,22,24,26,28,30,-1,-1,-1,-1,-1,-1,-1,-1,-1,-1,-1,-1,-1,-1,-1,-1],"split_conditions":[1.0830843E0,-1.331009E2,3.3333333E0,7.586436E-1,2.625E0,3.4E0,9.666667E0,5.3333336E-1,3.8333333E0,1E0,5.6E0,3.1055133E2,5E-1,2.6E0,1.6666667E-1,1.3654702E-2,-2.4414243E-2,-1.0812326E-2,2.2505362E-2,-1.3239082E-3,-7.040633E-3,9.272134E-3,4.6112902E-2,3.2990782E-3,9.010723E-3,7.2352556E-3,2.4156777E-2,1.6928537E-2,5.5999998E-2,2.3830792E-2,5.2872814E-2],"split_indices":[3,2,33,3,18,28,33,19,18,5,35,2,20,17,15,0,0,0,0,0,0,0,0,0,0,0,0,0,0,0,0],"split_type":[0,0,0,0,0,0,0,0,0,0,0,0,0,0,0,0,0,0,0,0,0,0,0,0,0,0,0,0,0,0,0],"sum_hessian":[5.4696676E4,3.2137814E4,2.2558861E4,9.198157E3,2.2939656E4,1.9897879E4,2.660983E3,1.09639E3,8.1017676E3,2.1848242E4,1.0914147E3,1.8085355E4,1.8125238E3,2.4133582E3,2.4762465E2,3.8409267E1,1.0579807E3,8.0522515E3,4.951609E1,1.5236794E4,6.6114478E3,1.0166487E3,7.476593E1,1.2724909E4,5.360446E3,8.3762823E2,9.7489557E2,2.4013098E3,1.204847E1,1.1013895E2,1.374857E2],"tree_param":{"num_deleted":"0","num_feature":"39","num_nodes":"31","size_leaf_vector":"1"}},{"base_weights":[9.254312E-4,-1.0723476E-1,5.4625463E-2,-2.1874842E-1,-8.273132E-2,2.3119563E-2,1.4843237E-1,-2.2482206E-1,2.9788354E-1,-6.3102804E-2,-1.3146695E-1,-9.29092E-3,7.286826E-2,1.2865119E-1,3.1576023E-1,-2.7737955E-2,-1.6394572E-2,4.834867E-2,-5.469974E-3,5.5999998E-2,-5.2452534E-3,-1.9259732E-2,-9.105671E-3,-1.204322E-3,2.9833956E-2,4.889027E-3,1.3213116E-2,1.659623E-3,1.2082603E-2,1.5650047E-2,3.2154396E-2],"categories":[],"categories_nodes":[],"categories_segments":[],"categories_sizes":[],"default_left":[0,0,0,0,0,0,0,0,0,0,0,0,0,0,0,0,0,0,0,0,0,0,0,0,0,0,0,0,0,0,0],"id":23,"left_children":[1,3,5,7,9,11,13,15,17,19,21,23,25,27,29,-1,-1,-1,-1,-1,-1,-1,-1,-1,-1,-1,-1,-1,-1,-1,-1],"loss_changes":[3.1881293E2,4.974794E1,1.0839899E2,1.04591675E1,1.427935E1,4.430736E1,3.0502686E1,7.8067627E0,4.5790052E0,2.222754E1,8.249519E0,3.670361E1,1.1760319E1,1.9896759E1,9.985565E0,0E0,0E0,0E0,0E0,0E0,0E0,0E0,0E0,0E0,0E0,0E0,0E0,0E0,0E0,0E0,0E0],"parents":[2147483647,0,0,1,1,2,2,3,3,4,4,5,5,6,6,7,7,8,8,9,9,10,10,11,11,12,12,13,13,14,14],"right_children":[2,4,6,8,10,12,14,16,18,20,22,24,26,28,30,-1,-1,-1,-1,-1,-1,-1,-1,-1,-1,-1,-1,-1,-1,-1,-1],"split_conditions":[-3.788297E-2,8.3716816E-1,2.1E0,3.6666667E0,1E0,1.1227744E0,4.75E0,-1.3260368E0,4E0,1E-1,-4.9389255E-1,3.45E2,1.6666666E0,5E-1,5E-1,-2.7737955E-2,-1.6394572E-2,4.834867E-2,-5.469974E-3,5.5999998E-2,-5.2452534E-3,-1.9259732E-2,-9.105671E-3,-1.204322E-3,2.9833956E-2,4.889027E-3,1.3213116E-2,1.659623E-3,1.2082603E-2,1.5650047E-2,3.2154396E-2],"split_indices":[4,3,18,18,5,3,33,4,13,19,4,7,11,30,27,0,0,0,0,0,0,0,0,0,0,0,0,0,0,0,0],"split_type":[0,0,0,0,0,0,0,0,0,0,0,0,0,0,0,0,0,0,0,0,0,0,0,0,0,0,0,0,0,0,0],"sum_hessian":[5.4878812E4,1.8205465E4,3.6673348E4,3.27681E3,1.4928654E4,2.7455537E4,9.217812E3,3.2396755E3,3.713439E1,1.0646942E4,4.2817114E3,1.6622824E4,1.0832713E4,8.245954E3,9.7185767E2,4.5072958E2,2.788946E3,2.016056E1,1.6973831E1,2.9640316E1,1.0617302E4,5.919384E2,3.689773E3,1.6377368E4,2.454568E2,9.612259E3,1.2204545E3,1.4183953E3,6.8275586E3,4.082634E2,5.635943E2],"tree_param":{"num_deleted":"0","num_feature":"39","num_nodes":"31","size_leaf_vector":"1"}},{"base_weights":[-1.5820095E-3,-6.2189735E-2,8.4896885E-2,-1.4526813E-1,-3.002049E-2,6.2097788E-2,1.9069918E-1,-3.1587267E-1,-1.3126387E-1,3.995507E-2,-4.9385395E-2,4.3679204E-2,1.5106402E-1,6.1325878E-2,2.2252613E-1,-2.6917852E-2,-6.6381563E-3,-1.633913E-2,-9.553155E-3,1.6797171E-3,3.1878844E-2,-2.6477268E-3,-7.091761E-3,1.9932974E-3,7.835365E-3,1.125971E-2,4.583887E-2,3.51034E-5,1.6427053E-2,2.2070094E-3,2.0368485E-2],"categories":[],"categories_nodes":[],"categories_segments":[],"categories_sizes":[],"default_left":[0,0,0,0,0,0,0,0,0,0,0,0,0,0,0,0,0,0,0,0,0,0,0,0,0,0,0,0,0,0,0],"id":24,"left_children":[1,3,5,7,9,11,13,15,17,19,21,23,25,27,29,-1,-1,-1,-1,-1,-1,-1,-1,-1,-1,-1,-1,-1,-1,-1,-1],"loss_changes":[2.8670465E2,8.594664E1,5.4361954E1,2.1430252E1,3.1443113E1,3.0391586E1,1.640805E1,3.187111E0,7.1615143E0,3.4205288E1,1.1616222E1,1.5648529E1,1.3836723E1,6.952235E0,1.9990585E1,0E0,0E0,0E0,0E0,0E0,0E0,0E0,0E0,0E0,0E0,0E0,0E0,0E0,0E0,0E0,0E0],"parents":[2147483647,0,0,1,1,2,2,3,3,4,4,5,5,6,6,7,7,8,8,9,9,10,10,11,11,12,12,13,13,14,14],"right_children":[2,4,6,8,10,12,14,16,18,20,22,24,26,28,30,-1,-1,-1,-1,-1,-1,-1,-1,-1,-1,-1,-1,-1,-1,-1,-1],"split_conditions":[1.0848956E0,-1.331009E2,4.37E0,-4.717424E2,2E0,1.288707E0,2.5E1,1.4536237E3,-2.1E0,2.8E0,1E0,1.6666666E0,6.4E0,1.8299951E3,1.3857057E3,-2.6917852E-2,-6.6381563E-3,-1.633913E-2,-9.553155E-3,1.6797171E-3,3.1878844E-2,-2.6477268E-3,-7.091761E-3,1.9932974E-3,7.835365E-3,1.125971E-2,4.583887E-2,3.51034E-5,1.6427053E-2,2.2070094E-3,2.0368485E-2],"split_indices":[3,2,37,2,32,3,6,0,35,35,5,33,33,0,0,0,0,0,0,0,0,0,0,0,0,0,0,0,0,0,0],"split_type":[0,0,0,0,0,0,0,0,0,0,0,0,0,0,0,0,0,0,0,0,0,0,0,0,0,0,0,0,0,0,0],"sum_hessian":[5.4688934E4,3.2155627E4,2.2533305E4,8.972932E3,2.3182695E4,1.8541348E4,3.9919558E3,6.779596E2,8.294973E3,5.022474E3,1.816022E4,1.5364245E4,3.1771035E3,7.8998E2,3.2019758E3,6.216673E2,5.6292328E1,1.1541257E3,7.1408467E3,4.7717656E3,2.5070811E2,1.2840082E4,5.3201396E3,1.1420437E4,3.9438083E3,3.1030298E3,7.407362E1,5.5691376E2,2.3306624E2,4.5361444E2,2.7483613E3],"tree_param":{"num_deleted":"0","num_feature":"39","num_nodes":"31","size_leaf_vector":"1"}},{"base_weights":[1.4143841E-3,-9.5369264E-2,5.4193135E-2,-1.9726941E-1,-7.5077444E-2,2.1913135E-2,1.3004787E-1,-3.5410607E-1,-1.7255718E-1,-1.0307747E-1,-4.082907E-2,-1.5025109E-2,5.001048E-2,1.636424E-1,3.2201674E-2,-2.8753716E-2,3.5704356E-3,-1.4519819E-2,1.4298186E-2,-6.8100314E-3,-1.1830661E-2,-5.11397E-3,7.534196E-4,7.427705E-4,-5.5376324E-3,3.8859306E-3,5.5999998E-2,4.6054474E-3,1.5579148E-2,-5.749611E-4,1.0115727E-2],"categories":[],"categories_nodes":[],"categories_segments":[],"categories_sizes":[],"default_left":[0,0,0,0,0,0,0,0,0,0,0,0,0,0,0,0,0,0,0,0,0,0,0,0,0,0,0,0,0,0,0],"id":25,"left_children":[1,3,5,7,9,11,13,15,17,19,21,23,25,27,29,-1,-1,-1,-1,-1,-1,-1,-1,-1,-1,-1,-1,-1,-1,-1,-1],"loss_changes":[2.7887247E2,3.982759E1,8.64981E1,1.2353401E1,1.5400551E1,2.574514E1,3.46362E1,1.0167465E0,8.789719E0,7.0993805E0,8.416241E0,1.4140467E1,1.5879524E1,2.585527E1,1.0078201E1,0E0,0E0,0E0,0E0,0E0,0E0,0E0,0E0,0E0,0E0,0E0,0E0,0E0,0E0,0E0,0E0],"parents":[2147483647,0,0,1,1,2,2,3,3,4,4,5,5,6,6,7,7,8,8,9,9,10,10,11,11,12,12,13,13,14,14],"right_children":[2,4,6,8,10,12,14,16,18,20,22,24,26,28,30,-1,-1,-1,-1,-1,-1,-1,-1,-1,-1,-1,-1,-1,-1,-1,-1],"split_conditions":[1.4747456E-2,8.3716816E-1,2.9142857E0,-5.3041473E2,1.2E0,1.0830843E0,9E0,1.7142857E0,3E0,1E0,5E-1,1E0,3.3333333E0,2.5E1,3.1055133E2,-2.8753716E-2,3.5704356E-3,-1.4519819E-2,1.4298186E-2,-6.8100314E-3,-1.1830661E-2,-5.11397E-3,7.534196E-4,7.427705E-4,-5.5376324E-3,3.8859306E-3,5.5999998E-2,4.6054474E-3,1.5579148E-2,-5.749611E-4,1.0115727E-2],"split_indices":[2,3,37,2,18,3,32,12,18,5,30,5,17,6,2,0,0,0,0,0,0,0,0,0,0,0,0,0,0,0,0],"split_type":[0,0,0,0,0,0,0,0,0,0,0,0,0,0,0,0,0,0,0,0,0,0,0,0,0,0,0,0,0,0,0],"sum_hessian":[5.4581957E4,1.9259688E4,3.5322273E4,3.195277E3,1.6064409E4,2.4780746E4,1.0541526E4,4.320216E2,2.7632556E3,8.83414E3,7.23027E3,1.0703158E4,1.4077588E4,7.845227E3,2.696299E3,4.269305E2,5.091074E0,2.6956997E3,6.755578E1,6.3123647E3,2.5217744E3,4.955994E3,2.274276E3,7.3868604E3,3.3162976E3,1.4054147E4,2.3439594E1,1.7806305E3,6.0645967E3,1.9007161E3,7.9558295E2],"tree_param":{"num_deleted":"0","num_feature":"39","num_nodes":"31","size_leaf_vector":"1"}},{"base_weights":[8.1951695E-4,-9.887607E-2,4.74034E-2,-1.9893816E-1,-7.7672586E-2,2.5340535E-2,1.4690761E-1,-2.0827077E-1,2.240774E-1,-7.9369925E-2,4.8123655E-1,-8.337967E-3,7.0636794E-2,1.1904945E-1,2.5239813E-1,-2.7147934E-2,-1.4966391E-2,-0E0,5.5999998E-2,-5.017379E-3,-9.698125E-3,3.972262E-3,5.5999998E-2,6.0075126E-3,-1.527695E-3,5.371911E-3,2.3016404E-2,8.039041E-3,2.3778278E-2,1.838755E-2,5.5999998E-2],"categories":[],"categories_nodes":[],"categories_segments":[],"categories_sizes":[],"default_left":[0,0,0,0,0,0,0,0,0,0,0,0,0,0,0,0,0,0,0,0,0,0,0,0,0,0,0,0,0,0,0],"id":26,"left_children":[1,3,5,7,9,11,13,15,17,19,21,23,25,27,29,-1,-1,-1,-1,-1,-1,-1,-1,-1,-1,-1,-1,-1,-1,-1,-1],"loss_changes":[2.537663E2,3.6909576E1,8.175505E1,1.2136314E1,1.3771721E1,4.6532043E1,1.9839172E1,8.221664E0,8.743902E0,9.975784E0,6.788455E0,1.5714493E1,9.866432E0,1.7688637E1,1.8251534E1,0E0,0E0,0E0,0E0,0E0,0E0,0E0,0E0,0E0,0E0,0E0,0E0,0E0,0E0,0E0,0E0],"parents":[2147483647,0,0,1,1,2,2,3,3,4,4,5,5,6,6,7,7,8,8,9,9,10,10,11,11,12,12,13,13,14,14],"right_children":[2,4,6,8,10,12,14,16,18,20,22,24,26,28,30,-1,-1,-1,-1,-1,-1,-1,-1,-1,-1,-1,-1,-1,-1,-1,-1],"split_conditions":[-1.8822777E1,8.3716816E-1,2.6E0,3E0,5.6E0,1.1210141E0,1.3919806E0,-5.3041473E2,1.25E0,1E0,4E0,1E0,3E0,5.8E0,1.4333333E0,-2.7147934E-2,-1.4966391E-2,-0E0,5.5999998E-2,-5.017379E-3,-9.698125E-3,3.972262E-3,5.5999998E-2,6.0075126E-3,-1.527695E-3,5.371911E-3,2.3016404E-2,8.039041E-3,2.3778278E-2,1.838755E-2,5.5999998E-2],"split_indices":[2,3,28,18,18,3,3,2,27,5,8,32,27,18,29,0,0,0,0,0,0,0,0,0,0,0,0,0,0,0,0],"split_type":[0,0,0,0,0,0,0,0,0,0,0,0,0,0,0,0,0,0,0,0,0,0,0,0,0,0,0,0,0,0,0],"sum_hessian":[5.4629145E4,1.739537E4,3.7233773E4,3.0384934E3,1.4356875E4,3.0478994E4,6.75478E3,2.9738643E3,6.4629295E1,1.4314619E4,4.225592E1,1.7479273E4,1.2999722E4,5.346808E3,1.4079718E3,4.1046127E2,2.5634028E3,4.8108154E1,1.652114E1,1.0245655E4,4.068964E3,2.1511381E1,2.074454E1,1.993644E3,1.5485629E4,1.2796337E4,2.0338423E2,4.844798E3,5.0201038E2,1.3608615E3,4.7110397E1],"tree_param":{"num_deleted":"0","num_feature":"39","num_nodes":"31","size_leaf_vector":"1"}},{"base_weights":[3.3531422E-4,-7.198855E-2,5.794011E-2,-1.464925E-1,-4.3727014E-2,2.8233707E-2,1.1993178E-1,-2.6149642E-1,-1.2615779E-1,-6.679065E-2,-8.592E-5,-3.105533E-3,4.9208242E-2,2.5178872E-2,1.491828E-1,1.1506334E-2,-2.2134192E-2,-8.697193E-3,-1.4384105E-2,-3.983665E-3,-8.731412E-3,1.4513812E-2,-1.6334399E-3,1.5351019E-3,-4.4856537E-3,3.785481E-3,5.5999998E-2,-1.0841939E-3,8.151979E-3,5.701496E-3,1.4554787E-2],"categories":[],"categories_nodes":[],"categories_segments":[],"categories_sizes":[],"default_left":[0,0,0,0,0,0,0,0,0,0,0,0,0,0,0,0,0,0,0,0,0,0,0,0,0,0,0,0,0,0,0],"id":27,"left_children":[1,3,5,7,9,11,13,15,17,19,21,23,25,27,29,-1,-1,-1,-1,-1,-1,-1,-1,-1,-1,-1,-1,-1,-1,-1,-1],"loss_changes":[2.2869681E2,5.1233284E1,5.6264214E1,1.5628128E1,1.7753769E1,1.3597523E1,2.7407715E1,6.299118E0,5.309204E0,8.305496E0,2.257917E1,9.813756E0,1.6993866E1,6.9991755E0,1.9267136E1,0E0,0E0,0E0,0E0,0E0,0E0,0E0,0E0,0E0,0E0,0E0,0E0,0E0,0E0,0E0,0E0],"parents":[2147483647,0,0,1,1,2,2,3,3,4,4,5,5,6,6,7,7,8,8,9,9,10,10,11,11,12,12,13,13,14,14],"right_children":[2,4,6,8,10,12,14,16,18,20,22,24,26,28,30,-1,-1,-1,-1,-1,-1,-1,-1,-1,-1,-1,-1,-1,-1,-1,-1],"split_conditions":[1.0348355E0,-1.7333296E2,2.97E0,7.586436E-1,5E-1,1.101689E0,2.5E1,5.3333336E-1,1E0,1E0,5.3333336E-1,1E0,3.2857144E0,1.5E0,2E0,1.1506334E-2,-2.2134192E-2,-8.697193E-3,-1.4384105E-2,-3.983665E-3,-8.731412E-3,1.4513812E-2,-1.6334399E-3,1.5351019E-3,-4.4856537E-3,3.785481E-3,5.5999998E-2,-1.0841939E-3,8.151979E-3,5.701496E-3,1.4554787E-2],"split_indices":[3,2,37,3,30,3,6,19,5,5,19,5,17,33,28,0,0,0,0,0,0,0,0,0,0,0,0,0,0,0,0],"split_type":[0,0,0,0,0,0,0,0,0,0,0,0,0,0,0,0,0,0,0,0,0,0,0,0,0,0,0,0,0,0,0],"sum_hessian":[5.487959E4,2.4329605E4,3.0549982E4,6.687788E3,1.7641818E4,2.0656209E4,9.893772E3,1.0015849E3,5.686203E3,1.1538688E4,6.1031294E3,8.278359E3,1.2377851E4,2.3358728E3,7.5579E3,3.5377354E1,9.662076E2,4.296045E3,1.390158E3,8.239338E3,3.2993506E3,6.129996E2,5.49013E3,5.8238306E3,2.4545293E3,1.2347316E4,3.0533583E1,1.5510612E3,7.8481177E2,2.2395347E3,5.318365E3],"tree_param":{"num_deleted":"0","num_feature":"39","num_nodes":"31","size_leaf_vector":"1"}},{"base_weights":[-1.5903162E-4,-8.735981E-2,4.2013153E-2,-1.9212878E-1,-6.616366E-2,1.7121607E-2,1.0915049E-1,-2.0047185E-1,1.4335537E-1,2.766377E-1,-6.8603225E-2,3.6200874E-2,-3.3312447E-2,1.0624849E-1,7E-1,-2.6504917E-2,-1.4070342E-2,1.4476177E-3,5.5999998E-2,5.5999998E-2,9.321708E-3,-4.2245355E-3,-8.713666E-3,6.561876E-4,5.319237E-3,-4.159873E-3,2.1482452E-3,1.1455672E-2,4.494071E-3,-0E0,5.5999998E-2],"categories":[],"categories_nodes":[],"categories_segments":[],"categories_sizes":[],"default_left":[0,0,0,0,0,0,0,0,0,0,0,0,0,0,0,0,0,0,0,0,0,0,0,0,0,0,0,0,0,0,0],"id":28,"left_children":[1,3,5,7,9,11,13,15,17,19,21,23,25,27,29,-1,-1,-1,-1,-1,-1,-1,-1,-1,-1,-1,-1,-1,-1,-1,-1],"loss_changes":[2.000665E2,3.9377716E1,6.1265686E1,8.445595E0,1.2424194E1,2.5758366E1,2.1166985E1,9.326485E0,6.222253E0,9.872313E0,9.327576E0,1.6459108E1,8.2748785E0,1.8262627E1,6.5775127E0,0E0,0E0,0E0,0E0,0E0,0E0,0E0,0E0,0E0,0E0,0E0,0E0,0E0,0E0,0E0,0E0],"parents":[2147483647,0,0,1,1,2,2,3,3,4,4,5,5,6,6,7,7,8,8,9,9,10,10,11,11,12,12,13,13,14,14],"right_children":[2,4,6,8,10,12,14,16,18,20,22,24,26,28,30,-1,-1,-1,-1,-1,-1,-1,-1,-1,-1,-1,-1,-1,-1,-1,-1],"split_conditions":[-3.309754E-2,8.3716816E-1,2.2E0,3E0,6.25E-2,1E0,5E0,-2.9E0,-1.5E0,2.5E1,1E0,1.86E0,5.740276E-1,4E0,2.777778E-1,-2.6504917E-2,-1.4070342E-2,1.4476177E-3,5.5999998E-2,5.5999998E-2,9.321708E-3,-4.2245355E-3,-8.713666E-3,6.561876E-4,5.319237E-3,-4.159873E-3,2.1482452E-3,1.1455672E-2,4.494071E-3,-0E0,5.5999998E-2],"split_indices":[4,3,28,18,15,5,21,35,26,6,5,37,4,32,15,0,0,0,0,0,0,0,0,0,0,0,0,0,0,0,0],"split_type":[0,0,0,0,0,0,0,0,0,0,0,0,0,0,0,0,0,0,0,0,0,0,0,0,0,0,0,0,0,0,0],"sum_hessian":[5.4385113E4,1.7729314E4,3.66558E4,2.9803667E3,1.4748947E4,2.6744398E4,9.911401E3,2.9090217E3,7.134512E1,1.028466E2,1.4646101E4,1.9406967E4,7.3374326E3,9.876178E3,3.5223934E1,4.5700702E2,2.4520146E3,6.1750744E1,9.5943775E0,1.8548908E1,8.42977E1,1.0528342E4,4.1177593E3,1.0088979E4,9.317988E3,5.6012715E3,1.7361608E3,5.6795303E3,4.1966475E3,1.3818129E1,2.1405804E1],"tree_param":{"num_deleted":"0","num_feature":"39","num_nodes":"31","size_leaf_vector":"1"}},{"base_weights":[-1.6601897E-4,-8.987289E-2,4.1491438E-2,-2.019027E-1,-7.3658854E-2,-1.7400492E-2,6.761183E-2,-2.1506082E-1,1.9927719E-1,-9.005036E-2,-2.7617821E-2,1.4892436E-3,-6.48066E-2,5.087476E-2,1.7038788E-1,-1.5227339E-2,-2.8670555E-2,-1.5036605E-2,3.661574E-2,-9.581547E-3,-5.562099E-3,4.1288445E-3,-4.738365E-3,-1.3208189E-3,4.17132E-3,-1.3686284E-2,-3.9739786E-3,4.8345344E-5,5.5118E-3,5.5999998E-2,1.3117613E-2],"categories":[],"categories_nodes":[],"categories_segments":[],"categories_sizes":[],"default_left":[0,0,0,0,0,0,0,0,0,0,0,0,0,0,0,0,0,0,0,0,0,0,0,0,0,0,0,0,0,0,0],"id":29,"left_children":[1,3,5,7,9,11,13,15,17,19,21,23,25,27,29,-1,-1,-1,-1,-1,-1,-1,-1,-1,-1,-1,-1,-1,-1,-1,-1],"loss_changes":[2.0384195E2,3.1418106E1,5.730938E1,1.1661781E1,1.1395332E1,1.0276377E1,4.438591E1,7.451889E0,7.263856E0,6.788254E0,9.985704E0,7.49093E0,5.2562065E0,2.00965E1,1.6447083E1,0E0,0E0,0E0,0E0,0E0,0E0,0E0,0E0,0E0,0E0,0E0,0E0,0E0,0E0,0E0,0E0],"parents":[2147483647,0,0,1,1,2,2,3,3,4,4,5,5,6,6,7,7,8,8,9,9,10,10,11,11,12,12,13,13,14,14],"right_children":[2,4,6,8,10,12,14,16,18,20,22,24,26,28,30,-1,-1,-1,-1,-1,-1,-1,-1,-1,-1,-1,-1,-1,-1,-1,-1],"split_conditions":[-1.5153188E1,8.134162E-1,5E-1,2.625E0,1.8E0,1E0,4.9E0,3.2222223E0,3.22E0,9.108856E-1,2E0,1.1130638E0,2.777778E-1,1.44E0,1E-1,-1.5227339E-2,-2.8670555E-2,-1.5036605E-2,3.661574E-2,-9.581547E-3,-5.562099E-3,4.1288445E-3,-4.738365E-3,-1.3208189E-3,4.17132E-3,-1.3686284E-2,-3.9739786E-3,4.8345344E-5,5.5118E-3,5.5999998E-2,1.3117613E-2],"split_indices":[2,3,30,18,37,5,37,13,38,3,32,3,15,37,13,0,0,0,0,0,0,0,0,0,0,0,0,0,0,0,0],"split_type":[0,0,0,0,0,0,0,0,0,0,0,0,0,0,0,0,0,0,0,0,0,0,0,0,0,0,0,0,0,0,0],"sum_hessian":[5.4528906E4,1.729303E4,3.7235875E4,2.1833726E3,1.5109657E4,1.1438629E4,2.5797246E4,2.114967E3,6.840536E1,1.1138747E4,3.97091E3,8.177086E3,3.261543E3,2.218746E4,3.6097847E3,1.8070267E3,3.079403E2,2.7178236E1,4.122712E1,4.5441807E3,6.594567E3,1.1305237E3,2.8403862E3,6.030758E3,2.1463284E3,4.0358942E2,2.8579536E3,5.8585283E3,1.6328934E4,2.6987968E1,3.5827966E3],"tree_param":{"num_deleted":"0","num_feature":"39","num_nodes":"31","size_leaf_vector":"1"}},{"base_weights":[4.883362E-4,-7.631143E-2,4.646552E-2,-1.8146396E-1,-5.8678817E-2,2.9966066E-2,1.5194443E-1,-3.392314E-1,-1.574163E-1,-6.6599704E-2,5.2027397E-2,1.12805985E-1,1.3608094E-2,1.458336E-1,7E-1,-1.2832604E-2,-2.869842E-2,-1.3309581E-2,1.748528E-2,-3.9648744E-3,-8.801027E-3,1.755397E-2,-1.6078646E-3,-7.3002774E-4,1.2174726E-2,-7.754621E-4,4.654092E-3,5.5999998E-2,1.1282151E-2,5.5999998E-2,-1.389014E-4],"categories":[],"categories_nodes":[],"categories_segments":[],"categories_sizes":[],"default_left":[0,0,0,0,0,0,0,0,0,0,0,0,0,0,0,0,0,0,0,0,0,0,0,0,0,0,0,0,0,0,0],"id":30,"left_children":[1,3,5,7,9,11,13,15,17,19,21,23,25,27,29,-1,-1,-1,-1,-1,-1,-1,-1,-1,-1,-1,-1,-1,-1,-1,-1],"loss_changes":[1.9266408E2,3.78798E1,5.940152E1,1.1094292E1,1.5372635E1,4.000253E1,1.824923E1,1.2555847E0,8.689358E0,1.2079277E1,1.4210657E1,2.3405247E1,2.5628933E1,1.613253E1,4.464361E0,0E0,0E0,0E0,0E0,0E0,0E0,0E0,0E0,0E0,0E0,0E0,0E0,0E0,0E0,0E0,0E0],"parents":[2147483647,0,0,1,1,2,2,3,3,4,4,5,5,6,6,7,7,8,8,9,9,10,10,11,11,12,12,13,13,14,14],"right_children":[2,4,6,8,10,12,14,16,18,20,22,24,26,28,30,-1,-1,-1,-1,-1,-1,-1,-1,-1,-1,-1,-1,-1,-1,-1,-1],"split_conditions":[1.011731E0,8.3716816E-1,2.8E0,-5.3041473E2,3.24E0,1E0,2.4285715E0,1.25E0,6.666667E-1,1E0,1.7E0,1.55E0,1.2E0,2E-1,1.9187605E3,-1.2832604E-2,-2.869842E-2,-1.3309581E-2,1.748528E-2,-3.9648744E-3,-8.801027E-3,1.755397E-2,-1.6078646E-3,-7.3002774E-4,1.2174726E-2,-7.754621E-4,4.654092E-3,5.5999998E-2,1.1282151E-2,5.5999998E-2,-1.389014E-4],"split_indices":[3,3,33,2,37,32,17,23,30,5,12,37,33,13,0,0,0,0,0,0,0,0,0,0,0,0,0,0,0,0,0],"split_type":[0,0,0,0,0,0,0,0,0,0,0,0,0,0,0,0,0,0,0,0,0,0,0,0,0,0,0,0,0,0,0],"sum_hessian":[5.454886E4,2.0425434E4,3.412342E4,2.930241E3,1.7495193E4,2.9510453E4,4.6129697E3,3.847329E2,2.545508E3,1.6329073E4,1.1661195E3,4.8633564E3,2.4647098E4,4.572802E3,4.01682E1,3.9742092E1,3.449908E2,2.4873645E3,5.8143547E1,1.1731462E4,4.5976113E3,3.5136465E2,8.147549E2,1.1861675E3,3.6771892E3,1.6182663E4,8.464435E3,2.5117191E1,4.5476846E3,3.1677256E1,8.490946E0],"tree_param":{"num_deleted":"0","num_feature":"39","num_nodes":"31","size_leaf_vector":"1"}},{"base_weights":[-2.3739287E-4,-7.113427E-2,4.5307267E-2,-1.4024845E-1,-4.6296507E-2,2.060349E-2,1.0681713E-1,-3.2510418E-1,-1.2719485E-1,-5.2632514E-2,9.403643E-2,3.8818456E-2,-2.1783585E-2,9.702652E-2,3.301995E-1,-2.8627135E-2,-1.577049E-2,-1.930783E-2,-9.182523E-3,5.5999998E-2,-4.2790347E-3,3.6863324E-3,3.63672E-2,1.7139838E-3,7.1342387E-3,-1.6150979E-4,-5.376259E-3,4.8643756E-3,1.2677514E-2,2.1818617E-2,5.5999998E-2],"categories":[],"categories_nodes":[],"categories_segments":[],"categories_sizes":[],"default_left":[0,0,0,0,0,0,0,0,0,0,0,0,0,0,0,0,0,0,0,0,0,0,0,0,0,0,0,0,0,0,0],"id":31,"left_children":[1,3,5,7,9,11,13,15,17,19,21,23,25,27,29,-1,-1,-1,-1,-1,-1,-1,-1,-1,-1,-1,-1,-1,-1,-1,-1],"loss_changes":[1.7676083E2,3.6750786E1,5.0634193E1,1.3642853E1,1.4042221E1,1.8376633E1,2.0885452E1,1.4664841E0,7.483368E0,1.3668354E1,1.1790019E1,1.4574013E1,6.4176664E0,2.03508E1,1.2080673E1,0E0,0E0,0E0,0E0,0E0,0E0,0E0,0E0,0E0,0E0,0E0,0E0,0E0,0E0,0E0,0E0],"parents":[2147483647,0,0,1,1,2,2,3,3,4,4,5,5,6,6,7,7,8,8,9,9,10,10,11,11,12,12,13,13,14,14],"right_children":[2,4,6,8,10,12,14,16,18,20,22,24,26,28,30,-1,-1,-1,-1,-1,-1,-1,-1,-1,-1,-1,-1,-1,-1,-1,-1],"split_conditions":[1.0185827E0,-1.9049416E2,2.2E0,-5.3041473E2,2.625E0,1.2E1,1.63824E0,2.2222223E0,-2.5E0,1E-1,8E-1,1.6666666E0,1E0,1.32E0,5.6666666E-1,-2.8627135E-2,-1.577049E-2,-1.930783E-2,-9.182523E-3,5.5999998E-2,-4.2790347E-3,3.6863324E-3,3.63672E-2,1.7139838E-3,7.1342387E-3,-1.6150979E-4,-5.376259E-3,4.8643756E-3,1.2677514E-2,2.1818617E-2,5.5999998E-2],"split_indices":[3,2,28,2,18,32,3,17,21,13,30,33,5,38,29,0,0,0,0,0,0,0,0,0,0,0,0,0,0,0,0],"split_type":[0,0,0,0,0,0,0,0,0,0,0,0,0,0,0,0,0,0,0,0,0,0,0,0,0,0,0,0,0,0,0],"sum_hessian":[5.4724113E4,2.1406156E4,3.331796E4,5.6557163E3,1.5750439E4,2.3774258E4,9.543702E3,3.7044952E2,5.285267E3,1.5071991E4,6.784477E2,1.6631861E4,7.1423955E3,9.145207E3,3.984952E2,2.9231696E2,7.813258E1,5.1497675E2,4.77029E3,9.267273E0,1.5062724E4,6.002861E2,7.816163E1,1.2366127E4,4.265735E3,4.9805283E3,2.1618677E3,5.7567217E3,3.388485E3,3.6724377E2,3.125144E1],"tree_param":{"num_deleted":"0","num_feature":"39","num_nodes":"31","size_leaf_vector":"1"}},{"base_weights":[-1.1079862E-3,-7.9780534E-2,3.5252873E-2,-1.7567678E-1,-6.1302416E-2,1.0762777E-2,1.002348E-1,-3.2488427E-1,-1.5386584E-1,2.967416E-1,-6.392632E-2,3.0554123E-2,-3.5201173E-2,7.884285E-2,1.9189826E-1,-2.879921E-2,-1.5586215E-2,-1.3040705E-2,1.512123E-2,1.5338755E-2,5.5999998E-2,-3.987722E-3,-7.9785995E-3,2.893088E-4,4.816291E-3,-1.286467E-3,-6.6445908E-3,6.0504293E-3,4.7772672E-2,1.4361913E-2,5.5999998E-2],"categories":[],"categories_nodes":[],"categories_segments":[],"categories_sizes":[],"default_left":[0,0,0,0,0,0,0,0,0,0,0,0,0,0,0,0,0,0,0,0,0,0,0,0,0,0,0,0,0,0,0],"id":32,"left_children":[1,3,5,7,9,11,13,15,17,19,21,23,25,27,29,-1,-1,-1,-1,-1,-1,-1,-1,-1,-1,-1,-1,-1,-1,-1,-1],"loss_changes":[1.5634216E2,3.0608887E1,5.9467678E1,9.048676E0,1.36996E1,2.4710857E1,2.0048103E1,1.5248756E0,7.740082E0,6.5249414E0,7.2490273E0,1.5155224E1,7.4765882E0,1.3867146E1,1.765142E1,0E0,0E0,0E0,0E0,0E0,0E0,0E0,0E0,0E0,0E0,0E0,0E0,0E0,0E0,0E0,0E0],"parents":[2147483647,0,0,1,1,2,2,3,3,4,4,5,5,6,6,7,7,8,8,9,9,10,10,11,11,12,12,13,13,14,14],"right_children":[2,4,6,8,10,12,14,16,18,20,22,24,26,28,30,-1,-1,-1,-1,-1,-1,-1,-1,-1,-1,-1,-1,-1,-1,-1,-1],"split_conditions":[-3.309754E-2,8.3716816E-1,2.2E0,-1.3260368E0,6.25E-2,4E-1,4.25E0,5.3E1,6.666667E-1,3.65E2,1E0,1.5E0,1E0,5.6E0,-1.4E0,-2.879921E-2,-1.5586215E-2,-1.3040705E-2,1.512123E-2,1.5338755E-2,5.5999998E-2,-3.987722E-3,-7.9785995E-3,2.893088E-4,4.816291E-3,-1.286467E-3,-6.6445908E-3,6.0504293E-3,4.7772672E-2,1.4361913E-2,5.5999998E-2],"split_indices":[4,3,28,4,15,31,28,8,30,7,5,22,5,18,16,0,0,0,0,0,0,0,0,0,0,0,0,0,0,0,0],"split_type":[0,0,0,0,0,0,0,0,0,0,0,0,0,0,0,0,0,0,0,0,0,0,0,0,0,0,0,0,0,0,0],"sum_hessian":[5.4632574E4,1.7270146E4,3.7362426E4,2.7870112E3,1.4483136E4,2.7138742E4,1.0223684E4,3.525015E2,2.4345098E3,1.03996544E2,1.437914E4,1.897367E4,8.165073E3,8.292471E3,1.9312125E3,2.7497296E2,7.752854E1,2.3723584E3,6.2151314E1,9.241093E1,1.1585623E1,1.0326504E4,4.0526355E3,9.945581E3,9.028088E3,5.8380645E3,2.3270085E3,8.242913E3,4.9557167E1,1.9074144E3,2.3798119E1],"tree_param":{"num_deleted":"0","num_feature":"39","num_nodes":"31","size_leaf_vector":"1"}},{"base_weights":[-6.875204E-4,-7.705938E-2,3.3772867E-2,-1.683283E-1,-6.1095484E-2,1.3590856E-2,9.556908E-2,-3.1173822E-1,-1.4511967E-1,-6.330852E-2,2.9627997E-1,8.5738555E-2,-3.4710383E-3,7.898705E-2,1.94729E-1,-7.944335E-3,-2.6810812E-2,8.078372E-3,-1.2667594E-2,-3.853656E-3,-8.101845E-3,2.452809E-3,5.5999998E-2,1.1638649E-4,1.0065907E-2,9.673598E-4,-3.5833016E-3,3.0835797E-3,8.4515745E-3,5.5999998E-2,1.4711519E-2],"categories":[],"categories_nodes":[],"categories_segments":[],"categories_sizes":[],"default_left":[0,0,0,0,0,0,0,0,0,0,0,0,0,0,0,0,0,0,0,0,0,0,0,0,0,0,0,0,0,0,0],"id":33,"left_children":[1,3,5,7,9,11,13,15,17,19,21,23,25,27,29,-1,-1,-1,-1,-1,-1,-1,-1,-1,-1,-1,-1,-1,-1,-1,-1],"loss_changes":[1.438881E2,2.4766098E1,4.6973175E1,8.3914795E0,1.1534115E1,3.4995373E1,1.5240845E1,1.6685219E0,7.1638336E0,8.264111E0,1.0696731E1,1.834385E1,1.4793023E1,8.557472E0,9.617973E0,0E0,0E0,0E0,0E0,0E0,0E0,0E0,0E0,0E0,0E0,0E0,0E0,0E0,0E0,0E0,0E0],"parents":[2147483647,0,0,1,1,2,2,3,3,4,4,5,5,6,6,7,7,8,8,9,9,10,10,11,11,12,12,13,13,14,14],"right_children":[2,4,6,8,10,12,14,16,18,20,22,24,26,28,30,-1,-1,-1,-1,-1,-1,-1,-1,-1,-1,-1,-1,-1,-1,-1,-1],"split_conditions":[-1.5153188E1,-2.8883246E2,1.8E0,-5.3041473E2,4.7E0,1E0,4.75E0,1.25E0,5.3333336E-1,1E0,3.22E0,1.71E0,1E0,1.6E0,4.4444445E-1,-7.944335E-3,-2.6810812E-2,8.078372E-3,-1.2667594E-2,-3.853656E-3,-8.101845E-3,2.452809E-3,5.5999998E-2,1.1638649E-4,1.0065907E-2,9.673598E-4,-3.5833016E-3,3.0835797E-3,8.4515745E-3,5.5999998E-2,1.4711519E-2],"split_indices":[2,2,33,2,18,32,33,23,29,5,38,37,5,18,12,0,0,0,0,0,0,0,0,0,0,0,0,0,0,0,0],"split_type":[0,0,0,0,0,0,0,0,0,0,0,0,0,0,0,0,0,0,0,0,0,0,0,0,0,0,0,0,0,0,0],"sum_hessian":[5.4650777E4,1.699365E4,3.765713E4,2.5265823E3,1.4467068E4,2.8389775E4,9.2673545E3,3.4900058E2,2.1775815E3,1.4379407E4,8.766145E1,5.431195E3,2.295858E4,7.9429126E3,1.3244414E3,3.5992912E1,3.1300766E2,1.09944565E2,2.067637E3,1.0285678E4,4.0937292E3,5.6462017E1,3.1199432E1,1.7524663E3,3.6787283E3,1.6674201E4,6.2843784E3,3.1595337E3,4.783379E3,1.7103853E1,1.3073375E3],"tree_param":{"num_deleted":"0","num_feature":"39","num_nodes":"31","size_leaf_vector":"1"}},{"base_weights":[6.690689E-4,-8.5409604E-2,3.101654E-2,-2.1520124E-1,-7.392993E-2,8.239559E-3,8.63171E-2,2.2075467E-1,-2.3631637E-1,4.3823245E-1,-7.635227E-2,-1.2255098E-2,4.2442653E-2,7.77554E-2,2.8255147E-1,4.6632383E-2,-5.8994233E-3,-2.6063604E-2,-1.5853768E-2,5.5999998E-2,6.9106543E-3,-8.697478E-3,-4.383553E-3,-1.286443E-3,2.489321E-2,3.231583E-3,5.3364057E-2,8.847152E-4,8.0291005E-3,1.6749201E-2,5.5999998E-2],"categories":[],"categories_nodes":[],"categories_segments":[],"categories_sizes":[],"default_left":[0,0,0,0,0,0,0,0,0,0,0,0,0,0,0,0,0,0,0,0,0,0,0,0,0,0,0,0,0,0,0],"id":34,"left_children":[1,3,5,7,9,11,13,15,17,19,21,23,25,27,29,-1,-1,-1,-1,-1,-1,-1,-1,-1,-1,-1,-1,-1,-1,-1,-1],"loss_changes":[1.4260608E2,2.1201508E1,5.0833565E1,1.0774227E1,1.6354164E1,2.0062506E1,1.9789001E1,6.013015E0,3.7053642E0,8.278501E0,9.074654E0,2.2183025E1,1.3802351E1,1.6998482E1,2.0465816E1,0E0,0E0,0E0,0E0,0E0,0E0,0E0,0E0,0E0,0E0,0E0,0E0,0E0,0E0,0E0,0E0],"parents":[2147483647,0,0,1,1,2,2,3,3,4,4,5,5,6,6,7,7,8,8,9,9,10,10,11,11,12,12,13,13,14,14],"right_children":[2,4,6,8,10,12,14,16,18,20,22,24,26,28,30,-1,-1,-1,-1,-1,-1,-1,-1,-1,-1,-1,-1,-1,-1,-1,-1],"split_conditions":[-1.1558189E-1,7.741197E-1,2.9142857E0,5.3333336E-1,1E-1,4.4860208E-1,1.63824E0,3.1E1,-2.8E0,1E0,-8E-1,2.47E2,3.2857144E0,2.5E1,7.5E-1,4.6632383E-2,-5.8994233E-3,-2.6063604E-2,-1.5853768E-2,5.5999998E-2,6.9106543E-3,-8.697478E-3,-4.383553E-3,-1.286443E-3,2.489321E-2,3.231583E-3,5.3364057E-2,8.847152E-4,8.0291005E-3,1.6749201E-2,5.5999998E-2],"split_indices":[4,3,37,19,19,4,3,8,35,5,33,9,17,6,19,0,0,0,0,0,0,0,0,0,0,0,0,0,0,0,0],"split_type":[0,0,0,0,0,0,0,0,0,0,0,0,0,0,0,0,0,0,0,0,0,0,0,0,0,0,0,0,0,0,0],"sum_hessian":[5.4575285E4,1.4223324E4,4.035196E4,1.1529268E3,1.3070397E4,2.8583758E4,1.1768203E4,5.238694E1,1.1005398E3,6.0291718E1,1.3010106E4,1.7870479E4,1.071328E4,1.1278536E4,4.8966687E2,2.3360191E1,2.9026747E1,3.2511105E2,7.754287E2,2.6475796E1,3.381592E1,5.195878E3,7.814228E3,1.7663125E4,2.073522E2,1.067965E4,3.3629887E1,2.857885E3,8.42065E3,4.4137756E2,4.82893E1],"tree_param":{"num_deleted":"0","num_feature":"39","num_nodes":"31","size_leaf_vector":"1"}},{"base_weights":[1.7414773E-3,-7.2696336E-2,3.428475E-2,-1.7120007E-1,-5.9282046E-2,1.4862601E-2,9.211853E-2,-3.0658793E-1,-1.4263633E-1,-1.358632E-1,-4.995995E-2,7.706784E-3,1.0403295E-1,3.6898953E-1,8.660111E-2,-1.3591387E-2,-2.7584009E-2,-1.2749889E-2,7.5502614E-3,-1.1662731E-2,1.0883492E-2,-4.318794E-3,9.190457E-3,1.7761553E-3,-2.3227518E-3,5.5999998E-2,7.904308E-3,3.5697892E-2,4.4808174E-3,5.5266354E-2,6.72878E-3],"categories":[],"categories_nodes":[],"categories_segments":[],"categories_sizes":[],"default_left":[0,0,0,0,0,0,0,0,0,0,0,0,0,0,0,0,0,0,0,0,0,0,0,0,0,0,0,0,0,0,0],"id":35,"left_children":[1,3,5,7,9,11,13,15,17,19,21,23,25,27,29,-1,-1,-1,-1,-1,-1,-1,-1,-1,-1,-1,-1,-1,-1,-1,-1],"loss_changes":[1.328649E2,2.2044708E1,4.2864056E1,7.6992416E0,1.0488441E1,1.824353E1,1.4671173E1,1.7278557E0,6.6256447E0,4.370413E0,8.728569E0,1.41018505E1,9.795755E0,4.4323483E0,1.4218582E1,0E0,0E0,0E0,0E0,0E0,0E0,0E0,0E0,0E0,0E0,0E0,0E0,0E0,0E0,0E0,0E0],"parents":[2147483647,0,0,1,1,2,2,3,3,4,4,5,5,6,6,7,7,8,8,9,9,10,10,11,11,12,12,13,13,14,14],"right_children":[2,4,6,8,10,12,14,16,18,20,22,24,26,28,30,-1,-1,-1,-1,-1,-1,-1,-1,-1,-1,-1,-1,-1,-1,-1,-1],"split_conditions":[-1.8822777E1,8.134162E-1,3.24E0,-5.3041473E2,5.6E-1,1.288707E0,-8.5E0,3E1,2.5E0,1E0,3.1E0,1E0,-5.6E0,1.43E0,1E-1,-1.3591387E-2,-2.7584009E-2,-1.2749889E-2,7.5502614E-3,-1.1662731E-2,1.0883492E-2,-4.318794E-3,9.190457E-3,1.7761553E-3,-2.3227518E-3,5.5999998E-2,7.904308E-3,3.5697892E-2,4.4808174E-3,5.5266354E-2,6.72878E-3],"split_indices":[2,3,37,2,37,3,16,6,28,30,18,5,26,38,13,0,0,0,0,0,0,0,0,0,0,0,0,0,0,0,0],"split_type":[0,0,0,0,0,0,0,0,0,0,0,0,0,0,0,0,0,0,0,0,0,0,0,0,0,0,0,0,0,0,0],"sum_hessian":[5.4831086E4,1.667718E4,3.8153906E4,1.9956996E3,1.468148E4,2.856554E4,9.588366E3,3.447763E2,1.6509233E3,1.5894115E3,1.3092068E4,2.6446562E4,2.1189766E3,1.853462E2,9.40302E3,7.7656685E1,2.6711963E2,1.5431238E3,1.07799576E2,1.534618E3,5.4793503E1,1.2781855E4,3.1021368E2,1.8968812E4,7.4777505E3,8.254182E0,2.1107224E3,1.47807E2,3.7539192E1,3.7147232E1,9.365872E3],"tree_param":{"num_deleted":"0","num_feature":"39","num_nodes":"31","size_leaf_vector":"1"}},{"base_weights":[6.0940196E-4,-7.010214E-2,3.18472E-2,-1.2540554E-1,-4.42446E-2,1.5784103E-2,1.0032674E-1,-2.568795E-1,-1.1066609E-1,2.370809E-1,-4.6598837E-2,-2.334273E-2,3.6103614E-2,8.561277E-2,2.5540745E-1,3.9487273E-2,-2.219768E-2,-9.64868E-3,7.944466E-4,5.0867822E-2,-4.9875085E-3,-2.6351854E-3,-6.3925046E-3,-2.1540876E-4,-6.202998E-3,5.595005E-2,2.8056188E-3,7.761662E-3,-5.817769E-3,1.7754624E-2,5.5999998E-2],"categories":[],"categories_nodes":[],"categories_segments":[],"categories_sizes":[],"default_left":[0,0,0,0,0,0,0,0,0,0,0,0,0,0,0,0,0,0,0,0,0,0,0,0,0,0,0,0,0,0,0],"id":36,"left_children":[1,3,5,7,9,11,13,15,17,19,21,23,25,27,29,-1,-1,-1,-1,-1,-1,-1,-1,-1,-1,-1,-1,-1,-1,-1,-1],"loss_changes":[1.2110368E2,2.4013695E1,4.1829166E1,1.0356628E1,7.649782E0,2.4506973E1,1.6483467E1,8.596191E0,5.7998962E0,1.1616474E1,5.166315E0,1.1784895E1,1.4004623E1,1.1963295E1,1.0466511E1,0E0,0E0,0E0,0E0,0E0,0E0,0E0,0E0,0E0,0E0,0E0,0E0,0E0,0E0,0E0,0E0],"parents":[2147483647,0,0,1,1,2,2,3,3,4,4,5,5,6,6,7,7,8,8,9,9,10,10,11,11,12,12,13,13,14,14],"right_children":[2,4,6,8,10,12,14,16,18,20,22,24,26,28,30,-1,-1,-1,-1,-1,-1,-1,-1,-1,-1,-1,-1,-1,-1,-1,-1],"split_conditions":[-1.5153188E1,-1.9049416E2,2.6E0,-2.8E0,1.3333334E-1,5E-1,5.6E0,5.3333336E-1,2.4E1,1E0,1E0,1E0,1E-1,3.1E0,5.2E0,3.9487273E-2,-2.219768E-2,-9.64868E-3,7.944466E-4,5.0867822E-2,-4.9875085E-3,-2.6351854E-3,-6.3925046E-3,-2.1540876E-4,-6.202998E-3,5.595005E-2,2.8056188E-3,7.761662E-3,-5.817769E-3,1.7754624E-2,5.5999998E-2],"split_indices":[2,2,28,35,19,30,35,19,32,5,5,5,13,13,22,0,0,0,0,0,0,0,0,0,0,0,0,0,0,0,0],"split_type":[0,0,0,0,0,0,0,0,0,0,0,0,0,0,0,0,0,0,0,0,0,0,0,0,0,0,0,0,0,0,0],"sum_hessian":[5.480911E4,1.679145E4,3.801766E4,5.3459956E3,1.1445453E4,3.079767E4,7.219991E3,5.3589386E2,4.8101016E3,9.345247E1,1.1352E4,1.0523616E4,2.0274055E4,6.5969204E3,6.230706E2,1.3438425E1,5.2245544E2,4.445276E3,3.648258E2,3.98824E1,5.357007E1,8.056226E3,3.2957742E3,7.6235234E3,2.9000928E3,3.0185453E1,2.024387E4,6.1550967E3,4.4182352E2,5.8673267E2,3.633792E1],"tree_param":{"num_deleted":"0","num_feature":"39","num_nodes":"31","size_leaf_vector":"1"}},{"base_weights":[1.7213349E-3,-4.931688E-2,4.161623E-2,-1.030319E-1,-2.3555655E-2,3.0800749E-2,1.3465023E-1,-2.6581714E-1,-9.162709E-2,-3.0698692E-2,1.0361766E-1,2.494348E-2,1.6990662E-1,7E-1,1.2865625E-1,-2.3337615E-4,-2.2884933E-2,-1.5599149E-2,-6.617093E-3,5.5999998E-2,-2.5186506E-3,-3.6668664E-4,1.6661435E-2,3.1430323E-3,-1.1883739E-3,1.860221E-2,-2.880051E-4,2.1819975E-2,5.5999998E-2,9.984295E-3,5.5999998E-2],"categories":[],"categories_nodes":[],"categories_segments":[],"categories_sizes":[],"default_left":[0,0,0,0,0,0,0,0,0,0,0,0,0,0,0,0,0,0,0,0,0,0,0,0,0,0,0,0,0,0,0],"id":37,"left_children":[1,3,5,7,9,11,13,15,17,19,21,23,25,27,29,-1,-1,-1,-1,-1,-1,-1,-1,-1,-1,-1,-1,-1,-1,-1,-1],"loss_changes":[1.1103815E2,3.3096725E1,3.0802856E1,1.4392456E1,1.4719496E1,2.236117E1,1.1332684E1,2.642044E0,6.6771545E0,9.028948E0,9.806857E0,1.5038006E1,1.2092545E1,1.070385E0,9.796318E0,0E0,0E0,0E0,0E0,0E0,0E0,0E0,0E0,0E0,0E0,0E0,0E0,0E0,0E0,0E0,0E0],"parents":[2147483647,0,0,1,1,2,2,3,3,4,4,5,5,6,6,7,7,8,8,9,9,10,10,11,11,12,12,13,13,14,14],"right_children":[2,4,6,8,10,12,14,16,18,20,22,24,26,28,30,-1,-1,-1,-1,-1,-1,-1,-1,-1,-1,-1,-1,-1,-1,-1,-1],"split_conditions":[6.00879E1,-1.3843227E2,3.3333333E0,-4.717424E2,2.625E0,4.4E0,2E-1,1.2E0,-2.5E0,1E-1,8.333333E-1,1E0,3E0,9.6339435E2,1.875E0,-2.3337615E-4,-2.2884933E-2,-1.5599149E-2,-6.617093E-3,5.5999998E-2,-2.5186506E-3,-3.6668664E-4,1.6661435E-2,3.1430323E-3,-1.1883739E-3,1.860221E-2,-2.880051E-4,2.1819975E-2,5.5999998E-2,9.984295E-3,5.5999998E-2],"split_indices":[2,2,33,2,18,28,13,23,21,13,17,5,32,1,16,0,0,0,0,0,0,0,0,0,0,0,0,0,0,0,0],"split_type":[0,0,0,0,0,0,0,0,0,0,0,0,0,0,0,0,0,0,0,0,0,0,0,0,0,0,0,0,0,0,0],"sum_hessian":[5.451422E4,2.3914607E4,3.0599611E4,7.7481304E3,1.6166479E4,2.741591E4,3.1837012E3,5.0468753E2,7.243443E3,1.5308941E4,8.5753723E2,2.6310676E4,1.1052349E3,3.024589E1,3.1534553E3,3.6872784E1,4.6781473E2,5.7160913E2,6.6718335E3,1.5029503E1,1.5293911E4,4.2114606E2,4.3639114E2,1.9343682E4,6.9669946E3,8.127238E2,2.92511E2,8.484276E0,2.1761614E1,3.142436E3,1.1019293E1],"tree_param":{"num_deleted":"0","num_feature":"39","num_nodes":"31","size_leaf_vector":"1"}},{"base_weights":[9.0212683E-4,-3.6884766E-2,4.7160175E-2,-9.713055E-2,-1.7663203E-2,3.4248874E-2,1.20509334E-1,-2.4474232E-1,-8.610881E-2,7E-1,-1.8646134E-2,1.8279968E-2,7.55306E-2,1.0393894E-1,3.2465863E-1,-1.5366803E-2,-2.6560757E-2,-7.370177E-3,8.911522E-3,5.5999998E-2,5.4274354E-4,-3.2933282E-3,8.213436E-4,1.3162204E-3,3.4288645E-2,7.2463346E-3,-3.1005165E-3,1.1603871E-2,2.9859724E-3,2.1199876E-2,5.5999998E-2],"categories":[],"categories_nodes":[],"categories_segments":[],"categories_sizes":[],"default_left":[0,0,0,0,0,0,0,0,0,0,0,0,0,0,0,0,0,0,0,0,0,0,0,0,0,0,0,0,0,0,0],"id":38,"left_children":[1,3,5,7,9,11,13,15,17,19,21,23,25,27,29,-1,-1,-1,-1,-1,-1,-1,-1,-1,-1,-1,-1,-1,-1,-1,-1],"loss_changes":[9.5487236E1,3.4809204E1,2.3261711E1,1.1828629E1,2.1307842E1,1.3770121E1,1.2427322E1,2.2549152E0,8.094101E0,3.3345013E0,1.4844677E1,1.1368053E1,1.0046719E1,9.2980995E0,9.610088E0,0E0,0E0,0E0,0E0,0E0,0E0,0E0,0E0,0E0,0E0,0E0,0E0,0E0,0E0,0E0,0E0],"parents":[2147483647,0,0,1,1,2,2,3,3,4,4,5,5,6,6,7,7,8,8,9,9,10,10,11,11,12,12,13,13,14,14],"right_children":[2,4,6,8,10,12,14,16,18,20,22,24,26,28,30,-1,-1,-1,-1,-1,-1,-1,-1,-1,-1,-1,-1,-1,-1,-1,-1],"split_conditions":[1.0803189E0,9.108856E-1,1.3494232E0,-4.717424E2,1E-1,1.44E0,1.3666667E0,2.625E0,1.2E0,6.111111E-1,1.68E0,1.1E1,5E-1,1.1769731E3,1.63824E0,-1.5366803E-2,-2.6560757E-2,-7.370177E-3,8.911522E-3,5.5999998E-2,5.4274354E-4,-3.2933282E-3,8.213436E-4,1.3162204E-3,3.4288645E-2,7.2463346E-3,-3.1005165E-3,1.1603871E-2,2.9859724E-3,2.1199876E-2,5.5999998E-2],"split_indices":[3,3,3,2,13,38,29,13,35,15,37,33,31,1,3,0,0,0,0,0,0,0,0,0,0,0,0,0,0,0,0],"split_type":[0,0,0,0,0,0,0,0,0,0,0,0,0,0,0,0,0,0,0,0,0,0,0,0,0,0,0,0,0,0,0],"sum_hessian":[5.4606E4,3.0052688E4,2.4553312E4,7.2656465E3,2.2787041E4,2.0881785E4,3.6715266E3,5.0207767E2,6.763569E3,2.0088146E1,2.2766953E4,1.5061769E4,5.820017E3,3.398191E3,2.7333575E2,3.165583E2,1.8551938E2,6.565061E3,1.9850775E2,1.2552499E1,7.5356474E0,1.2801937E4,9.965017E3,1.4996516E4,6.525273E1,5.144571E3,6.754462E2,2.0987908E3,1.2994001E3,2.5674786E2,1.6587904E1],"tree_param":{"num_deleted":"0","num_feature":"39","num_nodes":"31","size_leaf_vector":"1"}},{"base_weights":[5.151605E-4,-7.110922E-2,2.4661122E-2,-1.2562887E-1,-4.6357237E-2,1.6037836E-3,6.6400304E-2,-2.541626E-1,-1.0861507E-1,4.480705E-1,-4.90118E-2,1.635762E-2,-3.5925314E-2,1.0231896E-2,8.617243E-2,-2.1777248E-2,6.972062E-4,-9.243409E-3,1.274381E-2,5.5999998E-2,3.32009E-3,4.0140882E-2,-3.9990107E-3,5.5999998E-2,1.2579297E-3,1.9877478E-2,-3.5316395E-3,-1.6753708E-3,7.4245743E-3,6.6794073E-3,4.9306452E-2],"categories":[],"categories_nodes":[],"categories_segments":[],"categories_sizes":[],"default_left":[0,0,0,0,0,0,0,0,0,0,0,0,0,0,0,0,0,0,0,0,0,0,0,0,0,0,0,0,0,0,0],"id":39,"left_children":[1,3,5,7,9,11,13,15,17,19,21,23,25,27,29,-1,-1,-1,-1,-1,-1,-1,-1,-1,-1,-1,-1,-1,-1,-1,-1],"loss_changes":[9.407739E1,1.8499496E1,3.914643E1,9.348541E0,1.2502251E1,1.4525773E1,1.6061554E1,2.4285698E0,7.092537E0,7.6906652E0,5.1789913E0,1.0254719E1,1.735102E1,9.765502E0,1.5255447E1,0E0,0E0,0E0,0E0,0E0,0E0,0E0,0E0,0E0,0E0,0E0,0E0,0E0,0E0,0E0,0E0],"parents":[2147483647,0,0,1,1,2,2,3,3,4,4,5,5,6,6,7,7,8,8,9,9,10,10,11,11,12,12,13,13,14,14],"right_children":[2,4,6,8,10,12,14,16,18,20,22,24,26,28,30,-1,-1,-1,-1,-1,-1,-1,-1,-1,-1,-1,-1,-1,-1,-1,-1],"split_conditions":[-1.200029E-1,-5.441769E-1,1.75E0,-1.179356E0,1E-1,1E0,2.5E1,6E-1,6.666667E-1,1E0,8.258343E-1,1E-1,5.3333336E-1,1.61E0,2.7E0,-2.1777248E-2,6.972062E-4,-9.243409E-3,1.274381E-2,5.5999998E-2,3.32009E-3,4.0140882E-2,-3.9990107E-3,5.5999998E-2,1.2579297E-3,1.9877478E-2,-3.5316395E-3,-1.6753708E-3,7.4245743E-3,6.6794073E-3,4.9306452E-2],"split_indices":[4,4,18,4,19,5,6,20,30,5,3,12,19,38,29,0,0,0,0,0,0,0,0,0,0,0,0,0,0,0,0],"split_type":[0,0,0,0,0,0,0,0,0,0,0,0,0,0,0,0,0,0,0,0,0,0,0,0,0,0,0,0,0,0,0],"sum_hessian":[5.4378945E4,1.3707636E4,4.067131E4,4.2763125E3,9.431323E3,2.6202498E4,1.44688125E4,4.9687662E2,3.7794358E3,4.906753E1,9.382256E3,1.8812588E4,7.38991E3,3.7701753E3,1.0698638E4,4.6562534E2,3.1251282E1,3.6854546E3,9.3981255E1,2.3498222E1,2.556931E1,1.5323579E1,9.366932E3,1.1870991E1,1.8800717E4,2.0609456E2,7.1838154E3,2.7357083E3,1.0344672E3,1.0646357E4,5.2280376E1],"tree_param":{"num_deleted":"0","num_feature":"39","num_nodes":"31","size_leaf_vector":"1"}},{"base_weights":[1.3075756E-3,-2.9109804E-2,5.682965E-2,-1.0411883E-1,-1.3856012E-2,4.2940382E-2,1.2304662E-1,-2.4110188E-1,-9.176085E-2,5.4763682E-2,-2.4297962E-2,2.2702556E-2,9.4535686E-2,9.660787E-2,2.0676838E-1,2.7825681E-2,-2.0004945E-2,-7.7885785E-3,8.017431E-3,1.252338E-2,1.2370693E-3,-2.7755927E-3,2.166557E-3,1.6443714E-3,3.5627592E-2,9.386075E-3,1.8816832E-3,4.678056E-2,7.170022E-3,1.1409876E-2,3.4106705E-2],"categories":[],"categories_nodes":[],"categories_segments":[],"categories_sizes":[],"default_left":[0,0,0,0,0,0,0,0,0,0,0,0,0,0,0,0,0,0,0,0,0,0,0,0,0,0,0,0,0,0,0],"id":40,"left_children":[1,3,5,7,9,11,13,15,17,19,21,23,25,27,29,-1,-1,-1,-1,-1,-1,-1,-1,-1,-1,-1,-1,-1,-1,-1,-1],"loss_changes":[9.2415474E1,4.0440926E1,1.781263E1,1.0107605E1,2.1064034E1,1.6720413E1,7.4157486E0,2.8062515E0,5.937191E0,1.5515749E1,1.3635307E1,1.0517233E1,7.282219E0,8.745132E0,1.1269794E1,0E0,0E0,0E0,0E0,0E0,0E0,0E0,0E0,0E0,0E0,0E0,0E0,0E0,0E0,0E0,0E0],"parents":[2147483647,0,0,1,1,2,2,3,3,4,4,5,5,6,6,7,7,8,8,9,9,10,10,11,11,12,12,13,13,14,14],"right_children":[2,4,6,8,10,12,14,16,18,20,22,24,26,28,30,-1,-1,-1,-1,-1,-1,-1,-1,-1,-1,-1,-1,-1,-1,-1,-1],"split_conditions":[1.11921E0,8.9686275E-1,1.3681546E0,-4.717424E2,1E0,1.4E0,7.6666665E-1,-8.7E1,6.666667E-1,5.6666666E-1,6.666667E-1,5.6666665E0,1E1,5.5555556E-2,4.76E0,2.7825681E-2,-2.0004945E-2,-7.7885785E-3,8.017431E-3,1.252338E-2,1.2370693E-3,-2.7755927E-3,2.166557E-3,1.6443714E-3,3.5627592E-2,9.386075E-3,1.8816832E-3,4.678056E-2,7.170022E-3,1.1409876E-2,3.4106705E-2],"split_indices":[3,3,3,2,32,38,19,9,30,29,30,22,32,34,37,0,0,0,0,0,0,0,0,0,0,0,0,0,0,0,0],"split_type":[0,0,0,0,0,0,0,0,0,0,0,0,0,0,0,0,0,0,0,0,0,0,0,0,0,0,0,0,0,0,0],"sum_hessian":[5.4696098E4,3.533496E4,1.9361137E4,5.9681636E3,2.9366799E4,1.6008055E4,3.3530825E3,4.9099506E2,5.4771685E3,3.8754858E3,2.5491312E4,1.1501862E4,4.5061934E3,2.5517883E3,8.012942E2,6.456819E0,4.8453824E2,5.3235166E3,1.5365163E2,1.0773446E3,2.7981414E3,2.1204672E4,4.2866396E3,1.1445218E4,5.664396E1,3.4087708E3,1.0974226E3,3.4415783E1,2.5173726E3,6.2210876E2,1.7918542E2],"tree_param":{"num_deleted":"0","num_feature":"39","num_nodes":"31","size_leaf_vector":"1"}},{"base_weights":[1.0870795E-3,-4.3157663E-2,3.4267094E-2,-9.763891E-2,-2.4136541E-2,8.669599E-3,7.780713E-2,-2.5590315E-1,-8.552932E-2,-3.636844E-2,1.7745538E-2,-1.1305266E-1,1.47606265E-2,3.2023033E-1,7.395988E-2,-2.1751732E-2,3.1870827E-2,-8.3078435E-3,-2.9978266E-3,-3.4784074E-3,3.0247932E-3,2.5977795E-3,-5.8005685E-3,-1.1214521E-2,9.614579E-3,1.0582731E-3,2.9084718E-2,3.5459697E-2,9.105654E-3,3.9090957E-3,9.2297075E-3],"categories":[],"categories_nodes":[],"categories_segments":[],"categories_sizes":[],"default_left":[0,0,0,0,0,0,0,0,0,0,0,0,0,0,0,0,0,0,0,0,0,0,0,0,0,0,0,0,0,0,0],"id":41,"left_children":[1,3,5,7,9,11,13,15,17,19,21,23,25,27,29,-1,-1,-1,-1,-1,-1,-1,-1,-1,-1,-1,-1,-1,-1,-1,-1],"loss_changes":[8.063186E1,2.438543E1,3.4974636E1,1.1669849E1,8.952118E0,1.4683608E1,1.0856445E1,4.757288E0,4.968834E0,7.1444435E0,5.26556E0,6.030428E0,1.0125565E1,4.511753E0,1.1881889E1,0E0,0E0,0E0,0E0,0E0,0E0,0E0,0E0,0E0,0E0,0E0,0E0,0E0,0E0,0E0,0E0],"parents":[2147483647,0,0,1,1,2,2,3,3,4,4,5,5,6,6,7,7,8,8,9,9,10,10,11,11,12,12,13,13,14,14],"right_children":[2,4,6,8,10,12,14,16,18,20,22,24,26,28,30,-1,-1,-1,-1,-1,-1,-1,-1,-1,-1,-1,-1,-1,-1,-1,-1],"split_conditions":[5E-1,-1.331009E2,2.73E0,-2.8E0,1.4506306E2,-2.0097069E2,-8.9E0,9.5E-1,-6.666667E-1,3.04E0,7.1E1,6.666667E-1,8.5E0,3.3333334E-1,1.125E0,-2.1751732E-2,3.1870827E-2,-8.3078435E-3,-2.9978266E-3,-3.4784074E-3,3.0247932E-3,2.5977795E-3,-5.8005685E-3,-1.1214521E-2,9.614579E-3,1.0582731E-3,2.9084718E-2,3.5459697E-2,9.105654E-3,3.9090957E-3,9.2297075E-3],"split_indices":[30,2,37,35,2,2,16,15,33,38,7,30,33,17,17,0,0,0,0,0,0,0,0,0,0,0,0,0,0,0,0],"split_type":[0,0,0,0,0,0,0,0,0,0,0,0,0,0,0,0,0,0,0,0,0,0,0,0,0,0,0,0,0,0,0],"sum_hessian":[5.4903184E4,2.352579E4,3.1377395E4,6.08427E3,1.744152E4,1.9763867E4,1.1613527E4,4.2984454E2,5.654426E3,1.3502844E4,3.9386755E3,9.394586E2,1.882441E4,1.7933026E2,1.1434197E4,4.2045694E2,9.387587E0,4.0900215E3,1.5644042E3,1.2324386E4,1.1784578E3,3.388606E3,5.500696E2,8.4269635E2,9.676225E1,1.8743684E4,8.072651E1,1.1103772E2,6.829255E1,7.1239497E3,4.3102476E3],"tree_param":{"num_deleted":"0","num_feature":"39","num_nodes":"31","size_leaf_vector":"1"}},{"base_weights":[1.2124882E-3,-4.1173723E-2,3.265767E-2,-1.463189E-1,-3.302262E-2,-5.4779445E-4,7.286652E-2,-3.020078E-1,-1.1869157E-1,-4.3406386E-2,1.3047233E-2,-1.8599036E-1,4.132253E-3,8.738791E-2,1.932006E-2,-2.664298E-2,-6.5277005E-3,-1.1306842E-2,6.9821056E-4,-2.3695806E-3,-6.3861674E-3,2.1096529E-3,-5.306484E-3,1.7396454E-2,-1.794416E-2,2.116844E-4,3.4718215E-2,5.151773E-3,1.0723357E-2,1.9410125E-3,-2.1340646E-2],"categories":[],"categories_nodes":[],"categories_segments":[],"categories_sizes":[],"default_left":[0,0,0,0,0,0,0,0,0,0,0,0,0,0,0,0,0,0,0,0,0,0,0,0,0,0,0,0,0,0,0],"id":42,"left_children":[1,3,5,7,9,11,13,15,17,19,21,23,25,27,29,-1,-1,-1,-1,-1,-1,-1,-1,-1,-1,-1,-1,-1,-1,-1,-1],"loss_changes":[7.2859535E1,1.995861E1,4.1919476E1,7.182106E0,1.0348726E1,1.50245E1,1.1026642E1,1.6465988E0,4.1456947E0,8.854687E0,4.22437E0,6.7063026E0,1.0790474E1,1.1968559E1,4.354004E0,0E0,0E0,0E0,0E0,0E0,0E0,0E0,0E0,0E0,0E0,0E0,0E0,0E0,0E0,0E0,0E0],"parents":[2147483647,0,0,1,1,2,2,3,3,4,4,5,5,6,6,7,7,8,8,9,9,10,10,11,11,12,12,13,13,14,14],"right_children":[2,4,6,8,10,12,14,16,18,20,22,24,26,28,30,-1,-1,-1,-1,-1,-1,-1,-1,-1,-1,-1,-1,-1,-1,-1,-1],"split_conditions":[5E-1,-2.9474365E2,2.4E0,-3E0,1.4205229E2,8.134162E-1,9E0,1.3953531E3,1.5E1,1E0,7.1E1,6.8333334E-1,9E0,1.4E0,3.6666667E0,-2.664298E-2,-6.5277005E-3,-1.1306842E-2,6.9821056E-4,-2.3695806E-3,-6.3861674E-3,2.1096529E-3,-5.306484E-3,1.7396454E-2,-1.794416E-2,2.116844E-4,3.4718215E-2,5.151773E-3,1.0723357E-2,1.9410125E-3,-2.1340646E-2],"split_indices":[30,2,37,35,2,3,32,0,32,5,7,19,33,38,14,0,0,0,0,0,0,0,0,0,0,0,0,0,0,0,0],"split_type":[0,0,0,0,0,0,0,0,0,0,0,0,0,0,0,0,0,0,0,0,0,0,0,0,0,0,0,0,0,0,0],"sum_hessian":[5.4642266E4,2.326959E4,3.1372674E4,1.671146E3,2.1598445E4,1.7180557E4,1.4192117E4,2.492683E2,1.4218777E3,1.7629336E4,3.9691086E3,4.2301392E2,1.6757543E4,1.1160979E4,3.0311387E3,2.172636E2,3.2004692E1,1.2085619E3,2.1331587E2,1.2793727E4,4.835609E3,3.401383E3,5.677255E2,3.5827835E1,3.8718607E2,1.670127E4,5.6273483E1,7.481046E3,3.6799329E3,2.9812456E3,4.9892952E1],"tree_param":{"num_deleted":"0","num_feature":"39","num_nodes":"31","size_leaf_vector":"1"}},{"base_weights":[1.5294156E-3,-3.669957E-2,4.2447988E-2,-6.388302E-2,9.4834773E-4,3.2532558E-2,1.0982866E-1,-1.20681986E-1,-4.6889585E-2,-6.023345E-4,7E-1,2.7537413E-2,1.1948045E-1,1.0528288E-1,5.5999998E-2,-2.4165425E-2,-8.506785E-3,5.5999998E-2,-3.8149932E-3,-1.3590688E-4,5.5999998E-2,5.5999998E-2,3.1491874E-3,1.1209581E-3,4.9765506E-3,2.3990532E-2,6.3079405E-3,7.1411296E-3,2.1034079E-2],"categories":[],"categories_nodes":[],"categories_segments":[],"categories_sizes":[],"default_left":[0,0,0,0,0,0,0,0,0,0,0,0,0,0,0,0,0,0,0,0,0,0,0,0,0,0,0,0,0],"id":43,"left_children":[1,3,5,7,9,11,13,15,17,19,21,23,25,27,-1,-1,-1,-1,-1,-1,-1,-1,-1,-1,-1,-1,-1,-1,-1],"loss_changes":[8.579252E1,2.902824E1,1.7701527E1,1.5890587E1,1.57864485E1,1.004146E1,1.1578323E1,9.857517E0,9.781931E0,1.078839E1,2.7445698E0,1.0244078E1,9.181158E0,8.531727E0,0E0,0E0,0E0,0E0,0E0,0E0,0E0,0E0,0E0,0E0,0E0,0E0,0E0,0E0,0E0],"parents":[2147483647,0,0,1,1,2,2,3,3,4,4,5,5,6,6,7,7,8,8,9,9,10,10,11,11,12,12,13,13],"right_children":[2,4,6,8,10,12,14,16,18,20,22,24,26,28,-1,-1,-1,-1,-1,-1,-1,-1,-1,-1,-1,-1,-1,-1,-1],"split_conditions":[1.0701629E0,1.56E0,3.3333333E0,-2.0097069E2,1E0,5.3577594E2,1.4444444E0,-2.9E0,1E-1,6E0,1.5280696E3,1.44E0,1.67966E3,9.666667E0,5.5999998E-2,-2.4165425E-2,-8.506785E-3,5.5999998E-2,-3.8149932E-3,-1.3590688E-4,5.5999998E-2,5.5999998E-2,3.1491874E-3,1.1209581E-3,4.9765506E-3,2.3990532E-2,6.3079405E-3,7.1411296E-3,2.1034079E-2],"split_indices":[3,37,33,2,15,2,16,11,13,14,0,38,0,33,0,0,0,0,0,0,0,0,0,0,0,0,0,0,0],"split_type":[0,0,0,0,0,0,0,0,0,0,0,0,0,0,0,0,0,0,0,0,0,0,0,0,0,0,0,0,0],"sum_hessian":[5.482231E4,2.8340162E4,2.6482145E4,1.6459963E4,1.1880199E4,2.3088934E4,3.3932104E3,3.786401E3,1.26735625E4,1.1859683E4,2.0516903E1,2.1837963E4,1.2509712E3,3.3756472E3,1.7563122E1,2.7505017E2,3.5113508E3,8.660897E0,1.2664901E4,1.1845549E4,1.4134035E1,1.3500139E1,7.016763E0,1.571451E4,6.123453E3,2.2788153E2,1.02308966E3,3.0668474E3,3.088E2],"tree_param":{"num_deleted":"0","num_feature":"39","num_nodes":"29","size_leaf_vector":"1"}},{"base_weights":[-9.900153E-4,-5.7733256E-2,2.2946328E-2,-1.4956982E-1,-4.6438318E-2,3.9159168E-2,-2.2908023E-2,2.4110514E-1,-1.642127E-1,2.3174031E-1,-4.8557453E-2,8.3169097E-4,6.258526E-2,-3.761447E-2,2.2415547E-2,3.850374E-2,-6.304258E-3,-1.4522794E-2,3.0227022E-3,3.681629E-2,-4.2645857E-3,-2.936471E-3,-6.3754893E-3,5.5999998E-2,-9.713677E-6,1.8715321E-3,6.269947E-3,-4.523875E-3,5.1401348E-5,1.2250444E-3,3.0644327E-2],"categories":[],"categories_nodes":[],"categories_segments":[],"categories_sizes":[],"default_left":[0,0,0,0,0,0,0,0,0,0,0,0,0,0,0,0,0,0,0,0,0,0,0,0,0,0,0,0,0,0,0],"id":44,"left_children":[1,3,5,7,9,11,13,15,17,19,21,23,25,27,29,-1,-1,-1,-1,-1,-1,-1,-1,-1,-1,-1,-1,-1,-1,-1,-1],"loss_changes":[7.441357E1,1.6863575E1,2.8649446E1,1.0292843E1,8.5996E0,2.554514E1,6.722104E0,5.172531E0,6.0550995E0,7.308892E0,5.3016014E0,1.1205293E1,1.09195175E1,5.521821E0,6.368701E0,0E0,0E0,0E0,0E0,0E0,0E0,0E0,0E0,0E0,0E0,0E0,0E0,0E0,0E0,0E0,0E0],"parents":[2147483647,0,0,1,1,2,2,3,3,4,4,5,5,6,6,7,7,8,8,9,9,10,10,11,11,12,12,13,13,14,14],"right_children":[2,4,6,8,10,12,14,16,18,20,22,24,26,28,30,-1,-1,-1,-1,-1,-1,-1,-1,-1,-1,-1,-1,-1,-1,-1,-1],"split_conditions":[-1.5153188E1,8.134162E-1,1.2E1,1.25E-1,1.3333334E-1,1.86E0,2.2961105E2,3.5E1,1.5E1,-8.1589966E1,1E0,1E-1,2.5E1,4E1,2.6666667E0,3.850374E-2,-6.304258E-3,-1.4522794E-2,3.0227022E-3,3.681629E-2,-4.2645857E-3,-2.936471E-3,-6.3754893E-3,5.5999998E-2,-9.713677E-6,1.8715321E-3,6.269947E-3,-4.523875E-3,5.1401348E-5,1.2250444E-3,3.0644327E-2],"split_indices":[2,3,32,25,19,37,2,6,32,2,5,13,6,6,27,0,0,0,0,0,0,0,0,0,0,0,0,0,0,0,0],"split_type":[0,0,0,0,0,0,0,0,0,0,0,0,0,0,0,0,0,0,0,0,0,0,0,0,0,0,0,0,0,0,0],"sum_hessian":[5.4756777E4,1.62475205E4,3.8509258E4,1.7761443E3,1.4471376E4,2.8453416E4,1.005584E4,6.3114407E1,1.7130299E3,1.0787518E2,1.4363501E4,1.0797378E4,1.765604E4,7.5957715E3,2.4600684E3,3.6117546E1,2.6996857E1,1.5787366E3,1.3429335E2,5.9929405E1,4.7945778E1,1.0409765E4,3.953736E3,6.6629963E0,1.0790715E4,5.074771E3,1.2581269E4,5.084248E3,2.5115234E3,2.414121E3,4.5947174E1],"tree_param":{"num_deleted":"0","num_feature":"39","num_nodes":"31","size_leaf_vector":"1"}},{"base_weights":[2.3307452E-4,-5.4514293E-2,1.9286893E-2,-9.527135E-2,-2.6930006E-2,4.964525E-3,6.0360067E-2,-1.6085078E-1,-7.3929824E-2,-2.967355E-2,5.0209343E-1,1.758894E-2,-2.9228993E-2,-5.5053993E-3,7.977942E-2,-2.3773938E-2,-1.0825044E-2,-6.886655E-3,-8.829844E-4,-7.6388763E-3,-1.0841502E-3,2.2496626E-2,5.5999998E-2,3.4566473E-3,6.983573E-5,-2.6322966E-3,1.967667E-2,2.1337895E-2,-1.4719592E-3,7.5106625E-3,-2.090297E-3],"categories":[],"categories_nodes":[],"categories_segments":[],"categories_sizes":[],"default_left":[0,0,0,0,0,0,0,0,0,0,0,0,0,0,0,0,0,0,0,0,0,0,0,0,0,0,0,0,0,0,0],"id":45,"left_children":[1,3,5,7,9,11,13,15,17,19,21,23,25,27,29,-1,-1,-1,-1,-1,-1,-1,-1,-1,-1,-1,-1,-1,-1,-1,-1],"loss_changes":[5.7355095E1,1.5949947E1,2.3991116E1,8.006588E0,1.2408648E1,1.3067371E1,1.3504513E1,4.8628235E0,3.2924137E0,8.945269E0,2.3003407E0,9.461103E0,8.306347E0,8.485044E0,1.21927185E1,0E0,0E0,