{"learner":{"attributes":{"best_iteration":"94","best_score":"0.8838656257708417","scikit_learn":"{\"_estimator_type\": \"classifier\"}"},"feature_names":["elo_home","elo_away","elo_diff","elo_ratio","elo_diff_normalized","neutral","tournament_weight","days_since_home_last","days_since_away_last","days_diff","home_form_10_winrate","home_form_10_goaldiff_avg","home_form_10_goals_scored_avg","home_form_10_goals_conceded_avg","home_form_10_weighted_points","away_form_10_winrate","away_form_10_goaldiff_avg","away_form_10_goals_scored_avg","away_form_10_goals_conceded_avg","away_form_10_weighted_points","home_form_5_winrate","home_form_5_goaldiff_avg","home_form_5_goals_scored_avg","home_form_5_goals_conceded_avg","home_form_5_weighted_points","away_form_5_winrate","away_form_5_goaldiff_avg","away_form_5_goals_scored_avg","away_form_5_goals_conceded_avg","away_form_5_weighted_points","h2h_home_winrate","h2h_draw_rate","h2h_count","h2h_home_goal_diff_avg","form_diff_winrate","form_diff_goaldiff","form_diff_5_winrate","attack_vs_defense_home","attack_vs_defense_away"],"feature_types":["float","float","float","float","float","int","int","int","int","int","float","float","float","float","float","float","float","float","float","float","float","float","float","float","float","float","float","float","float","float","float","float","int","float","float","float","float","float","float"],"gradient_booster":{"model":{"cats":{"enc":[],"feature_segments":[],"sorted_idx":[]},"gbtree_model_param":{"num_parallel_tree":"1","num_trees":"375"},"iteration_indptr":[0,3,6,9,12,15,18,21,24,27,30,33,36,39,42,45,48,51,54,57,60,63,66,69,72,75,78,81,84,87,90,93,96,99,102,105,108,111,114,117,120,123,126,129,132,135,138,141,144,147,150,153,156,159,162,165,168,171,174,177,180,183,186,189,192,195,198,201,204,207,210,213,216,219,222,225,228,231,234,237,240,243,246,249,252,255,258,261,264,267,270,273,276,279,282,285,288,291,294,297,300,303,306,309,312,315,318,321,324,327,330,333,336,339,342,345,348,351,354,357,360,363,366,369,372,375],"tree_info":[0,1,2,0,1,2,0,1,2,0,1,2,0,1,2,0,1,2,0,1,2,0,1,2,0,1,2,0,1,2,0,1,2,0,1,2,0,1,2,0,1,2,0,1,2,0,1,2,0,1,2,0,1,2,0,1,2,0,1,2,0,1,2,0,1,2,0,1,2,0,1,2,0,1,2,0,1,2,0,1,2,0,1,2,0,1,2,0,1,2,0,1,2,0,1,2,0,1,2,0,1,2,0,1,2,0,1,2,0,1,2,0,1,2,0,1,2,0,1,2,0,1,2,0,1,2,0,1,2,0,1,2,0,1,2,0,1,2,0,1,2,0,1,2,0,1,2,0,1,2,0,1,2,0,1,2,0,1,2,0,1,2,0,1,2,0,1,2,0,1,2,0,1,2,0,1,2,0,1,2,0,1,2,0,1,2,0,1,2,0,1,2,0,1,2,0,1,2,0,1,2,0,1,2,0,1,2,0,1,2,0,1,2,0,1,2,0,1,2,0,1,2,0,1,2,0,1,2,0,1,2,0,1,2,0,1,2,0,1,2,0,1,2,0,1,2,0,1,2,0,1,2,0,1,2,0,1,2,0,1,2,0,1,2,0,1,2,0,1,2,0,1,2,0,1,2,0,1,2,0,1,2,0,1,2,0,1,2,0,1,2,0,1,2,0,1,2,0,1,2,0,1,2,0,1,2,0,1,2,0,1,2,0,1,2,0,1,2,0,1,2,0,1,2,0,1,2,0,1,2,0,1,2,0,1,2,0,1,2,0,1,2,0,1,2,0,1,2,0,1,2,0,1,2,0,1,2,0,1,2,0,1,2,0,1,2,0,1,2,0,1,2,0,1,2],"trees":[{"base_weights":[-1.0063497E-2,4.8685336E-1,-2.8090087E-1,9.7022367E-1,3.409206E-1,-9.3334556E-2,-4.9988535E-1,1.3555974E0,8.181352E-1,4.5289418E-1,2.1309507E-1,2.388784E-2,-1.4374378E-1,-4.2916915E-1,-6.026981E-1,1.3704586E0,2.6263347E-1,1.2607927E0,7.645507E-1,7.6663256E-1,3.9814496E-1,8.146747E-2,2.8913924E-1,-4.4406027E-2,3.2294312E-1,-1.4731625E-1,1.2092502E0,3.392979E-2,-4.3772438E-1,-6.0728973E-1,5.288726E-1,9.034405E-2,1.129491E-1,1.1999499E-1,-5.9996963E-2,1.0299841E-1,-5.999407E-2,5.3472556E-2,8.1614085E-2,8.720031E-2,5.1724926E-2,3.0497648E-2,8.090904E-2,-2.4401548E-3,2.2878341E-2,2.0627236E-2,5.958711E-2,-5.2933223E-3,2.6714375E-2,6.126935E-2,1.8834658E-2,-1.7196773E-2,-6.2063835E-3,-5.999407E-2,1.1999969E-1,2.068908E-2,-5.9999034E-2,-3.6604412E-2,-1.835749E-2,-4.3595847E-2,-5.3202543E-2,1.1999708E-1,-1.5416386E-2],"categories":[],"categories_nodes":[],"categories_segments":[],"categories_sizes":[],"default_left":[0,0,0,0,0,0,0,0,0,0,0,0,0,0,0,0,0,0,0,0,0,0,0,0,0,0,0,0,0,0,0,0,0,0,0,0,0,0,0,0,0,0,0,0,0,0,0,0,0,0,0,0,0,0,0,0,0,0,0,0,0,0,0],"id":0,"left_children":[1,3,5,7,9,11,13,15,17,19,21,23,25,27,29,31,33,35,37,39,41,43,45,47,49,51,53,55,57,59,61,-1,-1,-1,-1,-1,-1,-1,-1,-1,-1,-1,-1,-1,-1,-1,-1,-1,-1,-1,-1,-1,-1,-1,-1,-1,-1,-1,-1,-1,-1,-1,-1],"loss_changes":[1.9662782E7,3.635564E6,3.884027E6,7.00501E5,5.666205E5,3.0097697E5,3.17191E5,5.4934E4,2.032695E5,3.62472E5,1.8502906E5,3.1282394E5,1.7216E5,1.024085E5,9.23745E4,3.33155E4,5.6846004E4,4.9657125E4,1.87872E5,1.21736375E5,1.8646625E5,1.5500069E5,1.6710962E5,1.0265627E5,1.10370875E5,1.6757438E5,5.3430875E4,8.258125E4,1.04813E5,6.374E4,5.034733E4,0E0,0E0,0E0,0E0,0E0,0E0,0E0,0E0,0E0,0E0,0E0,0E0,0E0,0E0,0E0,0E0,0E0,0E0,0E0,0E0,0E0,0E0,0E0,0E0,0E0,0E0,0E0,0E0,0E0,0E0,0E0,0E0],"parents":[2147483647,0,0,1,1,2,2,3,3,4,4,5,5,6,6,7,7,8,8,9,9,10,10,11,11,12,12,13,13,14,14,15,15,16,16,17,17,18,18,19,19,20,20,21,21,22,22,23,23,24,24,25,25,26,26,27,27,28,28,29,29,30,30],"right_children":[2,4,6,8,10,12,14,16,18,20,22,24,26,28,30,32,34,36,38,40,42,44,46,48,50,52,54,56,58,60,62,-1,-1,-1,-1,-1,-1,-1,-1,-1,-1,-1,-1,-1,-1,-1,-1,-1,-1,-1,-1,-1,-1,-1,-1,-1,-1,-1,-1,-1,-1,-1,-1],"split_conditions":[-2.1356145E-1,8.132314E-1,1.0682716E0,-1.2391031E0,9.0154344E-1,9.834174E-1,6.0021794E-1,2.6666667E0,-3.3333333E0,-2.25E0,2.5E1,1.7142857E0,5.2222223E0,-1.3333334E0,5E0,2.5E1,1.0539375E3,2.88E2,1.125E0,-1.9E0,3.6666667E0,1.6437515E3,4.32E0,3.0333333E0,-2.2E0,2E-1,-8.5E0,1.6333333E0,2.5E0,1.2335185E0,4E1,9.034405E-2,1.129491E-1,1.1999499E-1,-5.9996963E-2,1.0299841E-1,-5.999407E-2,5.3472556E-2,8.1614085E-2,8.720031E-2,5.1724926E-2,3.0497648E-2,8.090904E-2,-2.4401548E-3,2.2878341E-2,2.0627236E-2,5.958711E-2,-5.2933223E-3,2.6714375E-2,6.126935E-2,1.8834658E-2,-1.7196773E-2,-6.2063835E-3,-5.999407E-2,1.1999969E-1,2.068908E-2,-5.9999034E-2,-3.6604412E-2,-1.835749E-2,-4.3595847E-2,-5.3202543E-2,1.1999708E-1,-1.5416386E-2],"split_indices":[4,3,3,4,3,3,4,16,21,33,6,13,13,33,24,6,0,8,12,35,23,0,38,29,21,26,16,29,12,3,6,0,0,0,0,0,0,0,0,0,0,0,0,0,0,0,0,0,0,0,0,0,0,0,0,0,0,0,0,0,0,0,0],"split_type":[0,0,0,0,0,0,0,0,0,0,0,0,0,0,0,0,0,0,0,0,0,0,0,0,0,0,0,0,0,0,0,0,0,0,0,0,0,0,0,0,0,0,0,0,0,0,0,0,0,0,0,0,0,0,0,0,0,0,0,0,0,0,0],"sum_hessian":[1.4610082E8,5.1539356E7,9.456146E7,1.1951762E7,3.9587596E7,5.0934572E7,4.3626884E7,3.3820495E6,8.569713E6,2.1102266E7,1.8485328E7,1.5316754E7,3.561782E7,2.584814E7,1.7778744E7,3.3366792E6,4.5370004E4,9.253608E5,7.644352E6,3.1353342E6,1.7966932E7,6.768863E6,1.1716465E7,1.2469217E7,2.8475368E6,3.552402E7,9.379738E4,4.6885406E5,2.5379286E7,1.7706894E7,7.184953E4,4.889415E5,2.8477378E6,2.0419168E4,2.4950836E4,9.132401E5,1.2120711E4,5.555041E6,2.089311E6,8.4895294E5,2.2863815E6,1.7484378E7,4.825542E5,4.3740745E6,2.3947882E6,1.0963465E7,7.530007E5,1.179104E7,6.78177E5,4.6977953E5,2.377757E6,1.803262E7,1.7491402E7,1.2120711E4,8.167667E4,3.644092E5,1.04444875E5,2.3172708E7,2.2065782E6,8.514344E6,9.19255E6,3.0628752E4,4.1220773E4],"tree_param":{"num_deleted":"0","num_feature":"39","num_nodes":"63","size_leaf_vector":"1"}},{"base_weights":[1.2439939E-2,5.2475482E-2,-3.2914826E-1,-4.8891893E-1,7.943501E-2,-2.5053445E-1,-5.5777127E-1,-7.018997E-1,-3.6159715E-1,9.8247275E-2,-2.3765954E-1,-2.1346895E-1,-5.977273E-1,-6.084665E-1,-7.254434E-2,4.8726067E-1,-7.1357787E-1,1.4675106E-1,-4.0115032E-1,4.0884312E-2,1.5014932E-1,-1.0359529E-1,-3.7257016E-1,-2.2145273E-1,1.2562014E0,-7.203723E-1,1.3072772E-1,-6.287286E-1,1.0894706E-1,-2.387434E-1,1.1862974E0,-5.9995793E-2,1.19979925E-1,-5.8012366E-2,-1.7883688E-2,1.1998505E-1,1.2200918E-3,-3.4036746E-3,-3.6435764E-2,3.925982E-3,-3.432148E-2,1.299251E-2,-7.5898925E-3,-4.472152E-2,-9.767401E-4,-8.87009E-3,-3.683269E-2,3.3100042E-2,-1.868615E-2,-5.999123E-2,1.1998762E-1,-6.000237E-2,-5.0547495E-3,-6.0001586E-2,7.9366796E-2,1.3243462E-2,-5.0864518E-2,-2.9275132E-2,1.1998505E-1,1.1998505E-1,-3.0498862E-2,1.1998677E-1,-5.999123E-2],"categories":[],"categories_nodes":[],"categories_segments":[],"categories_sizes":[],"default_left":[0,0,0,0,0,0,0,0,0,0,0,0,0,0,0,0,0,0,0,0,0,0,0,0,0,0,0,0,0,0,0,0,0,0,0,0,0,0,0,0,0,0,0,0,0,0,0,0,0,0,0,0,0,0,0,0,0,0,0,0,0,0,0],"id":1,"left_children":[1,3,5,7,9,11,13,15,17,19,21,23,25,27,29,31,33,35,37,39,41,43,45,47,49,51,53,55,57,59,61,-1,-1,-1,-1,-1,-1,-1,-1,-1,-1,-1,-1,-1,-1,-1,-1,-1,-1,-1,-1,-1,-1,-1,-1,-1,-1,-1,-1,-1,-1,-1,-1],"loss_changes":[2.0083039E6,1.9185558E6,2.7689162E5,1.6907688E5,7.4691806E5,1.4752919E5,9.696775E4,3.23965E4,7.846209E4,3.5190825E5,1.2683066E5,1.215385E5,9.87955E4,5.1882E4,7.801607E4,2.8420332E4,1.3104875E4,5.012317E4,7.0496125E4,2.1608917E5,1.863615E5,1.4638458E5,8.0342375E4,7.934081E4,2.7355633E4,1.8447E4,1.2089064E5,1.951375E4,6.475332E4,8.1603984E4,2.64023E4,0E0,0E0,0E0,0E0,0E0,0E0,0E0,0E0,0E0,0E0,0E0,0E0,0E0,0E0,0E0,0E0,0E0,0E0,0E0,0E0,0E0,0E0,0E0,0E0,0E0,0E0,0E0,0E0,0E0,0E0,0E0,0E0],"parents":[2147483647,0,0,1,1,2,2,3,3,4,4,5,5,6,6,7,7,8,8,9,9,10,10,11,11,12,12,13,13,14,14,15,15,16,16,17,17,18,18,19,19,20,20,21,21,22,22,23,23,24,24,25,25,26,26,27,27,28,28,29,29,30,30],"right_children":[2,4,6,8,10,12,14,16,18,20,22,24,26,28,30,32,34,36,38,40,42,44,46,48,50,52,54,56,58,60,62,-1,-1,-1,-1,-1,-1,-1,-1,-1,-1,-1,-1,-1,-1,-1,-1,-1,-1,-1,-1,-1,-1,-1,-1,-1,-1,-1,-1,-1,-1,-1,-1],"split_conditions":[2.579772E2,-4.0636734E2,4.2064404E2,-5.5366614E2,2.6E0,3.2E0,6E-1,6.25E-1,4E-1,6E0,3.96E0,3.3333333E0,3.3333334E-1,6E-1,3.3333334E-1,1.0539375E3,4E-1,1.1279515E3,1.82E0,5.7E0,3.5E0,-3.6E0,-8E-1,3E-1,1.3333334E0,1.7E1,1E0,2.2222222E-1,2.6333334E0,1.1666666E0,4.8529465E2,-5.9995793E-2,1.19979925E-1,-5.8012366E-2,-1.7883688E-2,1.1998505E-1,1.2200918E-3,-3.4036746E-3,-3.6435764E-2,3.925982E-3,-3.432148E-2,1.299251E-2,-7.5898925E-3,-4.472152E-2,-9.767401E-4,-8.87009E-3,-3.683269E-2,3.3100042E-2,-1.868615E-2,-5.999123E-2,1.1998762E-1,-6.000237E-2,-5.0547495E-3,-6.0001586E-2,7.9366796E-2,1.3243462E-2,-5.0864518E-2,-2.9275132E-2,1.1998505E-1,1.1998505E-1,-3.0498862E-2,1.1998677E-1,-5.999123E-2],"split_indices":[2,2,2,2,13,28,25,17,28,32,38,29,31,31,31,0,31,0,38,37,38,21,26,13,12,32,5,24,14,29,2,0,0,0,0,0,0,0,0,0,0,0,0,0,0,0,0,0,0,0,0,0,0,0,0,0,0,0,0,0,0,0,0],"split_type":[0,0,0,0,0,0,0,0,0,0,0,0,0,0,0,0,0,0,0,0,0,0,0,0,0,0,0,0,0,0,0,0,0,0,0,0,0,0,0,0,0,0,0,0,0,0,0,0,0,0,0,0,0,0,0,0,0,0,0,0,0,0,0],"sum_hessian":[1.4685234E8,1.3144629E8,1.5406046E7,6.2350755E6,1.2521122E8,1.1464046E7,3.9419995E6,2.3328068E6,3.9022685E6,1.1819884E8,7.0123775E6,1.0358228E7,1.1058179E6,3.5691082E6,3.7289125E5,2.2686049E4,2.3101208E6,2.8170547E5,3.620563E6,5.614571E7,6.2053124E7,3.5172228E6,3.495155E6,1.0302264E7,5.5964613E4,9.464678E5,1.5935014E5,3.471074E6,9.8034336E4,3.2940266E5,4.3488617E4,1.0210055E4,1.2475994E4,2.2568045E6,5.331621E4,2.4951988E4,2.5675347E5,4.761067E5,3.1444562E6,5.5183852E7,9.6186E5,5.9096856E7,2.9562672E6,5.878177E5,2.929405E6,8.783431E5,2.6168118E6,1.9295569E5,1.0109308E7,6.0606353E3,4.9903977E4,9.055999E5,4.0867953E4,7.878826E4,8.0561875E4,3.06579E4,3.440416E6,7.308234E4,2.4951988E4,2.4951988E4,3.0445066E5,3.7427984E4,6.0606353E3],"tree_param":{"num_deleted":"0","num_feature":"39","num_nodes":"63","size_leaf_vector":"1"}},{"base_weights":[-2.144074E-3,-2.553315E-1,5.956846E-1,-4.9204367E-1,-8.9891754E-2,4.2367122E-1,9.9264073E-1,-6.288395E-1,-4.2192638E-1,-2.1409008E-1,2.2706537E-2,2.7612162E-1,5.566858E-1,8.9872605E-1,1.3228142E0,-6.3389874E-1,2.5106955E-1,-3.8722193E-1,-5.17943E-1,-1.609843E-1,-3.2733676E-1,1.10108286E-1,-1.4925809E-1,3.52307E-1,1.19035E-1,6.1700404E-1,3.576219E-1,7.565509E-1,1.0253335E0,1.352027E0,-4.592008E-1,-5.719187E-2,-4.713681E-2,7.402473E-2,-5.999579E-2,-3.693663E-2,-2.7274251E-2,2.6983213E-2,-4.2256344E-2,-4.5327083E-3,-1.7831525E-2,-2.6866924E-2,1.2000554E-1,9.1632165E-2,7.861194E-3,-1.3332789E-2,7.2701484E-2,5.3381342E-2,2.5401745E-2,6.2630676E-2,5.1644235E-3,9.764102E-2,4.7604933E-2,2.4484495E-2,7.598808E-2,5.995988E-3,6.307113E-2,1.1677143E-1,7.795065E-2,1.1170699E-1,9.402922E-2,-5.9996188E-2,1.19987436E-1],"categories":[],"categories_nodes":[],"categories_segments":[],"categories_sizes":[],"default_left":[0,0,0,0,0,0,0,0,0,0,0,0,0,0,0,0,0,0,0,0,0,0,0,0,0,0,0,0,0,0,0,0,0,0,0,0,0,0,0,0,0,0,0,0,0,0,0,0,0,0,0,0,0,0,0,0,0,0,0,0,0,0,0],"id":2,"left_children":[1,3,5,7,9,11,13,15,17,19,21,23,25,27,29,31,33,35,37,39,41,43,45,47,49,51,53,55,57,59,61,-1,-1,-1,-1,-1,-1,-1,-1,-1,-1,-1,-1,-1,-1,-1,-1,-1,-1,-1,-1,-1,-1,-1,-1,-1,-1,-1,-1,-1,-1,-1,-1],"loss_changes":[2.2096064E7,4.0160155E6,2.965548E6,4.04653E5,8.441374E5,5.94691E5,4.07144E5,6.3643E4,9.29395E4,1.7261912E5,4.7584447E5,1.71922E5,1.913365E5,1.840095E5,1.51369E5,5.1453E4,5.51628E4,7.064225E4,6.4982625E4,1.2620234E5,1.4232412E5,2.5737686E5,1.9642762E5,1.05985375E5,1.6968119E5,1.61949E5,1.1316641E5,1.0449575E5,1.196535E5,2.2392E4,2.6714072E4,0E0,0E0,0E0,0E0,0E0,0E0,0E0,0E0,0E0,0E0,0E0,0E0,0E0,0E0,0E0,0E0,0E0,0E0,0E0,0E0,0E0,0E0,0E0,0E0,0E0,0E0,0E0,0E0,0E0,0E0,0E0,0E0],"parents":[2147483647,0,0,1,1,2,2,3,3,4,4,5,5,6,6,7,7,8,8,9,9,10,10,11,11,12,12,13,13,14,14,15,15,16,16,17,17,18,18,19,19,20,20,21,21,22,22,23,23,24,24,25,25,26,26,27,27,28,28,29,29,30,30],"right_children":[2,4,6,8,10,12,14,16,18,20,22,24,26,28,30,32,34,36,38,40,42,44,46,48,50,52,54,56,58,60,62,-1,-1,-1,-1,-1,-1,-1,-1,-1,-1,-1,-1,-1,-1,-1,-1,-1,-1,-1,-1,-1,-1,-1,-1,-1,-1,-1,-1,-1,-1,-1,-1],"split_conditions":[1.0682716E0,-1.2213974E2,1.1941866E0,8.2740015E-1,9.91283E-1,1.1138313E0,1.369239E0,3.6666667E0,1E0,1E0,1E0,1E0,1.5E1,7.5E-1,2.7142856E0,7.455322E-1,1.0539375E3,-2.1311984E2,1.0993942E3,1.5717375E3,5.2E0,1.1276979E3,3.2E0,1E0,-1.75E0,-2.5E0,2.1666667E0,-1.2857143E0,-2.6E0,8E0,1E0,-5.719187E-2,-4.713681E-2,7.402473E-2,-5.999579E-2,-3.693663E-2,-2.7274251E-2,2.6983213E-2,-4.2256344E-2,-4.5327083E-3,-1.7831525E-2,-2.6866924E-2,1.2000554E-1,9.1632165E-2,7.861194E-3,-1.3332789E-2,7.2701484E-2,5.3381342E-2,2.5401745E-2,6.2630676E-2,5.1644235E-3,9.764102E-2,4.7604933E-2,2.4484495E-2,7.598808E-2,5.995988E-3,6.307113E-2,1.1677143E-1,7.795065E-2,1.1170699E-1,9.402922E-2,-5.9996188E-2,1.19987436E-1],"split_indices":[3,2,3,3,3,3,3,18,5,5,5,5,32,30,13,3,0,2,0,1,28,1,35,32,26,16,29,11,26,32,5,0,0,0,0,0,0,0,0,0,0,0,0,0,0,0,0,0,0,0,0,0,0,0,0,0,0,0,0,0,0,0,0],"split_type":[0,0,0,0,0,0,0,0,0,0,0,0,0,0,0,0,0,0,0,0,0,0,0,0,0,0,0,0,0,0,0,0,0,0,0,0,0,0,0,0,0,0,0,0,0,0,0,0,0,0,0,0,0,0,0,0,0,0,0,0,0,0,0],"sum_hessian":[1.4598093E8,1.02549864E8,4.343106E7,4.2187588E7,6.036227E7,3.030079E7,1.313027E7,1.4296236E7,2.7891354E7,2.8702644E7,3.1659628E7,1.4365511E7,1.5935278E7,1.0222565E7,2.9077048E6,1.4214506E7,8.172966E4,2.0486626E7,7.4047275E6,1.9539714E7,9.162929E6,2.099091E7,1.0668717E7,9.673812E6,4.6916995E6,1.2229595E7,3.7056832E6,4.815245E6,5.4073205E6,2.8608075E6,4.6897266E4,5.053977E6,9.160529E6,4.8836066E4,3.2893586E4,7.8523325E6,1.2634294E7,8.778983E4,7.3169375E6,7.2770345E6,1.226268E7,9.120508E6,4.24212E4,2.3741077E5,2.07535E7,1.0496085E7,1.7263222E5,9.621422E5,8.711669E6,3.558284E5,4.335871E6,4.2904275E5,1.1800552E7,3.4088725E6,2.968108E5,2.1488811E5,4.600357E6,5.6774506E5,4.839575E6,2.2871398E6,5.736676E5,4.0837094E4,6.0601714E3],"tree_param":{"num_deleted":"0","num_feature":"39","num_nodes":"63","size_leaf_vector":"1"}},{"base_weights":[2.8501037E-3,3.893811E-1,-3.0095917E-1,8.8630486E-1,2.6833975E-1,-1.1976311E-1,-4.6904758E-1,1.1658698E0,7.5012463E-1,1.8642585E-1,4.7698408E-1,-2.0306568E-1,4.7733683E-2,-3.6706936E-1,-5.656142E-1,1.2772197E0,1.008982E0,1.170106E0,6.9636E-1,3.0786183E-1,3.2973487E-2,6.8364096E-1,3.2300717E-1,-2.1155645E-1,2.956879E-1,2.4022292E-1,-3.5901956E-2,-4.274826E-1,-2.3676911E-1,5.0060898E-2,-5.722321E-1,1.6105117E-2,1.03020504E-1,8.329579E-2,-5.9805464E-2,-6.1529655E-2,9.672848E-2,8.3319634E-2,5.1165227E-2,5.136277E-2,2.153999E-2,-3.8524594E-2,3.728161E-3,4.0297087E-2,6.3785955E-2,5.1851887E-2,2.0600524E-2,-2.2655822E-2,-1.2530123E-2,9.085054E-2,1.3435346E-3,5.057763E-2,1.587293E-2,-3.767882E-3,9.83839E-2,-3.4423467E-2,1.23163104E-1,-1.4101252E-2,-3.6113452E-2,-1.8237961E-2,7.9348356E-2,-4.2075735E-2,-5.1043093E-2],"categories":[],"categories_nodes":[],"categories_segments":[],"categories_sizes":[],"default_left":[0,0,0,0,0,0,0,0,0,0,0,0,0,0,0,0,0,0,0,0,0,0,0,0,0,0,0,0,0,0,0,0,0,0,0,0,0,0,0,0,0,0,0,0,0,0,0,0,0,0,0,0,0,0,0,0,0,0,0,0,0,0,0],"id":3,"left_children":[1,3,5,7,9,11,13,15,17,19,21,23,25,27,29,31,33,35,37,39,41,43,45,47,49,51,53,55,57,59,61,-1,-1,-1,-1,-1,-1,-1,-1,-1,-1,-1,-1,-1,-1,-1,-1,-1,-1,-1,-1,-1,-1,-1,-1,-1,-1,-1,-1,-1,-1,-1,-1],"loss_changes":[1.718151E7,3.872908E6,2.4950745E6,4.80153E5,8.8491975E5,5.5007325E5,4.18506E5,7.21675E4,1.914975E5,6.928416E5,4.6448225E5,1.11498375E5,2.1080719E5,1.6270925E5,8.8938E4,2.739075E4,9.7044125E4,7.2793E4,1.47373E5,2.6780725E5,1.1517666E5,1.27481E5,1.7814125E5,1.0187725E5,1.0324142E5,6.500536E4,1.2936125E5,7.807725E4,8.503434E4,6.078549E4,6.5778E4,0E0,0E0,0E0,0E0,0E0,0E0,0E0,0E0,0E0,0E0,0E0,0E0,0E0,0E0,0E0,0E0,0E0,0E0,0E0,0E0,0E0,0E0,0E0,0E0,0E0,0E0,0E0,0E0,0E0,0E0,0E0,0E0],"parents":[2147483647,0,0,1,1,2,2,3,3,4,4,5,5,6,6,7,7,8,8,9,9,10,10,11,11,12,12,13,13,14,14,15,15,16,16,17,17,18,18,19,19,20,20,21,21,22,22,23,23,24,24,25,25,26,26,27,27,28,28,29,29,30,30],"right_children":[2,4,6,8,10,12,14,16,18,20,22,24,26,28,30,32,34,36,38,40,42,44,46,48,50,52,54,56,58,60,62,-1,-1,-1,-1,-1,-1,-1,-1,-1,-1,-1,-1,-1,-1,-1,-1,-1,-1,-1,-1,-1,-1,-1,-1,-1,-1,-1,-1,-1,-1,-1,-1],"split_conditions":[-3.9115147E1,8.132314E-1,1.0682716E0,-4.719845E2,1E0,1E0,1.1409864E0,-5.5366614E2,-3.3333333E0,-1.3271439E2,9.057704E-1,3.75E0,1.0029032E0,1E0,-1.3333334E0,2.5E-1,2.6E0,-3.3333333E0,-3E0,-2.4E0,-1.46E2,1.4E0,-1E0,1.5717375E3,1.25E0,-4.4E1,6E0,6.2E0,6.111111E-1,4.94E0,1.2335185E0,1.6105117E-2,1.03020504E-1,8.329579E-2,-5.9805464E-2,-6.1529655E-2,9.672848E-2,8.3319634E-2,5.1165227E-2,5.136277E-2,2.153999E-2,-3.8524594E-2,3.728161E-3,4.0297087E-2,6.3785955E-2,5.1851887E-2,2.0600524E-2,-2.2655822E-2,-1.2530123E-2,9.085054E-2,1.3435346E-3,5.057763E-2,1.587293E-2,-3.767882E-3,9.83839E-2,-3.4423467E-2,1.23163104E-1,-1.4101252E-2,-3.6113452E-2,-1.8237961E-2,7.9348356E-2,-4.2075735E-2,-5.1043093E-2],"split_indices":[2,3,3,2,5,5,3,2,21,2,3,22,3,5,33,27,16,16,33,33,9,23,21,1,27,9,23,21,15,37,3,0,0,0,0,0,0,0,0,0,0,0,0,0,0,0,0,0,0,0,0,0,0,0,0,0,0,0,0,0,0,0,0],"split_type":[0,0,0,0,0,0,0,0,0,0,0,0,0,0,0,0,0,0,0,0,0,0,0,0,0,0,0,0,0,0,0,0,0,0,0,0,0,0,0,0,0,0,0,0,0,0,0,0,0,0,0,0,0,0,0,0,0,0,0,0,0,0,0],"sum_hessian":[1.4631066E8,6.4389308E7,8.192134E7,1.2611989E7,5.177732E7,3.9423532E7,4.2497812E7,4.1311408E6,8.480848E6,3.7180308E7,1.4597012E7,2.6329076E7,1.3094457E7,2.0669744E7,2.1828066E7,2.4162328E6,1.7149079E6,9.6247475E5,7.5183735E6,2.0755356E7,1.6424952E7,6.2323675E6,8.364644E6,2.5888354E7,4.407218E5,3.9661882E6,9.128269E6,1.4122085E7,6.5476585E6,2.3213469E5,2.1595932E7,2.3433703E4,2.3927992E6,1.6840231E6,3.0884797E4,1.8974434E4,9.435003E5,1.0623789E6,6.4559945E6,2.1497772E6,1.8605578E7,4.238253E5,1.6001127E7,2.4131195E6,3.8192482E6,1.4025339E6,6.9621105E6,1.1235134E7,1.465322E7,1.0985829E5,3.3086353E5,3.822671E5,3.5839212E6,9.048228E6,8.004087E4,1.4101935E7,2.014957E4,5.107892E6,1.4397668E6,1.7922477E5,5.290992E4,1.2678467E7,8.917465E6],"tree_param":{"num_deleted":"0","num_feature":"39","num_nodes":"63","size_leaf_vector":"1"}},{"base_weights":[7.2744302E-3,4.067148E-2,-3.3488986E-1,-4.2210928E-1,6.8077795E-2,-2.611792E-1,-6.0930485E-1,-6.3193685E-1,-3.3085716E-1,8.282934E-2,-2.3144194E-1,-2.1662752E-1,-5.073443E-1,-6.253853E-1,-2.1167278E-1,-2.0707263E-1,-7.009316E-1,-2.624341E-1,-5.869155E-1,1.0547883E-1,-8.1822805E-2,-1.5888314E-1,-4.5192182E-1,-2.2617249E-1,1.262491E0,8.048294E-2,-5.9447163E-1,-5.7270586E-1,-7.306048E-1,5.934889E-1,-7.338874E-1,6.6788964E-2,-3.3439446E-2,-5.8391903E-2,-4.1132823E-2,-5.791744E-5,-2.725552E-2,-4.8896417E-2,1.2816967E-1,-2.8531088E-3,9.722263E-3,-1.3540555E-2,7.428138E-3,9.948259E-3,-1.9538475E-2,-3.8874105E-2,1.23183936E-1,-2.2470247E-2,-3.6789854E-3,-5.9403088E-2,1.20310724E-1,6.987835E-2,-4.046329E-2,-5.0404284E-2,1.3498749E-2,-4.810911E-2,4.85862E-2,-5.841668E-2,-5.865733E-2,-5.887589E-2,8.909569E-2,-5.930984E-2,-5.857478E-2],"categories":[],"categories_nodes":[],"categories_segments":[],"categories_sizes":[],"default_left":[0,0,0,0,0,0,0,0,0,0,0,0,0,0,0,0,0,0,0,0,0,0,0,0,0,0,0,0,0,0,0,0,0,0,0,0,0,0,0,0,0,0,0,0,0,0,0,0,0,0,0,0,0,0,0,0,0,0,0,0,0,0,0],"id":4,"left_children":[1,3,5,7,9,11,13,15,17,19,21,23,25,27,29,31,33,35,37,39,41,43,45,47,49,51,53,55,57,59,61,-1,-1,-1,-1,-1,-1,-1,-1,-1,-1,-1,-1,-1,-1,-1,-1,-1,-1,-1,-1,-1,-1,-1,-1,-1,-1,-1,-1,-1,-1,-1,-1],"loss_changes":[1.6765434E6,1.6953204E6,2.638985E5,1.4309338E5,5.575738E5,1.127875E5,1.7663125E4,6.6395875E4,9.125069E4,4.485242E5,9.476125E4,1.2294359E5,8.0717875E4,1.4716125E4,4.514762E4,6.954282E4,1.05419375E4,8.417925E4,5.839697E4,2.3949938E5,2.2211997E5,1.0773528E5,9.933559E4,8.528734E4,2.7025352E4,9.458463E4,3.7274594E4,5.9832625E4,2.8125E-1,2.9215645E4,1.3671875E-1,0E0,0E0,0E0,0E0,0E0,0E0,0E0,0E0,0E0,0E0,0E0,0E0,0E0,0E0,0E0,0E0,0E0,0E0,0E0,0E0,0E0,0E0,0E0,0E0,0E0,0E0,0E0,0E0,0E0,0E0,0E0,0E0],"parents":[2147483647,0,0,1,1,2,2,3,3,4,4,5,5,6,6,7,7,8,8,9,9,10,10,11,11,12,12,13,13,14,14,15,15,16,16,17,17,18,18,19,19,20,20,21,21,22,22,23,23,24,24,25,25,26,26,27,27,28,28,29,29,30,30],"right_children":[2,4,6,8,10,12,14,16,18,20,22,24,26,28,30,32,34,36,38,40,42,44,46,48,50,52,54,56,58,60,62,-1,-1,-1,-1,-1,-1,-1,-1,-1,-1,-1,-1,-1,-1,-1,-1,-1,-1,-1,-1,-1,-1,-1,-1,-1,-1,-1,-1,-1,-1,-1,-1],"split_conditions":[1.1941866E0,7.7530456E-1,1.369239E0,6.80484E-1,2.6E0,2.8333333E0,1.7E1,2.5E0,1E0,1.1182108E0,2.5E-1,3.2E0,1.2753638E3,8.333333E-1,1.8E1,2.5E-1,2.6666667E0,3E1,3.25E0,8.561896E-1,1E1,2.5E1,5.5E1,2.3E0,4E0,3E-1,5E-1,3.1333334E0,8E0,1.404331E0,3.0357143E-1,6.6788964E-2,-3.3439446E-2,-5.8391903E-2,-4.1132823E-2,-5.791744E-5,-2.725552E-2,-4.8896417E-2,1.2816967E-1,-2.8531088E-3,9.722263E-3,-1.3540555E-2,7.428138E-3,9.948259E-3,-1.9538475E-2,-3.8874105E-2,1.23183936E-1,-2.2470247E-2,-3.6789854E-3,-5.9403088E-2,1.20310724E-1,6.987835E-2,-4.046329E-2,-5.0404284E-2,1.3498749E-2,-4.810911E-2,4.85862E-2,-5.841668E-2,-5.865733E-2,-5.887589E-2,8.909569E-2,-5.930984E-2,-5.857478E-2],"split_indices":[3,3,3,3,13,18,32,38,5,3,16,23,0,11,32,12,19,6,37,3,32,6,32,14,7,19,31,24,32,3,34,0,0,0,0,0,0,0,0,0,0,0,0,0,0,0,0,0,0,0,0,0,0,0,0,0,0,0,0,0,0,0,0],"split_type":[0,0,0,0,0,0,0,0,0,0,0,0,0,0,0,0,0,0,0,0,0,0,0,0,0,0,0,0,0,0,0,0,0,0,0,0,0,0,0,0,0,0,0,0,0,0,0,0,0,0,0,0,0,0,0,0,0,0,0,0,0,0,0],"sum_hessian":[1.4671416E8,1.336675E8,1.3046655E7,7.4733375E6,1.2619417E8,1.0284213E7,2.762442E6,2.265039E6,5.2082985E6,1.2027075E8,5.9234145E6,8.708183E6,1.5760305E6,2.6550692E6,1.07372836E5,3.1643884E5,1.9486001E6,4.110032E6,1.0982664E6,1.0572699E8,1.4543765E7,4.4567295E6,1.4666849E6,8.652349E6,5.5834008E4,2.0344375E5,1.3725868E6,1.7692709E6,8.8579844E5,4.224235E4,6.513049E4,5.3272477E4,2.6316638E5,1.6869588E6,2.6164136E5,9.461155E5,3.1639165E6,1.0862145E6,1.205196E4,1.0794815E7,9.493218E7,9.69226E6,4.8515045E6,1.03198125E6,3.4247482E6,1.4420655E6,2.4619477E4,6.6372335E6,2.0151156E6,5.999469E3,4.983454E4,8.647586E4,1.1696788E5,1.3114452E6,6.114146E4,1.727322E6,4.1948773E4,7.693621E5,1.164363E5,1.1880368E4,3.036198E4,1.197741E4,5.315308E4],"tree_param":{"num_deleted":"0","num_feature":"39","num_nodes":"63","size_leaf_vector":"1"}},{"base_weights":[1.225427E-3,-2.3802707E-1,5.5742806E-1,-4.970512E-1,-8.8158734E-2,3.705524E-1,8.3813727E-1,-5.956413E-1,-4.2241392E-1,-1.7915207E-1,5.9098408E-2,2.5792605E-1,4.8891774E-1,6.815297E-1,1.0670531E0,-6.002116E-1,9.0925944E-1,-3.8068753E-1,-5.3222513E-1,-6.562575E-2,-2.3479044E-1,1.6323824E-1,-1.4078893E-1,2.4879523E-1,1.2791857E0,5.580253E-1,3.3528805E-1,7.36385E-1,3.5194892E-1,3.1428108E-1,1.0873501E0,-4.831352E-2,2.9167503E-2,1.1567414E-1,-5.8403596E-2,-2.6300225E-2,-3.642927E-2,1.19314395E-1,-4.32476E-2,-7.0838844E-3,4.9945313E-2,-1.5947923E-2,-2.5018156E-2,7.470821E-2,1.2290078E-2,2.470398E-3,-1.6158754E-2,2.5537759E-2,1.041623E-2,3.6200356E-2,1.17554136E-1,2.9719474E-2,5.3501382E-2,9.603569E-2,2.2793991E-2,5.710028E-2,1.0530231E-1,1.3454294E-2,4.9579587E-2,1.1311845E-1,-1.2146072E-2,9.0781316E-2,6.155619E-2],"categories":[],"categories_nodes":[],"categories_segments":[],"categories_sizes":[],"default_left":[0,0,0,0,0,0,0,0,0,0,0,0,0,0,0,0,0,0,0,0,0,0,0,0,0,0,0,0,0,0,0,0,0,0,0,0,0,0,0,0,0,0,0,0,0,0,0,0,0,0,0,0,0,0,0,0,0,0,0,0,0,0,0],"id":5,"left_children":[1,3,5,7,9,11,13,15,17,19,21,23,25,27,29,31,33,35,37,39,41,43,45,47,49,51,53,55,57,59,61,-1,-1,-1,-1,-1,-1,-1,-1,-1,-1,-1,-1,-1,-1,-1,-1,-1,-1,-1,-1,-1,-1,-1,-1,-1,-1,-1,-1,-1,-1,-1,-1],"loss_changes":[1.9555856E7,3.988915E6,2.318663E6,2.77136E5,8.722114E5,3.53744E5,6.33298E5,1.116085E5,9.821525E4,2.5412625E5,5.1750412E5,1.267935E5,1.373625E5,1.896375E5,1.096415E5,5.78685E4,4.3225406E4,6.0242E4,9.99705E4,2.0927798E5,7.4579E4,1.2107281E5,8.94597E4,1.1255919E5,1.8948812E4,1.8433775E5,1.7490738E5,1.180155E5,7.3657734E4,9.657445E4,1.05327E5,0E0,0E0,0E0,0E0,0E0,0E0,0E0,0E0,0E0,0E0,0E0,0E0,0E0,0E0,0E0,0E0,0E0,0E0,0E0,0E0,0E0,0E0,0E0,0E0,0E0,0E0,0E0,0E0,0E0,0E0,0E0,0E0],"parents":[2147483647,0,0,1,1,2,2,3,3,4,4,5,5,6,6,7,7,8,8,9,9,10,10,11,11,12,12,13,13,14,14,15,15,16,16,17,17,18,18,19,19,20,20,21,21,22,22,23,23,24,24,25,25,26,26,27,27,28,28,29,29,30,30],"right_children":[2,4,6,8,10,12,14,16,18,20,22,24,26,28,30,32,34,36,38,40,42,44,46,48,50,52,54,56,58,60,62,-1,-1,-1,-1,-1,-1,-1,-1,-1,-1,-1,-1,-1,-1,-1,-1,-1,-1,-1,-1,-1,-1,-1,-1,-1,-1,-1,-1,-1,-1,-1,-1],"split_conditions":[1.0695689E0,-1.4067232E2,2.4437337E2,8.4029794E-1,1.0093329E0,1.1118109E0,1.2656826E0,3.8E0,1E0,1.5506329E3,1E0,2.6666667E0,1E0,1.6762522E3,-1.5714285E0,1.25E0,1.0539375E3,2.25E0,1.16938E3,2E0,1E0,-2.3E0,9.583333E-1,1.1E1,3.3333334E-1,2.5E1,-3E0,3.3333333E0,2.5E-1,-2E0,3.3333334E-1,-4.831352E-2,2.9167503E-2,1.1567414E-1,-5.8403596E-2,-2.6300225E-2,-3.642927E-2,1.19314395E-1,-4.32476E-2,-7.0838844E-3,4.9945313E-2,-1.5947923E-2,-2.5018156E-2,7.470821E-2,1.2290078E-2,2.470398E-3,-1.6158754E-2,2.5537759E-2,1.041623E-2,3.6200356E-2,1.17554136E-1,2.9719474E-2,5.3501382E-2,9.603569E-2,2.2793991E-2,5.710028E-2,1.0530231E-1,1.3454294E-2,4.9579587E-2,1.1311845E-1,-1.2146072E-2,9.0781316E-2,6.155619E-2],"split_indices":[3,2,2,3,3,3,3,18,5,1,5,11,5,1,11,33,0,38,1,35,5,16,29,32,25,6,26,18,31,11,31,0,0,0,0,0,0,0,0,0,0,0,0,0,0,0,0,0,0,0,0,0,0,0,0,0,0,0,0,0,0,0,0],"split_type":[0,0,0,0,0,0,0,0,0,0,0,0,0,0,0,0,0,0,0,0,0,0,0,0,0,0,0,0,0,0,0,0,0,0,0,0,0,0,0,0,0,0,0,0,0,0,0,0,0,0,0,0,0,0,0,0,0,0,0,0,0,0,0],"sum_hessian":[1.46956E8,1.027554E8,4.4200596E7,3.7662176E7,6.5093228E7,2.6535324E7,1.766527E7,1.6227238E7,2.1434936E7,4.0232628E7,2.48606E7,1.3597299E7,1.2938024E7,1.0489276E7,7.175995E6,1.6178107E7,4.9130836E4,1.553276E7,5.9021765E6,1.3232535E7,2.7000092E7,1.6344984E7,8.515616E6,1.3476808E7,1.2049136E5,8.923807E6,4.0142165E6,8.992557E6,1.4967185E6,1.8840777E5,6.987587E6,1.6116178E7,6.1929098E4,3.7013664E4,1.2117172E4,9.161468E6,6.3712915E6,2.4310238E4,5.8778665E6,1.2807032E7,4.2550288E5,1.8559994E7,8.440097E6,2.0136633E5,1.6143617E7,2.2378578E6,6.2777585E6,8.455472E6,5.0213355E6,2.2541688E4,9.794967E4,3.3243448E6,5.5994625E6,2.2082214E5,3.7933942E6,8.65479E6,3.3776738E5,8.8761225E5,6.091063E5,5.6084406E4,1.3232336E5,6.080625E6,9.0696194E5],"tree_param":{"num_deleted":"0","num_feature":"39","num_nodes":"63","size_leaf_vector":"1"}},{"base_weights":[3.8943442E-3,4.1481066E-1,-2.4980457E-1,8.7104934E-1,3.1788167E-1,-9.051238E-2,-4.727503E-1,1.0899363E0,7.365647E-1,2.365207E-1,5.25308E-1,-1.712863E-1,7.066659E-2,-3.9982966E-1,-5.629162E-1,1.1020846E0,-5.8929995E-2,9.4608384E-1,6.162506E-1,3.0627987E-1,7.240532E-2,4.5311412E-1,9.352577E-1,-7.174587E-2,-2.1402372E-1,2.198678E-1,-3.4130428E-2,-4.0350085E-1,1.2363605E0,-5.6773335E-1,6.829331E-1,3.1576872E-2,8.9363344E-2,6.457778E-2,9.541126E-2,-1.9787606E-2,5.088E-2,7.882056E-2,2.3395387E-2,-5.518841E-3,1.0040574E-2,4.8141416E-2,2.3061031E-2,8.0894515E-2,-7.668922E-3,-2.032928E-2,-1.0253347E-4,-2.5020536E-2,-1.227887E-2,8.055163E-2,1.5629578E-2,-3.2919848E-3,1.02445394E-1,1.4918256E-2,-3.3028226E-2,1.22683406E-1,-5.9850372E-2,-4.85923E-2,-3.83308E-2,1.2073999E-1,-4.58196E-3],"categories":[],"categories_nodes":[],"categories_segments":[],"categories_sizes":[],"default_left":[0,0,0,0,0,0,0,0,0,0,0,0,0,0,0,0,0,0,0,0,0,0,0,0,0,0,0,0,0,0,0,0,0,0,0,0,0,0,0,0,0,0,0,0,0,0,0,0,0,0,0,0,0,0,0,0,0,0,0,0,0],"id":6,"left_children":[1,3,5,7,9,11,13,15,17,19,21,23,25,27,29,31,-1,33,35,37,39,41,43,45,47,49,51,53,55,57,59,-1,-1,-1,-1,-1,-1,-1,-1,-1,-1,-1,-1,-1,-1,-1,-1,-1,-1,-1,-1,-1,-1,-1,-1,-1,-1,-1,-1,-1,-1],"loss_changes":[1.5175747E7,2.457379E6,3.196353E6,2.86626E5,7.73467E5,6.8344906E5,2.466125E5,8.22285E4,1.5203725E5,3.7687562E5,3.8214625E5,1.4876881E5,2.7402375E5,1.24563E5,1.00648E5,3.8947E4,0E0,7.5322875E4,6.534425E4,2.1703325E5,7.372198E4,2.6904275E5,1.5136025E5,1.3498875E5,1.4623638E5,1.3941384E5,9.500211E4,1.1416E5,2.7380336E4,5.87175E4,3.9509516E4,0E0,0E0,0E0,0E0,0E0,0E0,0E0,0E0,0E0,0E0,0E0,0E0,0E0,0E0,0E0,0E0,0E0,0E0,0E0,0E0,0E0,0E0,0E0,0E0,0E0,0E0,0E0,0E0,0E0,0E0],"parents":[2147483647,0,0,1,1,2,2,3,3,4,4,5,5,6,6,7,7,8,8,9,9,10,10,11,11,12,12,13,13,14,14,15,15,17,17,18,18,19,19,20,20,21,21,22,22,23,23,24,24,25,25,26,26,27,27,28,28,29,29,30,30],"right_children":[2,4,6,8,10,12,14,16,18,20,22,24,26,28,30,32,-1,34,36,38,40,42,44,46,48,50,52,54,56,58,60,-1,-1,-1,-1,-1,-1,-1,-1,-1,-1,-1,-1,-1,-1,-1,-1,-1,-1,-1,-1,-1,-1,-1,-1,-1,-1,-1,-1,-1,-1],"split_conditions":[-1.8943444E-1,-8.923392E-1,3.067397E-1,-1.2391031E0,1E0,1E0,6.0021794E-1,2.6666667E0,-2E0,-3.3178595E-1,2.6666667E0,-4.8207168E-2,1.2591079E-2,1.9641797E3,5E0,7.1428573E-1,-5.8929995E-2,1E0,6.666667E-1,-3.3333333E0,1.540936E3,-4.0085116E-1,3.1111112E0,1.14E0,1.5127881E3,-2.8E0,5.1E0,-1.3333334E0,2.0401603E3,1.4971713E3,1.7852017E3,3.1576872E-2,8.9363344E-2,6.457778E-2,9.541126E-2,-1.9787606E-2,5.088E-2,7.882056E-2,2.3395387E-2,-5.518841E-3,1.0040574E-2,4.8141416E-2,2.3061031E-2,8.0894515E-2,-7.668922E-3,-2.032928E-2,-1.0253347E-4,-2.5020536E-2,-1.227887E-2,8.055163E-2,1.5629578E-2,-3.2919848E-3,1.02445394E-1,1.4918256E-2,-3.3028226E-2,1.22683406E-1,-5.9850372E-2,-4.85923E-2,-3.83308E-2,1.2073999E-1,-4.58196E-3],"split_indices":[4,4,4,4,5,5,4,16,33,4,23,4,4,1,24,17,0,12,13,21,1,4,18,38,1,21,13,33,1,1,0,0,0,0,0,0,0,0,0,0,0,0,0,0,0,0,0,0,0,0,0,0,0,0,0,0,0,0,0,0,0],"split_type":[0,0,0,0,0,0,0,0,0,0,0,0,0,0,0,0,0,0,0,0,0,0,0,0,0,0,0,0,0,0,0,0,0,0,0,0,0,0,0,0,0,0,0,0,0,0,0,0,0,0,0,0,0,0,0,0,0,0,0,0,0],"sum_hessian":[1.4557208E8,5.5568212E7,9.000387E7,9.736956E6,4.5831256E7,5.249605E7,3.7507828E7,3.7056452E6,6.0313105E6,3.291907E7,1.2912185E7,3.497069E7,1.752536E7,2.0737018E7,1.6770809E7,3.6811625E6,2.448274E4,2.200054E6,3.8312562E6,2.3100098E7,9.81897E6,1.0978778E7,1.933408E6,1.0504499E7,2.446619E7,7.2307805E6,1.0294579E7,2.0690594E7,4.6423562E4,1.6706215E7,6.459403E4,7.622604E4,3.6049365E6,1.4074044E6,7.9264956E5,8.565713E4,3.7455992E6,4.6137422E5,2.2638724E7,2.6808482E6,7.138122E6,5.7730035E6,5.205774E6,1.80081E6,1.3259789E5,2.9275728E6,7.5769265E6,9.299444E6,1.5166746E7,2.1827895E5,7.0125015E6,1.0239907E7,5.4671477E4,3.2285744E5,2.0367736E7,4.037725E4,6.04631E3,1.1539378E7,5.166837E6,3.0521277E4,3.4072754E4],"tree_param":{"num_deleted":"0","num_feature":"39","num_nodes":"61","size_leaf_vector":"1"}},{"base_weights":[-1.430585E-3,2.8028635E-2,-3.464244E-1,-4.080076E-1,5.3106103E-2,-2.663724E-1,-6.102984E-1,-6.46869E-1,-3.075864E-1,7.78305E-2,-1.16079636E-1,-2.0429689E-1,-5.098227E-1,-6.5078527E-1,-4.3092996E-1,-1.7042765E-1,-6.7023385E-1,-1.3412491E-2,-3.9299425E-1,9.942583E-2,-5.8931068E-2,3.7886247E-2,-1.8041962E-1,-2.862004E-1,-5.7585318E-2,9.8776495E-1,-5.5156636E-1,-6.6278815E-1,1.3285078E-1,1.9641855E-1,-6.378609E-1,6.99326E-2,-5.6814604E-2,-5.554392E-2,-4.4150114E-2,7.410645E-2,-9.554007E-3,-3.2398522E-2,1.2472086E-1,6.0676816E-3,1.4574585E-2,-9.384043E-3,9.206132E-3,-3.193528E-4,4.8406072E-2,-3.236269E-2,-1.1108996E-2,-4.3804133E-3,-3.124183E-2,1.24442935E-1,-6.5112435E-3,-5.8486827E-2,1.2275791E-1,1.252401E-1,-4.531532E-2,-5.7097495E-2,-4.4331416E-2,1.3086751E-1,-5.7186417E-2,-5.7391424E-2,4.4382405E-2,-5.6970023E-2,3.5476573E-2],"categories":[],"categories_nodes":[],"categories_segments":[],"categories_sizes":[],"default_left":[0,0,0,0,0,0,0,0,0,0,0,0,0,0,0,0,0,0,0,0,0,0,0,0,0,0,0,0,0,0,0,0,0,0,0,0,0,0,0,0,0,0,0,0,0,0,0,0,0,0,0,0,0,0,0,0,0,0,0,0,0,0,0],"id":7,"left_children":[1,3,5,7,9,11,13,15,17,19,21,23,25,27,29,31,33,35,37,39,41,43,45,47,49,51,53,55,57,59,61,-1,-1,-1,-1,-1,-1,-1,-1,-1,-1,-1,-1,-1,-1,-1,-1,-1,-1,-1,-1,-1,-1,-1,-1,-1,-1,-1,-1,-1,-1,-1,-1],"loss_changes":[1.4898849E6,1.4768634E6,2.4361962E5,1.7618962E5,5.342421E5,1.3372294E5,1.9494125E4,2.4201562E4,1.2992603E5,3.29106E5,1.613167E5,8.472369E4,1.1239122E5,2.0599688E4,6.417514E4,5.7304176E4,5.9023125E3,1.1591882E5,9.3777E4,1.8779388E5,1.5434378E5,1.1400016E5,1.0696641E5,1.0925056E5,9.700087E4,4.581568E4,5.5082188E4,1.1935125E4,4.2095863E4,4.0154062E4,2.985164E4,0E0,0E0,0E0,0E0,0E0,0E0,0E0,0E0,0E0,0E0,0E0,0E0,0E0,0E0,0E0,0E0,0E0,0E0,0E0,0E0,0E0,0E0,0E0,0E0,0E0,0E0,0E0,0E0,0E0,0E0,0E0,0E0],"parents":[2147483647,0,0,1,1,2,2,3,3,4,4,5,5,6,6,7,7,8,8,9,9,10,10,11,11,12,12,13,13,14,14,15,15,16,16,17,17,18,18,19,19,20,20,21,21,22,22,23,23,24,24,25,25,26,26,27,27,28,28,29,29,30,30],"right_children":[2,4,6,8,10,12,14,16,18,20,22,24,26,28,30,32,34,36,38,40,42,44,46,48,50,52,54,56,58,60,62,-1,-1,-1,-1,-1,-1,-1,-1,-1,-1,-1,-1,-1,-1,-1,-1,-1,-1,-1,-1,-1,-1,-1,-1,-1,-1,-1,-1,-1,-1,-1,-1],"split_conditions":[1.204401E0,7.7530456E-1,1.369239E0,-5.5366614E2,2E0,2.75E0,2.3666666E0,-3.6E1,2.5E1,1.1182108E0,2.5E1,6.666667E-1,2.5E-1,9.9E1,8.333333E-1,4.5E-1,2.9333334E0,2.777778E-1,1.9833333E0,2E1,1.4E1,3.4E1,-2.8E0,1.1333333E0,-1.8E0,3.172382E2,1.6666667E-1,1.3333334E0,1.64E2,4.6666667E-1,1.3E1,6.99326E-2,-5.6814604E-2,-5.554392E-2,-4.4150114E-2,7.410645E-2,-9.554007E-3,-3.2398522E-2,1.2472086E-1,6.0676816E-3,1.4574585E-2,-9.384043E-3,9.206132E-3,-3.193528E-4,4.8406072E-2,-3.236269E-2,-1.1108996E-2,-4.3804133E-3,-3.124183E-2,1.24442935E-1,-6.5112435E-3,-5.8486827E-2,1.2275791E-1,1.252401E-1,-4.531532E-2,-5.7097495E-2,-4.4331416E-2,1.3086751E-1,-5.7186417E-2,-5.7391424E-2,4.4382405E-2,-5.6970023E-2,3.5476573E-2],"split_indices":[3,3,3,2,13,33,14,9,6,3,6,10,13,9,11,37,29,15,14,32,32,32,21,14,33,2,10,13,7,19,32,0,0,0,0,0,0,0,0,0,0,0,0,0,0,0,0,0,0,0,0,0,0,0,0,0,0,0,0,0,0,0,0],"split_type":[0,0,0,0,0,0,0,0,0,0,0,0,0,0,0,0,0,0,0,0,0,0,0,0,0,0,0,0,0,0,0,0,0,0,0,0,0,0,0,0,0,0,0,0,0,0,0,0,0,0,0,0,0,0,0,0,0,0,0,0,0,0,0],"sum_hessian":[1.4659533E8,1.3506227E8,1.1533045E7,7.345302E6,1.2771698E8,8.848623E6,2.6844222E6,2.1740675E6,5.1712345E6,1.11432504E8,1.6284476E7,7.050797E6,1.7978261E6,2.1900768E6,4.9434534E5,1.0163352E5,2.0724339E6,1.1635548E6,4.0076798E6,9.623631E7,1.5196192E7,4.799426E6,1.148505E7,4.524781E6,2.5260158E6,4.8752816E4,1.7490732E6,2.157038E6,3.3038766E4,1.2261509E5,3.7173025E5,3.4624355E4,6.700917E4,1.7222508E6,3.501832E5,1.179535E5,1.04560125E6,3.9832198E6,2.4460111E4,7.489615E7,2.1340156E7,1.1379149E7,3.817042E6,4.469429E6,3.299972E5,1.7965275E6,9.688523E6,1.4058431E6,3.1189382E6,3.673391E4,2.489282E6,1.17645625E4,3.6988254E4,1.2203009E4,1.7368702E6,1.4685892E6,6.884489E5,1.1913878E4,2.1124887E4,3.4539387E4,8.807571E4,3.4784112E5,2.388913E4],"tree_param":{"num_deleted":"0","num_feature":"39","num_nodes":"63","size_leaf_vector":"1"}},{"base_weights":[-2.1809489E-3,-2.572007E-1,4.364607E-1,-4.5833072E-1,-1.0048627E-1,2.6755646E-1,7.534785E-1,-5.767203E-1,-3.831605E-1,-1.8164778E-1,-3.7497454E-3,3.476423E-1,1.0150277E-1,6.719424E-1,1.0182024E0,-6.6640824E-1,-5.438941E-1,-3.4381965E-1,-4.8608875E-1,-1.3402493E-1,-2.9136088E-1,3.2902142E-1,-4.3389678E-2,2.807613E-1,5.1168877E-1,8.480499E-1,5.6481462E-2,5.742361E-1,8.103332E-1,1.0359395E0,-5.087535E-1,-5.380967E-2,1.1969785E-1,-4.40818E-2,-1.6538512E-2,-3.561875E-2,-2.3970537E-2,1.2850945E-1,-3.917295E-2,-1.05555286E-4,-1.5131229E-2,-2.399912E-2,1.09682545E-1,5.4537755E-2,1.815471E-2,2.2647246E-3,-1.5523331E-2,3.2479372E-2,1.6609836E-2,4.3019406E-2,2.0200922E-4,9.164625E-2,3.82558E-2,-2.475974E-3,1.8344972E-2,4.682507E-2,-4.9115628E-2,7.1305886E-2,4.3405455E-2,8.663073E-2,5.4069348E-2,9.723372E-2,-6.1408762E-2],"categories":[],"categories_nodes":[],"categories_segments":[],"categories_sizes":[],"default_left":[0,0,0,0,0,0,0,0,0,0,0,0,0,0,0,0,0,0,0,0,0,0,0,0,0,0,0,0,0,0,0,0,0,0,0,0,0,0,0,0,0,0,0,0,0,0,0,0,0,0,0,0,0,0,0,0,0,0,0,0,0,0,0],"id":8,"left_children":[1,3,5,7,9,11,13,15,17,19,21,23,25,27,29,31,33,35,37,39,41,43,45,47,49,51,53,55,57,59,61,-1,-1,-1,-1,-1,-1,-1,-1,-1,-1,-1,-1,-1,-1,-1,-1,-1,-1,-1,-1,-1,-1,-1,-1,-1,-1,-1,-1,-1,-1,-1,-1],"loss_changes":[1.6378496E7,2.9183575E6,2.882311E6,3.6085E5,4.0857888E5,4.6702275E5,4.03861E5,4.636E4,1.00425E5,1.4785231E5,3.1317916E5,2.5993825E5,3.8404612E5,1.93424E5,1.193305E5,5.6689125E4,2.770625E4,8.0407E4,5.1275625E4,1.4432688E5,1.2285469E5,9.099178E4,2.2915202E5,1.5415162E5,9.1024375E4,7.151375E4,1.628411E5,1.10361E5,1.2838025E5,7.36195E4,2.2580896E4,0E0,0E0,0E0,0E0,0E0,0E0,0E0,0E0,0E0,0E0,0E0,0E0,0E0,0E0,0E0,0E0,0E0,0E0,0E0,0E0,0E0,0E0,0E0,0E0,0E0,0E0,0E0,0E0,0E0,0E0,0E0,0E0],"parents":[2147483647,0,0,1,1,2,2,3,3,4,4,5,5,6,6,7,7,8,8,9,9,10,10,11,11,12,12,13,13,14,14,15,15,16,16,17,17,18,18,19,19,20,20,21,21,22,22,23,23,24,24,25,25,26,26,27,27,28,28,29,29,30,30],"right_children":[2,4,6,8,10,12,14,16,18,20,22,24,26,28,30,32,34,36,38,40,42,44,46,48,50,52,54,56,58,60,62,-1,-1,-1,-1,-1,-1,-1,-1,-1,-1,-1,-1,-1,-1,-1,-1,-1,-1,-1,-1,-1,-1,-1,-1,-1,-1,-1,-1,-1,-1,-1,-1],"split_conditions":[7.168159E1,-1.2213974E2,2.4008717E2,-2.7005994E2,-1.3964778E1,1E0,4.2064404E2,-4.517043E2,1E0,1E0,-1.2E0,1.8127829E2,-2.25E0,1.6666666E0,2.3333333E0,3E0,3.8E1,5E0,1E-1,1.4641149E3,5.2E0,-2.6E0,1E0,1.478149E3,5.3E1,5.4E0,1.7601291E2,3.625E0,5.7E1,2E-1,1.4094381E3,-5.380967E-2,1.1969785E-1,-4.40818E-2,-1.6538512E-2,-3.561875E-2,-2.3970537E-2,1.2850945E-1,-3.917295E-2,-1.05555286E-4,-1.5131229E-2,-2.399912E-2,1.09682545E-1,5.4537755E-2,1.815471E-2,2.2647246E-3,-1.5523331E-2,3.2479372E-2,1.6609836E-2,4.3019406E-2,2.0200922E-4,9.164625E-2,3.82558E-2,-2.475974E-3,1.8344972E-2,4.682507E-2,-4.9115628E-2,7.1305886E-2,4.3405455E-2,8.663073E-2,5.4069348E-2,9.723372E-2,-6.1408762E-2],"split_indices":[2,2,2,2,2,5,2,2,5,5,26,2,26,28,13,18,32,7,18,0,28,26,5,1,32,37,2,12,7,26,0,0,0,0,0,0,0,0,0,0,0,0,0,0,0,0,0,0,0,0,0,0,0,0,0,0,0,0,0,0,0,0,0],"split_type":[0,0,0,0,0,0,0,0,0,0,0,0,0,0,0,0,0,0,0,0,0,0,0,0,0,0,0,0,0,0,0,0,0,0,0,0,0,0,0,0,0,0,0,0,0,0,0,0,0,0,0,0,0,0,0,0,0,0,0,0,0,0,0],"sum_hessian":[1.464166E8,9.258757E7,5.3829036E7,4.0547804E7,5.203976E7,3.5118316E7,1.871072E7,1.5747004E7,2.4800802E7,2.8297926E7,2.3741834E7,2.3691952E7,1.1426366E7,1.4304785E7,4.4059345E6,4.219212E6,1.1527792E7,1.7942782E7,6.858019E6,1.973264E7,8.565285E6,2.5271115E6,2.1214724E7,1.683031E7,6.8616415E6,6.4988575E5,1.077648E7,8.3849045E6,5.9198805E6,4.355343E6,5.059131E4,4.2071265E6,1.2085205E4,1.1289113E7,2.3867838E5,5.4453275E6,1.2497455E7,1.1690194E4,6.846329E6,5.7904785E6,1.3942162E7,8.52106E6,4.4224875E4,5.672661E5,1.9598452E6,1.4373868E7,6.840855E6,6.2052995E6,1.0625011E7,6.5276235E6,3.3401825E5,3.601557E5,2.897301E5,7.15628E6,3.6201998E6,8.3074555E6,7.74487E4,4.545122E6,1.3747585E6,3.8530032E6,5.0233962E5,6.6034307E3,4.398788E4],"tree_param":{"num_deleted":"0","num_feature":"39","num_nodes":"63","size_leaf_vector":"1"}},{"base_weights":[1.4509982E-3,4.039322E-1,-2.3385791E-1,7.4189943E-1,2.9740947E-1,-7.023915E-2,-4.3791926E-1,8.968296E-1,5.675735E-1,2.19852E-1,5.0056803E-1,-1.5191013E-1,9.200306E-2,-3.461509E-1,-5.257217E-1,1.0676692E0,7.967702E-1,5.451772E-1,1.2734157E0,5.4828E-1,1.8395963E-1,7.849899E-1,4.3052378E-1,-3.9504096E-2,-2.0304883E-1,2.1970966E-1,-1.7454935E-2,-4.0467587E-1,-2.2649433E-1,-5.294506E-1,7.665252E-1,5.7835493E-2,8.689924E-2,4.193861E-2,6.9607526E-2,3.9932635E-2,7.129357E-2,9.904678E-2,1.0248532E-1,3.724477E-2,6.9664426E-2,2.1218874E-2,8.584666E-3,6.5392576E-2,-6.308788E-2,2.9867563E-2,5.785788E-2,-1.1332712E-2,2.506334E-3,-1.6570536E-2,7.972186E-2,-1.1579916E-3,2.3990225E-2,-6.141473E-3,1.8305855E-2,-3.4732133E-2,-1.6009618E-2,-1.4106394E-2,-3.4703072E-2,5.127765E-3,-4.2902377E-2,-5.8825105E-2,1.1317166E-1],"categories":[],"categories_nodes":[],"categories_segments":[],"categories_sizes":[],"default_left":[0,0,0,0,0,0,0,0,0,0,0,0,0,0,0,0,0,0,0,0,0,0,0,0,0,0,0,0,0,0,0,0,0,0,0,0,0,0,0,0,0,0,0,0,0,0,0,0,0,0,0,0,0,0,0,0,0,0,0,0,0,0,0],"id":9,"left_children":[1,3,5,7,9,11,13,15,17,19,21,23,25,27,29,31,33,35,37,39,41,43,45,47,49,51,53,55,57,59,61,-1,-1,-1,-1,-1,-1,-1,-1,-1,-1,-1,-1,-1,-1,-1,-1,-1,-1,-1,-1,-1,-1,-1,-1,-1,-1,-1,-1,-1,-1,-1,-1],"loss_changes":[1.378508E7,1.933316E6,3.0668105E6,3.475875E5,6.433645E5,6.754845E5,3.293485E5,1.16476E5,9.572975E4,3.48344E5,2.2474475E5,1.9491775E5,2.3860367E5,1.3996E5,1.006555E5,1.611125E4,8.58705E4,9.3455875E4,4.853125E1,7.767094E4,1.6596125E5,1.137165E5,1.5149662E5,7.672233E4,1.1414519E5,1.4790197E5,1.3426381E5,8.0924E4,6.826331E4,8.4427E4,5.85034E4,0E0,0E0,0E0,0E0,0E0,0E0,0E0,0E0,0E0,0E0,0E0,0E0,0E0,0E0,0E0,0E0,0E0,0E0,0E0,0E0,0E0,0E0,0E0,0E0,0E0,0E0,0E0,0E0,0E0,0E0,0E0,0E0],"parents":[2147483647,0,0,1,1,2,2,3,3,4,4,5,5,6,6,7,7,8,8,9,9,10,10,11,11,12,12,13,13,14,14,15,15,16,16,17,17,18,18,19,19,20,20,21,21,22,22,23,23,24,24,25,25,26,26,27,27,28,28,29,29,30,30],"right_children":[2,4,6,8,10,12,14,16,18,20,22,24,26,28,30,32,34,36,38,40,42,44,46,48,50,52,54,56,58,60,62,-1,-1,-1,-1,-1,-1,-1,-1,-1,-1,-1,-1,-1,-1,-1,-1,-1,-1,-1,-1,-1,-1,-1,-1,-1,-1,-1,-1,-1,-1,-1,-1],"split_conditions":[-8.542458E1,8.132314E-1,1.0682716E0,7.6131105E-1,1E0,1E0,1.1409864E0,-5.5366614E2,6.25E-1,-2.25E0,8.6120504E-1,-2.7072453E1,1.0029032E0,1E0,5E0,-2E-1,2.5E1,5.07E0,-2.2E0,7E1,-1.7439275E2,-1.9261877E2,2.3333333E0,1.2E0,3.1E0,-5.996355E1,1.8333334E0,2.2222223E0,6.25E-1,-2.25E0,3.2E-1,5.7835493E-2,8.689924E-2,4.193861E-2,6.9607526E-2,3.9932635E-2,7.129357E-2,9.904678E-2,1.0248532E-1,3.724477E-2,6.9664426E-2,2.1218874E-2,8.584666E-3,6.5392576E-2,-6.308788E-2,2.9867563E-2,5.785788E-2,-1.1332712E-2,2.506334E-3,-1.6570536E-2,7.972186E-2,-1.1579916E-3,2.3990225E-2,-6.141473E-3,1.8305855E-2,-3.4732133E-2,-1.6009618E-2,-1.4106394E-2,-3.4703072E-2,5.127765E-3,-4.2902377E-2,-5.8825105E-2,1.1317166E-1],"split_indices":[2,3,3,3,5,5,3,2,11,33,3,2,3,5,24,16,6,38,33,7,2,2,23,12,11,2,17,12,25,11,38,0,0,0,0,0,0,0,0,0,0,0,0,0,0,0,0,0,0,0,0,0,0,0,0,0,0,0,0,0,0,0,0],"split_type":[0,0,0,0,0,0,0,0,0,0,0,0,0,0,0,0,0,0,0,0,0,0,0,0,0,0,0,0,0,0,0,0,0,0,0,0,0,0,0,0,0,0,0,0,0,0,0,0,0,0,0,0,0,0,0,0,0,0,0,0,0,0,0],"sum_hessian":[1.4555438E8,5.3701436E7,9.185295E7,1.2869633E7,4.08318E7,5.097811E7,4.0874844E7,6.813875E6,6.0557575E6,2.955061E7,1.1281191E7,3.390879E7,1.706932E7,1.998606E7,2.0888782E7,2.5167725E6,4.2971025E6,5.8695205E6,1.8623705E5,2.9112865E6,2.6639324E7,2.2292165E6,9.051975E6,1.0602921E7,2.330587E7,7.877961E6,9.191358E6,1.3421496E7,6.5645635E6,2.0828682E7,6.0101656E4,1.2865658E5,2.388116E6,9.110033E5,3.3860992E6,5.180484E6,6.8903644E5,3.3181836E4,1.530552E5,2.3170255E6,5.9426094E5,1.2929586E7,1.3709738E7,2.18422E6,4.499636E4,7.572651E6,1.4793238E6,4.341569E6,6.2613525E6,2.3226816E7,7.9053984E4,2.0090854E6,5.8688755E6,7.407372E6,1.783986E6,1.1731084E7,1.6904119E6,5.2854955E6,1.2790684E6,2.3692028E5,2.059176E7,1.8117982E4,4.198367E4],"tree_param":{"num_deleted":"0","num_feature":"39","num_nodes":"63","size_leaf_vector":"1"}},{"base_weights":[6.490119E-3,3.3937447E-2,-3.2210654E-1,-3.156894E-1,6.4620815E-2,-2.4198969E-1,-5.8976644E-1,-6.124521E-1,-2.4731825E-1,8.3179645E-2,-1.0953625E-1,-2.5919116E-1,7.086807E-1,-6.09073E-1,2.1047127E-1,-2.0672818E-1,-6.3559175E-1,-5.9079593E-1,-1.9595806E-1,1.0663478E-1,-6.62974E-2,-6.465202E-2,-3.6331493E-1,-2.1779585E-1,-5.7169497E-1,1.4691474E0,-2.5922168E-2,-6.76254E-1,-5.2187324E-1,1.1940088E0,-5.6056056E-2,-5.6184076E-2,6.981113E-2,-5.5516634E-2,-4.6390526E-2,1.2201693E-1,-4.9107097E-2,-6.9379252E-3,-2.874974E-2,4.574157E-3,1.174442E-2,-3.8846046E-2,-3.7904892E-3,-6.4496696E-4,-2.3119733E-2,7.104434E-2,-3.1061899E-2,-2.253891E-2,-3.4232184E-3,2.2777671E-2,-5.197833E-2,1.2411221E-1,1.1436916E-1,-5.8297303E-2,4.373811E-2,-5.5635016E-2,-4.802313E-2,-2.875916E-2,-5.589334E-2,1.3041122E-1,-5.5590935E-2],"categories":[],"categories_nodes":[],"categories_segments":[],"categories_sizes":[],"default_left":[0,0,0,0,0,0,0,0,0,0,0,0,0,0,0,0,0,0,0,0,0,0,0,0,0,0,0,0,0,0,0,0,0,0,0,0,0,0,0,0,0,0,0,0,0,0,0,0,0,0,0,0,0,0,0,0,0,0,0,0,0],"id":10,"left_children":[1,3,5,7,9,11,13,15,17,19,21,23,25,27,29,31,33,35,37,39,41,43,45,47,49,51,53,55,57,59,-1,-1,-1,-1,-1,-1,-1,-1,-1,-1,-1,-1,-1,-1,-1,-1,-1,-1,-1,-1,-1,-1,-1,-1,-1,-1,-1,-1,-1,-1,-1],"loss_changes":[1.3157095E6,1.4443222E6,2.4115712E5,2.2039575E5,4.000505E5,1.4153766E5,4.0025938E4,1.909525E4,1.5574106E5,3.921562E5,1.3577034E5,1.0997506E5,8.593265E4,1.48186875E4,5.4695324E4,5.870407E4,6.25625E3,5.59945E4,1.370896E5,1.9208225E5,1.2032243E5,1.285834E5,5.5947438E4,8.400247E4,6.645541E4,2.4328125E2,3.148984E4,2.08175E3,3.1602562E4,2.4180375E4,0E0,0E0,0E0,0E0,0E0,0E0,0E0,0E0,0E0,0E0,0E0,0E0,0E0,0E0,0E0,0E0,0E0,0E0,0E0,0E0,0E0,0E0,0E0,0E0,0E0,0E0,0E0,0E0,0E0,0E0,0E0],"parents":[2147483647,0,0,1,1,2,2,3,3,4,4,5,5,6,6,7,7,8,8,9,9,10,10,11,11,12,12,13,13,14,14,15,15,16,16,17,17,18,18,19,19,20,20,21,21,22,22,23,23,24,24,25,25,26,26,27,27,28,28,29,29],"right_children":[2,4,6,8,10,12,14,16,18,20,22,24,26,28,30,32,34,36,38,40,42,44,46,48,50,52,54,56,58,60,-1,-1,-1,-1,-1,-1,-1,-1,-1,-1,-1,-1,-1,-1,-1,-1,-1,-1,-1,-1,-1,-1,-1,-1,-1,-1,-1,-1,-1,-1,-1],"split_conditions":[1.204401E0,8.090809E-1,1.369239E0,-5.5366614E2,2.1E0,3.5E0,7.5E1,-3.6E1,-3E0,1.1182108E0,3.6666667E0,3.1E0,2.579772E2,1.1111112E0,2.25E0,5.3333336E-1,3E0,6.666667E-1,9.6E-1,6E0,5E-1,2.72E0,-7E-1,8E0,2.55E0,-3.25E0,1.0779072E3,1.27059E3,2.5E0,1.0978329E3,-5.6056056E-2,-5.6184076E-2,6.981113E-2,-5.5516634E-2,-4.6390526E-2,1.2201693E-1,-4.9107097E-2,-6.9379252E-3,-2.874974E-2,4.574157E-3,1.174442E-2,-3.8846046E-2,-3.7904892E-3,-6.4496696E-4,-2.3119733E-2,7.104434E-2,-3.1061899E-2,-2.253891E-2,-3.4232184E-3,2.2777671E-2,-5.197833E-2,1.2411221E-1,1.1436916E-1,-5.8297303E-2,4.373811E-2,-5.5635016E-2,-4.802313E-2,-2.875916E-2,-5.589334E-2,1.3041122E-1,-5.5590935E-2],"split_indices":[3,3,3,2,13,23,9,9,21,3,23,18,2,13,37,24,32,18,37,32,22,37,36,32,37,16,1,1,33,1,0,0,0,0,0,0,0,0,0,0,0,0,0,0,0,0,0,0,0,0,0,0,0,0,0,0,0,0,0,0,0],"split_type":[0,0,0,0,0,0,0,0,0,0,0,0,0,0,0,0,0,0,0,0,0,0,0,0,0,0,0,0,0,0,0,0,0,0,0,0,0,0,0,0,0,0,0,0,0,0,0,0,0,0,0,0,0,0,0,0,0,0,0,0,0],"sum_hessian":[1.4588035E8,1.3463448E8,1.1245873E7,1.0862287E7,1.2377219E8,8.655178E6,2.590695E6,2.0339574E6,8.828329E6,1.11852744E8,1.1919448E7,8.501355E6,1.5382314E5,2.5296648E6,6.1030195E4,1.097446E5,1.9242128E6,1.1483802E6,7.679949E6,9.668194E7,1.5170809E7,1.0128148E7,1.7913E6,7.5069595E6,9.9439544E5,7.558062E4,7.824252E4,1.4288404E6,1.1008244E6,2.9349521E4,3.1680672E4,7.521252E4,3.4532086E4,9.39699E5,9.8451375E5,1.2370123E4,1.1360101E6,4.6030435E6,3.0769058E6,4.3331844E7,5.335009E7,6.5490275E5,1.4515906E7,8.08799E6,2.0401576E6,3.5028426E4,1.7562716E6,5.4981425E6,2.0088172E6,8.303975E4,9.113556E5,2.4520557E4,5.106006E4,3.5129305E4,4.3113223E4,1.140751E6,2.8808934E5,5.737982E5,5.270262E5,2.3844258E4,5.505265E3],"tree_param":{"num_deleted":"0","num_feature":"39","num_nodes":"61","size_leaf_vector":"1"}},{"base_weights":[-1.281536E-3,-2.5955385E-1,3.9684144E-1,-4.4285294E-1,-1.07287794E-1,2.525601E-1,6.7916167E-1,-5.770076E-1,-3.8072833E-1,-1.763523E-1,-8.751915E-3,1.4132486E-1,3.4348786E-1,6.056703E-1,9.247616E-1,-5.7986325E-1,6.9742274E-1,3.527801E-1,-3.851893E-1,-1.7941697E-1,1.1417481E0,7.775784E-1,-2.803158E-2,2.6101038E-1,7.035245E-2,2.172992E-1,4.1396484E-1,4.9829227E-1,7.5759363E-1,-3.1071356E-1,9.408518E-1,-5.368969E-2,-4.394973E-2,1.119034E-1,-5.6150474E-2,-1.7619604E-2,7.503775E-2,-2.722867E-2,-3.5151727E-2,-1.4570697E-2,1.0393147E-1,1.2536752E-1,-5.83942E-2,1.3654931E-2,9.055935E-2,1.0640716E-2,-5.77741E-3,9.256807E-3,2.9288994E-2,3.2264946E-3,4.1091923E-2,9.421271E-3,3.3503097E-2,3.1294636E-2,7.134642E-2,4.100477E-2,-1.4829663E-2,8.11442E-2,5.602234E-2,9.338458E-2,-6.0949795E-2,7.904607E-2,4.9982138E-2],"categories":[],"categories_nodes":[],"categories_segments":[],"categories_sizes":[],"default_left":[0,0,0,0,0,0,0,0,0,0,0,0,0,0,0,0,0,0,0,0,0,0,0,0,0,0,0,0,0,0,0,0,0,0,0,0,0,0,0,0,0,0,0,0,0,0,0,0,0,0,0,0,0,0,0,0,0,0,0,0,0,0,0],"id":11,"left_children":[1,3,5,7,9,11,13,15,17,19,21,23,25,27,29,31,33,35,37,39,41,43,45,47,49,51,53,55,57,59,61,-1,-1,-1,-1,-1,-1,-1,-1,-1,-1,-1,-1,-1,-1,-1,-1,-1,-1,-1,-1,-1,-1,-1,-1,-1,-1,-1,-1,-1,-1,-1,-1],"loss_changes":[1.4889139E7,2.4512625E6,2.320807E6,3.321405E5,3.2648194E5,3.81369E5,3.47806E5,4.5906E4,8.9129E4,1.1393581E5,2.9970516E5,1.4405631E5,1.845075E5,2.41951E5,8.82255E4,3.50195E4,2.7678564E4,5.521403E4,6.579375E4,1.1303406E5,5.2088062E4,1.0176169E5,1.373063E5,9.640803E4,1.416809E5,1.4910312E5,1.4492175E5,8.47605E4,9.036475E4,3.8047793E4,6.5392E4,0E0,0E0,0E0,0E0,0E0,0E0,0E0,0E0,0E0,0E0,0E0,0E0,0E0,0E0,0E0,0E0,0E0,0E0,0E0,0E0,0E0,0E0,0E0,0E0,0E0,0E0,0E0,0E0,0E0,0E0,0E0,0E0],"parents":[2147483647,0,0,1,1,2,2,3,3,4,4,5,5,6,6,7,7,8,8,9,9,10,10,11,11,12,12,13,13,14,14,15,15,16,16,17,17,18,18,19,19,20,20,21,21,22,22,23,23,24,24,25,25,26,26,27,27,28,28,29,29,30,30],"right_children":[2,4,6,8,10,12,14,16,18,20,22,24,26,28,30,32,34,36,38,40,42,44,46,48,50,52,54,56,58,60,62,-1,-1,-1,-1,-1,-1,-1,-1,-1,-1,-1,-1,-1,-1,-1,-1,-1,-1,-1,-1,-1,-1,-1,-1,-1,-1,-1,-1,-1,-1,-1,-1],"split_conditions":[6.028324E1,-1.2213974E2,2.4008717E2,-2.9892648E2,-1.2014906E1,1.3020203E2,4.2064404E2,4.2E0,1.16938E3,3.5E0,-2.6E0,1.35E0,2.5E1,1.6666666E0,-1.5714285E0,-4.956412E2,1.0539375E3,-1.8972156E2,3.5E1,5.5E0,7E0,-2.3333333E0,-7.5E-1,3.3333334E-1,2.4E0,1.35E0,4.25E-1,6.4E1,-2.6E0,2.777778E-1,8.125E-1,-5.368969E-2,-4.394973E-2,1.119034E-1,-5.6150474E-2,-1.7619604E-2,7.503775E-2,-2.722867E-2,-3.5151727E-2,-1.4570697E-2,1.0393147E-1,1.2536752E-1,-5.83942E-2,1.3654931E-2,9.055935E-2,1.0640716E-2,-5.77741E-3,9.256807E-3,2.9288994E-2,3.2264946E-3,4.1091923E-2,9.421271E-3,3.3503097E-2,3.1294636E-2,7.134642E-2,4.100477E-2,-1.4829663E-2,8.11442E-2,5.602234E-2,9.338458E-2,-6.0949795E-2,7.904607E-2,4.9982138E-2],"split_indices":[2,2,2,2,2,2,2,28,1,16,26,14,6,28,11,2,0,2,6,18,16,21,26,20,21,38,34,32,26,10,10,0,0,0,0,0,0,0,0,0,0,0,0,0,0,0,0,0,0,0,0,0,0,0,0,0,0,0,0,0,0,0,0],"split_type":[0,0,0,0,0,0,0,0,0,0,0,0,0,0,0,0,0,0,0,0,0,0,0,0,0,0,0,0,0,0,0,0,0,0,0,0,0,0,0,0,0,0,0,0,0,0,0,0,0,0,0,0,0,0,0,0,0,0,0,0,0,0,0],"sum_hessian":[1.4480198E8,8.782665E7,5.697534E7,3.985222E7,4.7974424E7,3.7705656E7,1.9269682E7,1.2613678E7,2.7238544E7,2.8205194E7,1.976923E7,1.6959042E7,2.0746616E7,1.4831597E7,4.4380845E6,1.2585477E7,2.8200234E4,1.6465416E5,2.707389E7,2.8139768E7,6.5425688E4,4.7311144E5,1.929612E7,6.3130015E6,1.064604E7,7.4347465E6,1.331187E7,8.68976E6,6.141837E6,5.70561E4,4.3810285E6,3.1519715E6,9.433506E6,1.8784828E4,9.415404E3,8.3192125E4,8.146204E4,1.4818547E7,1.2255342E7,2.808816E7,5.1608992E4,5.33108E4,1.2114886E4,1.744271E5,2.9868434E5,4.1545258E6,1.5141593E7,2.6497742E6,3.6632272E6,9.970792E6,6.7524806E5,4.9764465E6,2.4583E6,1.2706117E7,6.0575294E5,8.512121E6,1.7763895E5,1.1209825E6,5.0208545E6,1.3342744E4,4.371336E4,3.8115502E6,5.694784E5],"tree_param":{"num_deleted":"0","num_feature":"39","num_nodes":"63","size_leaf_vector":"1"}},{"base_weights":[-4.4518416E-3,3.6959606E-1,-2.2761095E-1,7.128626E-1,2.7455905E-1,-7.2975755E-2,-4.0263018E-1,9.9656934E-1,6.369007E-1,1.9897352E-1,4.7068194E-1,-1.4843799E-1,7.716009E-2,-2.800734E-1,-4.852865E-1,4.2635703E-1,1.004913E0,7.6137114E-1,5.3252053E-1,2.693913E-1,1.6787678E-2,6.038619E-1,2.9227263E-1,-5.8293935E-2,-2.0330293E-1,1.9103797E-1,-3.751759E-2,-3.3849427E-1,-1.5942028E-1,-4.87672E-1,1.4713731E0,8.956028E-2,-6.2820904E-2,7.698135E-2,8.3962746E-2,6.833131E-2,4.2236418E-2,1.9130621E-2,4.7879755E-2,4.4867642E-2,1.8708248E-2,-3.933827E-3,1.2441972E-2,4.91642E-2,-6.329788E-2,1.7134978E-2,5.214629E-2,-8.689619E-3,1.5211635E-2,-1.7217081E-2,3.958709E-2,1.2368123E-2,5.1109135E-2,-9.813626E-3,1.5346516E-2,-2.7965846E-2,3.9206095E-2,-1.4362E-2,3.7894778E-2,-1.7310644E-2,-4.0162954E-2,1.0896322E-1,1.223208E-1],"categories":[],"categories_nodes":[],"categories_segments":[],"categories_sizes":[],"default_left":[0,0,0,0,0,0,0,0,0,0,0,0,0,0,0,0,0,0,0,0,0,0,0,0,0,0,0,0,0,0,0,0,0,0,0,0,0,0,0,0,0,0,0,0,0,0,0,0,0,0,0,0,0,0,0,0,0,0,0,0,0,0,0],"id":12,"left_children":[1,3,5,7,9,11,13,15,17,19,21,23,25,27,29,31,33,35,37,39,41,43,45,47,49,51,53,55,57,59,61,-1,-1,-1,-1,-1,-1,-1,-1,-1,-1,-1,-1,-1,-1,-1,-1,-1,-1,-1,-1,-1,-1,-1,-1,-1,-1,-1,-1,-1,-1,-1,-1],"loss_changes":[1.2070443E7,1.7627685E6,2.451195E6,2.524945E5,6.27328E5,5.447844E5,4.303745E5,1.1772E4,1.20071E5,3.9187688E5,2.7971725E5,1.582675E5,2.1005022E5,1.20617625E5,1.184295E5,2.9972203E4,4.63975E3,9.12765E4,9.7297375E4,2.2818812E5,7.792414E4,1.00532E5,1.4127181E5,1.5138234E5,1.6541644E5,1.3168512E5,1.5651216E5,1.05835875E5,7.105816E4,9.8758E4,1.9232031E2,0E0,0E0,0E0,0E0,0E0,0E0,0E0,0E0,0E0,0E0,0E0,0E0,0E0,0E0,0E0,0E0,0E0,0E0,0E0,0E0,0E0,0E0,0E0,0E0,0E0,0E0,0E0,0E0,0E0,0E0,0E0,0E0],"parents":[2147483647,0,0,1,1,2,2,3,3,4,4,5,5,6,6,7,7,8,8,9,9,10,10,11,11,12,12,13,13,14,14,15,15,16,16,17,17,18,18,19,19,20,20,21,21,22,22,23,23,24,24,25,25,26,26,27,27,28,28,29,29,30,30],"right_children":[2,4,6,8,10,12,14,16,18,20,22,24,26,28,30,32,34,36,38,40,42,44,46,48,50,52,54,56,58,60,62,-1,-1,-1,-1,-1,-1,-1,-1,-1,-1,-1,-1,-1,-1,-1,-1,-1,-1,-1,-1,-1,-1,-1,-1,-1,-1,-1,-1,-1,-1,-1,-1],"split_conditions":[-8.542458E1,-3.3315894E2,9.443496E1,-5.5366614E2,1E0,1E0,1.7868062E2,2.5E-1,-1.8E0,-1.3271439E2,-1.6034047E2,-1.9282867E1,5.0364313E0,1E0,6.4E0,-5.9208417E2,5E-1,3.3E1,1.25E0,-2.4E0,1.7382095E3,4.428571E0,2.3333333E0,1.7142857E0,3.75E0,2.7E0,1.6666666E0,2.0550903E3,4.2E0,0E0,1.5014712E3,8.956028E-2,-6.2820904E-2,7.698135E-2,8.3962746E-2,6.833131E-2,4.2236418E-2,1.9130621E-2,4.7879755E-2,4.4867642E-2,1.8708248E-2,-3.933827E-3,1.2441972E-2,4.91642E-2,-6.329788E-2,1.7134978E-2,5.214629E-2,-8.689619E-3,1.5211635E-2,-1.7217081E-2,3.958709E-2,1.2368123E-2,5.1109135E-2,-9.813626E-3,1.5346516E-2,-2.7965846E-2,3.9206095E-2,-1.4362E-2,3.7894778E-2,-1.7310644E-2,-4.0162954E-2,1.0896322E-1,1.223208E-1],"split_indices":[2,2,2,2,5,5,2,27,33,2,2,2,2,5,21,2,22,8,19,33,1,18,23,13,22,13,17,0,38,33,1,0,0,0,0,0,0,0,0,0,0,0,0,0,0,0,0,0,0,0,0,0,0,0,0,0,0,0,0,0,0,0,0],"split_type":[0,0,0,0,0,0,0,0,0,0,0,0,0,0,0,0,0,0,0,0,0,0,0,0,0,0,0,0,0,0,0,0,0,0,0,0,0,0,0,0,0,0,0,0,0,0,0,0,0,0,0,0,0,0,0,0,0,0,0,0,0,0,0],"sum_hessian":[1.4460437E8,5.4034496E7,9.0569864E7,1.1716254E7,4.231824E7,4.8085108E7,4.2484756E7,2.4744662E6,9.241788E6,3.0545892E7,1.177235E7,3.200071E7,1.6084399E7,1.711214E7,2.5372618E7,3.5686375E4,2.4387798E6,4.215234E6,5.026554E6,2.2030676E7,8.515215E6,6.740592E6,5.031758E6,1.2107645E7,1.9893066E7,8.0703425E6,8.014057E6,1.1529495E7,5.582644E6,2.5341722E7,3.0894982E4,2.2700156E4,1.2986219E4,1.2470042E6,1.1917755E6,3.0163815E6,1.1988524E6,9.228372E5,4.1037168E6,2.3943365E6,1.963634E7,5.771322E6,2.7438928E6,6.689332E6,5.1259977E4,4.133977E6,8.977808E5,1.0068144E7,2.0395004E6,1.9559376E7,3.3369044E5,7.463123E6,6.0721944E5,5.8442165E6,2.1698405E6,1.1377369E7,1.5212594E5,5.4108205E6,1.7182362E5,1.2743792E6,2.4067344E7,1.0673875E4,2.0221107E4],"tree_param":{"num_deleted":"0","num_feature":"39","num_nodes":"63","size_leaf_vector":"1"}},{"base_weights":[8.0478546E-4,2.7837276E-2,-2.9594508E-1,-3.956955E-1,5.0229724E-2,-2.2857568E-1,-5.602451E-1,1.7521786E-2,-4.5087367E-1,6.963041E-2,-1.1922689E-1,-2.4120471E-1,6.244241E-1,-5.6998575E-1,4.5725116E-1,-3.0375725E-1,3.5466778E-1,-6.2189007E-1,-3.7119678E-1,8.746919E-2,-5.6855E-2,-7.446819E-2,-3.7154374E-1,-1.5358038E-1,-3.5706672E-1,-7.142464E-1,9.5885545E-1,-4.964235E-1,-6.3766396E-1,1.11080855E-1,-5.4345526E-2,-4.380097E-2,6.369083E-2,4.595113E-2,-5.834234E-2,1.3154824E-1,-5.089885E-2,-3.0608935E-2,9.525272E-2,1.9673677E-3,9.871637E-3,-2.1461495E-3,-2.2540646E-2,2.3083963E-2,-8.43011E-3,1.362277E-1,-3.070931E-2,3.0068075E-3,-2.0340754E-2,-3.38551E-2,-1.1470029E-2,-6.1314147E-2,-5.597402E-2,1.0967585E-1,4.521476E-3,-5.496128E-2,-2.6123049E-2,-5.4452743E-2,-3.836953E-2],"categories":[],"categories_nodes":[],"categories_segments":[],"categories_sizes":[],"default_left":[0,0,0,0,0,0,0,0,0,0,0,0,0,0,0,0,0,0,0,0,0,0,0,0,0,0,0,0,0,0,0,0,0,0,0,0,0,0,0,0,0,0,0,0,0,0,0,0,0,0,0,0,0,0,0,0,0,0,0],"id":13,"left_children":[1,3,5,7,9,11,13,15,17,19,21,23,25,27,29,31,33,35,37,39,41,43,45,47,49,51,53,55,57,-1,-1,-1,-1,-1,-1,-1,-1,-1,-1,-1,-1,-1,-1,-1,-1,-1,-1,-1,-1,-1,-1,-1,-1,-1,-1,-1,-1,-1,-1],"loss_changes":[1.1740538E6,1.2721474E6,2.1757238E5,1.5357988E5,4.1884112E5,1.0489509E5,2.4599625E4,8.594969E4,8.0969625E4,2.5793138E5,1.4780203E5,9.7413375E4,6.3600453E4,1.2239125E4,2.4912223E4,1.0893328E5,9.221517E4,6.1401125E4,7.227106E4,2.2631038E5,9.542191E4,1.247205E5,5.0404125E4,1.0514974E5,5.8381438E4,2.0908203E1,4.2265812E4,3.8142875E4,8.700344E3,0E0,0E0,0E0,0E0,0E0,0E0,0E0,0E0,0E0,0E0,0E0,0E0,0E0,0E0,0E0,0E0,0E0,0E0,0E0,0E0,0E0,0E0,0E0,0E0,0E0,0E0,0E0,0E0,0E0,0E0],"parents":[2147483647,0,0,1,1,2,2,3,3,4,4,5,5,6,6,7,7,8,8,9,9,10,10,11,11,12,12,13,13,14,14,15,15,16,16,17,17,18,18,19,19,20,20,21,21,22,22,23,23,24,24,25,25,26,26,27,27,28,28],"right_children":[2,4,6,8,10,12,14,16,18,20,22,24,26,28,30,32,34,36,38,40,42,44,46,48,50,52,54,56,58,-1,-1,-1,-1,-1,-1,-1,-1,-1,-1,-1,-1,-1,-1,-1,-1,-1,-1,-1,-1,-1,-1,-1,-1,-1,-1,-1,-1,-1,-1],"split_conditions":[1.1941866E0,7.7530456E-1,1.369239E0,1.87E0,2.1E0,3.5E0,9.9E1,-1.4E0,6.80484E-1,1.1182108E0,3.6666667E0,9.5E-1,-5E0,2.5E0,1.3165078E3,1.69E0,7.6858556E-1,5.714286E-1,1E0,-8.68723E1,3.68E0,1.6666667E-1,-1.5E1,7.5E-1,1.6666666E0,2.5343613E2,7.1428573E-1,1E0,2.3666666E0,1.11080855E-1,-5.4345526E-2,-4.380097E-2,6.369083E-2,4.595113E-2,-5.834234E-2,1.3154824E-1,-5.089885E-2,-3.0608935E-2,9.525272E-2,1.9673677E-3,9.871637E-3,-2.1461495E-3,-2.2540646E-2,2.3083963E-2,-8.43011E-3,1.362277E-1,-3.070931E-2,3.0068075E-3,-2.0340754E-2,-3.38551E-2,-1.1470029E-2,-6.1314147E-2,-5.597402E-2,1.0967585E-1,4.521476E-3,-5.496128E-2,-2.6123049E-2,-5.4452743E-2,-3.836953E-2],"split_indices":[3,3,3,38,13,23,9,33,3,3,23,38,26,33,0,38,3,17,30,2,37,14,33,33,23,2,17,33,14,0,0,0,0,0,0,0,0,0,0,0,0,0,0,0,0,0,0,0,0,0,0,0,0,0,0,0,0,0,0],"split_type":[0,0,0,0,0,0,0,0,0,0,0,0,0,0,0,0,0,0,0,0,0,0,0,0,0,0,0,0,0,0,0,0,0,0,0,0,0,0,0,0,0,0,0,0,0,0,0,0,0,0,0,0,0,0,0,0,0,0,0],"sum_hessian":[1.4635629E8,1.3413705E8,1.2219241E7,6.7357855E6,1.2740126E8,9.737244E6,2.4819968E6,7.934924E5,5.942293E6,1.1431375E8,1.3087508E7,9.595184E6,1.4205994E5,2.458462E6,2.3534736E4,4.0630703E5,3.8718538E5,1.8886141E6,4.053679E6,1.0018433E8,1.4129428E7,1.1115688E7,1.9718195E6,5.4633535E6,4.1318305E6,2.8395652E4,1.1366428E5,1.1780266E6,1.2804355E6,1.2935653E4,1.0599083E4,3.3259822E5,7.370881E4,3.2192928E5,6.5256082E4,1.1879222E4,1.8767349E6,4.0242682E6,2.9410738E4,3.6428412E7,6.3755916E7,1.2465136E7,1.664292E6,8.721575E5,1.0243531E7,1.16433E4,1.9601761E6,1.88472E6,3.5786332E6,3.1554468E6,9.763838E5,6.185702E3,2.220995E4,7.802846E4,3.5635824E4,5.551766E5,6.2285006E5,1.0065929E6,2.738426E5],"tree_param":{"num_deleted":"0","num_feature":"39","num_nodes":"59","size_leaf_vector":"1"}},{"base_weights":[-1.599785E-3,-2.5229093E-1,3.5743222E-1,-4.4327274E-1,-1.1948547E-1,2.2354478E-1,6.47449E-1,-5.698948E-1,-3.8717207E-1,-6.85007E-2,-2.2921556E-1,1.08004935E-1,3.2390258E-1,5.2088565E-1,8.300792E-1,1.4357018E0,-5.7334244E-1,-3.4642574E-1,-5.014641E-1,-1.3351233E-1,4.4447485E-2,-2.3692076E-1,1.0684327E0,1.8378675E-1,-4.339223E-2,3.8852245E-1,1.8504158E-1,5.6641227E-1,2.4063185E-1,6.873412E-2,8.516402E-1,1.2703104E-1,9.3412906E-2,-5.1124804E-2,-4.1844852E-2,1.347147E-1,-2.7869472E-2,8.403203E-3,-4.1144572E-2,-3.0236612E-3,-1.52337765E-2,4.6243835E-2,1.6996157E-3,1.19983986E-1,-1.9166302E-2,1.0351631E-1,-6.0800184E-2,2.0608928E-2,2.6757473E-3,-5.4533826E-3,6.3075095E-2,1.961558E-2,3.9221577E-2,8.435866E-2,1.148882E-2,4.606773E-2,-3.9009083E-2,5.2735183E-2,8.912105E-3,6.687795E-2,-3.1785894E-2,3.9072536E-2,7.014143E-2],"categories":[],"categories_nodes":[],"categories_segments":[],"categories_sizes":[],"default_left":[0,0,0,0,0,0,0,0,0,0,0,0,0,0,0,0,0,0,0,0,0,0,0,0,0,0,0,0,0,0,0,0,0,0,0,0,0,0,0,0,0,0,0,0,0,0,0,0,0,0,0,0,0,0,0,0,0,0,0,0,0,0,0],"id":14,"left_children":[1,3,5,7,9,11,13,15,17,19,21,23,25,27,29,31,33,35,37,39,41,43,45,47,49,51,53,55,57,59,61,-1,-1,-1,-1,-1,-1,-1,-1,-1,-1,-1,-1,-1,-1,-1,-1,-1,-1,-1,-1,-1,-1,-1,-1,-1,-1,-1,-1,-1,-1,-1,-1],"loss_changes":[1.3034805E7,2.162921E6,2.3120735E6,2.48465E5,2.8140462E5,4.7236425E5,4.347015E5,7.425625E4,1.1287825E5,2.5217678E5,1.5954769E5,2.172602E5,1.9562475E5,1.4173225E5,1.263685E5,7.49625E2,3.542475E4,7.047775E4,4.9619875E4,1.1873175E5,1.5532833E5,7.322631E4,3.8840414E4,1.4006312E5,1.30179875E5,2.1696375E5,2.493959E5,9.502625E4,8.3967984E4,7.580947E4,6.83265E4,0E0,0E0,0E0,0E0,0E0,0E0,0E0,0E0,0E0,0E0,0E0,0E0,0E0,0E0,0E0,0E0,0E0,0E0,0E0,0E0,0E0,0E0,0E0,0E0,0E0,0E0,0E0,0E0,0E0,0E0,0E0,0E0],"parents":[2147483647,0,0,1,1,2,2,3,3,4,4,5,5,6,6,7,7,8,8,9,9,10,10,11,11,12,12,13,13,14,14,15,15,16,16,17,17,18,18,19,19,20,20,21,21,22,22,23,23,24,24,25,25,26,26,27,27,28,28,29,29,30,30],"right_children":[2,4,6,8,10,12,14,16,18,20,22,24,26,28,30,32,34,36,38,40,42,44,46,48,50,52,54,56,58,60,62,-1,-1,-1,-1,-1,-1,-1,-1,-1,-1,-1,-1,-1,-1,-1,-1,-1,-1,-1,-1,-1,-1,-1,-1,-1,-1,-1,-1,-1,-1,-1,-1],"split_conditions":[1.0348856E0,-1.4067232E2,2.4437337E2,8.132314E-1,1E0,1.0849695E0,1.2656826E0,-3.75E0,1E0,9.91283E-1,3.4E0,1E0,1E0,1.6788718E3,-1.5714285E0,1.286974E3,7.455322E-1,2.2222222E-1,1.0993942E3,1.5756099E3,-1.4E0,1.00486945E3,1.5522496E3,1.6498098E3,2.7E0,3E1,-3E0,4.233333E0,4E0,3.4054056E2,3.3156735E2,1.2703104E-1,9.3412906E-2,-5.1124804E-2,-4.1844852E-2,1.347147E-1,-2.7869472E-2,8.403203E-3,-4.1144572E-2,-3.0236612E-3,-1.52337765E-2,4.6243835E-2,1.6996157E-3,1.19983986E-1,-1.9166302E-2,1.0351631E-1,-6.0800184E-2,2.0608928E-2,2.6757473E-3,-5.4533826E-3,6.3075095E-2,1.961558E-2,3.9221577E-2,8.435866E-2,1.148882E-2,4.606773E-2,-3.9009083E-2,5.2735183E-2,8.912105E-3,6.687795E-2,-3.1785894E-2,3.9072536E-2,7.014143E-2],"split_indices":[3,2,2,3,5,3,3,26,5,3,35,5,5,1,11,1,3,17,0,1,16,1,0,1,35,6,26,24,32,2,2,0,0,0,0,0,0,0,0,0,0,0,0,0,0,0,0,0,0,0,0,0,0,0,0,0,0,0,0,0,0,0,0],"split_type":[0,0,0,0,0,0,0,0,0,0,0,0,0,0,0,0,0,0,0,0,0,0,0,0,0,0,0,0,0,0,0,0,0,0,0,0,0,0,0,0,0,0,0,0,0,0,0,0,0,0,0,0,0,0,0,0,0,0,0,0,0,0,0],"sum_hessian":[1.4482126E8,8.5277176E7,5.954409E7,3.497752E7,5.029966E7,4.073747E7,1.8806618E7,1.0739009E7,2.4238512E7,3.434273E7,1.5956932E7,1.8936398E7,2.1801074E7,1.1108436E7,7.6981815E6,1.8427902E4,1.0720581E7,1.7868284E7,6.3702265E6,2.1796768E7,1.254596E7,1.5862743E7,9.418915E4,1.261964E7,6.3167575E6,1.4877659E7,6.923415E6,9.556073E6,1.552364E6,2.1200595E5,7.4861755E6,1.1750807E4,6.677095E3,4.646997E6,6.0735835E6,1.7079121E4,1.7851206E7,1.3209503E5,6.2381315E6,8.1273705E6,1.3669397E7,5.2279616E5,1.2023164E7,2.4239576E4,1.5838503E7,8.384763E4,1.0341512E4,8.463576E6,4.1560648E6,6.134063E6,1.8269442E5,6.1767295E6,8.700929E6,3.1491234E5,6.6085025E6,9.471298E6,8.477462E4,3.66222E5,1.186142E6,8.011588E4,1.3189006E5,4.843694E5,7.001806E6],"tree_param":{"num_deleted":"0","num_feature":"39","num_nodes":"63","size_leaf_vector":"1"}},{"base_weights":[-2.4509843E-4,2.9198784E-1,-2.5439128E-1,6.546859E-1,2.0344907E-1,-1.0373074E-1,-4.041633E-1,7.9292274E-1,5.0677055E-1,3.0875835E-1,1.148419E-1,-1.7622283E-1,3.449566E-2,-2.901639E-1,-4.6875015E-1,9.4473535E-1,7.0632553E-1,6.145737E-1,2.9408163E-1,2.4719448E-1,4.73773E-1,5.020972E-2,2.6163915E-1,-2.209331E-1,-4.6303846E-2,-3.0388998E-2,1.8443565E-1,-3.539511E-1,-1.5462913E-1,-4.7487885E-1,6.2202644E-1,7.797738E-2,6.999403E-2,5.768703E-2,-3.3289682E-2,7.588326E-2,4.4995587E-2,6.845897E-3,4.5332935E-2,4.1543417E-2,1.6944647E-2,4.682153E-2,2.5293874E-2,1.3486443E-2,3.1242616E-4,5.28032E-2,1.6685696E-2,-1.8136553E-2,7.070792E-2,3.341917E-3,-3.0085728E-2,-1.3432567E-3,-5.0679244E-2,-1.6828826E-2,2.163962E-2,-3.128993E-2,-8.364565E-4,-5.8725225E-3,-2.4739226E-2,-3.410954E-2,-4.6314668E-2,-5.484251E-2,9.7212076E-2],"categories":[],"categories_nodes":[],"categories_segments":[],"categories_sizes":[],"default_left":[0,0,0,0,0,0,0,0,0,0,0,0,0,0,0,0,0,0,0,0,0,0,0,0,0,0,0,0,0,0,0,0,0,0,0,0,0,0,0,0,0,0,0,0,0,0,0,0,0,0,0,0,0,0,0,0,0,0,0,0,0,0,0],"id":15,"left_children":[1,3,5,7,9,11,13,15,17,19,21,23,25,27,29,31,33,35,37,39,41,43,45,47,49,51,53,55,57,59,61,-1,-1,-1,-1,-1,-1,-1,-1,-1,-1,-1,-1,-1,-1,-1,-1,-1,-1,-1,-1,-1,-1,-1,-1,-1,-1,-1,-1,-1,-1,-1,-1],"loss_changes":[1.0710663E7,2.154129E6,1.74048E6,2.69128E5,5.0311725E5,3.8530447E5,2.84799E5,8.9443E4,1.45789E5,2.5028575E5,2.7781297E5,1.4651788E5,1.2869747E5,1.2094025E5,1.650625E5,5.1715E3,7.178675E4,7.3460625E4,1.21556984E5,1.7276412E5,1.17627625E5,1.11430766E5,1.8924356E5,1.1970375E5,1.8757539E5,7.572131E4,1.357503E5,1.21459625E5,5.6219023E4,1.239365E5,1.0699286E5,0E0,0E0,0E0,0E0,0E0,0E0,0E0,0E0,0E0,0E0,0E0,0E0,0E0,0E0,0E0,0E0,0E0,0E0,0E0,0E0,0E0,0E0,0E0,0E0,0E0,0E0,0E0,0E0,0E0,0E0,0E0,0E0],"parents":[2147483647,0,0,1,1,2,2,3,3,4,4,5,5,6,6,7,7,8,8,9,9,10,10,11,11,12,12,13,13,14,14,15,15,16,16,17,17,18,18,19,19,20,20,21,21,22,22,23,23,24,24,25,25,26,26,27,27,28,28,29,29,30,30],"right_children":[2,4,6,8,10,12,14,16,18,20,22,24,26,28,30,32,34,36,38,40,42,44,46,48,50,52,54,56,58,60,62,-1,-1,-1,-1,-1,-1,-1,-1,-1,-1,-1,-1,-1,-1,-1,-1,-1,-1,-1,-1,-1,-1,-1,-1,-1,-1,-1,-1,-1,-1,-1,-1],"split_conditions":[-3.9115147E1,8.132314E-1,1.0682716E0,7.6131105E-1,9.057704E-1,1E0,1.7868062E2,-5.5366614E2,3.3E1,1E0,1E0,1.75E0,1.6666666E0,1E0,3.5E0,6.6233253E-1,3E0,-3E0,1.125E0,-2.4E0,1.8666667E0,-8E-1,-1.3333334E0,2.8333333E0,2.5333333E0,3.8333333E0,1.2833333E0,2.2222223E0,1.4666667E0,1.2335185E0,-3.4444444E0,7.797738E-2,6.999403E-2,5.768703E-2,-3.3289682E-2,7.588326E-2,4.4995587E-2,6.845897E-3,4.5332935E-2,4.1543417E-2,1.6944647E-2,4.682153E-2,2.5293874E-2,1.3486443E-2,3.1242616E-4,5.28032E-2,1.6685696E-2,-1.8136553E-2,7.070792E-2,3.341917E-3,-3.0085728E-2,-1.3432567E-3,-5.0679244E-2,-1.6828826E-2,2.163962E-2,-3.128993E-2,-8.364565E-4,-5.8725225E-3,-2.4739226E-2,-3.410954E-2,-4.6314668E-2,-5.484251E-2,9.7212076E-2],"split_indices":[2,3,3,3,3,5,2,2,8,5,5,27,27,5,13,3,18,33,18,33,29,33,21,11,29,18,19,12,19,3,11,0,0,0,0,0,0,0,0,0,0,0,0,0,0,0,0,0,0,0,0,0,0,0,0,0,0,0,0,0,0,0,0],"split_type":[0,0,0,0,0,0,0,0,0,0,0,0,0,0,0,0,0,0,0,0,0,0,0,0,0,0,0,0,0,0,0,0,0,0,0,0,0,0,0,0,0,0,0,0,0,0,0,0,0,0,0,0,0,0,0,0,0,0,0,0,0,0,0],"sum_hessian":[1.4421275E8,6.7080012E7,7.713274E7,1.3162004E7,5.3918012E7,3.8452308E7,3.8680424E7,6.803588E6,6.3584155E6,2.4637014E7,2.9280996E7,2.5223812E7,1.3228494E7,1.3989026E7,2.46914E7,2.4712528E6,4.3323355E6,4.2196485E6,2.1387668E6,1.794287E7,6.6941445E6,2.0330046E7,8.95095E6,1.8765768E7,6.458044E6,9.23302E6,3.995474E6,9.512244E6,4.4767815E6,2.4553444E7,1.3795622E5,1.7287674E6,7.4248544E5,4.276097E6,5.623845E4,5.697145E5,3.649934E6,1.2118069E6,9.2695994E5,2.0649246E6,1.5877946E7,3.920514E6,2.7736302E6,5.716526E6,1.4613519E7,1.0521385E6,7.8988115E6,1.8668206E7,9.756317E4,5.096751E6,1.3612929E6,9.029432E6,2.0358781E5,7.150769E5,3.280397E6,8.583354E6,9.2889E5,2.9349522E6,1.5418294E6,1.6746389E7,7.807055E6,4.305034E4,9.4905875E4],"tree_param":{"num_deleted":"0","num_feature":"39","num_nodes":"63","size_leaf_vector":"1"}},{"base_weights":[7.960955E-5,2.6883366E-2,-2.938878E-1,-3.845913E-1,4.4927344E-2,-2.3418766E-1,-5.3246963E-1,-4.9389064E-1,-1.5239248E-1,5.4096762E-2,-2.5054798E-1,-2.5100207E-1,4.614257E-1,-6.2616366E-1,-4.319487E-1,-6.343568E-1,-4.200905E-1,-3.9607057E-1,2.7630252E-1,6.014236E-2,-3.2872295E-1,8.143444E-2,-3.5121426E-1,-2.0517059E-1,-5.276427E-1,6.952573E-1,-6.97088E-1,-3.9682898E-1,-6.699234E-1,-8.626511E-2,-5.208965E-1,-5.2380547E-2,-1.11442935E-2,-3.4388173E-2,1.24719724E-1,2.5690088E-2,-4.3307632E-2,8.370301E-2,5.0204373E-3,8.929878E-3,2.2926724E-3,-4.5843173E-2,-1.0059502E-2,1.762509E-2,-4.479362E-2,-3.0735578E-2,3.0194582E-2,-9.7269155E-3,-2.5689133E-2,-3.5229211E-3,-4.614176E-2,7.007034E-2,-5.5518188E-2,-5.6805823E-2,-5.428295E-2,-4.2244166E-2,1.5190643E-1,-5.9487965E-2,-5.3384632E-2,1.5408301E-1,-1.4487898E-2,-5.0543148E-2,-1.021943E-2],"categories":[],"categories_nodes":[],"categories_segments":[],"categories_sizes":[],"default_left":[0,0,0,0,0,0,0,0,0,0,0,0,0,0,0,0,0,0,0,0,0,0,0,0,0,0,0,0,0,0,0,0,0,0,0,0,0,0,0,0,0,0,0,0,0,0,0,0,0,0,0,0,0,0,0,0,0,0,0,0,0,0,0],"id":16,"left_children":[1,3,5,7,9,11,13,15,17,19,21,23,25,27,29,31,33,35,37,39,41,43,45,47,49,51,53,55,57,59,61,-1,-1,-1,-1,-1,-1,-1,-1,-1,-1,-1,-1,-1,-1,-1,-1,-1,-1,-1,-1,-1,-1,-1,-1,-1,-1,-1,-1,-1,-1,-1,-1],"loss_changes":[1.1441475E6,9.880215E5,1.7282225E5,1.4187906E5,3.4539428E5,1.135135E5,2.2871688E4,3.9403875E4,1.8691147E5,2.8616288E5,1.2823292E5,1.20144625E5,6.2050715E4,1.2613625E4,3.602289E4,1.32218125E4,4.8142125E4,1.1886075E5,1.06623375E5,1.9729316E5,9.532872E4,7.952159E4,7.075459E4,7.878056E4,3.1998281E4,4.7824062E4,8.646484E0,6.0673758E4,2.0275E2,4.575518E4,4.0624484E4,0E0,0E0,0E0,0E0,0E0,0E0,0E0,0E0,0E0,0E0,0E0,0E0,0E0,0E0,0E0,0E0,0E0,0E0,0E0,0E0,0E0,0E0,0E0,0E0,0E0,0E0,0E0,0E0,0E0,0E0,0E0,0E0],"parents":[2147483647,0,0,1,1,2,2,3,3,4,4,5,5,6,6,7,7,8,8,9,9,10,10,11,11,12,12,13,13,14,14,15,15,16,16,17,17,18,18,19,19,20,20,21,21,22,22,23,23,24,24,25,25,26,26,27,27,28,28,29,29,30,30],"right_children":[2,4,6,8,10,12,14,16,18,20,22,24,26,28,30,32,34,36,38,40,42,44,46,48,50,52,54,56,58,60,62,-1,-1,-1,-1,-1,-1,-1,-1,-1,-1,-1,-1,-1,-1,-1,-1,-1,-1,-1,-1,-1,-1,-1,-1,-1,-1,-1,-1,-1,-1,-1,-1],"split_conditions":[1.1941866E0,7.6131105E-1,1.369239E0,-1E0,3.2E0,3.25E0,4.6666667E-1,-2.4E0,-2.8333333E-1,5.4E0,2.5E1,2.8333333E0,5E0,4.3634628E2,5.6666666E-1,1.2379722E3,2.6666667E0,-4E-1,4E-1,2.5E1,4E0,5.5555556E-2,2.2E0,1.6666666E0,1.2649727E3,1.0833334E0,4E0,2.05E0,-1.5714285E0,-3.1E0,1.8983541E3,-5.2380547E-2,-1.11442935E-2,-3.4388173E-2,1.24719724E-1,2.5690088E-2,-4.3307632E-2,8.370301E-2,5.0204373E-3,8.929878E-3,2.2926724E-3,-4.5843173E-2,-1.0059502E-2,1.762509E-2,-4.479362E-2,-3.0735578E-2,3.0194582E-2,-9.7269155E-3,-2.5689133E-2,-3.5229211E-3,-4.614176E-2,7.007034E-2,-5.5518188E-2,-5.6805823E-2,-5.428295E-2,-4.2244166E-2,1.5190643E-1,-5.9487965E-2,-5.3384632E-2,1.5408301E-1,-1.4487898E-2,-5.0543148E-2,-1.021943E-2],"split_indices":[3,3,3,33,23,23,19,11,34,37,6,18,28,2,19,0,28,33,37,6,7,34,33,33,0,14,7,14,11,16,0,0,0,0,0,0,0,0,0,0,0,0,0,0,0,0,0,0,0,0,0,0,0,0,0,0,0,0,0,0,0,0,0],"split_type":[0,0,0,0,0,0,0,0,0,0,0,0,0,0,0,0,0,0,0,0,0,0,0,0,0,0,0,0,0,0,0,0,0,0,0,0,0,0,0,0,0,0,0,0,0,0,0,0,0,0,0,0,0,0,0,0,0,0,0,0,0,0,0],"sum_hessian":[1.4520686E8,1.3307333E8,1.2133539E7,5.590378E6,1.2748295E8,9.705054E6,2.4284848E6,3.80113E6,1.7892481E6,1.2364588E8,3.8370735E6,9.476001E6,2.2905358E5,1.2569215E6,1.1715631E6,1.3092271E6,2.4919028E6,1.140798E6,6.484502E5,1.2172358E8,1.9222928E6,8.927886E5,2.9442848E6,8.1292225E6,1.3467784E6,1.9058653E5,3.8467043E4,2.0140706E5,1.0555144E6,2.3976238E5,9.318008E5,1.2574115E6,5.181567E4,2.479673E6,1.2229937E4,1.9215588E5,9.486421E5,1.4079223E5,5.0765794E5,4.6192212E7,7.553138E7,8.723196E5,1.0499731E6,7.3387575E5,1.589129E5,2.81679E6,1.2749482E5,4.723812E6,3.4054105E6,1.2420115E5,1.2225772E6,1.6865873E5,2.19278E4,2.2603219E4,1.5863824E4,1.9051762E5,1.0889442E4,3.6175223E4,1.0193392E6,1.0789811E4,2.2897256E5,7.2679906E5,2.0500173E5],"tree_param":{"num_deleted":"0","num_feature":"39","num_nodes":"63","size_leaf_vector":"1"}},{"base_weights":[6.4571254E-4,-2.350946E-1,3.5437885E-1,-4.269875E-1,-1.11190476E-1,2.2826542E-1,5.9778315E-1,-5.50761E-1,-3.7306574E-1,-1.7459375E-1,-1.3238511E-2,3.0862352E-1,6.4424016E-2,4.9271217E-1,7.5822186E-1,-6.1595315E-1,-5.036922E-1,-3.4001303E-1,-4.6780047E-1,-1.3039933E-1,-2.7572808E-1,3.3364087E-1,-4.905481E-2,2.4945977E-1,4.301037E-1,1.6947024E-2,4.8552653E-1,5.29341E-1,1.4454193E-1,6.922892E-1,8.9279443E-1,-4.975679E-2,1.2521283E-1,1.4561735E-1,-4.063446E-2,-3.2171205E-2,-2.2232715E-2,2.418819E-3,-3.840667E-2,-1.0846194E-2,6.2098593E-2,-2.2722527E-2,1.0189681E-1,6.1954163E-2,1.8615942E-2,1.0803421E-3,-1.462085E-2,2.2446169E-2,7.941203E-3,2.816441E-2,5.6819566E-2,-6.2241475E-3,1.3757094E-2,6.93568E-2,2.2891507E-2,6.0385372E-2,3.919759E-2,-8.252061E-3,4.4089884E-2,5.7544973E-2,1.1612682E-2,7.2902314E-2,-5.9885317E-3],"categories":[],"categories_nodes":[],"categories_segments":[],"categories_sizes":[],"default_left":[0,0,0,0,0,0,0,0,0,0,0,0,0,0,0,0,0,0,0,0,0,0,0,0,0,0,0,0,0,0,0,0,0,0,0,0,0,0,0,0,0,0,0,0,0,0,0,0,0,0,0,0,0,0,0,0,0,0,0,0,0,0,0],"id":17,"left_children":[1,3,5,7,9,11,13,15,17,19,21,23,25,27,29,31,33,35,37,39,41,43,45,47,49,51,53,55,57,59,61,-1,-1,-1,-1,-1,-1,-1,-1,-1,-1,-1,-1,-1,-1,-1,-1,-1,-1,-1,-1,-1,-1,-1,-1,-1,-1,-1,-1,-1,-1,-1,-1],"loss_changes":[1.1996987E7,2.0526685E6,1.766126E6,2.260695E5,3.2579906E5,4.989745E5,3.31016E5,3.154E4,7.387875E4,1.42338E5,2.5610188E5,1.8275325E5,2.493337E5,1.513215E5,6.8947E4,5.6463625E4,5.8796125E4,6.748775E4,3.73325E4,1.0404081E5,1.2459719E5,8.583758E4,1.5628573E5,7.9917625E4,1.82086E5,1.6461411E5,9.609803E4,9.5306E4,1.13746414E5,7.71105E4,4.5704625E4,0E0,0E0,0E0,0E0,0E0,0E0,0E0,0E0,0E0,0E0,0E0,0E0,0E0,0E0,0E0,0E0,0E0,0E0,0E0,0E0,0E0,0E0,0E0,0E0,0E0,0E0,0E0,0E0,0E0,0E0,0E0,0E0],"parents":[2147483647,0,0,1,1,2,2,3,3,4,4,5,5,6,6,7,7,8,8,9,9,10,10,11,11,12,12,13,13,14,14,15,15,16,16,17,17,18,18,19,19,20,20,21,21,22,22,23,23,24,24,25,25,26,26,27,27,28,28,29,29,30,30],"right_children":[2,4,6,8,10,12,14,16,18,20,22,24,26,28,30,32,34,36,38,40,42,44,46,48,50,52,54,56,58,60,62,-1,-1,-1,-1,-1,-1,-1,-1,-1,-1,-1,-1,-1,-1,-1,-1,-1,-1,-1,-1,-1,-1,-1,-1,-1,-1,-1,-1,-1,-1,-1,-1],"split_conditions":[1.0401115E0,-1.4067232E2,2.4008717E2,8.132314E-1,9.9236774E-1,1E0,1.2656826E0,7.455322E-1,1E0,1E0,-1.2E0,1.1138313E0,2.5E0,5E1,1.404331E0,6E-1,-2.73E2,-2.1311984E2,1.0993942E3,3.6E0,8.4E0,1.0017306E0,1E0,2.4E1,1.2E0,1.1033516E0,1.12E0,1E0,6.666667E-1,9E-1,7.2E1,-4.975679E-2,1.2521283E-1,1.4561735E-1,-4.063446E-2,-3.2171205E-2,-2.2232715E-2,2.418819E-3,-3.840667E-2,-1.0846194E-2,6.2098593E-2,-2.2722527E-2,1.0189681E-1,6.1954163E-2,1.8615942E-2,1.0803421E-3,-1.462085E-2,2.2446169E-2,7.941203E-3,2.816441E-2,5.6819566E-2,-6.2241475E-3,1.3757094E-2,6.93568E-2,2.2891507E-2,6.0385372E-2,3.919759E-2,-8.252061E-3,4.4089884E-2,5.7544973E-2,1.1612682E-2,7.2902314E-2,-5.9885317E-3],"split_indices":[3,2,2,3,3,5,3,3,5,5,26,3,28,6,3,30,9,2,0,17,37,3,5,32,21,3,38,22,30,10,9,0,0,0,0,0,0,0,0,0,0,0,0,0,0,0,0,0,0,0,0,0,0,0,0,0,0,0,0,0,0,0,0],"split_type":[0,0,0,0,0,0,0,0,0,0,0,0,0,0,0,0,0,0,0,0,0,0,0,0,0,0,0,0,0,0,0,0,0,0,0,0,0,0,0,0,0,0,0,0,0,0,0,0,0,0,0,0,0,0,0,0,0,0,0,0,0,0,0],"sum_hessian":[1.4386746E8,8.633245E7,5.753501E7,3.3872852E7,5.2459596E7,3.7898772E7,1.9636234E7,1.0278739E7,2.3594114E7,3.184601E7,2.0613588E7,2.542752E7,1.2471251E7,1.1865527E7,7.7707065E6,4.309664E6,5.969075E6,1.7491406E7,6.102707E6,2.2161652E7,9.684359E6,1.9292142E6,1.8684372E7,1.7099606E7,8.3279145E6,1.1207652E7,1.2635999E6,1.0736054E7,1.1294734E6,5.2154485E6,2.5552575E6,4.2978285E6,1.1835357E4,1.0866303E4,5.958209E6,8.744082E6,8.747324E6,1.468868E5,5.95582E6,2.2035798E7,1.25853445E5,9.632738E6,5.1621465E4,3.5947422E5,1.56974E6,1.2728763E7,5.95561E6,1.4164918E7,2.934689E6,6.513286E6,1.8146285E6,6.9560145E6,4.251637E6,4.3376744E5,8.298324E5,1.595973E6,9.140081E6,7.0188194E5,4.2759147E5,4.969979E6,2.4546983E5,2.507361E6,4.7896508E4],"tree_param":{"num_deleted":"0","num_feature":"39","num_nodes":"63","size_leaf_vector":"1"}},{"base_weights":[-1.2811306E-3,3.2731405E-1,-2.0232321E-1,6.009546E-1,2.3714381E-1,-6.7332916E-2,-3.797076E-1,8.0157495E-1,5.224191E-1,1.7845173E-1,3.8587096E-1,-1.3537186E-1,6.4405024E-2,-2.8660282E-1,-4.7335353E-1,6.74149E-1,8.80478E-1,4.7365114E-1,7.4671555E-1,4.2963135E-1,1.5025131E-1,2.7208605E-1,5.2262956E-1,-1.4313762E-2,-1.6559382E-1,4.0729854E-2,4.5889923E-1,-3.4857205E-1,-1.6117232E-1,-6.303222E-2,-4.8630652E-1,6.0932588E-2,1.3532994E-2,7.134645E-2,-8.106225E-2,4.387749E-2,2.4862422E-2,6.623675E-2,-2.4095098E-2,4.402834E-2,5.29786E-4,2.2598626E-3,1.5302288E-2,1.51228905E-2,4.91292E-2,4.4250853E-2,-1.6001526E-2,-2.824131E-3,3.6345493E-2,-1.6260536E-2,-4.6449825E-3,1.009034E-2,-2.7285318E-3,4.6671946E-2,-1.4805395E-2,8.39697E-2,-2.8343651E-2,-1.3942134E-2,5.404633E-2,-2.9047731E-2,6.2191818E-2,-3.922751E-2,4.5411505E-2],"categories":[],"categories_nodes":[],"categories_segments":[],"categories_sizes":[],"default_left":[0,0,0,0,0,0,0,0,0,0,0,0,0,0,0,0,0,0,0,0,0,0,0,0,0,0,0,0,0,0,0,0,0,0,0,0,0,0,0,0,0,0,0,0,0,0,0,0,0,0,0,0,0,0,0,0,0,0,0,0,0,0,0],"id":18,"left_children":[1,3,5,7,9,11,13,15,17,19,21,23,25,27,29,31,33,35,37,39,41,43,45,47,49,51,53,55,57,59,61,-1,-1,-1,-1,-1,-1,-1,-1,-1,-1,-1,-1,-1,-1,-1,-1,-1,-1,-1,-1,-1,-1,-1,-1,-1,-1,-1,-1,-1,-1,-1,-1],"loss_changes":[9.517334E6,1.349332E6,2.1402662E6,2.13552E5,3.5904575E5,4.5494388E5,3.367725E5,3.833775E4,1.0654825E5,2.0891112E5,1.8111325E5,1.2245344E5,1.6144894E5,1.5055062E5,1.02348E5,6.44385E4,5.0629625E4,9.749775E4,1.4810612E5,1.5202719E5,1.327255E5,1.8046134E5,1.16526875E5,6.576525E4,1.0847175E5,1.042218E5,7.846511E4,1.0374675E5,7.023009E4,1.4861142E5,7.94355E4,0E0,0E0,0E0,0E0,0E0,0E0,0E0,0E0,0E0,0E0,0E0,0E0,0E0,0E0,0E0,0E0,0E0,0E0,0E0,0E0,0E0,0E0,0E0,0E0,0E0,0E0,0E0,0E0,0E0,0E0,0E0,0E0],"parents":[2147483647,0,0,1,1,2,2,3,3,4,4,5,5,6,6,7,7,8,8,9,9,10,10,11,11,12,12,13,13,14,14,15,15,16,16,17,17,18,18,19,19,20,20,21,21,22,22,23,23,24,24,25,25,26,26,27,27,28,28,29,29,30,30],"right_children":[2,4,6,8,10,12,14,16,18,20,22,24,26,28,30,32,34,36,38,40,42,44,46,48,50,52,54,56,58,60,62,-1,-1,-1,-1,-1,-1,-1,-1,-1,-1,-1,-1,-1,-1,-1,-1,-1,-1,-1,-1,-1,-1,-1,-1,-1,-1,-1,-1,-1,-1,-1,-1],"split_conditions":[-8.68723E1,8.132314E-1,1.0682716E0,-4.956412E2,1E0,1E0,1.1409864E0,3.22E0,3E0,-2.25E0,1.6E0,-4.8765182E1,2.7142856E0,1E0,-4E-1,6.7E1,6E-1,3.4E1,-1.1E0,1.6333333E0,1.5981941E3,1.8855178E3,1.6666667E-1,1.5E0,1.75E0,1.0029032E0,5E-1,-2.25E0,2.5E2,1.5E0,5.4E0,6.0932588E-2,1.3532994E-2,7.134645E-2,-8.106225E-2,4.387749E-2,2.4862422E-2,6.623675E-2,-2.4095098E-2,4.402834E-2,5.29786E-4,2.2598626E-3,1.5302288E-2,1.51228905E-2,4.91292E-2,4.4250853E-2,-1.6001526E-2,-2.824131E-3,3.6345493E-2,-1.6260536E-2,-4.6449825E-3,1.009034E-2,-2.7285318E-3,4.6671946E-2,-1.4805395E-2,8.39697E-2,-2.8343651E-2,-1.3942134E-2,5.404633E-2,-2.9047731E-2,6.2191818E-2,-3.922751E-2,4.5411505E-2],"split_indices":[2,3,3,2,5,5,3,38,13,33,23,2,13,5,33,8,20,8,35,24,1,1,34,35,27,3,33,11,9,38,22,0,0,0,0,0,0,0,0,0,0,0,0,0,0,0,0,0,0,0,0,0,0,0,0,0,0,0,0,0,0,0,0],"split_type":[0,0,0,0,0,0,0,0,0,0,0,0,0,0,0,0,0,0,0,0,0,0,0,0,0,0,0,0,0,0,0,0,0,0,0,0,0,0,0,0,0,0,0,0,0,0,0,0,0,0,0,0,0,0,0,0,0,0,0,0,0,0,0],"sum_hessian":[1.4406786E8,5.468592E7,8.938194E7,1.3553866E7,4.1132056E7,5.075623E7,3.8625708E7,3.8131345E6,9.740731E6,2.9493184E7,1.163887E7,3.3469944E7,1.7286288E7,1.936882E7,1.9256888E7,1.4582001E6,2.3549345E6,8.0010885E6,1.7396425E6,2.9770195E6,2.6516164E7,6.3530525E6,5.2858175E6,6.686453E6,2.678349E7,1.6307604E7,9.786828E5,1.296395E7,6.4048705E6,5.892976E5,1.866759E7,1.242831E6,2.1536905E5,2.340902E6,1.403248E4,5.4825725E6,2.518516E6,1.614473E6,1.2516946E5,2.3160415E6,6.609779E5,6.672911E6,1.9843254E7,5.111824E6,1.2412281E6,5.071719E6,2.1409862E5,6.399835E6,2.866178E5,1.983595E7,6.94754E6,7.6162965E6,8.691308E6,8.2012556E5,1.5855725E5,5.285161E4,1.2911099E7,6.306111E6,9.875909E4,4.3425375E5,1.5504388E5,1.8596354E7,7.123701E4],"tree_param":{"num_deleted":"0","num_feature":"39","num_nodes":"63","size_leaf_vector":"1"}},{"base_weights":[7.918249E-3,-3.743627E-1,2.5787394E-2,-5.912922E-1,-2.8907815E-1,5.196022E-2,-2.571709E-1,-2.6110116E-1,-6.043446E-1,-2.048301E-1,-5.401222E-1,1.5095725E-3,9.918788E-2,-1.9213392E-1,-5.16882E-1,-6.564588E-1,1.397062E-1,-6.322934E-1,-4.6491867E-1,6.099198E-1,-2.3035806E-1,-5.611579E-1,8.021485E-1,6.14912E-2,-4.80454E-2,1.14892095E-1,-6.1382078E-2,-1.5539557E-1,-4.268224E-1,-5.3647584E-1,1.9786464E-1,-5.173983E-2,-5.306622E-2,-3.6441304E-2,-5.2093923E-2,3.2371495E-2,-5.2490037E-2,8.7235674E-2,-5.641816E-2,-2.2373559E-2,1.0875332E-2,-4.6669226E-2,3.484677E-2,-5.33459E-2,1.1057882E-1,-2.309345E-3,1.00692175E-2,-2.915134E-3,-3.4585096E-2,-3.1109387E-3,1.0443451E-2,3.1569307E-3,-2.0304216E-2,-4.1351438E-2,-1.0186131E-2,7.9143375E-2,-3.7022777E-2,-4.7464065E-2,-2.8501691E-2,9.409589E-2,-5.2834623E-2],"categories":[],"categories_nodes":[],"categories_segments":[],"categories_sizes":[],"default_left":[0,0,0,0,0,0,0,0,0,0,0,0,0,0,0,0,0,0,0,0,0,0,0,0,0,0,0,0,0,0,0,0,0,0,0,0,0,0,0,0,0,0,0,0,0,0,0,0,0,0,0,0,0,0,0,0,0,0,0,0,0],"id":19,"left_children":[1,3,5,7,9,11,13,15,17,19,21,23,25,27,29,31,-1,33,35,37,39,41,43,45,47,49,51,53,55,57,59,-1,-1,-1,-1,-1,-1,-1,-1,-1,-1,-1,-1,-1,-1,-1,-1,-1,-1,-1,-1,-1,-1,-1,-1,-1,-1,-1,-1,-1,-1],"loss_changes":[9.9380256E5,1.20193875E5,1.0293105E6,7.90125E3,9.862969E4,3.031212E5,1.9876125E5,5.5333633E4,6.872125E3,7.262175E4,3.30855E4,1.82834E5,1.6569231E5,8.114019E4,3.3004188E4,3.3261719E0,0E0,4.903125E3,4.896652E4,6.703722E4,6.1152125E4,2.5536875E4,1.5407819E4,1.6186647E5,1.5022277E5,1.4405806E5,1.13592555E5,8.2564734E4,6.486961E4,2.3488125E4,5.2802344E4,0E0,0E0,0E0,0E0,0E0,0E0,0E0,0E0,0E0,0E0,0E0,0E0,0E0,0E0,0E0,0E0,0E0,0E0,0E0,0E0,0E0,0E0,0E0,0E0,0E0,0E0,0E0,0E0,0E0,0E0],"parents":[2147483647,0,0,1,1,2,2,3,3,4,4,5,5,6,6,7,7,8,8,9,9,10,10,11,11,12,12,13,13,14,14,15,15,17,17,18,18,19,19,20,20,21,21,22,22,23,23,24,24,25,25,26,26,27,27,28,28,29,29,30,30],"right_children":[2,4,6,8,10,12,14,16,18,20,22,24,26,28,30,32,-1,34,36,38,40,42,44,46,48,50,52,54,56,58,60,-1,-1,-1,-1,-1,-1,-1,-1,-1,-1,-1,-1,-1,-1,-1,-1,-1,-1,-1,-1,-1,-1,-1,-1,-1,-1,-1,-1,-1,-1],"split_conditions":[7.7530456E-1,-5.5366614E2,1.1941866E0,-3.6E1,3E0,6E0,1.369239E0,6.6233253E-1,2.9333334E0,5E-2,3.22E0,1.33E0,1.25E0,3.2E0,7.9E1,1.1111111E-1,1.397062E-1,9.583333E-1,3E-1,1.25E0,1.4333333E0,-3.041735E2,1.0053955E3,9.1367364E-1,3E0,-1.5E0,4E1,1.19E0,2.0917392E2,2.2E0,2.25E0,-5.173983E-2,-5.306622E-2,-3.6441304E-2,-5.2093923E-2,3.2371495E-2,-5.2490037E-2,8.7235674E-2,-5.641816E-2,-2.2373559E-2,1.0875332E-2,-4.6669226E-2,3.484677E-2,-5.33459E-2,1.1057882E-1,-2.309345E-3,1.00692175E-2,-2.915134E-3,-3.4585096E-2,-3.1109387E-3,1.0443451E-2,3.1569307E-3,-2.0304216E-2,-4.1351438E-2,-1.0186131E-2,7.9143375E-2,-3.7022777E-2,-4.7464065E-2,-2.8501691E-2,9.409589E-2,-5.2834623E-2],"split_indices":[3,2,3,9,13,32,3,3,29,10,37,37,33,33,9,10,0,29,14,17,24,2,0,3,17,33,6,37,2,14,37,0,0,0,0,0,0,0,0,0,0,0,0,0,0,0,0,0,0,0,0,0,0,0,0,0,0,0,0,0,0],"split_type":[0,0,0,0,0,0,0,0,0,0,0,0,0,0,0,0,0,0,0,0,0,0,0,0,0,0,0,0,0,0,0,0,0,0,0,0,0,0,0,0,0,0,0,0,0,0,0,0,0,0,0,0,0,0,0,0,0,0,0,0,0],"sum_hessian":[1.4548349E8,6.496725E6,1.3898675E8,1.8333681E6,4.663357E6,1.27219336E8,1.176742E7,6.971795E4,1.7636501E6,3.491608E6,1.171749E6,6.1510812E7,6.5708524E7,9.410772E6,2.3566472E6,5.824707E4,1.1470881E4,1.4691462E6,2.9450394E5,1.0607556E5,3.3855322E6,1.1536696E6,1.8079342E4,2.7827838E7,3.3682972E7,5.9854572E7,5.8539525E6,8.137001E6,1.2737716E6,2.293767E6,6.288028E4,2.4176828E4,3.4070242E4,1.4177319E5,1.327373E6,5.308492E4,2.4141902E5,7.768968E4,2.8385883E4,2.9838462E6,4.0168612E5,1.1285266E6,2.5143047E4,5.118154E3,1.29611875E4,1.1577369E7,1.6250469E7,3.269546E7,9.8751394E5,5.5290525E6,5.432552E7,3.840976E6,2.0129765E6,5.8628344E5,7.5507175E6,3.154569E4,1.2422259E6,1.7438625E6,5.499045E5,2.938519E4,3.349509E4],"tree_param":{"num_deleted":"0","num_feature":"39","num_nodes":"61","size_leaf_vector":"1"}},{"base_weights":[-5.015212E-3,-2.3173408E-1,3.283717E-1,-4.1070512E-1,-1.1561696E-1,1.539339E-1,4.883019E-1,-5.1018363E-1,-3.4240478E-1,-1.7087555E-1,-3.1371526E-2,7.5574183E-1,1.4268804E-1,4.1900474E-1,6.9359016E-1,-5.143997E-1,5.9302014E-1,-2.5874984E-1,-3.865327E-1,-9.209889E-2,-2.0590208E-1,2.5311935E-1,-6.1606254E-2,-2.5638953E-1,9.187085E-1,8.4525324E-2,2.3565489E-1,4.0150705E-1,7.970263E-1,5.376122E-1,7.8085893E-1,-4.800112E-2,-3.8023025E-2,-2.1977408E-2,1.413422E-1,6.9752574E-2,-2.1389306E-2,-3.1239748E-2,4.253801E-2,3.4570653E-4,-1.6157404E-2,-1.6700948E-2,5.9650782E-2,5.5495758E-2,1.12336E-2,-7.843946E-3,6.576059E-3,-4.7161087E-2,9.511338E-2,8.5913666E-2,-9.38308E-3,-2.3037339E-2,7.916818E-3,1.8057797E-2,9.69023E-2,3.260405E-2,-4.9868207E-2,7.834858E-2,3.4325197E-2,5.3177092E-2,1.4808628E-2,6.431245E-2,2.4052562E-2],"categories":[],"categories_nodes":[],"categories_segments":[],"categories_sizes":[],"default_left":[0,0,0,0,0,0,0,0,0,0,0,0,0,0,0,0,0,0,0,0,0,0,0,0,0,0,0,0,0,0,0,0,0,0,0,0,0,0,0,0,0,0,0,0,0,0,0,0,0,0,0,0,0,0,0,0,0,0,0,0,0,0,0],"id":20,"left_children":[1,3,5,7,9,11,13,15,17,19,21,23,25,27,29,31,33,35,37,39,41,43,45,47,49,51,53,55,57,59,61,-1,-1,-1,-1,-1,-1,-1,-1,-1,-1,-1,-1,-1,-1,-1,-1,-1,-1,-1,-1,-1,-1,-1,-1,-1,-1,-1,-1,-1,-1,-1,-1],"loss_changes":[1.0833745E7,1.7729635E6,1.6185675E6,2.28095E5,2.408785E5,1.8780875E5,4.305815E5,6.356575E4,7.347875E4,8.6219625E4,1.7629472E5,8.396466E4,1.4729831E5,1.496785E5,1.03976E5,4.55875E4,5.2993906E4,6.696694E4,4.743425E4,1.0188174E5,5.8858438E4,9.776465E4,9.709486E4,3.3990895E4,7.0503125E4,9.0102086E4,1.0159119E5,1.3395825E5,6.716356E4,1.22783625E5,5.420775E4,0E0,0E0,0E0,0E0,0E0,0E0,0E0,0E0,0E0,0E0,0E0,0E0,0E0,0E0,0E0,0E0,0E0,0E0,0E0,0E0,0E0,0E0,0E0,0E0,0E0,0E0,0E0,0E0,0E0,0E0,0E0,0E0],"parents":[2147483647,0,0,1,1,2,2,3,3,4,4,5,5,6,6,7,7,8,8,9,9,10,10,11,11,12,12,13,13,14,14,15,15,16,16,17,17,18,18,19,19,20,20,21,21,22,22,23,23,24,24,25,25,26,26,27,27,28,28,29,29,30,30],"right_children":[2,4,6,8,10,12,14,16,18,20,22,24,26,28,30,32,34,36,38,40,42,44,46,48,50,52,54,56,58,60,62,-1,-1,-1,-1,-1,-1,-1,-1,-1,-1,-1,-1,-1,-1,-1,-1,-1,-1,-1,-1,-1,-1,-1,-1,-1,-1,-1,-1,-1,-1,-1,-1],"split_conditions":[1.0401115E0,-1.4067232E2,1.8127829E2,8.3714175E-1,9.9236774E-1,-3.5E0,1.2656826E0,1.8E0,2.5E-1,1.540936E3,-1.2E0,5.555556E-1,1.0849695E0,3.4E0,7.5E-1,7.455322E-1,5E0,4E-1,2.1428572E-1,1.6666666E0,9.5E-1,1.0017306E0,6.666667E-1,6.666667E-1,2.3333333E0,4E-1,4E0,2.625E0,6E0,1.0416666E0,6.7E1,-4.800112E-2,-3.8023025E-2,-2.1977408E-2,1.413422E-1,6.9752574E-2,-2.1389306E-2,-3.1239748E-2,4.253801E-2,3.4570653E-4,-1.6157404E-2,-1.6700948E-2,5.9650782E-2,5.5495758E-2,1.12336E-2,-7.843946E-3,6.576059E-3,-4.7161087E-2,9.511338E-2,8.5913666E-2,-9.38308E-3,-2.3037339E-2,7.916818E-3,1.8057797E-2,9.69023E-2,3.260405E-2,-4.9868207E-2,7.834858E-2,3.4325197E-2,5.3177092E-2,1.4808628E-2,6.431245E-2,2.4052562E-2],"split_indices":[3,2,2,3,3,26,3,33,16,1,26,12,3,28,30,3,7,38,34,23,10,3,33,30,12,28,18,13,32,29,9,0,0,0,0,0,0,0,0,0,0,0,0,0,0,0,0,0,0,0,0,0,0,0,0,0,0,0,0,0,0,0,0],"split_type":[0,0,0,0,0,0,0,0,0,0,0,0,0,0,0,0,0,0,0,0,0,0,0,0,0,0,0,0,0,0,0,0,0,0,0,0,0,0,0,0,0,0,0,0,0,0,0,0,0,0,0,0,0,0,0,0,0,0,0,0,0,0,0],"sum_hessian":[1.4333173E8,8.5314104E7,5.8017628E7,3.357108E7,5.1743024E7,2.7750174E7,3.0267452E7,1.3666299E7,1.9904782E7,3.1247226E7,2.04958E7,5.090478E5,2.7241128E7,2.2628854E7,7.6385985E6,1.361427E7,5.2029008E4,6.8738265E6,1.3030956E7,9.617324E6,2.1629902E7,1.9689678E6,1.8526832E7,7.0596336E4,4.3845147E5,1.6757291E7,1.0483837E7,2.1627762E7,1.00109294E6,2.7404765E6,4.898122E6,4.269185E6,9.345084E6,2.991446E4,2.2114545E4,5.1986805E4,6.8218395E6,1.2974944E7,5.60125E4,5.1221495E6,4.4951745E6,2.156509E7,6.4810973E4,4.0106622E5,1.5679015E6,1.4781066E7,3.745766E6,5.7373227E4,1.3223107E4,3.8132212E5,5.712936E4,6.2515556E5,1.6132135E7,1.0378182E7,1.0565456E5,2.1500972E7,1.267902E5,6.693947E5,3.3169825E5,2.0142155E6,7.2626094E5,4.6738075E6,2.2431444E5],"tree_param":{"num_deleted":"0","num_feature":"39","num_nodes":"63","size_leaf_vector":"1"}},{"base_weights":[6.696878E-4,3.0415383E-1,-1.9738741E-1,5.779786E-1,2.2744521E-1,-8.02569E-2,-3.8147926E-1,8.323218E-1,5.101943E-1,3.008615E-1,1.4079681E-1,-9.286153E-2,2.772103E-1,-3.456555E-1,-5.445155E-1,2.1153754E-2,8.4006816E-1,4.7057942E-1,8.740941E-1,2.786594E-1,6.9165653E-1,8.257542E-4,1.8434547E-1,-4.3892685E-2,-1.723154E-1,7.22174E-1,1.4155637E-1,2.687044E-1,-3.5366595E-1,-5.514629E-1,5.9418553E-1,7.616772E-2,-6.350071E-2,6.3980974E-2,7.071905E-2,2.3743132E-2,4.250557E-2,-7.7546113E-3,7.205021E-2,4.6796825E-2,2.0974895E-2,-1.957818E-2,6.185771E-2,-2.3959028E-2,5.8848113E-3,2.245562E-2,7.0145703E-3,-1.09625E-2,-1.9576562E-4,-1.399801E-2,1.2288581E-1,-2.648305E-2,8.350207E-2,5.33234E-3,7.8603394E-2,-3.1817902E-2,5.9890456E-2,-2.8688483E-2,4.5031436E-2,-4.466294E-2,5.0132792E-2,1.6365524E-1,-5.2425664E-2],"categories":[],"categories_nodes":[],"categories_segments":[],"categories_sizes":[],"default_left":[0,0,0,0,0,0,0,0,0,0,0,0,0,0,0,0,0,0,0,0,0,0,0,0,0,0,0,0,0,0,0,0,0,0,0,0,0,0,0,0,0,0,0,0,0,0,0,0,0,0,0,0,0,0,0,0,0,0,0,0,0,0,0],"id":21,"left_children":[1,3,5,7,9,11,13,15,17,19,21,23,25,27,29,31,33,35,37,39,41,43,45,47,49,51,53,55,57,59,61,-1,-1,-1,-1,-1,-1,-1,-1,-1,-1,-1,-1,-1,-1,-1,-1,-1,-1,-1,-1,-1,-1,-1,-1,-1,-1,-1,-1,-1,-1,-1,-1],"loss_changes":[8.576912E6,1.1836E6,1.8618235E6,2.1259425E5,2.8001725E5,2.3776494E5,1.960965E5,1.63045E4,1.40357E5,2.06747E5,1.23067E5,1.9831988E5,1.0848797E5,1.3546725E5,4.784925E4,1.8622338E4,4.549E3,9.2687E4,2.4627438E4,1.13769E5,9.783675E4,1.0464911E5,1.4341556E5,1.2173425E5,8.831456E4,1.4223389E5,8.676456E4,1.1331595E5,1.2303375E5,4.8331125E4,6.652449E4,0E0,0E0,0E0,0E0,0E0,0E0,0E0,0E0,0E0,0E0,0E0,0E0,0E0,0E0,0E0,0E0,0E0,0E0,0E0,0E0,0E0,0E0,0E0,0E0,0E0,0E0,0E0,0E0,0E0,0E0,0E0,0E0],"parents":[2147483647,0,0,1,1,2,2,3,3,4,4,5,5,6,6,7,7,8,8,9,9,10,10,11,11,12,12,13,13,14,14,15,15,16,16,17,17,18,18,19,19,20,20,21,21,22,22,23,23,24,24,25,25,26,26,27,27,28,28,29,29,30,30],"right_children":[2,4,6,8,10,12,14,16,18,20,22,24,26,28,30,32,34,36,38,40,42,44,46,48,50,52,54,56,58,60,62,-1,-1,-1,-1,-1,-1,-1,-1,-1,-1,-1,-1,-1,-1,-1,-1,-1,-1,-1,-1,-1,-1,-1,-1,-1,-1,-1,-1,-1,-1,-1,-1],"split_conditions":[-7.9924034E1,-3.3315894E2,1.2269587E2,-5.5366614E2,-1.656083E2,2.7142856E0,3.5005682E2,2.5E-1,3.5E0,3.2222223E0,1.19E0,4.044578E1,1.4E0,-1.3333334E0,2.6666667E0,1.0539375E3,3.6666667E-1,5E-1,5.714286E-1,-3E0,9.75691E2,-1.6666667E-1,1.3E1,1.14E0,7.8E0,-3.9285713E-1,6.4E0,6E-1,3.5E0,2.7142856E0,5E-1,7.616772E-2,-6.350071E-2,6.3980974E-2,7.071905E-2,2.3743132E-2,4.250557E-2,-7.7546113E-3,7.205021E-2,4.6796825E-2,2.0974895E-2,-1.957818E-2,6.185771E-2,-2.3959028E-2,5.8848113E-3,2.245562E-2,7.0145703E-3,-1.09625E-2,-1.9576562E-4,-1.399801E-2,1.2288581E-1,-2.648305E-2,8.350207E-2,5.33234E-3,7.8603394E-2,-3.1817902E-2,5.9890456E-2,-2.8688483E-2,4.5031436E-2,-4.466294E-2,5.0132792E-2,1.6365524E-1,-5.2425664E-2],"split_indices":[2,2,2,2,2,13,2,27,23,13,38,2,28,33,29,0,24,37,17,33,0,36,7,38,38,34,23,20,13,13,15,0,0,0,0,0,0,0,0,0,0,0,0,0,0,0,0,0,0,0,0,0,0,0,0,0,0,0,0,0,0,0,0],"split_type":[0,0,0,0,0,0,0,0,0,0,0,0,0,0,0,0,0,0,0,0,0,0,0,0,0,0,0,0,0,0,0,0,0,0,0,0,0,0,0,0,0,0,0,0,0,0,0,0,0,0,0,0,0,0,0,0,0,0,0,0,0,0,0],"sum_hessian":[1.4269362E8,5.6349268E7,8.6344344E7,1.2331133E7,4.4018136E7,5.2769292E7,3.357505E7,2.5948E6,9.736333E6,2.3828498E7,2.0189636E7,5.0971976E7,1.7973192E6,2.7526652E7,6.0483975E6,2.4545082E4,2.570255E6,8.780476E6,9.558574E5,2.2547516E7,1.2809824E6,4.790939E6,1.5398697E7,3.153586E7,1.9436116E7,4.1991962E5,1.3773996E6,3.5429144E5,2.717236E7,6.0117195E6,3.667778E4,1.1456883E4,1.30882E4,1.3402809E6,1.229974E6,2.2740255E6,6.50645E6,2.5423998E4,9.304334E5,1.1507398E6,2.1396776E7,1.0264073E5,1.1783416E6,9.341041E5,3.8568348E6,7.7118545E6,7.6868425E6,9.711564E6,2.1824296E7,1.9405904E7,3.0211262E4,9.822919E4,3.2169044E5,1.2647558E6,1.1264382E5,1.4832564E5,2.0596581E5,2.7026692E7,1.4566873E5,5.9770995E6,3.4619996E4,1.6967135E4,1.9710645E4],"tree_param":{"num_deleted":"0","num_feature":"39","num_nodes":"63","size_leaf_vector":"1"}},{"base_weights":[3.0708746E-3,2.6582694E-2,-2.6325932E-1,-3.7735745E-1,4.3273337E-2,-2.0487747E-1,-4.9479342E-1,-5.77509E-1,-2.780154E-1,5.026894E-2,-3.4543157E-1,-1.6551897E-1,-4.7081313E-1,-5.1391083E-1,2.691895E-1,-6.390063E-1,-5.1804817E-1,-3.768798E-1,-1.1740987E-1,5.5437665E-2,-3.5243416E-1,-4.445651E-1,6.733963E-2,-2.0034531E-1,1.05853714E-1,-4.918621E-1,1.3303505E-1,-5.6640023E-1,-3.4526068E-1,1.1244307E0,-6.533123E-1,-5.2920345E-2,-5.101581E-2,-1.8770501E-2,-4.82138E-2,-3.5141684E-2,1.1511728E-2,3.963247E-2,-1.6222348E-2,5.2543757E-3,-6.1393594E-3,-3.0463401E-2,7.815182E-2,1.4105956E-1,-3.6678977E-2,1.395846E-1,-1.0351393E-2,-7.5872317E-3,-2.5361134E-2,5.9528235E-2,-4.8649157E-3,3.19398E-3,-4.5444507E-2,1.164344E-2,-4.646783E-2,8.7004736E-2,-4.2726208E-2,1.17327295E-1,-5.1984794E-2,-5.3385533E-2,-5.16059E-2],"categories":[],"categories_nodes":[],"categories_segments":[],"categories_sizes":[],"default_left":[0,0,0,0,0,0,0,0,0,0,0,0,0,0,0,0,0,0,0,0,0,0,0,0,0,0,0,0,0,0,0,0,0,0,0,0,0,0,0,0,0,0,0,0,0,0,0,0,0,0,0,0,0,0,0,0,0,0,0,0,0],"id":22,"left_children":[1,3,5,7,9,11,13,15,17,19,21,23,25,27,29,31,33,35,37,39,41,43,45,47,49,51,-1,53,55,57,59,-1,-1,-1,-1,-1,-1,-1,-1,-1,-1,-1,-1,-1,-1,-1,-1,-1,-1,-1,-1,-1,-1,-1,-1,-1,-1,-1,-1,-1,-1],"loss_changes":[9.0604094E5,8.963763E5,1.5865675E5,1.04897125E5,3.471854E5,9.811231E4,3.4521312E4,6.3984375E3,5.5981406E4,2.6105856E5,9.236453E4,7.716875E4,5.4276094E4,2.041225E4,4.552513E4,2.475E1,2.1338188E4,7.090759E4,7.02798E4,1.676416E5,5.9916453E4,5.5945938E4,1.442572E5,8.907519E4,9.878866E4,4.8487156E4,0E0,1.80885E4,1.4807434E5,1.8178566E4,2.6416016E0,0E0,0E0,0E0,0E0,0E0,0E0,0E0,0E0,0E0,0E0,0E0,0E0,0E0,0E0,0E0,0E0,0E0,0E0,0E0,0E0,0E0,0E0,0E0,0E0,0E0,0E0,0E0,0E0,0E0,0E0],"parents":[2147483647,0,0,1,1,2,2,3,3,4,4,5,5,6,6,7,7,8,8,9,9,10,10,11,11,12,12,13,13,14,14,15,15,16,16,17,17,18,18,19,19,20,20,21,21,22,22,23,23,24,24,25,25,27,27,28,28,29,29,30,30],"right_children":[2,4,6,8,10,12,14,16,18,20,22,24,26,28,30,32,34,36,38,40,42,44,46,48,50,52,-1,54,56,58,60,-1,-1,-1,-1,-1,-1,-1,-1,-1,-1,-1,-1,-1,-1,-1,-1,-1,-1,-1,-1,-1,-1,-1,-1,-1,-1,-1,-1,-1,-1],"split_conditions":[1.1941866E0,-4.0636734E2,1.369239E0,-5.5366614E2,3.6666667E0,3.2E0,7.9E1,1.1279515E3,-1E0,5.7E0,3.5E0,2.6333334E0,7E-1,2.2E0,1E0,1.95E0,2.5E-1,2E-1,5.5555556E-2,3.42E0,1.9538536E3,-8E-1,2.75E0,1.7159622E3,-2.1E1,1.2098839E0,1.3303505E-1,2.2222222E-1,1.3333334E0,1.5833472E3,9.4E1,-5.2920345E-2,-5.101581E-2,-1.8770501E-2,-4.82138E-2,-3.5141684E-2,1.1511728E-2,3.963247E-2,-1.6222348E-2,5.2543757E-3,-6.1393594E-3,-3.0463401E-2,7.815182E-2,1.4105956E-1,-3.6678977E-2,1.395846E-1,-1.0351393E-2,-7.5872317E-3,-2.5361134E-2,5.9528235E-2,-4.8649157E-3,3.19398E-3,-4.5444507E-2,1.164344E-2,-4.646783E-2,8.7004736E-2,-4.2726208E-2,1.17327295E-1,-5.1984794E-2,-5.3385533E-2,-5.16059E-2],"split_indices":[3,2,3,2,23,33,9,0,33,37,28,14,34,14,12,38,22,21,10,38,0,36,18,0,9,3,0,24,12,0,7,0,0,0,0,0,0,0,0,0,0,0,0,0,0,0,0,0,0,0,0,0,0,0,0,0,0,0,0,0,0],"split_type":[0,0,0,0,0,0,0,0,0,0,0,0,0,0,0,0,0,0,0,0,0,0,0,0,0,0,0,0,0,0,0,0,0,0,0,0,0,0,0,0,0,0,0,0,0,0,0,0,0,0,0,0,0,0,0,0,0,0,0,0,0],"sum_hessian":[1.446909E8,1.32953656E8,1.1737242E7,5.275604E6,1.2767805E8,9.373655E6,2.363587E6,1.7499164E6,3.5256872E6,1.25420824E8,2.2572242E6,8.1652055E6,1.2084492E6,2.3058862E6,5.7700605E4,8.602216E5,8.8969475E5,2.182313E6,1.3433745E6,1.2383144E8,1.5893845E6,1.8200988E6,4.3712534E5,7.236515E6,9.286904E5,1.1966455E6,1.1803808E4,1.7585618E6,5.4732456E5,2.9941795E4,2.7758812E4,4.7255062E4,8.1296656E5,2.0457019E5,6.8512456E5,1.9488345E6,2.3347842E5,1.6425825E5,1.1791161E6,1.14926296E8,8.905143E6,1.5561875E6,3.319704E4,1.1404544E4,1.8086942E6,4.5883637E4,3.9124172E5,3.800072E6,3.436443E6,1.9229355E5,7.363968E5,1.499676E5,1.0466779E6,3.497677E4,1.723585E6,6.3727668E4,4.835969E5,2.5101268E4,4.840527E3,1.0246304E4,1.7512508E4],"tree_param":{"num_deleted":"0","num_feature":"39","num_nodes":"61","size_leaf_vector":"1"}},{"base_weights":[-2.236885E-3,-2.146514E-1,3.0178618E-1,-3.9324036E-1,-9.256288E-2,1.9155061E-1,5.248628E-1,-5.1942426E-1,-3.3192444E-1,-1.4939217E-1,-1.453699E-2,2.541848E-1,5.6848273E-2,4.749586E-1,8.098299E-1,-5.2251405E-1,7.328412E-1,-2.9034716E-1,-4.4447327E-1,-1.5261407E-1,9.821922E-1,2.65989E-1,-4.4027656E-2,1.5952848E-1,3.2355472E-1,9.657059E-3,4.397252E-1,4.4803032E-1,8.4214854E-1,8.182304E-1,-7.407573E-2,-4.7605257E-2,-3.8489707E-2,1.0687995E-1,-5.24572E-2,-2.4092035E-2,2.5453556E-3,1.4060797E-1,-3.5873834E-2,-9.182934E-3,-1.9315537E-2,-5.9207857E-2,9.7855374E-2,1.9020952E-2,1.08467385E-1,-4.4927658E-3,2.9047254E-2,-4.305507E-3,1.5496082E-2,1.4378689E-2,3.1641405E-2,-1.0692989E-2,8.356261E-3,6.521769E-2,2.3478085E-2,4.0549293E-2,2.581135E-2,6.9227256E-2,-3.1601768E-2,6.610342E-2,-6.9446996E-2],"categories":[],"categories_nodes":[],"categories_segments":[],"categories_sizes":[],"default_left":[0,0,0,0,0,0,0,0,0,0,0,0,0,0,0,0,0,0,0,0,0,0,0,0,0,0,0,0,0,0,0,0,0,0,0,0,0,0,0,0,0,0,0,0,0,0,0,0,0,0,0,0,0,0,0,0,0,0,0,0,0],"id":23,"left_children":[1,3,5,7,9,11,13,15,17,19,21,23,25,27,29,31,33,35,37,39,41,43,45,47,49,51,53,55,57,59,-1,-1,-1,-1,-1,-1,-1,-1,-1,-1,-1,-1,-1,-1,-1,-1,-1,-1,-1,-1,-1,-1,-1,-1,-1,-1,-1,-1,-1,-1,-1],"loss_changes":[9.224211E6,1.8333978E6,1.4447095E6,2.641665E5,2.2145828E5,3.3173738E5,2.76317E5,4.3202E4,1.075225E5,1.05353875E5,1.7411784E5,1.7623675E5,2.254925E5,1.6348925E5,4.2222E4,3.344775E4,2.3017281E4,5.8398625E4,5.3911625E4,9.682419E4,3.4054742E4,6.1590875E4,9.406412E4,8.275575E4,1.6030338E5,1.5094888E5,7.520247E4,1.1364625E5,3.241525E4,3.9179125E4,0E0,0E0,0E0,0E0,0E0,0E0,0E0,0E0,0E0,0E0,0E0,0E0,0E0,0E0,0E0,0E0,0E0,0E0,0E0,0E0,0E0,0E0,0E0,0E0,0E0,0E0,0E0,0E0,0E0,0E0,0E0],"parents":[2147483647,0,0,1,1,2,2,3,3,4,4,5,5,6,6,7,7,8,8,9,9,10,10,11,11,12,12,13,13,14,14,15,15,16,16,17,17,18,18,19,19,20,20,21,21,22,22,23,23,24,24,25,25,26,26,27,27,28,28,29,29],"right_children":[2,4,6,8,10,12,14,16,18,20,22,24,26,28,30,32,34,36,38,40,42,44,46,48,50,52,54,56,58,60,-1,-1,-1,-1,-1,-1,-1,-1,-1,-1,-1,-1,-1,-1,-1,-1,-1,-1,-1,-1,-1,-1,-1,-1,-1,-1,-1,-1,-1,-1,-1],"split_conditions":[1.0401115E0,9.1971195E-1,6.109334E-1,-7.4731624E-1,9.91283E-1,1E0,3.2E0,4.2E0,1E0,5.3333335E0,-1.2E0,2.5E1,2.5E0,1.3162472E0,2.857143E0,7.455322E-1,1.0539375E3,7.5E-1,1E-1,1E0,1.034101E3,6E1,2.63E2,6.25E-1,1.0766239E0,3.067397E-1,2.6E0,8E0,3.6333334E0,7.777778E-1,-7.407573E-2,-4.7605257E-2,-3.8489707E-2,1.0687995E-1,-5.24572E-2,-2.4092035E-2,2.5453556E-3,1.4060797E-1,-3.5873834E-2,-9.182934E-3,-1.9315537E-2,-5.9207857E-2,9.7855374E-2,1.9020952E-2,1.08467385E-1,-4.4927658E-3,2.9047254E-2,-4.305507E-3,1.5496082E-2,1.4378689E-2,3.1641405E-2,-1.0692989E-2,8.356261E-3,6.521769E-2,2.3478085E-2,4.0549293E-2,2.581135E-2,6.9227256E-2,-3.1601768E-2,6.610342E-2,-6.9446996E-2],"split_indices":[3,3,4,4,3,5,33,28,5,28,26,6,28,4,13,3,0,33,18,5,0,6,8,17,3,4,18,32,24,15,0,0,0,0,0,0,0,0,0,0,0,0,0,0,0,0,0,0,0,0,0,0,0,0,0,0,0,0,0,0,0],"split_type":[0,0,0,0,0,0,0,0,0,0,0,0,0,0,0,0,0,0,0,0,0,0,0,0,0,0,0,0,0,0,0,0,0,0,0,0,0,0,0,0,0,0,0,0,0,0,0,0,0,0,0,0,0,0,0,0,0,0,0,0,0],"sum_hessian":[1.4283629E8,8.408668E7,5.8749596E7,3.414296E7,4.9943724E7,3.9319484E7,1.9430112E7,1.1165378E7,2.2977582E7,2.8896946E7,2.1046776E7,2.6839564E7,1.247992E7,1.6534539E7,2.8955732E6,1.1137897E7,2.7480572E4,1.677912E7,6.1984615E6,2.8814904E7,8.204207E4,2.0020959E6,1.9044682E7,1.1350983E7,1.5488581E7,1.1110505E7,1.3694158E6,1.5404814E7,1.1297258E6,2.881628E6,1.3945343E4,4.0460688E6,7.0918285E6,1.9158605E4,8.321966E3,1.6234715E7,5.4440494E5,1.1096926E4,6.1873645E6,2.020908E7,8.605825E6,1.0070615E4,7.197145E4,1.9515521E6,5.0543742E4,1.8493582E7,5.510983E5,1.5671145E6,9.783869E6,5.1653645E6,1.0323217E7,4.423202E6,6.6873025E6,3.8385625E5,9.8555956E5,1.0484966E7,4.9198475E6,1.1089378E6,2.0787938E4,2.8679168E6,1.3711236E4],"tree_param":{"num_deleted":"0","num_feature":"39","num_nodes":"61","size_leaf_vector":"1"}},{"base_weights":[-2.4282143E-3,2.9453894E-1,-1.7855753E-1,6.3144803E-1,2.3201232E-1,-5.1292166E-2,-3.5820535E-1,6.409786E-1,-8.611868E-1,1.6970402E-1,3.997926E-1,-1.16671346E-1,7.325886E-2,-3.1940913E-1,-5.204035E-1,4.30508E-1,6.903698E-1,-7.7042526E-1,-9.4333416E-1,4.2747796E-1,1.3813128E-1,5.3507465E-1,3.0247602E-1,-6.260224E-3,-1.5070288E-1,1.4873819E-1,-4.11798E-3,-3.629915E-1,-2.2542663E-1,-5.3939456E-1,3.0502886E-1,-5.7431916E-4,4.3898623E-2,5.5864096E-2,-3.7074164E-2,-6.785058E-2,-5.939124E-2,-7.113718E-2,-7.6859E-2,-2.5735714E-2,3.6448374E-2,1.7664653E-3,1.6417043E-2,3.9377593E-2,7.0512496E-2,1.9505234E-2,5.8022313E-2,-3.8947366E-2,7.5385615E-4,-1.2361866E-2,6.889051E-2,-9.463161E-4,1.7660473E-2,-1.0513961E-3,9.4198585E-2,-2.9398832E-2,7.597525E-2,3.9905435E-3,-2.058124E-2,-4.3851193E-2,2.6755087E-2,-1.8536326E-2,1.0447043E-1],"categories":[],"categories_nodes":[],"categories_segments":[],"categories_sizes":[],"default_left":[0,0,0,0,0,0,0,0,0,0,0,0,0,0,0,0,0,0,0,0,0,0,0,0,0,0,0,0,0,0,0,0,0,0,0,0,0,0,0,0,0,0,0,0,0,0,0,0,0,0,0,0,0,0,0,0,0,0,0,0,0,0,0],"id":24,"left_children":[1,3,5,7,9,11,13,15,17,19,21,23,25,27,29,31,33,35,37,39,41,43,45,47,49,51,53,55,57,59,61,-1,