{"learner":{"attributes":{"best_iteration":"40","best_score":"4.122245945583168","scikit_learn":"{\"_estimator_type\": \"regressor\"}"},"feature_names":["elo_home","elo_away","elo_diff","elo_ratio","elo_diff_normalized","neutral","tournament_weight","days_since_home_last","days_since_away_last","days_diff","home_form_10_winrate","home_form_10_goaldiff_avg","home_form_10_goals_scored_avg","home_form_10_goals_conceded_avg","home_form_10_weighted_points","away_form_10_winrate","away_form_10_goaldiff_avg","away_form_10_goals_scored_avg","away_form_10_goals_conceded_avg","away_form_10_weighted_points","home_form_5_winrate","home_form_5_goaldiff_avg","home_form_5_goals_scored_avg","home_form_5_goals_conceded_avg","home_form_5_weighted_points","away_form_5_winrate","away_form_5_goaldiff_avg","away_form_5_goals_scored_avg","away_form_5_goals_conceded_avg","away_form_5_weighted_points","h2h_home_winrate","h2h_draw_rate","h2h_count","h2h_home_goal_diff_avg","tournament_avg_goals","tournament_std_goals","tournament_over_2_5_rate","tournament_match_count","home_tournament_gf_avg","home_tournament_ga_avg","away_tournament_gf_avg","away_tournament_ga_avg","home_tournament_attack_bias","away_tournament_attack_bias","form_diff_winrate","form_diff_goaldiff","form_diff_5_winrate","attack_vs_defense_home","attack_vs_defense_away"],"feature_types":["float","float","float","float","float","int","int","int","int","int","float","float","float","float","float","float","float","float","float","float","float","float","float","float","float","float","float","float","float","float","float","float","int","float","float","float","float","int","float","float","float","float","float","float","float","float","float","float","float"],"gradient_booster":{"model":{"cats":{"enc":[],"feature_segments":[],"sorted_idx":[]},"gbtree_model_param":{"num_parallel_tree":"1","num_trees":"91"},"iteration_indptr":[0,1,2,3,4,5,6,7,8,9,10,11,12,13,14,15,16,17,18,19,20,21,22,23,24,25,26,27,28,29,30,31,32,33,34,35,36,37,38,39,40,41,42,43,44,45,46,47,48,49,50,51,52,53,54,55,56,57,58,59,60,61,62,63,64,65,66,67,68,69,70,71,72,73,74,75,76,77,78,79,80,81,82,83,84,85,86,87,88,89,90,91],"tree_info":[0,0,0,0,0,0,0,0,0,0,0,0,0,0,0,0,0,0,0,0,0,0,0,0,0,0,0,0,0,0,0,0,0,0,0,0,0,0,0,0,0,0,0,0,0,0,0,0,0,0,0,0,0,0,0,0,0,0,0,0,0,0,0,0,0,0,0,0,0,0,0,0,0,0,0,0,0,0,0,0,0,0,0,0,0,0,0,0,0,0,0],"trees":[{"base_weights":[-2.497435E-4,4.4286045E-1,-3.315543E-1,3.2110763E-1,9.777149E-1,-1.1206533E-1,-6.650125E-1,5.69936E-1,2.281633E-1,1.6732898E0,9.127168E-1,-2.0218389E-1,5.6334805E-2,-5.2237976E-1,-9.147613E-1,9.106895E-1,5.2946454E-1,1.5839899E-1,4.0420055E-1,1.6986072E0,4.041944E-2,6.743462E-1,1.0370932E0,-3.3430102E-1,-1.4764178E-1,3.9973695E-2,1.2206823E0,-5.436482E-1,6.3804364E-1,-8.3032954E-1,-1.4395852E0,1.3417631E0,8.023625E-1,6.515405E-1,4.4461524E-1,2.2257333E-1,-1.1906994E-3,3.3031207E-1,7.334447E-1,5.6344908E-2,1.02605395E-1,-2.9720673E-1,7.0620304E-1,1.0669695E0,-5.838475E-2,-3.4758118E-1,8.502995E-1,-1.0122077E-1,-3.0613682E-1,1.7867227E-1,-3.783021E-2,1.4227648E0,5.378933E-1,-5.717578E-1,-3.1511474E-1,1.0507405E0,-1.5770449E-1,-8.5180175E-1,3.6259812E-1,-1.6229583E0,-1.045616E0,-4.0863818E-3,8.293612E-2,5.2173916E-2,2.4967924E-2,3.5503864E-2,5.5049364E-2,3.7927296E-2,2.3230385E-2,9.166348E-3,2.0389596E-2,-1.2145867E-2,3.8595959E-3,2.5503516E-2,1.4234329E-2,2.8295165E-2,5.1734407E-2,1.0589582E-2,-8.2645014E-2,5.6280084E-2,3.481714E-2,5.0250787E-2,6.8831794E-2,2.5373874E-2,-5.1435623E-2,-2.1961158E-2,1.5770525E-2,7.6783195E-2,-2.0235198E-2,-7.3007615E-3,1.15210125E-2,-2.686031E-2,-5.969842E-4,6.943381E-3,2.5025465E-2,-7.002258E-4,-2.9026585E-2,5.5738866E-2,9.460442E-2,3.7861805E-2,-4.0863818E-3,-7.324563E-2,-3.374424E-2,-2.6830034E-2,2.1690172E-3,7.6602615E-2,1.6919378E-2,1.9335099E-2,-6.9108024E-2,-5.360717E-2,-2.5880635E-2,-4.9422823E-2,3.5620287E-2,-3.1066554E-2,-1.0044716E-1,-7.284232E-2,-3.0334875E-2],"categories":[],"categories_nodes":[],"categories_segments":[],"categories_sizes":[],"default_left":[0,0,0,0,0,0,0,0,0,0,0,0,0,0,0,0,0,0,0,0,0,0,0,0,0,0,0,0,0,0,0,0,0,0,0,0,0,0,0,0,0,0,0,0,0,0,0,0,0,0,0,0,0,0,0,0,0,0,0,0,0,0,0,0,0,0,0,0,0,0,0,0,0,0,0,0,0,0,0,0,0,0,0,0,0,0,0,0,0,0,0,0,0,0,0,0,0,0,0,0,0,0,0,0,0,0,0,0,0,0,0,0,0,0,0,0,0],"id":0,"left_children":[1,3,5,7,9,11,13,15,17,19,21,23,25,27,29,31,33,35,37,39,-1,41,43,45,47,49,51,53,55,57,59,61,63,65,67,69,71,73,75,-1,-1,77,79,81,83,85,87,89,91,93,95,97,99,101,103,105,107,109,111,113,115,-1,-1,-1,-1,-1,-1,-1,-1,-1,-1,-1,-1,-1,-1,-1,-1,-1,-1,-1,-1,-1,-1,-1,-1,-1,-1,-1,-1,-1,-1,-1,-1,-1,-1,-1,-1,-1,-1,-1,-1,-1,-1,-1,-1,-1,-1,-1,-1,-1,-1,-1,-1,-1,-1,-1,-1],"loss_changes":[2.730464E3,5.180051E2,7.7887646E2,1.4985297E2,6.593176E1,9.741277E1,1.5024036E2,2.406543E1,5.79386E1,2.6032715E0,3.9681763E1,3.0104477E1,4.2606785E1,6.65614E1,6.7416016E1,8.166824E0,1.618573E1,3.4630867E1,3.2463226E1,2.6141357E-1,0E0,1.4478088E1,2.9040283E1,1.9361511E1,2.1764954E1,2.3823671E1,3.8937683E0,1.6880554E1,1.6057596E1,3.4052063E1,1.4468994E1,2.1425934E0,3.7182388E0,9.994568E0,9.912689E0,1.9711754E1,1.2799166E1,9.6041565E0,8.0625E0,0E0,0E0,7.845911E0,1.2856171E1,1.540332E1,9.41088E0,1.3646011E1,7.1947556E0,1.3752529E1,2.8100288E1,1.1882557E1,1.6498777E1,1.0627861E0,4.663546E-1,1.3933777E1,1.34812355E1,5.395645E0,8.319144E0,2.25755E1,6.7548428E0,7.6961365E0,5.94606E0,0E0,0E0,0E0,0E0,0E0,0E0,0E0,0E0,0E0,0E0,0E0,0E0,0E0,0E0,0E0,0E0,0E0,0E0,0E0,0E0,0E0,0E0,0E0,0E0,0E0,0E0,0E0,0E0,0E0,0E0,0E0,0E0,0E0,0E0,0E0,0E0,0E0,0E0,0E0,0E0,0E0,0E0,0E0,0E0,0E0,0E0,0E0,0E0,0E0,0E0,0E0,0E0,0E0,0E0,0E0,0E0],"parents":[2147483647,0,0,1,1,2,2,3,3,4,4,5,5,6,6,7,7,8,8,9,9,10,10,11,11,12,12,13,13,14,14,15,15,16,16,17,17,18,18,19,19,21,21,22,22,23,23,24,24,25,25,26,26,27,27,28,28,29,29,30,30,31,31,32,32,33,33,34,34,35,35,36,36,37,37,38,38,41,41,42,42,43,43,44,44,45,45,46,46,47,47,48,48,49,49,50,50,51,51,52,52,53,53,54,54,55,55,56,56,57,57,58,58,59,59,60,60],"right_children":[2,4,6,8,10,12,14,16,18,20,22,24,26,28,30,32,34,36,38,40,-1,42,44,46,48,50,52,54,56,58,60,62,64,66,68,70,72,74,76,-1,-1,78,80,82,84,86,88,90,92,94,96,98,100,102,104,106,108,110,112,114,116,-1,-1,-1,-1,-1,-1,-1,-1,-1,-1,-1,-1,-1,-1,-1,-1,-1,-1,-1,-1,-1,-1,-1,-1,-1,-1,-1,-1,-1,-1,-1,-1,-1,-1,-1,-1,-1,-1,-1,-1,-1,-1,-1,-1,-1,-1,-1,-1,-1,-1,-1,-1,-1,-1,-1,-1],"split_conditions":[9.555001E-1,2.8796296E0,1.2946918E2,8.3716834E-1,-7.7E0,1E0,2.707231E2,-3.5E0,1E0,-1.4521597E2,3.4E0,1.08E0,5.1E0,3.142857E0,5.0173862E2,6.8E1,-3.8809103E2,9.2734975E-1,5.8877087E-1,6.666667E-1,4.041944E-2,1.6666667E-1,3E0,6E1,1.0465951E0,9.988976E-1,2.2222222E-1,1.74561E3,2E0,2.8796296E0,7.3333335E-1,2E-1,1.6E0,1.2631578E0,4E0,1.7407408E0,1.2083334E0,-1.5460551E2,2.47E0,5.6344908E-2,1.02605395E-1,7.2740906E-1,7.390907E-1,3E0,3.5E1,2.25E0,2.9260427E1,2.3285713E0,2.2E0,5.546289E-1,2.020202E0,3E1,1.4097673E3,3E-1,1.2435234E0,6E1,3.0532856E0,1.6742701E3,3.1055145E2,1.5336045E3,7.623E3,-4.0863818E-3,8.293612E-2,5.2173916E-2,2.4967924E-2,3.5503864E-2,5.5049364E-2,3.7927296E-2,2.3230385E-2,9.166348E-3,2.0389596E-2,-1.2145867E-2,3.8595959E-3,2.5503516E-2,1.4234329E-2,2.8295165E-2,5.1734407E-2,1.0589582E-2,-8.2645014E-2,5.6280084E-2,3.481714E-2,5.0250787E-2,6.8831794E-2,2.5373874E-2,-5.1435623E-2,-2.1961158E-2,1.5770525E-2,7.6783195E-2,-2.0235198E-2,-7.3007615E-3,1.15210125E-2,-2.686031E-2,-5.969842E-4,6.943381E-3,2.5025465E-2,-7.002258E-4,-2.9026585E-2,5.5738866E-2,9.460442E-2,3.7861805E-2,-4.0863818E-3,-7.324563E-2,-3.374424E-2,-2.6830034E-2,2.1690172E-3,7.6602615E-2,1.6919378E-2,1.9335099E-2,-6.9108024E-2,-5.360717E-2,-2.5880635E-2,-4.9422823E-2,3.5620287E-2,-3.1066554E-2,-1.0044716E-1,-7.284232E-2,-3.0334875E-2],"split_indices":[3,39,2,3,11,5,2,33,5,2,48,48,13,13,2,37,2,3,36,28,0,12,41,6,3,3,10,1,32,39,19,28,16,38,8,40,40,2,48,0,0,3,3,13,6,39,2,40,48,36,42,6,0,17,39,37,34,1,2,0,37,0,0,0,0,0,0,0,0,0,0,0,0,0,0,0,0,0,0,0,0,0,0,0,0,0,0,0,0,0,0,0,0,0,0,0,0,0,0,0,0,0,0,0,0,0,0,0,0,0,0,0,0,0,0,0,0],"split_type":[0,0,0,0,0,0,0,0,0,0,0,0,0,0,0,0,0,0,0,0,0,0,0,0,0,0,0,0,0,0,0,0,0,0,0,0,0,0,0,0,0,0,0,0,0,0,0,0,0,0,0,0,0,0,0,0,0,0,0,0,0,0,0,0,0,0,0,0,0,0,0,0,0,0,0,0,0,0,0,0,0,0,0,0,0,0,0,0,0,0,0,0,0,0,0,0,0,0,0,0,0,0,0,0,0,0,0,0,0,0,0,0,0,0,0,0,0],"sum_hessian":[1.859833E4,7.9565317E3,1.0641798E4,6.4818267E3,1.4747051E3,6.418005E3,4.2237935E3,1.7620211E3,4.7198057E3,1.24970085E2,1.349735E3,4.1806494E3,2.2373555E3,2.6894065E3,1.5343868E3,1.8591756E2,1.5761035E3,3.3808933E3,1.3389124E3,1.215422E2,3.4278846E0,4.6388916E2,8.858458E2,1.2208425E3,2.959807E3,2.2068625E3,3.0493093E1,2.6412627E3,4.814376E1,1.3228607E3,2.1152608E2,3.6194183E1,1.4972337E2,6.449086E2,9.311949E2,2.4111304E3,9.6976306E2,1.0943267E3,2.4458562E2,2.4265788E0,1.1911562E2,1.4595624E1,4.4929355E2,8.623407E2,2.3505129E1,1.2076572E3,1.3185324E1,2.2899358E3,6.6987115E2,7.928412E2,1.4140212E3,2.3111109E1,7.3819847E0,2.3513018E3,2.89961E2,3.1596647E1,1.6547112E1,1.2996112E3,2.3249508E1,1.4327768E2,6.824839E1,1.001306E0,3.519288E1,1.27000084E2,2.2723293E1,5.278194E2,1.17089264E2,2.171987E2,7.139962E2,1.5121182E3,8.9901215E2,2.3792302E2,7.3184E2,5.4140497E2,5.5292175E2,8.140633E1,1.6317929E2,1.0437027E1,4.158597E0,1.5701808E2,2.9227545E2,2.2488121E2,6.374595E2,1.4815093E1,8.690036E0,1.1724432E3,3.5214058E1,9.65519E0,3.5301332E0,2.1408645E3,1.4907117E2,4.53099E2,2.1677217E2,6.278215E2,1.6501976E2,1.3361538E3,7.786743E1,6.3295546E0,1.6781553E1,6.3806787E0,1.001306E0,3.248694E1,2.3188147E3,2.1063835E2,7.932265E1,2.4163538E1,7.433109E0,1.1387209E1,5.159903E0,1.1819622E3,1.1764908E2,3.5812576E0,1.9668251E1,6.5851755E0,1.366925E2,5.1547905E1,1.6700485E1],"tree_param":{"num_deleted":"0","num_feature":"49","num_nodes":"117","size_leaf_vector":"1"}},{"base_weights":[3.4729976E-3,3.734266E-1,-3.4669274E-1,2.4161622E-1,8.296991E-1,-1.7803015E-1,-7.021854E-1,4.2337102E-1,1.2494055E-1,1.1021805E0,6.2791944E-1,-2.6860857E-1,-8.952717E-3,-6.083331E-1,-1.0431186E0,6.2743664E-1,3.5107982E-1,5.6161154E-2,2.7718326E-1,1.613222E0,1.0349964E0,7.65333E-1,4.4126678E-1,-1.7559908E-1,-4.2756933E-1,-4.5622427E-2,7.063124E-1,-6.7872494E-1,-4.362373E-1,-1.0767586E0,2.8829858E-1,6.9750315E-1,3.7296695E-1,5.2601707E-1,2.9203558E-1,9.503266E-2,-1.7532934E-1,2.2208443E-1,5.331659E-1,1.6495618E0,-7.3847254E-3,8.530467E-1,1.1258552E0,-1.6944173E-1,7.874426E-1,6.2700385E-1,2.8794515E-1,-2.263931E-1,-4.25839E-2,-4.9380872E-1,-2.4785268E-1,3.1887032E-2,-2.8422502E-1,4.824712E-1,1.2700146E0,-7.452193E-1,-4.4554278E-1,3.5011044E-1,-4.6149606E-1,-9.4283146E-1,-1.3371061E0,-1.0645953E0,5.703725E-1,3.689915E-2,5.5061035E-2,-1.347497E-2,2.80382E-2,1.775368E-2,3.8954113E-2,1.7965678E-2,-2.7014501E-2,2.322007E-3,1.2464609E-2,-1.8421778E-2,9.976153E-3,2.4784687E-3,1.7484654E-2,-2.8386498E-2,3.3381816E-2,5.4263834E-2,9.981267E-2,3.18362E-3,5.3110972E-2,3.380068E-2,6.986989E-2,3.536211E-2,-5.6103803E-2,3.6287416E-2,5.2324824E-2,3.0336127E-2,5.4245852E-2,2.8991455E-2,5.4398375E-3,-1.4417254E-2,2.4565384E-2,-1.0172915E-2,6.762702E-3,-3.0668527E-2,1.16944555E-2,-2.2346716E-2,5.31643E-3,-4.1250284E-3,6.901842E-3,-2.006903E-2,1.7928146E-2,-1.014275E-2,4.7997538E-2,8.9206144E-2,3.5158638E-2,-4.5200903E-2,3.0099174E-2,2.8627595E-2,-2.8858429E-2,3.3380065E-2,-6.216916E-2,-2.5704758E-2,-6.4475074E-2,-1.0209011E-1,-5.393041E-2,-9.216032E-2,-6.070451E-2,-9.090786E-2,-5.508614E-3,4.1211974E-2,-6.6082473E-3],"categories":[],"categories_nodes":[],"categories_segments":[],"categories_sizes":[],"default_left":[0,0,0,0,0,0,0,0,0,0,0,0,0,0,0,0,0,0,0,0,0,0,0,0,0,0,0,0,0,0,0,0,0,0,0,0,0,0,0,0,0,0,0,0,0,0,0,0,0,0,0,0,0,0,0,0,0,0,0,0,0,0,0,0,0,0,0,0,0,0,0,0,0,0,0,0,0,0,0,0,0,0,0,0,0,0,0,0,0,0,0,0,0,0,0,0,0,0,0,0,0,0,0,0,0,0,0,0,0,0,0,0,0,0,0,0,0,0,0,0,0,0,0,0,0],"id":1,"left_children":[1,3,5,7,9,11,13,15,17,19,21,23,25,27,29,31,33,35,37,39,41,43,45,47,49,51,53,55,57,59,61,63,65,67,69,71,73,75,77,79,-1,81,83,85,87,89,91,93,95,97,99,101,103,105,107,109,111,113,115,117,119,121,123,-1,-1,-1,-1,-1,-1,-1,-1,-1,-1,-1,-1,-1,-1,-1,-1,-1,-1,-1,-1,-1,-1,-1,-1,-1,-1,-1,-1,-1,-1,-1,-1,-1,-1,-1,-1,-1,-1,-1,-1,-1,-1,-1,-1,-1,-1,-1,-1,-1,-1,-1,-1,-1,-1,-1,-1,-1,-1,-1,-1,-1,-1],"loss_changes":[2.412552E3,5.445265E2,5.73589E2,1.4898529E2,1.1123889E2,9.938464E1,9.818518E1,4.041394E1,4.4811394E1,2.8789062E1,2.9768066E1,6.2439056E1,5.9406284E1,2.9109375E1,2.9886658E1,1.2670715E1,2.088655E1,2.6543797E1,1.8725449E1,6.3705444E0,1.2149414E1,1.3946869E1,1.403759E1,1.8012604E1,1.8503387E1,3.9847485E1,1.3630856E1,2.6396973E1,1.4033829E1,2.1948547E1,6.6969023E0,9.935272E0,8.850603E0,1.44084015E1,8.399918E0,1.6029554E1,1.9107819E1,1.3739693E1,5.62986E0,2.6211548E-1,0E0,6.5707703E0,1.0713562E1,9.529774E0,9.880066E0,7.3038177E0,1.0481756E1,1.7096664E1,1.4551723E1,1.3646851E1,1.7664766E1,1.3614164E1,1.553022E1,1.658805E1,4.1737633E0,1.3692932E1,1.2582176E1,6.6196947E0,1.3579437E1,1.3562897E1,1.3380463E1,1.2736659E0,1.1626139E0,0E0,0E0,0E0,0E0,0E0,0E0,0E0,0E0,0E0,0E0,0E0,0E0,0E0,0E0,0E0,0E0,0E0,0E0,0E0,0E0,0E0,0E0,0E0,0E0,0E0,0E0,0E0,0E0,0E0,0E0,0E0,0E0,0E0,0E0,0E0,0E0,0E0,0E0,0E0,0E0,0E0,0E0,0E0,0E0,0E0,0E0,0E0,0E0,0E0,0E0,0E0,0E0,0E0,0E0,0E0,0E0,0E0,0E0,0E0,0E0,0E0,0E0],"parents":[2147483647,0,0,1,1,2,2,3,3,4,4,5,5,6,6,7,7,8,8,9,9,10,10,11,11,12,12,13,13,14,14,15,15,16,16,17,17,18,18,19,19,20,20,21,21,22,22,23,23,24,24,25,25,26,26,27,27,28,28,29,29,30,30,31,31,32,32,33,33,34,34,35,35,36,36,37,37,38,38,39,39,41,41,42,42,43,43,44,44,45,45,46,46,47,47,48,48,49,49,50,50,51,51,52,52,53,53,54,54,55,55,56,56,57,57,58,58,59,59,60,60,61,61,62,62],"right_children":[2,4,6,8,10,12,14,16,18,20,22,24,26,28,30,32,34,36,38,40,42,44,46,48,50,52,54,56,58,60,62,64,66,68,70,72,74,76,78,80,-1,82,84,86,88,90,92,94,96,98,100,102,104,106,108,110,112,114,116,118,120,122,124,-1,-1,-1,-1,-1,-1,-1,-1,-1,-1,-1,-1,-1,-1,-1,-1,-1,-1,-1,-1,-1,-1,-1,-1,-1,-1,-1,-1,-1,-1,-1,-1,-1,-1,-1,-1,-1,-1,-1,-1,-1,-1,-1,-1,-1,-1,-1,-1,-1,-1,-1,-1,-1,-1,-1,-1,-1,-1,-1,-1,-1,-1],"split_conditions":[9.765685E-1,2.4827585E0,1.8218387E2,-2.0097363E2,-2.6E0,1E0,1.2817388E0,-3.6499014E2,1E0,-7.7E0,-1.0857143E0,1.0557313E0,3.2222223E0,1E0,2.8796296E0,6E0,8.21E2,-6.0011383E1,2.1705053E0,9.0242714E-1,3.5E0,2E-1,-2.1340471E2,1.75E0,2.55E0,1.0718024E0,5.1E0,1.6E0,2.2222222E-1,5.0173862E2,9.8214287E-1,1.2631578E0,1.95E0,1.7185166E0,2.142857E0,1.4285715E0,1.5504587E0,1E0,4.4657096E-1,6.666667E-1,-7.3847254E-3,8.684211E-1,-5.1E0,-3.9285713E-1,9.375E-1,1E0,6E0,3E0,1.125E0,1.8598958E3,1.98E0,1.2626263E0,6.813187E-1,8.333333E-1,1.6056822E1,4.5333333E0,-1E0,6.25E-1,1.33E2,5E-2,6.666667E-1,3.5061957E2,1.4715286E3,3.689915E-2,5.5061035E-2,-1.347497E-2,2.80382E-2,1.775368E-2,3.8954113E-2,1.7965678E-2,-2.7014501E-2,2.322007E-3,1.2464609E-2,-1.8421778E-2,9.976153E-3,2.4784687E-3,1.7484654E-2,-2.8386498E-2,3.3381816E-2,5.4263834E-2,9.981267E-2,3.18362E-3,5.3110972E-2,3.380068E-2,6.986989E-2,3.536211E-2,-5.6103803E-2,3.6287416E-2,5.2324824E-2,3.0336127E-2,5.4245852E-2,2.8991455E-2,5.4398375E-3,-1.4417254E-2,2.4565384E-2,-1.0172915E-2,6.762702E-3,-3.0668527E-2,1.16944555E-2,-2.2346716E-2,5.31643E-3,-4.1250284E-3,6.901842E-3,-2.006903E-2,1.7928146E-2,-1.014275E-2,4.7997538E-2,8.9206144E-2,3.5158638E-2,-4.5200903E-2,3.0099174E-2,2.8627595E-2,-2.8858429E-2,3.3380065E-2,-6.216916E-2,-2.5704758E-2,-6.4475074E-2,-1.0209011E-1,-5.393041E-2,-9.216032E-2,-6.070451E-2,-9.090786E-2,-5.508614E-3,4.1211974E-2,-6.6082473E-3],"split_indices":[3,39,2,2,45,5,3,2,5,11,45,3,13,5,39,32,37,2,35,3,39,47,2,27,47,3,13,48,24,2,43,38,48,35,18,12,38,23,43,28,0,40,11,44,43,5,7,12,13,1,48,40,36,12,2,24,33,29,8,15,29,2,0,0,0,0,0,0,0,0,0,0,0,0,0,0,0,0,0,0,0,0,0,0,0,0,0,0,0,0,0,0,0,0,0,0,0,0,0,0,0,0,0,0,0,0,0,0,0,0,0,0,0,0,0,0,0,0,0,0,0,0,0,0,0],"split_type":[0,0,0,0,0,0,0,0,0,0,0,0,0,0,0,0,0,0,0,0,0,0,0,0,0,0,0,0,0,0,0,0,0,0,0,0,0,0,0,0,0,0,0,0,0,0,0,0,0,0,0,0,0,0,0,0,0,0,0,0,0,0,0,0,0,0,0,0,0,0,0,0,0,0,0,0,0,0,0,0,0,0,0,0,0,0,0,0,0,0,0,0,0,0,0,0,0,0,0,0,0,0,0,0,0,0,0,0,0,0,0,0,0,0,0,0,0,0,0,0,0,0,0,0,0],"sum_hessian":[1.8622266E4,9.05526E3,9.567005E3,7.026246E3,2.0290135E3,6.489045E3,3.0779602E3,2.7464976E3,4.2797485E3,8.623173E2,1.1666963E3,4.2252134E3,2.2638318E3,2.414647E3,6.633132E2,7.1744196E2,2.0290557E3,2.948414E3,1.3313344E3,9.885583E1,7.634615E2,6.710902E2,4.9560608E2,2.6662292E3,1.558984E3,2.1538765E3,1.09955315E2,1.7126539E3,7.0199316E2,6.4706E2,1.625321E1,5.618656E2,1.5557631E2,5.1102597E2,1.5180297E3,2.5247559E3,4.236582E2,1.0962964E3,2.3503793E2,9.685372E1,2.002111E0,2.560008E2,5.0746066E2,1.5429151E1,6.556611E2,2.234135E2,2.7219257E2,1.9291868E3,7.370425E2,1.1384894E3,4.2049463E2,1.6260812E3,5.277952E2,7.936724E1,3.058808E1,1.3317837E3,3.808702E2,2.1647251E1,6.803459E2,4.287925E2,2.1826747E2,2.5647883E0,1.3688422E1,4.100773E2,1.5178833E2,2.1118193E1,1.3445811E2,1.7879988E2,3.322261E2,1.5033558E3,1.4673788E1,1.683846E3,8.409098E2,3.0580746E2,1.1785074E2,3.0410526E2,7.9219116E2,5.0777607E0,2.2996017E2,2.3888235E0,9.44649E1,9.937837E0,2.4606296E2,3.3121014E1,4.7433966E2,7.8068542E0,7.622296E0,2.0890569E2,4.4675537E2,1.563326E2,6.70809E1,1.364378E2,1.3575476E2,1.8882343E3,4.095246E1,4.0548508E2,3.3155743E2,1.1106654E3,2.7824026E1,3.0682315E2,1.1367146E2,7.3568774E2,8.903935E2,4.8610464E2,4.1690613E1,2.6080729E1,5.328651E1,2.2782204E1,7.805874E0,1.3233539E3,8.42983E0,1.3854282E1,3.6701593E2,1.9104551E1,2.5427008E0,6.463187E2,3.402719E1,2.2468208E1,4.0632428E2,1.3430481E2,8.396266E1,1.562413E0,1.0023754E0,1.1683671E1,2.0047507E0],"tree_param":{"num_deleted":"0","num_feature":"49","num_nodes":"125","size_leaf_vector":"1"}},{"base_weights":[8.180778E-3,3.937985E-1,-2.9349956E-1,2.634128E-1,8.263837E-1,-9.6966974E-2,-5.830559E-1,4.2432877E-1,1.524353E-1,1.0797136E0,6.218142E-1,-1.7951483E-1,5.8108572E-2,-4.950218E-1,-9.08169E-1,8.379607E-1,3.9225665E-1,8.932904E-2,2.99756E-1,1.6219022E0,9.951538E-1,4.3182275E-1,7.7107877E-1,-3.1094053E-1,-1.2436892E-1,6.594792E-1,2.0507235E-2,-5.097104E-1,4.6782345E-1,-8.0018914E-1,-1.2608641E0,1.2183621E0,6.94683E-1,5.6924516E-1,3.2503402E-1,5.5779673E-2,2.8059778E-1,1.4316183E-1,3.8284722E-1,5.2215993E-2,1.63399E0,1.001769E0,-9.152613E-2,4.979982E-1,-6.7140974E-2,8.7997174E-1,6.3019454E-1,-3.2574436E-1,8.3506393E-1,-2.3207988E-1,-7.118168E-2,3.9223245E-1,1.1487405E0,-9.644515E-2,1.08910084E-1,-4.501509E-1,-6.4888114E-1,6.239758E-1,-1.027434E-1,-8.2877684E-1,6.4879185E-1,-1.6198281E0,-1.0645745E0,7.625554E-2,1.063327E-2,6.082956E-2,3.6549155E-2,2.9830623E-2,4.68056E-2,1.4351309E-2,2.3561247E-2,6.8062143E-3,-2.9036473E-3,1.0962744E-2,3.224117E-2,-5.9833277E-2,1.0453415E-2,4.553612E-2,2.085095E-2,9.994329E-2,7.482626E-2,3.8941436E-2,6.276421E-2,2.134709E-2,4.8826728E-2,-3.5337005E-2,2.410881E-2,4.0957086E-2,5.993289E-2,-2.733441E-2,3.9454278E-2,-2.3889143E-2,-1.0107227E-2,6.544881E-2,-2.3606336E-2,-1.6866356E-2,-2.342708E-3,1.178901E-3,-8.658132E-3,2.9536266E-2,-5.392682E-2,1.7824495E-2,8.135823E-2,-5.5479378E-2,-4.3817842E-3,1.1647626E-2,-1.1268319E-3,-3.0276395E-2,-1.9971756E-2,-2.116156E-2,-4.204815E-2,5.8560204E-2,-2.160252E-3,-5.7530854E-2,-3.984086E-2,-6.318364E-3,4.7036756E-2,-2.3882795E-2,-1.04142375E-1,-6.6111825E-2,1.8373884E-2],"categories":[],"categories_nodes":[],"categories_segments":[],"categories_sizes":[],"default_left":[0,0,0,0,0,0,0,0,0,0,0,0,0,0,0,0,0,0,0,0,0,0,0,0,0,0,0,0,0,0,0,0,0,0,0,0,0,0,0,0,0,0,0,0,0,0,0,0,0,0,0,0,0,0,0,0,0,0,0,0,0,0,0,0,0,0,0,0,0,0,0,0,0,0,0,0,0,0,0,0,0,0,0,0,0,0,0,0,0,0,0,0,0,0,0,0,0,0,0,0,0,0,0,0,0,0,0,0,0,0,0,0,0,0,0,0,0,0,0,0,0],"id":2,"left_children":[1,3,5,7,9,11,13,15,17,19,21,23,25,27,29,31,33,35,37,39,41,43,45,47,49,51,53,55,57,59,61,63,65,67,69,71,73,75,77,-1,79,81,-1,83,85,87,89,91,93,95,97,99,101,103,105,107,109,111,-1,113,115,117,119,-1,-1,-1,-1,-1,-1,-1,-1,-1,-1,-1,-1,-1,-1,-1,-1,-1,-1,-1,-1,-1,-1,-1,-1,-1,-1,-1,-1,-1,-1,-1,-1,-1,-1,-1,-1,-1,-1,-1,-1,-1,-1,-1,-1,-1,-1,-1,-1,-1,-1,-1,-1,-1,-1,-1,-1,-1,-1],"loss_changes":[2.1576025E3,4.5905823E2,5.921429E2,1.1168994E2,9.736255E1,7.936273E1,1.2018823E2,3.3707306E1,3.441635E1,3.7775696E1,2.9444794E1,2.93031E1,4.8698647E1,4.6957336E1,3.361371E1,9.566559E0,2.8110413E1,1.663426E1,1.4420883E1,3.133545E-1,1.2924438E1,1.5223389E1,8.683868E0,2.0418083E1,1.6323586E1,1.6345818E1,2.0969437E1,2.6894592E1,1.7564754E1,2.8736877E1,1.3872437E1,2.5954437E0,3.3572388E0,9.71109E0,9.937271E0,1.32591915E1,9.67458E0,1.3750818E1,9.503983E0,0E0,3.1655884E-1,1.1032227E1,0E0,1.8118195E1,1.3422441E1,7.3610992E0,7.771637E0,1.3412704E1,5.0489054E0,8.910809E0,1.2681129E1,1.0905079E1,7.654503E0,1.6899391E1,1.2570212E1,1.4518036E1,1.4894531E1,1.0948109E1,0E0,1.4129669E1,1.4250612E0,9.985138E0,7.1538086E0,0E0,0E0,0E0,0E0,0E0,0E0,0E0,0E0,0E0,0E0,0E0,0E0,0E0,0E0,0E0,0E0,0E0,0E0,0E0,0E0,0E0,0E0,0E0,0E0,0E0,0E0,0E0,0E0,0E0,0E0,0E0,0E0,0E0,0E0,0E0,0E0,0E0,0E0,0E0,0E0,0E0,0E0,0E0,0E0,0E0,0E0,0E0,0E0,0E0,0E0,0E0,0E0,0E0,0E0,0E0,0E0,0E0,0E0],"parents":[2147483647,0,0,1,1,2,2,3,3,4,4,5,5,6,6,7,7,8,8,9,9,10,10,11,11,12,12,13,13,14,14,15,15,16,16,17,17,18,18,19,19,20,20,21,21,22,22,23,23,24,24,25,25,26,26,27,27,28,28,29,29,30,30,31,31,32,32,33,33,34,34,35,35,36,36,37,37,38,38,40,40,41,41,43,43,44,44,45,45,46,46,47,47,48,48,49,49,50,50,51,51,52,52,53,53,54,54,55,55,56,56,57,57,59,59,60,60,61,61,62,62],"right_children":[2,4,6,8,10,12,14,16,18,20,22,24,26,28,30,32,34,36,38,40,42,44,46,48,50,52,54,56,58,60,62,64,66,68,70,72,74,76,78,-1,80,82,-1,84,86,88,90,92,94,96,98,100,102,104,106,108,110,112,-1,114,116,118,120,-1,-1,-1,-1,-1,-1,-1,-1,-1,-1,-1,-1,-1,-1,-1,-1,-1,-1,-1,-1,-1,-1,-1,-1,-1,-1,-1,-1,-1,-1,-1,-1,-1,-1,-1,-1,-1,-1,-1,-1,-1,-1,-1,-1,-1,-1,-1,-1,-1,-1,-1,-1,-1,-1,-1,-1,-1,-1],"split_conditions":[9.603488E-1,2.5172415E0,1.2946918E2,-2.1340471E2,-2.6E0,1E0,3.3537402E2,-3.4E0,1E0,-7.7E0,1.4087591E0,1.08E0,-2.3333333E0,3.142857E0,5.0173862E2,1.21E2,-3.6499014E2,3E0,1.45E0,6.666667E-1,6E-1,9.2436177E-1,-1.3E0,6E1,1.2038217E0,4.8235292E0,1.32E0,1.1676767E0,2.5861188E2,3E0,4.5454547E-1,5E-1,5E-1,1.2631578E0,1.25E0,-1.1136838E2,2.4E0,5.4545456E-1,-1.7777778E0,5.2215993E-2,4E1,1.1030303E0,-9.152613E-2,1E0,9.4538623E-1,5.833333E-1,7.407407E-1,5.317907E-1,3.367476E1,2.2E0,3.8896964E0,3.148148E0,-8.888889E-1,-2.2E0,2E-1,1E0,1.25E0,2E0,-1.027434E-1,1.9333333E0,2.625E0,1.5714286E-1,5.285714E0,7.625554E-2,1.063327E-2,6.082956E-2,3.6549155E-2,2.9830623E-2,4.68056E-2,1.4351309E-2,2.3561247E-2,6.8062143E-3,-2.9036473E-3,1.0962744E-2,3.224117E-2,-5.9833277E-2,1.0453415E-2,4.553612E-2,2.085095E-2,9.994329E-2,7.482626E-2,3.8941436E-2,6.276421E-2,2.134709E-2,4.8826728E-2,-3.5337005E-2,2.410881E-2,4.0957086E-2,5.993289E-2,-2.733441E-2,3.9454278E-2,-2.3889143E-2,-1.0107227E-2,6.544881E-2,-2.3606336E-2,-1.6866356E-2,-2.342708E-3,1.178901E-3,-8.658132E-3,2.9536266E-2,-5.392682E-2,1.7824495E-2,8.135823E-2,-5.5479378E-2,-4.3817842E-3,1.1647626E-2,-1.1268319E-3,-3.0276395E-2,-1.9971756E-2,-2.116156E-2,-4.204815E-2,5.8560204E-2,-2.160252E-3,-5.7530854E-2,-3.984086E-2,-6.318364E-3,4.7036756E-2,-2.3882795E-2,-1.04142375E-1,-6.6111825E-2,1.8373884E-2],"split_indices":[3,39,2,2,45,5,2,33,5,11,40,48,21,13,2,37,2,48,48,28,30,3,45,6,40,39,48,3,2,39,40,10,14,38,23,2,13,40,11,0,6,40,0,5,3,14,43,36,2,23,2,42,16,26,33,5,41,32,0,14,13,44,18,0,0,0,0,0,0,0,0,0,0,0,0,0,0,0,0,0,0,0,0,0,0,0,0,0,0,0,0,0,0,0,0,0,0,0,0,0,0,0,0,0,0,0,0,0,0,0,0,0,0,0,0,0,0,0,0,0,0],"split_type":[0,0,0,0,0,0,0,0,0,0,0,0,0,0,0,0,0,0,0,0,0,0,0,0,0,0,0,0,0,0,0,0,0,0,0,0,0,0,0,0,0,0,0,0,0,0,0,0,0,0,0,0,0,0,0,0,0,0,0,0,0,0,0,0,0,0,0,0,0,0,0,0,0,0,0,0,0,0,0,0,0,0,0,0,0,0,0,0,0,0,0,0,0,0,0,0,0,0,0,0,0,0,0,0,0,0,0,0,0,0,0,0,0,0,0,0,0,0,0,0,0],"sum_hessian":[1.8545736E4,8.1403374E3,1.0405398E4,6.2556294E3,1.8847076E3,6.198747E3,4.206652E3,2.5527551E3,3.7028745E3,8.4104987E2,1.0436578E3,4.0453167E3,2.1534307E3,3.3112837E3,8.953681E2,1.8278798E2,2.369967E3,2.5929585E3,1.109916E3,1.1224643E2,7.2880347E2,4.6004105E2,5.8361676E2,1.1950089E3,2.8503076E3,1.26235466E2,2.0271951E3,3.2617595E3,4.9524178E1,6.8674976E2,2.0861835E2,4.8984013E1,1.3380397E2,6.513396E2,1.7186274E3,2.2065635E3,3.8639505E2,3.852442E2,7.2467175E2,2.3542554E0,1.0989217E2,7.271963E2,1.6071949E0,4.06173E2,5.386804E1,3.277034E2,2.5591335E2,1.1801223E3,1.4886658E1,9.416548E2,1.9086528E3,8.222367E1,4.401179E1,8.726624E2,1.1545327E3,2.2856926E3,9.760669E2,4.6547245E1,2.9769309E0,6.736725E2,1.3077234E1,7.2467545E1,1.361508E2,4.6524784E1,2.4592285E0,2.7133379E1,1.06670586E2,4.8667328E2,1.646663E2,7.584706E2,9.601569E2,1.4203794E3,7.861841E2,2.803646E2,1.06030464E2,9.802665E0,3.7544156E2,6.1353024E1,6.633188E2,1.0003482E2,9.857352E0,8.201153E1,6.4518475E2,2.8078394E2,1.2538906E2,2.5436604E1,2.8431437E1,1.2447819E2,2.032252E2,6.1016293E0,2.498117E2,8.0758734E2,3.7253494E2,1.236794E1,2.5187175E0,7.507538E2,1.9090099E2,8.5140564E2,1.0572472E3,7.659759E1,5.6260843E0,8.851407E0,3.5160385E1,2.3464659E1,8.4919775E2,6.9227094E2,4.6226172E2,1.5598291E3,7.258634E2,1.4616373E2,8.299032E2,3.0199615E1,1.634763E1,3.7512372E2,2.985488E2,2.004342E0,1.1072891E1,6.469785E0,6.599776E1,1.3264075E2,3.5100636E0],"tree_param":{"num_deleted":"0","num_feature":"49","num_nodes":"121","size_leaf_vector":"1"}},{"base_weights":[1.8347473E-3,3.8446534E-1,-2.7332336E-1,2.7955967E-1,8.6194515E-1,-1.3048054E-1,-6.383727E-1,4.449019E-1,1.7875677E-1,1.2512822E0,7.4589866E-1,-4.650062E-2,-2.7332735E-1,-5.9388614E-1,-1.2600507E0,5.9011126E-1,3.6691847E-1,1.1184648E-1,3.3955088E-1,1.59856E0,1.09128E0,8.528236E-1,5.159842E-1,-1.2527764E-1,9.992757E-2,-2.978912E-1,2.3516634E-1,-4.7425622E-1,-7.143856E-1,-1.4592434E0,-8.669895E-1,4.072464E-1,6.583367E-1,2.18108E-1,4.4859275E-1,2.9295543E-1,7.619112E-2,2.7309078E-1,6.377522E-1,1.6341567E0,7.224242E-2,2.555334E-1,1.1544878E0,8.715896E-1,-1.0971466E-1,5.512605E-1,-3.9064717E-1,-1.3908947E-1,4.3380132E-1,5.5226568E-2,5.845791E-1,-3.6906E-1,-1.9626385E-1,-2.9181145E-2,7.0876366E-1,-5.5009204E-1,-3.1646937E-1,-7.4779457E-1,1.6611826E-1,-9.882985E-1,-1.6320405E0,-1.0326014E0,-3.0572596E-1,3.0370206E-2,4.8888368E-3,2.5288193E-2,4.402577E-2,-5.5030532E-2,1.40412375E-2,3.6870092E-2,2.2590635E-2,-1.7179208E-2,1.9625124E-2,1.3515259E-3,1.1125391E-2,5.221374E-3,2.1814201E-2,3.9094098E-2,-8.238427E-2,9.9757515E-2,7.245968E-2,3.7589367E-2,2.9437833E-3,7.026718E-2,-8.177969E-2,4.710517E-2,6.1161675E-2,-2.4189688E-2,5.8177102E-2,-3.0862633E-3,3.5458628E-2,-8.701201E-2,1.8195761E-2,-1.6208183E-2,-5.6659356E-3,5.2137993E-2,2.104586E-3,1.0241289E-2,-9.298956E-4,4.2770363E-2,-3.354735E-2,-2.1646043E-2,-8.6399764E-2,-4.36353E-3,-1.7134147E-2,-3.159282E-2,1.4815863E-2,4.6636734E-2,-2.6129883E-2,-6.3246794E-2,-3.0875355E-2,-1.5703911E-2,-5.197048E-2,-4.5668326E-2,5.874692E-3,-2.22907E-2,4.2292465E-2,-7.850087E-2,-1.249127E-2,-1.03134E-1,-3.995339E-2,-7.286096E-2,-2.3151057E-2,3.4983305E-3,-5.2777305E-2],"categories":[],"categories_nodes":[],"categories_segments":[],"categories_sizes":[],"default_left":[0,0,0,0,0,0,0,0,0,0,0,0,0,0,0,0,0,0,0,0,0,0,0,0,0,0,0,0,0,0,0,0,0,0,0,0,0,0,0,0,0,0,0,0,0,0,0,0,0,0,0,0,0,0,0,0,0,0,0,0,0,0,0,0,0,0,0,0,0,0,0,0,0,0,0,0,0,0,0,0,0,0,0,0,0,0,0,0,0,0,0,0,0,0,0,0,0,0,0,0,0,0,0,0,0,0,0,0,0,0,0,0,0,0,0,0,0,0,0,0,0,0,0,0,0],"id":3,"left_children":[1,3,5,7,9,11,13,15,17,19,21,23,25,27,29,31,33,35,37,39,41,43,45,47,49,51,53,55,57,59,61,63,65,67,69,71,73,75,77,79,-1,81,83,85,87,89,91,93,95,97,99,101,103,105,107,109,111,113,115,117,119,121,123,-1,-1,-1,-1,-1,-1,-1,-1,-1,-1,-1,-1,-1,-1,-1,-1,-1,-1,-1,-1,-1,-1,-1,-1,-1,-1,-1,-1,-1,-1,-1,-1,-1,-1,-1,-1,-1,-1,-1,-1,-1,-1,-1,-1,-1,-1,-1,-1,-1,-1,-1,-1,-1,-1,-1,-1,-1,-1,-1,-1,-1,-1],"loss_changes":[1.9424376E3,3.8645557E2,5.5957227E2,1.05431244E2,6.2332275E1,9.253589E1,8.309778E1,2.7029053E1,4.2286514E1,1.6820862E1,2.6133972E1,5.605273E1,3.5708176E1,4.0447144E1,1.5113281E1,1.0302124E1,1.8916885E1,1.7924358E1,2.2807556E1,4.1152954E-1,1.1451019E1,1.3250977E1,1.1031715E1,2.4426521E1,3.6810577E1,1.9670181E1,1.652189E1,1.6849243E1,4.132489E1,9.995483E0,6.2438545E0,7.3462944E0,1.0714966E1,1.0114359E1,1.1927368E1,9.07584E0,1.3605298E1,1.5902779E1,6.2860947E0,8.560181E-2,0E0,1.2162286E0,9.338928E0,8.765503E0,4.763449E0,7.8899765E0,9.840287E0,1.8032955E1,1.3222051E1,1.2714799E1,2.1248478E1,1.3966293E1,1.2381969E1,1.175482E1,3.874771E0,1.6822327E1,1.3746513E1,1.528949E1,1.5101922E1,9.0762825E0,7.512512E0,5.9920044E0,3.4522753E0,0E0,0E0,0E0,0E0,0E0,0E0,0E0,0E0,0E0,0E0,0E0,0E0,0E0,0E0,0E0,0E0,0E0,0E0,0E0,0E0,0E0,0E0,0E0,0E0,0E0,0E0,0E0,0E0,0E0,0E0,0E0,0E0,0E0,0E0,0E0,0E0,0E0,0E0,0E0,0E0,0E0,0E0,0E0,0E0,0E0,0E0,0E0,0E0,0E0,0E0,0E0,0E0,0E0,0E0,0E0,0E0,0E0,0E0,0E0,0E0,0E0,0E0],"parents":[2147483647,0,0,1,1,2,2,3,3,4,4,5,5,6,6,7,7,8,8,9,9,10,10,11,11,12,12,13,13,14,14,15,15,16,16,17,17,18,18,19,19,20,20,21,21,22,22,23,23,24,24,25,25,26,26,27,27,28,28,29,29,30,30,31,31,32,32,33,33,34,34,35,35,36,36,37,37,38,38,39,39,41,41,42,42,43,43,44,44,45,45,46,46,47,47,48,48,49,49,50,50,51,51,52,52,53,53,54,54,55,55,56,56,57,57,58,58,59,59,60,60,61,61,62,62],"right_children":[2,4,6,8,10,12,14,16,18,20,22,24,26,28,30,32,34,36,38,40,42,44,46,48,50,52,54,56,58,60,62,64,66,68,70,72,74,76,78,80,-1,82,84,86,88,90,92,94,96,98,100,102,104,106,108,110,112,114,116,118,120,122,124,-1,-1,-1,-1,-1,-1,-1,-1,-1,-1,-1,-1,-1,-1,-1,-1,-1,-1,-1,-1,-1,-1,-1,-1,-1,-1,-1,-1,-1,-1,-1,-1,-1,-1,-1,-1,-1,-1,-1,-1,-1,-1,-1,-1,-1,-1,-1,-1,-1,-1,-1,-1,-1,-1,-1,-1,-1,-1,-1,-1,-1,-1],"split_conditions":[-7.6996254E1,2.8796296E0,1.8218387E2,8.6132854E-1,-4.3E0,1.0451409E0,5.0173862E2,-3.7635196E2,1E0,-7.8E0,-1.4E0,1E0,2.5172415E0,1.1827006E0,7.3333335E-1,5E-1,1.25E0,-1.6E0,2.17357E0,4E1,1.275E0,3.142857E0,1.72E2,3E0,2.7E0,1.3214285E0,3.4E0,1.2545455E0,2.8796296E0,3.5555556E-1,7.623E3,3.7E1,2.2E0,-8E-1,7.1E2,7.5E-1,1.4285715E0,1.44E0,5.3E0,1.7530864E0,7.224242E-2,-5.8E0,2.4285715E0,1E0,7E1,6.3E-1,1.2258065E0,1.04E0,5.733173E-1,4E0,1.2E0,3.7E0,1.0688143E0,1.1674589E3,1.4205103E2,3.6666667E-1,2.2E0,3.9E0,8.235294E-1,4E1,2.6419754E0,2.0307383E3,1.9666667E0,3.0370206E-2,4.8888368E-3,2.5288193E-2,4.402577E-2,-5.5030532E-2,1.40412375E-2,3.6870092E-2,2.2590635E-2,-1.7179208E-2,1.9625124E-2,1.3515259E-3,1.1125391E-2,5.221374E-3,2.1814201E-2,3.9094098E-2,-8.238427E-2,9.9757515E-2,7.245968E-2,3.7589367E-2,2.9437833E-3,7.026718E-2,-8.177969E-2,4.710517E-2,6.1161675E-2,-2.4189688E-2,5.8177102E-2,-3.0862633E-3,3.5458628E-2,-8.701201E-2,1.8195761E-2,-1.6208183E-2,-5.6659356E-3,5.2137993E-2,2.104586E-3,1.0241289E-2,-9.298956E-4,4.2770363E-2,-3.354735E-2,-2.1646043E-2,-8.6399764E-2,-4.36353E-3,-1.7134147E-2,-3.159282E-2,1.4815863E-2,4.6636734E-2,-2.6129883E-2,-6.3246794E-2,-3.0875355E-2,-1.5703911E-2,-5.197048E-2,-4.5668326E-2,5.874692E-3,-2.22907E-2,4.2292465E-2,-7.850087E-2,-1.249127E-2,-1.03134E-1,-3.995339E-2,-7.286096E-2,-2.3151057E-2,3.4983305E-3,-5.2777305E-2],"split_indices":[2,39,2,3,45,3,2,2,5,11,45,5,39,3,19,47,23,33,40,6,40,17,8,40,13,40,48,39,39,44,37,8,48,21,37,13,12,48,17,42,0,21,18,5,9,47,40,48,36,32,45,45,3,1,2,29,33,24,40,6,43,0,24,0,0,0,0,0,0,0,0,0,0,0,0,0,0,0,0,0,0,0,0,0,0,0,0,0,0,0,0,0,0,0,0,0,0,0,0,0,0,0,0,0,0,0,0,0,0,0,0,0,0,0,0,0,0,0,0,0,0,0,0,0,0],"split_type":[0,0,0,0,0,0,0,0,0,0,0,0,0,0,0,0,0,0,0,0,0,0,0,0,0,0,0,0,0,0,0,0,0,0,0,0,0,0,0,0,0,0,0,0,0,0,0,0,0,0,0,0,0,0,0,0,0,0,0,0,0,0,0,0,0,0,0,0,0,0,0,0,0,0,0,0,0,0,0,0,0,0,0,0,0,0,0,0,0,0,0,0,0,0,0,0,0,0,0,0,0,0,0,0,0,0,0,0,0,0,0,0,0,0,0,0,0,0,0,0,0,0,0,0,0],"sum_hessian":[1.8448523E4,7.717077E3,1.0731446E4,6.327642E3,1.3894348E3,7.713754E3,3.0176921E3,2.3959578E3,3.9316843E3,3.1791968E2,1.0715151E3,4.8582446E3,2.8555093E3,2.8170825E3,2.0060945E2,8.3599915E2,1.5599586E3,2.7769688E3,1.1547157E3,9.8857796E1,2.1906187E2,7.30453E2,3.4106207E2,3.1588723E3,1.6993721E3,2.724122E3,1.3138744E2,1.4148801E3,1.4022024E3,1.3223837E2,6.837108E1,2.2810178E2,6.078974E2,5.5343536E2,1.00652325E3,4.5618744E2,2.3207812E3,9.450503E2,2.0966545E2,8.923523E1,9.622569E0,1.5580095E1,2.0348177E2,7.165305E2,1.3922499E1,3.284773E2,1.2584797E1,3.0830818E3,7.57907E1,1.5563792E3,1.4299295E2,1.6013761E3,1.1227458E3,8.462279E1,4.676465E1,9.5475885E2,4.601213E2,1.3510162E3,5.1186222E1,3.6398045E1,9.584033E1,5.2469128E1,1.5901946E1,1.7475722E2,5.3344555E1,1.4761725E2,4.6028015E2,7.258524E0,5.461768E2,3.0371396E2,7.028093E2,2.517677E1,4.3101068E2,1.5566183E3,7.6416296E2,3.0951755E2,6.355327E2,2.0857037E2,1.0950778E0,8.2292984E1,6.942242E0,5.2072754E0,1.037282E1,2.0241193E2,1.069846E0,4.539507E2,2.625798E2,1.1192689E1,2.7298093E0,2.0298666E1,3.0817862E2,4.7646117E0,7.820185E0,7.8295856E2,2.300123E3,3.5957397E1,3.9833305E1,5.9093823E2,9.654409E2,1.2874341E2,1.4249551E1,1.5897346E3,1.1641412E1,4.7146417E2,6.512817E2,3.0046316E1,5.4576473E1,4.4274002E1,2.4906464E0,6.18829E1,8.92876E2,4.1912457E2,4.0996742E1,1.3300792E3,2.093703E1,2.5697577E1,2.5488646E1,2.5569359E1,1.0828688E1,8.757734E1,8.262996E0,4.0616413E1,1.1852716E1,1.0004886E1,5.8970604E0],"tree_param":{"num_deleted":"0","num_feature":"49","num_nodes":"125","size_leaf_vector":"1"}},{"base_weights":[-2.2195175E-3,3.4625143E-1,-2.750977E-1,2.2934642E-1,7.306666E-1,-1.483841E-1,-6.360356E-1,3.548402E-1,1.3151075E-1,9.724855E-1,5.5921394E-1,-7.736373E-2,-3.2685483E-1,-5.916443E-1,-1.206232E0,7.373048E-1,3.2513416E-1,7.511175E-2,2.6460466E-1,1.5209477E0,8.9838344E-1,3.8687438E-1,6.8865895E-1,-1.5507916E-1,6.580753E-2,-3.4421828E-1,6.797462E-1,-4.9148437E-1,-6.8310356E-1,-1.5963771E0,-1.0146495E0,6.619155E-1,8.610209E-2,4.9601725E-1,2.6934984E-1,6.497948E-2,7.3669994E-1,2.0678027E-1,5.105247E-1,1.5577718E0,2.6070945E-2,6.6265E-1,9.547448E-1,4.5212346E-1,-1.4180857E-1,8.50834E-1,6.133609E-1,-2.838615E-1,-1.1517017E-1,4.5920093E-2,9.3483025E-1,-4.1343033E-1,-2.0146234E-1,1.1083535E0,7.984919E-2,-6.2334466E-1,-3.7646288E-1,-7.8846586E-1,-5.563639E-1,-5.530147E-1,-1.7711102E0,-1.0540509E0,3.5179895E-1,1.4529655E-2,4.3708038E-2,2.6336912E-2,4.3575056E-2,1.3435628E-2,2.46858E-2,1.0194058E-3,1.0199961E-2,8.312841E-3,6.5831155E-2,2.8829478E-2,1.0340198E-2,3.3252943E-2,-3.1970132E-2,7.29052E-2,9.67014E-2,2.7650129E-2,5.5703655E-2,4.7250528E-2,6.267219E-2,1.9964384E-2,4.379054E-2,-1.3135404E-3,-1.0364822E-1,4.2651884E-2,6.391352E-2,3.848464E-2,-2.7766967E-2,5.155961E-2,-1.785973E-2,-1.2715095E-2,-4.043306E-3,-5.3671333E-3,6.704046E-3,6.710292E-2,-7.32154E-2,-2.7290927E-2,-9.732839E-3,-5.8675572E-2,-1.0272665E-2,3.5740275E-2,8.385001E-2,1.358757E-2,-8.122245E-2,-6.473893E-2,-3.4405515E-2,-2.816538E-2,-3.4229055E-3,-4.8609983E-2,6.633156E-3,-6.582688E-2,-2.9769009E-2,9.5318295E-3,-6.4288065E-2,-1.1106689E-1,1.2573199E-2,1.26076965E-2,-6.578305E-2,3.3508405E-2,6.883416E-3],"categories":[],"categories_nodes":[],"categories_segments":[],"categories_sizes":[],"default_left":[0,0,0,0,0,0,0,0,0,0,0,0,0,0,0,0,0,0,0,0,0,0,0,0,0,0,0,0,0,0,0,0,0,0,0,0,0,0,0,0,0,0,0,0,0,0,0,0,0,0,0,0,0,0,0,0,0,0,0,0,0,0,0,0,0,0,0,0,0,0,0,0,0,0,0,0,0,0,0,0,0,0,0,0,0,0,0,0,0,0,0,0,0,0,0,0,0,0,0,0,0,0,0,0,0,0,0,0,0,0,0,0,0,0,0,0,0,0,0,0,0,0,0],"id":4,"left_children":[1,3,5,7,9,11,13,15,17,19,21,23,25,27,29,31,33,35,37,39,41,43,45,47,49,51,53,55,57,59,61,63,-1,65,67,69,71,73,75,77,-1,79,81,83,85,87,89,91,93,95,97,99,101,103,105,107,109,111,113,115,117,119,121,-1,-1,-1,-1,-1,-1,-1,-1,-1,-1,-1,-1,-1,-1,-1,-1,-1,-1,-1,-1,-1,-1,-1,-1,-1,-1,-1,-1,-1,-1,-1,-1,-1,-1,-1,-1,-1,-1,-1,-1,-1,-1,-1,-1,-1,-1,-1,-1,-1,-1,-1,-1,-1,-1,-1,-1,-1,-1,-1,-1],"loss_changes":[1.7418331E3,3.6144098E2,4.6980103E2,7.572281E1,7.749652E1,9.6372925E1,6.720691E1,3.05831E1,2.6018387E1,3.0916077E1,2.4377686E1,6.0537704E1,3.7948395E1,2.2526917E1,1.3564911E1,9.74926E0,2.3845734E1,1.630661E1,1.4620132E1,3.335083E0,8.800354E0,1.6328674E1,7.3933105E0,1.8107811E1,3.3065243E1,2.0985214E1,9.436237E0,1.7844025E1,1.705597E1,1.0898163E1,7.2036133E0,4.8380814E0,0E0,7.944336E0,1.21657715E1,1.2093988E1,7.837204E0,7.842392E0,9.086636E0,6.582031E-1,0E0,6.9745865E0,7.8874207E0,1.3824905E1,9.9220295E0,5.546707E0,1.3123688E1,1.32846985E1,1.2441864E1,1.6684654E1,1.761504E1,1.4871155E1,1.6261261E1,2.766117E0,3.4959652E0,1.2222763E1,1.880526E1,1.380307E1,1.8904861E1,3.6604917E0,8.636368E0,6.902481E0,1.6533887E-1,0E0,0E0,0E0,0E0,0E0,0E0,0E0,0E0,0E0,0E0,0E0,0E0,0E0,0E0,0E0,0E0,0E0,0E0,0E0,0E0,0E0,0E0,0E0,0E0,0E0,0E0,0E0,0E0,0E0,0E0,0E0,0E0,0E0,0E0,0E0,0E0,0E0,0E0,0E0,0E0,0E0,0E0,0E0,0E0,0E0,0E0,0E0,0E0,0E0,0E0,0E0,0E0,0E0,0E0,0E0,0E0,0E0,0E0,0E0,0E0],"parents":[2147483647,0,0,1,1,2,2,3,3,4,4,5,5,6,6,7,7,8,8,9,9,10,10,11,11,12,12,13,13,14,14,15,15,16,16,17,17,18,18,19,19,20,20,21,21,22,22,23,23,24,24,25,25,26,26,27,27,28,28,29,29,30,30,31,31,33,33,34,34,35,35,36,36,37,37,38,38,39,39,41,41,42,42,43,43,44,44,45,45,46,46,47,47,48,48,49,49,50,50,51,51,52,52,53,53,54,54,55,55,56,56,57,57,58,58,59,59,60,60,61,61,62,62],"right_children":[2,4,6,8,10,12,14,16,18,20,22,24,26,28,30,32,34,36,38,40,42,44,46,48,50,52,54,56,58,60,62,64,-1,66,68,70,72,74,76,78,-1,80,82,84,86,88,90,92,94,96,98,100,102,104,106,108,110,112,114,116,118,120,122,-1,-1,-1,-1,-1,-1,-1,-1,-1,-1,-1,-1,-1,-1,-1,-1,-1,-1,-1,-1,-1,-1,-1,-1,-1,-1,-1,-1,-1,-1,-1,-1,-1,-1,-1,-1,-1,-1,-1,-1,-1,-1,-1,-1,-1,-1,-1,-1,-1,-1,-1,-1,-1,-1,-1,-1,-1,-1,-1,-1],"split_conditions":[9.603488E-1,2.4827585E0,1.1307272E0,-2.0097363E2,-2.6E0,1.0672584E0,5.0173862E2,-3.25E0,1E0,-7.7E0,1.4087591E0,1E0,3.142857E0,2.707231E2,4.5454547E-1,4.034483E0,-3.6499014E2,5.67E0,2.0458715E0,-1.4521597E2,1.2923077E0,9.2567044E-1,5.2006507E-1,9.8E-1,4.8235292E0,1E0,2E0,1.02E0,1.1E0,1.5E0,5.285714E0,8.074534E-1,8.610209E-2,2.5E0,1E0,1.4285715E0,7.692308E-1,-1.6E0,-7.438385E1,5.230769E0,2.6070945E-2,1E0,3.5E0,1E0,2.8333333E0,1E0,9.382472E-1,4E0,1.2173913E0,1.17E0,-2.3333333E0,2.2222223E0,4E-1,2.777778E-1,1.5E0,-4.4444445E-1,1.6129032E0,2.8796296E0,-4.4E1,7E-1,1.6E1,2.4523077E0,1.0163792E3,1.4529655E-2,4.3708038E-2,2.6336912E-2,4.3575056E-2,1.3435628E-2,2.46858E-2,1.0194058E-3,1.0199961E-2,8.312841E-3,6.5831155E-2,2.8829478E-2,1.0340198E-2,3.3252943E-2,-3.1970132E-2,7.29052E-2,9.67014E-2,2.7650129E-2,5.5703655E-2,4.7250528E-2,6.267219E-2,1.9964384E-2,4.379054E-2,-1.3135404E-3,-1.0364822E-1,4.2651884E-2,6.391352E-2,3.848464E-2,-2.7766967E-2,5.155961E-2,-1.785973E-2,-1.2715095E-2,-4.043306E-3,-5.3671333E-3,6.704046E-3,6.710292E-2,-7.32154E-2,-2.7290927E-2,-9.732839E-3,-5.8675572E-2,-1.0272665E-2,3.5740275E-2,8.385001E-2,1.358757E-2,-8.122245E-2,-6.473893E-2,-3.4405515E-2,-2.816538E-2,-3.4229055E-3,-4.8609983E-2,6.633156E-3,-6.582688E-2,-2.9769009E-2,9.5318295E-3,-6.4288065E-2,-1.1106689E-1,1.2573199E-2,1.26076965E-2,-6.578305E-2,3.3508405E-2,6.883416E-3],"split_indices":[3,39,3,2,45,3,2,33,5,11,40,5,13,2,40,34,2,48,40,2,40,3,36,48,39,5,32,48,17,45,18,43,0,27,5,12,43,45,2,39,0,5,39,5,18,5,3,37,40,48,21,12,27,10,17,11,39,39,9,48,32,34,1,0,0,0,0,0,0,0,0,0,0,0,0,0,0,0,0,0,0,0,0,0,0,0,0,0,0,0,0,0,0,0,0,0,0,0,0,0,0,0,0,0,0,0,0,0,0,0,0,0,0,0,0,0,0,0,0,0,0,0,0],"split_type":[0,0,0,0,0,0,0,0,0,0,0,0,0,0,0,0,0,0,0,0,0,0,0,0,0,0,0,0,0,0,0,0,0,0,0,0,0,0,0,0,0,0,0,0,0,0,0,0,0,0,0,0,0,0,0,0,0,0,0,0,0,0,0,0,0,0,0,0,0,0,0,0,0,0,0,0,0,0,0,0,0,0,0,0,0,0,0,0,0,0,0,0,0,0,0,0,0,0,0,0,0,0,0,0,0,0,0,0,0,0,0,0,0,0,0,0,0,0,0,0,0,0,0],"sum_hessian":[1.8316707E4,8.0440977E3,1.0272609E4,6.168872E3,1.8752257E3,7.6038496E3,2.66876E3,2.7018706E3,3.4670012E3,7.7699976E2,1.0982258E3,5.4398433E3,2.164006E3,2.4769421E3,1.9181772E2,1.9387126E2,2.5079995E3,2.4356628E3,1.0313384E3,9.132204E1,6.8567773E2,4.7191946E2,6.2630646E2,3.525895E3,1.9139484E3,2.1276343E3,3.63718E1,1.183758E3,1.2931841E3,6.196457E1,1.2985315E2,1.7584558E2,1.8025679E1,6.162637E2,1.8917357E3,2.3994639E3,3.6198845E1,8.357458E2,1.955926E2,8.811838E1,3.2036595E0,1.335362E2,5.5214154E2,4.2013904E2,5.1780396E1,1.9695665E2,4.293498E2,8.334329E2,2.6924622E3,1.8716426E3,4.2305794E1,1.432278E3,6.953563E2,2.0967443E1,1.5404355E1,5.504799E2,6.3327814E2,7.0471985E2,5.8846423E2,9.1874E0,5.2777172E1,1.26324905E2,3.5282512E0,2.4382162E1,1.5146342E2,4.950159E2,1.21247795E2,1.4344374E3,4.5729837E2,1.6473018E3,7.521622E2,1.3872479E1,2.2326365E1,9.269077E1,7.4305505E2,1.8795628E2,7.6363263E0,1.357954E1,7.453884E1,7.6674355E1,5.6861835E1,1.9459525E2,3.575463E2,2.945984E2,1.2554068E2,4.8611073E1,3.1693258E0,1.204661E2,7.649054E1,4.186399E2,1.0709898E1,9.575893E0,8.2385706E2,8.895634E2,1.8028987E3,6.12211E2,1.2594315E3,3.9207005E1,3.0987892E0,1.2292106E3,2.0306737E2,2.548802E1,6.6986835E2,8.112797E0,1.2854647E1,1.4357068E1,1.0472872E0,5.333741E1,4.9714255E2,4.9033868E2,1.4293948E2,6.8815845E2,1.656139E1,5.8098534E1,5.303657E2,4.0176406E0,5.1697593E0,5.0759552E1,2.0176191E0,4.0289454E0,1.2229596E2,1.5228455E0,2.0054057E0],"tree_param":{"num_deleted":"0","num_feature":"49","num_nodes":"123","size_leaf_vector":"1"}},{"base_weights":[8.8111724E-4,2.601496E-1,-3.1906053E-1,1.6035503E-1,6.612582E-1,-1.7746963E-1,-5.6884444E-1,2.9759344E-1,4.1868176E-2,8.475236E-1,3.9881244E-1,-2.4760474E-1,-4.380359E-2,-5.2875704E-1,-1.1782384E0,5.0397664E-1,2.5036785E-1,-1.822685E-2,1.735171E-1,1.4810023E0,7.930794E-1,2.4569757E-1,5.415201E-1,-1.7913893E-1,-3.635641E-1,-6.2263895E-2,1.0064301E0,-4.3292764E-1,-6.396941E-1,-8.381978E-1,-1.4276334E0,5.6521803E-1,2.7593943E-1,1.979772E-1,3.9478636E-1,5.345928E-2,-1.2653856E-1,-6.452181E-3,2.4319084E-1,1.5356773E0,3.948437E-1,9.147365E-1,6.655934E-1,-1.00328885E-1,2.5988212E-1,5.637365E-1,-3.72937E-1,-4.447154E-1,-1.3739268E-1,-3.8763574E-1,1.2538178E-2,-1.8007062E-1,3.443965E-2,1.2636886E0,1.5815793E-1,4.5823193E-1,-4.4490218E-1,-6.565832E-1,2.2207063E-1,-3.6565408E-1,-1.100689E0,-4.0260234E-1,-1.501104E0,2.992499E-2,4.9948443E-2,-1.7811889E-2,2.2313775E-2,1.2510705E-2,-1.458635E-2,2.196968E-2,4.9784232E-2,-3.8838466E-3,7.0344363E-3,-2.0682616E-2,-4.510719E-3,-4.256794E-3,2.5473174E-2,1.27405925E-2,3.834649E-2,7.024475E-2,9.5544696E-2,5.1946238E-2,-1.5890546E-2,-1.640144E-2,5.5818714E-2,4.883491E-2,3.0730529E-2,1.8708033E-2,-1.5415451E-2,4.0068276E-2,2.3717755E-2,3.1622932E-3,-9.777328E-2,-2.3142155E-2,-6.948382E-2,-1.1224458E-2,5.22499E-4,-2.575018E-2,-7.024557E-3,-5.5063233E-2,1.09164845E-2,-8.7766334E-2,-9.930002E-3,1.0076471E-2,-5.792156E-3,3.9789535E-2,8.983724E-2,-2.8109672E-2,3.041592E-2,-8.982771E-2,3.9269336E-2,-2.87007E-2,-1.1839198E-2,-4.6566434E-2,-3.1020137E-2,-4.0318094E-2,2.7197171E-2,-5.5698927E-2,-5.9748976E-3,-7.896209E-2,-1.223256E-2,3.8571318E-3,-9.324911E-2,-1.1402184E-1,-7.631022E-2],"categories":[],"categories_nodes":[],"categories_segments":[],"categories_sizes":[],"default_left":[0,0,0,0,0,0,0,0,0,0,0,0,0,0,0,0,0,0,0,0,0,0,0,0,0,0,0,0,0,0,0,0,0,0,0,0,0,0,0,0,0,0,0,0,0,0,0,0,0,0,0,0,0,0,0,0,0,0,0,0,0,0,0,0,0,0,0,0,0,0,0,0,0,0,0,0,0,0,0,0,0,0,0,0,0,0,0,0,0,0,0,0,0,0,0,0,0,0,0,0,0,0,0,0,0,0,0,0,0,0,0,0,0,0,0,0,0,0,0,0,0,0,0,0,0],"id":5,"left_children":[1,3,5,7,9,11,13,15,17,19,21,23,25,27,29,31,33,35,37,39,41,43,45,47,49,51,53,55,57,59,61,63,65,67,69,71,73,75,77,79,81,83,85,-1,87,89,91,93,95,97,99,101,103,105,107,109,111,113,115,117,119,121,123,-1,-1,-1,-1,-1,-1,-1,-1,-1,-1,-1,-1,-1,-1,-1,-1,-1,-1,-1,-1,-1,-1,-1,-1,-1,-1,-1,-1,-1,-1,-1,-1,-1,-1,-1,-1,-1,-1,-1,-1,-1,-1,-1,-1,-1,-1,-1,-1,-1,-1,-1,-1,-1,-1,-1,-1,-1,-1,-1,-1,-1,-1],"loss_changes":[1.5242484E3,4.062395E2,2.9085278E2,1.3217175E2,9.8677246E1,4.9214066E1,7.237677E1,3.6644226E1,3.4518265E1,4.0186462E1,1.8294937E1,2.7305069E1,3.5072624E1,2.9551208E1,1.4941788E1,9.7092285E0,2.315767E1,2.3265272E1,1.7147182E1,5.218994E0,1.6596863E1,1.1269932E1,8.932861E0,2.3983849E1,1.1571045E1,2.0243334E1,6.7195377E0,1.6108185E1,1.8896057E1,9.566078E0,7.60553E0,9.597748E0,8.263798E0,1.0483604E1,1.0003029E1,1.3596369E1,1.3358513E1,1.0637233E1,1.1971863E1,8.972168E-1,1.7082087E0,1.0421082E1,1.1941818E1,0E0,1.0873152E1,7.307724E0,5.716358E0,1.2153374E1,1.3592594E1,1.3470673E1,1.2272818E1,1.4849712E1,1.7076334E1,2.8571854E0,1.8329964E0,8.216374E0,1.2209595E1,2.0963257E1,5.368309E0,4.275774E0,9.594475E0,4.193089E0,7.7435303E0,0E0,0E0,0E0,0E0,0E0,0E0,0E0,0E0,0E0,0E0,0E0,0E0,0E0,0E0,0E0,0E0,0E0,0E0,0E0,0E0,0E0,0E0,0E0,0E0,0E0,0E0,0E0,0E0,0E0,0E0,0E0,0E0,0E0,0E0,0E0,0E0,0E0,0E0,0E0,0E0,0E0,0E0,0E0,0E0,0E0,0E0,0E0,0E0,0E0,0E0,0E0,0E0,0E0,0E0,0E0,0E0,0E0,0E0,0E0,0E0,0E0,0E0],"parents":[2147483647,0,0,1,1,2,2,3,3,4,4,5,5,6,6,7,7,8,8,9,9,10,10,11,11,12,12,13,13,14,14,15,15,16,16,17,17,18,18,19,19,20,20,21,21,22,22,23,23,24,24,25,25,26,26,27,27,28,28,29,29,30,30,31,31,32,32,33,33,34,34,35,35,36,36,37,37,38,38,39,39,40,40,41,41,42,42,44,44,45,45,46,46,47,47,48,48,49,49,50,50,51,51,52,52,53,53,54,54,55,55,56,56,57,57,58,58,59,59,60,60,61,61,62,62],"right_children":[2,4,6,8,10,12,14,16,18,20,22,24,26,28,30,32,34,36,38,40,42,44,46,48,50,52,54,56,58,60,62,64,66,68,70,72,74,76,78,80,82,84,86,-1,88,90,92,94,96,98,100,102,104,106,108,110,112,114,116,118,120,122,124,-1,-1,-1,-1,-1,-1,-1,-1,-1,-1,-1,-1,-1,-1,-1,-1,-1,-1,-1,-1,-1,-1,-1,-1,-1,-1,-1,-1,-1,-1,-1,-1,-1,-1,-1,-1,-1,-1,-1,-1,-1,-1,-1,-1,-1,-1,-1,-1,-1,-1,-1,-1,-1,-1,-1,-1,-1,-1,-1,-1,-1,-1],"split_conditions":[-1.7650709E0,2.4827585E0,1.8218387E2,-1.5460551E2,-1.7E0,1E0,5.0173862E2,-3.6499014E2,1E0,-7.7E0,1.3529412E0,1.01593925E2,5.230769E0,2.707231E2,3.5555556E-1,6E0,1E0,-6.0011383E1,1E0,-1.5460551E2,-2.75E0,-6.3333335E0,1.7309753E3,4.9596775E-1,1.9541069E3,1.2857143E0,5E0,-1.5E0,2.8796296E0,1.2E0,1.44E2,1.375E0,1.89E0,2E0,6.813187E-1,1.4E0,9.8E-1,2.47E0,6.744186E-1,5.230769E0,1.0762428E3,7.5E-1,1E0,-1.00328885E-1,1.4166666E0,2E-1,2.6842105E0,4.7058824E-1,7.5E-1,2E0,7.2E-1,-3.6E0,2E-1,4E0,5.4E0,6.666667E-1,1.9541069E3,1.1E0,3.1055145E2,1.1E0,1.9898877E3,2.9128985E0,4.2857143E-1,2.992499E-2,4.9948443E-2,-1.7811889E-2,2.2313775E-2,1.2510705E-2,-1.458635E-2,2.196968E-2,4.9784232E-2,-3.8838466E-3,7.0344363E-3,-2.0682616E-2,-4.510719E-3,-4.256794E-3,2.5473174E-2,1.27405925E-2,3.834649E-2,7.024475E-2,9.5544696E-2,5.1946238E-2,-1.5890546E-2,-1.640144E-2,5.5818714E-2,4.883491E-2,3.0730529E-2,1.8708033E-2,-1.5415451E-2,4.0068276E-2,2.3717755E-2,3.1622932E-3,-9.777328E-2,-2.3142155E-2,-6.948382E-2,-1.1224458E-2,5.22499E-4,-2.575018E-2,-7.024557E-3,-5.5063233E-2,1.09164845E-2,-8.7766334E-2,-9.930002E-3,1.0076471E-2,-5.792156E-3,3.9789535E-2,8.983724E-2,-2.8109672E-2,3.041592E-2,-8.982771E-2,3.9269336E-2,-2.87007E-2,-1.1839198E-2,-4.6566434E-2,-3.1020137E-2,-4.0318094E-2,2.7197171E-2,-5.5698927E-2,-5.9748976E-3,-7.896209E-2,-1.223256E-2,3.8571318E-3,-9.324911E-2,-1.1402184E-1,-7.631022E-2],"split_indices":[2,39,2,2,45,5,2,2,5,11,40,2,39,2,44,32,5,2,23,2,33,26,0,36,0,48,7,33,39,22,37,38,48,18,36,48,48,47,36,39,0,40,32,0,14,30,39,36,26,23,48,16,33,8,23,28,0,17,2,14,0,35,40,0,0,0,0,0,0,0,0,0,0,0,0,0,0,0,0,0,0,0,0,0,0,0,0,0,0,0,0,0,0,0,0,0,0,0,0,0,0,0,0,0,0,0,0,0,0,0,0,0,0,0,0,0,0,0,0,0,0,0,0,0,0],"split_type":[0,0,0,0,0,0,0,0,0,0,0,0,0,0,0,0,0,0,0,0,0,0,0,0,0,0,0,0,0,0,0,0,0,0,0,0,0,0,0,0,0,0,0,0,0,0,0,0,0,0,0,0,0,0,0,0,0,0,0,0,0,0,0,0,0,0,0,0,0,0,0,0,0,0,0,0,0,0,0,0,0,0,0,0,0,0,0,0,0,0,0,0,0,0,0,0,0,0,0,0,0,0,0,0,0,0,0,0,0,0,0,0,0,0,0,0,0,0,0,0,0,0,0,0,0],"sum_hessian":[1.8374332E4,1.0149588E4,8.224744E3,8.128053E3,2.0215344E3,5.249756E3,2.9749885E3,3.7656736E3,4.36238E3,1.1817192E3,8.398152E2,3.4428513E3,1.8069045E3,2.792242E3,1.8274663E2,7.0032214E2,3.0653513E3,2.9954495E3,1.3669304E3,9.2487885E1,1.0892314E3,4.0579156E2,4.3402362E2,2.1655308E3,1.2773204E3,1.7761548E3,3.0749695E1,1.499446E3,1.2927959E3,7.824418E1,1.0450245E2,5.5147845E2,1.4884367E2,2.250224E3,8.1512726E2,1.802631E3,1.1928185E3,3.8162808E2,9.853023E2,8.7858345E1,4.6295357E0,5.557774E2,5.3345404E2,2.5501575E0,4.032414E2,4.239165E2,1.0107109E1,2.9350677E2,1.872024E3,1.2004714E3,7.6848946E1,8.0051544E2,9.756394E2,2.340632E1,7.343375E0,1.9633898E1,1.4798121E3,1.2680631E3,2.473278E1,2.8369373E1,4.9874805E1,7.2060843E0,9.7296364E1,4.427876E2,1.08690865E2,2.1206543E1,1.2763713E2,2.1979922E3,5.2231857E1,7.656586E2,4.9468616E1,6.318231E2,1.1708079E3,2.2675029E2,9.660682E2,3.3231857E2,4.930952E1,9.1479486E2,7.050746E1,1.327668E1,7.4581665E1,2.610087E0,2.019449E0,7.0846376E0,5.4869275E2,2.701374E2,2.6331662E2,3.6661005E2,3.6631374E1,2.611112E2,1.6280531E2,7.9076552E0,2.199454E0,2.7179266E2,2.1714102E1,1.3968763E3,4.7514777E2,1.0404567E3,1.6001486E2,1.1498353E1,6.535059E1,8.432989E0,7.9208246E2,4.8309076E2,4.925486E2,7.092513E0,1.6313807E1,2.5643332E0,4.779042E0,1.4885795E0,1.8145317E1,1.3032994E3,1.7651266E2,6.818825E2,5.8618054E2,4.886208E0,1.9846573E1,8.708692E0,1.9660683E1,4.0029144E1,9.84566E0,5.463168E0,1.7429166E0,3.41613E1,6.3135067E1],"tree_param":{"num_deleted":"0","num_feature":"49","num_nodes":"125","size_leaf_vector":"1"}},{"base_weights":[3.658045E-4,2.3737799E-1,-3.1415695E-1,1.4987218E-1,6.761456E-1,-2.2462992E-1,-6.771642E-1,3.1213057E-1,4.084006E-2,3.9993203E-1,8.5018104E-1,-1.18939444E-1,-3.416939E-1,-6.145716E-1,-1.1305786E0,2.8509468E-1,6.530985E-1,-2.53731E-2,1.8199052E-1,4.846475E-1,-5.612925E-4,1.455167E0,7.856674E-1,-1.6722366E-1,3.947293E-2,-3.539088E-1,6.036234E-1,-6.383E-1,5.8289442E-2,-1.5289339E0,-9.3551266E-1,4.0340084E-1,2.3036025E-1,1.5055414E-1,8.0152845E-1,3.7076335E-2,-1.2047873E-1,1.52001E-1,4.4917277E-1,4.9553606E-1,-1.2310324E0,1.3876612E-1,-8.998313E-1,-1.5142371E-2,1.4910054E0,8.055773E-1,-1.1478169E-1,-2.2563064E-1,-5.684158E-2,2.9079407E-1,-1.6659644E-2,-1.7831613E-1,-3.9404327E-1,3.0712506E-1,8.458347E-2,-6.533823E-1,1.8834224E-1,-6.0881203E-1,4.0095177E-1,-1.6247039E-1,-1.6475482E0,-5.6026495E-1,-1.1956575E0,4.5362916E-2,2.1899052E-2,-7.070486E-2,1.4038284E-2,-1.3988961E-2,2.4559624E-2,8.395507E-2,4.269737E-2,-1.453879E-2,3.4487322E-3,-8.7499745E-2,-6.9071595E-3,-5.785153E-2,9.717517E-3,2.7902914E-2,-8.19128E-2,3.433729E-2,1.6633177E-2,-8.828453E-3,-9.712489E-2,-9.759072E-2,1.1122596E-2,4.179908E-2,-6.878661E-2,6.7574956E-2,9.235544E-2,5.4756537E-2,4.0954366E-2,-5.9843786E-2,2.5822528E-2,-1.9930972E-2,-8.63548E-3,-5.070012E-2,-2.5345453E-3,2.1484332E-2,-4.5676347E-2,1.8128265E-2,-4.6508354E-3,-4.32657E-2,-7.966625E-3,-2.6682006E-2,-1.6755423E-2,3.406234E-2,-6.547602E-3,-3.671909E-2,-5.759983E-2,-2.2724967E-3,5.1690154E-2,3.109792E-2,-5.26423E-2,-8.927335E-2,3.106926E-2,1.1931969E-2,-3.959541E-2,-1.0309779E-1,1.1793412E-2,-5.568571E-2,-1.4319391E-2,-9.744741E-2,-5.052969E-2],"categories":[],"categories_nodes":[],"categories_segments":[],"categories_sizes":[],"default_left":[0,0,0,0,0,0,0,0,0,0,0,0,0,0,0,0,0,0,0,0,0,0,0,0,0,0,0,0,0,0,0,0,0,0,0,0,0,0,0,0,0,0,0,0,0,0,0,0,0,0,0,0,0,0,0,0,0,0,0,0,0,0,0,0,0,0,0,0,0,0,0,0,0,0,0,0,0,0,0,0,0,0,0,0,0,0,0,0,0,0,0,0,0,0,0,0,0,0,0,0,0,0,0,0,0,0,0,0,0,0,0,0,0,0,0,0,0,0,0,0,0,0,0],"id":6,"left_children":[1,3,5,7,9,11,13,15,17,19,21,23,25,27,29,31,33,35,37,39,41,43,45,47,49,51,53,55,57,59,61,63,65,67,69,71,73,75,77,79,81,83,85,-1,87,89,91,93,95,97,99,101,103,105,-1,107,109,111,113,115,117,119,121,-1,-1,-1,-1,-1,-1,-1,-1,-1,-1,-1,-1,-1,-1,-1,-1,-1,-1,-1,-1,-1,-1,-1,-1,-1,-1,-1,-1,-1,-1,-1,-1,-1,-1,-1,-1,-1,-1,-1,-1,-1,-1,-1,-1,-1,-1,-1,-1,-1,-1,-1,-1,-1,-1,-1,-1,-1,-1,-1,-1],"loss_changes":[1.3601132E3,3.9943646E2,2.5473553E2,1.5347238E2,8.2987854E1,7.7805695E1,4.3667664E1,3.204727E1,4.850143E1,2.2718475E1,4.0830994E1,2.5293797E1,3.4565857E1,2.1794006E1,1.3857071E1,2.0877563E1,1.901728E1,2.0984177E1,1.3243244E1,1.0630051E1,1.4773038E1,6.407608E0,1.7250916E1,1.6331589E1,1.0904427E1,2.0729797E1,8.926494E0,1.6487E1,1.0846715E1,9.729797E0,1.2079742E1,1.3699829E1,1.1382751E1,5.899138E0,1.0106178E1,1.2164817E1,9.956818E0,1.6645336E1,5.1269226E0,9.1293335E0,1.4059896E0,8.55097E0,6.626786E0,0E0,8.8645935E-1,1.2050354E1,1.0414219E1,1.4402611E1,1.0080005E1,1.0124745E1,1.2276004E1,1.3524284E1,1.3881073E1,3.1338284E0,0E0,1.6130615E1,3.6702318E0,5.1067157E0,7.293937E0,1.0390096E0,7.4673157E0,6.1601257E0,1.0625069E1,0E0,0E0,0E0,0E0,0E0,0E0,0E0,0E0,0E0,0E0,0E0,0E0,0E0,0E0,0E0,0E0,0E0,0E0,0E0,0E0,0E0,0E0,0E0,0E0,0E0,0E0,0E0,0E0,0E0,0E0,0E0,0E0,0E0,0E0,0E0,0E0,0E0,0E0,0E0,0E0,0E0,0E0,0E0,0E0,0E0,0E0,0E0,0E0,0E0,0E0,0E0,0E0,0E0,0E0,0E0,0E0,0E0,0E0,0E0,0E0],"parents":[2147483647,0,0,1,1,2,2,3,3,4,4,5,5,6,6,7,7,8,8,9,9,10,10,11,11,12,12,13,13,14,14,15,15,16,16,17,17,18,18,19,19,20,20,21,21,22,22,23,23,24,24,25,25,26,26,27,27,28,28,29,29,30,30,31,31,32,32,33,33,34,34,35,35,36,36,37,37,38,38,39,39,40,40,41,41,42,42,44,44,45,45,46,46,47,47,48,48,49,49,50,50,51,51,52,52,53,53,55,55,56,56,57,57,58,58,59,59,60,60,61,61,62,62],"right_children":[2,4,6,8,10,12,14,16,18,20,22,24,26,28,30,32,34,36,38,40,42,44,46,48,50,52,54,56,58,60,62,64,66,68,70,72,74,76,78,80,82,84,86,-1,88,90,92,94,96,98,100,102,104,106,-1,108,110,112,114,116,118,120,122,-1,-1,-1,-1,-1,-1,-1,-1,-1,-1,-1,-1,-1,-1,-1,-1,-1,-1,-1,-1,-1,-1,-1,-1,-1,-1,-1,-1,-1,-1,-1,-1,-1,-1,-1,-1,-1,-1,-1,-1,-1,-1,-1,-1,-1,-1,-1,-1,-1,-1,-1,-1,-1,-1,-1,-1,-1,-1,-1,-1],"split_conditions":[6.018559E0,2.6842105E0,1.1827006E0,-1.7333183E2,3.42E0,1.0733769E0,5.0173862E2,4.75E0,1E0,-1.01042854E2,-7.7E0,2.07E0,3.142857E0,2.8796296E0,4.5454547E-1,8.177188E-1,6.5E-1,-6.0011383E1,2.3333333E0,1.6379072E3,1.0559006E0,5.3333336E-1,3.4215686E0,1E0,1.0175439E0,7.3333335E-1,-1.8333334E0,3.9E0,9.8214287E-1,-7.5E-2,1.7809279E3,-3.4E0,3.3333334E-1,1.8277312E3,5.192308E-1,6E-1,2E-1,-2.5E0,4.6E0,3.2E1,-2.6403235E2,2.4650407E0,-4.3333335E0,-1.5142371E-2,5.230769E0,-2.75E0,1.6666666E0,6.857E3,-2.2E0,2.1666667E0,-3.7E1,2.777778E-1,1E0,-2.5E0,8.458347E-2,3.1111112E0,1.36E2,1.6666667E-1,-6.6E0,1.7067091E3,1.6E1,-1.8E0,1.9118508E3,4.5362916E-2,2.1899052E-2,-7.070486E-2,1.4038284E-2,-1.3988961E-2,2.4559624E-2,8.395507E-2,4.269737E-2,-1.453879E-2,3.4487322E-3,-8.7499745E-2,-6.9071595E-3,-5.785153E-2,9.717517E-3,2.7902914E-2,-8.19128E-2,3.433729E-2,1.6633177E-2,-8.828453E-3,-9.712489E-2,-9.759072E-2,1.1122596E-2,4.179908E-2,-6.878661E-2,6.7574956E-2,9.235544E-2,5.4756537E-2,4.0954366E-2,-5.9843786E-2,2.5822528E-2,-1.9930972E-2,-8.63548E-3,-5.070012E-2,-2.5345453E-3,2.1484332E-2,-4.5676347E-2,1.8128265E-2,-4.6508354E-3,-4.32657E-2,-7.966625E-3,-2.6682006E-2,-1.6755423E-2,3.406234E-2,-6.547602E-3,-3.671909E-2,-5.759983E-2,-2.2724967E-3,5.1690154E-2,3.109792E-2,-5.26423E-2,-8.927335E-2,3.106926E-2,1.1931969E-2,-3.959541E-2,-1.0309779E-1,1.1793412E-2,-5.568571E-2,-1.4319391E-2,-9.744741E-2,-5.052969E-2],"split_indices":[2,39,3,2,48,3,2,48,5,2,11,48,13,39,40,3,47,2,23,0,42,29,41,5,41,42,11,24,43,46,0,33,17,1,38,18,27,26,17,8,2,34,11,0,39,33,27,37,26,42,9,29,5,26,0,18,7,17,26,0,32,26,0,0,0,0,0,0,0,0,0,0,0,0,0,0,0,0,0,0,0,0,0,0,0,0,0,0,0,0,0,0,0,0,0,0,0,0,0,0,0,0,0,0,0,0,0,0,0,0,0,0,0,0,0,0,0,0,0,0,0,0,0],"split_type":[0,0,0,0,0,0,0,0,0,0,0,0,0,0,0,0,0,0,0,0,0,0,0,0,0,0,0,0,0,0,0,0,0,0,0,0,0,0,0,0,0,0,0,0,0,0,0,0,0,0,0,0,0,0,0,0,0,0,0,0,0,0,0,0,0,0,0,0,0,0,0,0,0,0,0,0,0,0,0,0,0,0,0,0,0,0,0,0,0,0,0,0,0,0,0,0,0,0,0,0,0,0,0,0,0,0,0,0,0,0,0,0,0,0,0,0,0,0,0,0,0,0,0],"sum_hessian":[1.8244354E4,1.0404242E4,7.840112E3,8.674843E3,1.7293997E3,6.2897144E3,1.5503976E3,3.48606E3,5.188782E3,6.6910474E2,1.060295E3,3.3059587E3,2.9837556E3,1.3633665E3,1.8703119E2,3.2308027E3,2.5525737E2,3.5322344E3,1.656548E3,5.5219507E2,1.1690966E2,1.0113241E2,9.591626E2,2.5336672E3,7.722915E2,2.9460017E3,3.7753906E1,1.31695E3,4.6416477E1,6.0355927E1,1.26675255E2,1.0209269E3,2.209876E3,5.843139E1,1.9682599E2,2.1323616E3,1.3998727E3,1.4900802E3,1.6646768E2,5.49066E2,3.1290588E0,1.0159239E2,1.5317263E1,2.016862E0,9.911555E1,9.3846484E2,2.0697756E1,1.6565873E3,8.770799E2,1.4061751E2,6.31674E2,5.485882E2,2.3974136E3,2.810638E1,9.647526E0,1.2934553E3,2.3494658E1,1.5619597E1,3.0796883E1,4.9153113E0,5.5440617E1,5.2509453E1,7.41658E1,9.937426E1,9.215526E2,5.2342834E0,2.2046416E3,2.35546E1,3.487679E1,2.4782421E1,1.7204356E2,1.4474908E2,1.9876125E3,5.0446186E0,1.3948281E3,1.275189E1,1.4773284E3,1.6539235E2,1.0753326E0,4.0564523E2,1.4342078E2,1.0061202E0,2.1229386E0,2.1774626E0,9.941493E1,1.9274132E0,1.3389849E1,1.3001569E1,8.6113976E1,5.0009784E2,4.38367E2,7.744521E0,1.2953235E1,7.183105E2,9.3827686E2,1.543354E1,8.6164636E2,1.3247571E2,8.141808E0,1.0093311E2,5.3074084E2,4.18896E1,5.0669858E2,1.6623545E3,7.350591E2,1.7173532E1,1.0932847E1,1.1409135E3,1.5254187E2,1.793831E1,5.556346E0,2.9161077E0,1.2703489E1,1.4527022E0,2.934418E1,3.0210314E0,1.8942801E0,5.3425095E1,2.01552E0,2.4054697E1,2.8454758E1,3.271514E1,4.145066E1],"tree_param":{"num_deleted":"0","num_feature":"49","num_nodes":"123","size_leaf_vector":"1"}},{"base_weights":[-8.263131E-4,2.3104995E-1,-2.8909928E-1,1.5917149E-1,6.914374E-1,-1.6121083E-1,-5.1843363E-1,4.0922964E-1,8.5024275E-2,1.4155308E0,6.348038E-1,-1.7858133E-1,2.418173E-1,-4.4733977E-1,-8.251497E-1,6.908632E-1,3.6292836E-1,1.753709E-1,2.2640465E-2,1.451319E0,-1.4428201E-2,7.1608543E-1,2.3170091E-1,-1.171057E-1,-2.9181677E-1,8.410432E-2,7.8409827E-1,-5.1145756E-1,-2.9446304E-1,-8.6453277E-1,3.4844097E-1,6.416193E-1,1.1787474E0,5.7096463E-1,3.17321E-1,9.028308E-2,2.4660242E-1,-3.0335201E-2,1.3629396E-1,1.0817995E0,1.5010809E0,2.7732354E-1,7.6662123E-1,-1.28635E0,2.7737737E-1,-1.7287377E-1,-1.0512052E-2,-3.1743687E-1,1.19901516E-1,-4.4811165E-1,1.981008E-1,-1.887879E-1,9.4544643E-1,-5.567624E-1,-2.70494E-1,-2.6551563E-1,-8.314108E-1,-8.1630945E-1,-1.6456403E0,-4.146708E-1,6.2888896E-1,2.056381E-2,4.3797053E-2,1.6672583E-2,7.3645055E-2,2.966899E-2,5.7113938E-2,2.5846193E-2,1.5130378E-2,-2.473483E-2,6.795547E-3,2.0750394E-2,1.0455039E-2,-7.5821064E-2,-1.6421392E-3,5.3668944E-3,2.1315359E-2,3.749369E-2,6.857485E-2,4.6150863E-2,9.1141954E-2,2.9792871E-2,-5.9232046E-3,4.3675154E-2,6.597783E-2,-1.0768352E-1,1.8946605E-2,3.0112201E-2,2.637202E-3,-1.13452645E-2,2.312361E-2,-1.0354471E-1,-2.9291958E-4,-3.11617E-2,-1.6930966E-2,1.4872489E-2,-3.7084386E-2,-1.0799054E-1,-1.0313778E-2,2.305318E-2,-9.179427E-3,-8.995915E-2,1.6579954E-2,8.437245E-2,4.15005E-2,-3.054594E-2,-4.487918E-2,-5.7889884E-3,-4.1927364E-2,-1.7896201E-2,2.7591249E-2,7.706411E-3,-6.042978E-2,-8.265661E-2,-4.6302218E-2,-1.1180182E-1,-2.3634134E-2,-9.344286E-2,2.4178056E-2,4.4648517E-2,-1.1623132E-3],"categories":[],"categories_nodes":[],"categories_segments":[],"categories_sizes":[],"default_left":[0,0,0,0,0,0,0,0,0,0,0,0,0,0,0,0,0,0,0,0,0,0,0,0,0,0,0,0,0,0,0,0,0,0,0,0,0,0,0,0,0,0,0,0,0,0,0,0,0,0,0,0,0,0,0,0,0,0,0,0,0,0,0,0,0,0,0,0,0,0,0,0,0,0,0,0,0,0,0,0,0,0,0,0,0,0,0,0,0,0,0,0,0,0,0,0,0,0,0,0,0,0,0,0,0,0,0,0,0,0,0,0,0,0,0,0,0,0,0,0,0],"id":7,"left_children":[1,3,5,7,9,11,13,15,17,19,21,23,25,27,29,31,33,35,37,39,-1,41,43,45,47,49,51,53,55,57,59,61,63,65,67,69,71,73,75,77,79,81,83,85,87,89,91,93,95,97,99,101,103,105,107,109,111,113,115,117,119,-1,-1,-1,-1,-1,-1,-1,-1,-1,-1,-1,-1,-1,-1,-1,-1,-1,-1,-1,-1,-1,-1,-1,-1,-1,-1,-1,-1,-1,-1,-1,-1,-1,-1,-1,-1,-1,-1,-1,-1,-1,-1,-1,-1,-1,-1,-1,-1,-1,-1,-1,-1,-1,-1,-1,-1,-1,-1,-1,-1],"loss_changes":[1.219011E3,3.3440607E2,2.3839667E2,1.6208385E2,5.5515503E1,3.656537E1,6.3275818E1,2.5946625E1,3.8007835E1,6.0174713E0,4.1418304E1,3.482068E1,1.8431473E1,2.3094238E1,2.5434845E1,6.390747E0,1.6211136E1,1.6683846E1,2.402467E1,9.638977E-1,0E0,2.3260864E1,1.4967471E1,1.9285686E1,1.85905E1,1.0225746E1,7.7154255E0,1.8097015E1,1.0763935E1,1.92706E1,4.0078726E0,6.6602936E0,9.358101E-1,8.747147E0,1.0369415E1,1.4524957E1,1.0733093E1,9.940119E0,1.2996473E1,1.2946129E-2,5.171509E-1,9.061977E0,1.1775452E1,5.429888E0,1.08606615E1,1.9316654E1,1.0762528E1,1.1726746E1,9.851544E0,1.0955547E1,9.08333E0,4.67385E0,4.3959885E0,1.257608E1,1.967258E1,1.5857967E1,6.0623436E0,1.1977936E1,7.8887405E0,5.1445856E0,1.011931E0,0E0,0E0,0E0,0E0,0E0,0E0,0E0,0E0,0E0,0E0,0E0,0E0,0E0,0E0,0E0,0E0,0E0,0E0,0E0,0E0,0E0,0E0,0E0,0E0,0E0,0E0,0E0,0E0,0E0,0E0,0E0,0E0,0E0,0E0,0E0,0E0,0E0,0E0,0E0,0E0,0E0,0E0,0E0,0E0,0E0,0E0,0E0,0E0,0E0,0E0,0E0,0E0,0E0,0E0,0E0,0E0,0E0,0E0,0E0,0E0],"parents":[2147483647,0,0,1,1,2,2,3,3,4,4,5,5,6,6,7,7,8,8,9,9,10,10,11,11,12,12,13,13,14,14,15,15,16,16,17,17,18,18,19,19,21,21,22,22,23,23,24,24,25,25,26,26,27,27,28,28,29,29,30,30,31,31,32,32,33,33,34,34,35,35,36,36,37,37,38,38,39,39,40,40,41,41,42,42,43,43,44,44,45,45,46,46,47,47,48,48,49,49,50,50,51,51,52,52,53,53,54,54,55,55,56,56,57,57,58,58,59,59,60,60],"right_children":[2,4,6,8,10,12,14,16,18,20,22,24,26,28,30,32,34,36,38,40,-1,42,44,46,48,50,52,54,56,58,60,62,64,66,68,70,72,74,76,78,80,82,84,86,88,90,92,94,96,98,100,102,104,106,108,110,112,114,116,118,120,-1,-1,-1,-1,-1,-1,-1,-1,-1,-1,-1,-1,-1,-1,-1,-1,-1,-1,-1,-1,-1,-1,-1,-1,-1,-1,-1,-1,-1,-1,-1,-1,-1,-1,-1,-1,-1,-1,-1,-1,-1,-1,-1,-1,-1,-1,-1,-1,-1,-1,-1,-1,-1,-1,-1,-1,-1,-1,-1,-1],"split_conditions":[9.988976E-1,2.625E0,1.8218387E2,-2.6898373E2,-7.7E0,2.5172415E0,1.2887083E0,-5.304189E2,9.1954505E-1,9.0242714E-1,-1.5E0,1.0672584E0,4.5159574E0,1E0,3E0,4.2058825E0,7.1E2,1.5E0,1E0,5.230769E0,-1.4428201E-2,1E0,1.6666666E0,1E0,2.651886E0,5E-1,1.2435464E3,1.8E0,3.911111E0,1.6382416E0,1.3281458E3,3.3333334E-1,9.805634E2,1.3518518E0,-3.8809103E2,5.3333336E-1,9.5E-1,2E-1,5.546289E-1,1.063112E3,1.2078547E3,-3.3333333E0,4.66E0,-1.3333334E0,8.922559E-1,3E0,2.6666668E-1,-7.1428575E-2,3.5555556E-1,2.58E2,2E-1,1.0640814E0,2E-1,1.3690476E0,1.8E0,2.1851852E0,7.777778E-1,5E-2,2.1231E0,3.5714287E-1,1.4715286E3,2.056381E-2,4.3797053E-2,1.6672583E-2,7.3645055E-2,2.966899E-2,5.7113938E-2,2.5846193E-2,1.5130378E-2,-2.473483E-2,6.795547E-3,2.0750394E-2,1.0455039E-2,-7.5821064E-2,-1.6421392E-3,5.3668944E-3,2.1315359E-2,3.749369E-2,6.857485E-2,4.6150863E-2,9.1141954E-2,2.9792871E-2,-5.9232046E-3,4.3675154E-2,6.597783E-2,-1.0768352E-1,1.8946605E-2,3.0112201E-2,2.637202E-3,-1.13452645E-2,2.312361E-2,-1.0354471E-1,-2.9291958E-4,-3.11617E-2,-1.6930966E-2,1.4872489E-2,-3.7084386E-2,-1.0799054E-1,-1.0313778E-2,2.305318E-2,-9.179427E-3,-8.995915E-2,1.6579954E-2,8.437245E-2,4.15005E-2,-3.054594E-2,-4.487918E-2,-5.7889884E-3,-4.1927364E-2,-1.7896201E-2,2.7591249E-2,7.706411E-3,-6.042978E-2,-8.265661E-2,-4.6302218E-2,-1.1180182E-1,-2.3634134E-2,-9.344286E-2,2.4178056E-2,4.4648517E-2,-1.1623132E-3],"split_indices":[3,13,2,2,11,39,3,2,3,3,45,3,34,5,23,39,37,40,5,39,0,40,23,5,35,27,0,48,41,3,0,16,0,41,2,29,42,27,36,0,1,21,34,11,42,21,14,44,44,37,33,3,38,42,33,39,12,15,35,10,0,0,0,0,0,0,0,0,0,0,0,0,0,0,0,0,0,0,0,0,0,0,0,0,0,0,0,0,0,0,0,0,0,0,0,0,0,0,0,0,0,0,0,0,0,0,0,0,0,0,0,0,0,0,0,0,0,0,0,0,0],"split_type":[0,0,0,0,0,0,0,0,0,0,0,0,0,0,0,0,0,0,0,0,0,0,0,0,0,0,0,0,0,0,0,0,0,0,0,0,0,0,0,0,0,0,0,0,0,0,0,0,0,0,0,0,0,0,0,0,0,0,0,0,0,0,0,0,0,0,0,0,0,0,0,0,0,0,0,0,0,0,0,0,0,0,0,0,0,0,0,0,0,0,0,0,0,0,0,0,0,0,0,0,0,0,0,0,0,0,0,0,0,0,0,0,0,0,0,0,0,0,0,0,0],"sum_hessian":[1.8235748E4,1.0106525E4,8.1292217E3,8.742299E3,1.3642272E3,5.2194453E3,2.909776E3,1.9988862E3,6.7434126E3,9.8090355E1,1.2661368E3,5.00405E3,2.1539594E2,2.3632307E3,5.4654517E2,2.812409E2,1.7176453E3,2.7540237E3,3.9893887E3,9.607584E1,2.0145152E0,1.0533508E3,2.1278596E2,3.2439326E3,1.7601171E3,1.6731332E2,4.808262E1,1.6641145E3,6.991164E2,5.289272E2,1.7617954E1,2.565082E2,2.473272E1,3.0781216E2,1.4098331E3,1.2554686E3,1.4985552E3,2.72131E3,1.2680785E3,1.2752053E1,8.332379E1,1.09127556E2,9.442233E2,5.818769E0,2.069672E2,2.1295012E3,1.1144314E3,1.6571139E3,1.0300311E2,2.9256746E1,1.3805658E2,6.827797E0,4.125482E1,1.4002001E3,2.6391437E2,6.640633E2,3.5053097E1,4.9913458E2,2.9792616E1,4.670368E0,1.2947585E1,5.9070477E1,1.9743771E2,1.439662E0,2.3293056E1,2.5730185E2,5.051032E1,5.13251E2,8.965821E2,5.452088E1,1.2009478E3,6.310788E2,8.674764E2,6.0192018E0,2.715291E3,1.0451736E3,2.2290488E2,2.1666055E0,1.0585447E1,2.5196617E0,8.080412E1,6.883701E1,4.0290543E1,8.473394E2,9.68839E1,4.371522E0,1.447247E0,1.05208855E2,1.0175835E2,2.06972E3,5.978108E1,3.146245E0,1.1112852E3,2.4529173E2,1.4118221E3,8.806388E1,1.4939233E1,4.496063E0,2.4760683E1,9.019542E1,4.7861156E1,1.4972805E0,5.3305163E0,1.3845524E1,2.7409298E1,1.1222944E3,2.7790564E2,1.8810313E2,7.5811226E1,6.356544E2,2.840885E1,5.4458404E0,2.9607256E1,3.5645393E1,4.634892E2,2.5170267E1,4.6223474E0,1.7592795E0,2.911089E0,1.0930347E1,2.0172372E0],"tree_param":{"num_deleted":"0","num_feature":"49","num_nodes":"121","size_leaf_vector":"1"}},{"base_weights":[-1.986291E-3,2.07814E-1,-2.773616E-1,1.1757089E-1,5.7930017E-1,-1.907454E-1,-5.6753397E-1,2.2364648E-1,1.1497657E-2,1.0248382E0,4.9491623E-1,-1.2470426E-1,-2.988786E-1,-5.164335E-1,-1.0142004E0,1.8175663E-1,3.9517993E-1,-4.7244575E-2,1.3418573E-1,1.3854781E0,8.7777716E-1,6.28197E-1,3.400528E-1,-2.2994442E-1,-7.343641E-2,-3.0926824E-1,8.083724E-1,-5.334017E-1,2.9107755E-1,-1.4629117E0,-8.1767654E-1,3.1169453E-1,1.4200245E-1,6.036126E-1,2.9911062E-1,-1.8819182E-1,4.3121227E-3,6.3765734E-1,1.1780884E-1,1.401271E0,1.7451119E-2,9.3744123E-1,-2.1383075E-1,5.2432567E-1,8.007221E-1,4.6791026E-1,2.2458379E-1,-2.423734E-1,7.477519E-1,-1.3510852E-1,3.9045427E-2,-4.9672157E-1,-2.7683738E-1,1.68089E-1,7.683794E-2,-2.7851173E-1,-5.808568E-1,-5.4830176E-1,4.7237083E-1,-1.3205682E-1,-1.6304928E0,-5.0565386E-1,-1.0366368E0,1.1425387E-2,2.8890714E-2,6.0453634E-3,1.4768984E-2,3.041778E-2,5.7468597E-2,1.849021E-2,-9.774385E-2,-8.0840096E-2,-1.0582663E-2,-6.32417E-3,4.2927605E-3,4.224344E-2,-8.10175E-2,5.217601E-3,2.2425551E-2,3.587741E-2,8.5044175E-2,1.5879594E-2,5.9109055E-2,9.817237E-3,-5.706294E-2,1.1523974E-2,3.706771E-2,8.3742915E-3,5.0680354E-2,-7.504341E-2,2.907542E-2,1.5317342E-2,-6.7582995E-2,-8.457781E-2,-1.405027E-2,6.655012E-2,-9.590971E-4,-9.822696E-3,6.856112E-3,8.300629E-3,-5.7528713E-3,-2.3717564E-2,-5.5558868E-2,-1.8512167E-2,-1.2104696E-3,-1.2477135E-2,4.0928535E-2,-2.8284652E-2,2.097644E-3,-3.5704967E-2,2.2152508E-2,4.746091E-4,-9.3046196E-2,-4.9213856E-2,3.4881696E-2,1.6695768E-2,-8.51604E-2,-1.0275505E-1,1.4290217E-2,-4.8982102E-2,-6.5110866E-3,-8.739544E-2,-4.164136E-2],"categories":[],"categories_nodes":[],"categories_segments":[],"categories_sizes":[],"default_left":[0,0,0,0,0,0,0,0,0,0,0,0,0,0,0,0,0,0,0,0,0,0,0,0,0,0,0,0,0,0,0,0,0,0,0,0,0,0,0,0,0,0,0,0,0,0,0,0,0,0,0,0,0,0,0,0,0,0,0,0,0,0,0,0,0,0,0,0,0,0,0,0,0,0,0,0,0,0,0,0,0,0,0,0,0,0,0,0,0,0,0,0,0,0,0,0,0,0,0,0,0,0,0,0,0,0,0,0,0,0,0,0,0,0,0,0,0,0,0,0,0,0,0],"id":8,"left_children":[1,3,5,7,9,11,13,15,17,19,21,23,25,27,29,31,33,35,37,39,41,43,45,47,49,51,53,55,57,59,61,63,65,67,69,71,73,75,77,79,-1,81,83,85,87,89,91,93,95,97,99,101,103,105,-1,107,109,111,113,115,117,119,121,-1,-1,-1,-1,-1,-1,-1,-1,-1,-1,-1,-1,-1,-1,-1,-1,-1,-1,-1,-1,-1,-1,-1,-1,-1,-1,-1,-1,-1,-1,-1,-1,-1,-1,-1,-1,-1,-1,-1,-1,-1,-1,-1,-1,-1,-1,-1,-1,-1,-1,-1,-1,-1,-1,-1,-1,-1,-1,-1,-1],"loss_changes":[1.0522971E3,3.4653522E2,1.9790234E2,9.359158E1,7.570508E1,4.330255E1,4.105841E1,2.9848297E1,2.9981272E1,1.6430023E1,3.4974E1,2.0316391E1,2.658171E1,2.2350159E1,1.5744553E1,1.724936E1,1.6246819E1,2.0443312E1,1.1067991E1,1.3899231E0,1.5051697E1,1.614917E1,1.1570068E1,1.5082848E1,1.7579548E1,1.3784576E1,6.398799E0,1.9178284E1,5.269481E0,1.234008E1,8.62059E0,1.6076958E1,1.0989681E1,8.552185E0,1.0023914E1,1.0199049E1,1.5201372E1,6.0613346E0,1.028834E1,7.5224304E-1,0E0,6.859329E0,3.501618E0,1.7681763E1,9.882187E0,1.0999329E1,1.7343237E1,1.1502335E1,4.3175297E0,1.16833515E1,1.203355E1,1.4423073E1,1.5811523E1,1.9478017E0,0E0,1.517794E1,1.8245728E1,3.4804015E0,4.189609E0,3.7818422E0,7.801422E0,6.691888E0,1.0418755E1,0E0,0E0,0E0,0E0,0E0,0E0,0E0,0E0,0E0,0E0,0E0,0E0,0E0,0E0,0E0,0E0,0E0,0E0,0E0,0E0,0E0,0E0,0E0,0E0,0E0,0E0,0E0,0E0,0E0,0E0,0E0,0E0,0E0,0E0,0E0,0E0,0E0,0E0,0E0,0E0,0E0,0E0,0E0,0E0,0E0,0E0,0E0,0E0,0E0,0E0,0E0,0E0,0E0,0E0,0E0,0E0,0E0,0E0,0E0,0E0],"parents":[2147483647,0,0,1,1,2,2,3,3,4,4,5,5,6,6,7,7,8,8,9,9,10,10,11,11,12,12,13,13,14,14,15,15,16,16,17,17,18,18,19,19,20,20,21,21,22,22,23,23,24,24,25,25,26,26,27,27,28,28,29,29,30,30,31,31,32,32,33,33,34,34,35,35,36,36,37,37,38,38,39,39,41,41,42,42,43,43,44,44,45,45,46,46,47,47,48,48,49,49,50,50,51,51,52,52,53,53,55,55,56,56,57,57,58,58,59,59,60,60,61,61,62,62],"right_children":[2,4,6,8,10,12,14,16,18,20,22,24,26,28,30,32,34,36,38,40,42,44,46,48,50,52,54,56,58,60,62,64,66,68,70,72,74,76,78,80,-1,82,84,86,88,90,92,94,96,98,100,102,104,106,-1,108,110,112,114,116,118,120,122,-1,-1,-1,-1,-1,-1,-1,-1,-1,-1,-1,-1,-1,-1,-1,-1,-1,-1,-1,-1,-1,-1,-1,-1,-1,-1,-1,-1,-1,-1,-1,-1,-1,-1,-1,-1,-1,-1,-1,-1,-1,-1,-1,-1,-1,-1,-1,-1,-1,-1,-1,-1,-1,-1,-1,-1,-1,-1,-1,-1],"split_conditions":[6.018559E0,2.4827585E0,1.1676767E0,9.1954505E-1,-4.3E0,1.2946918E2,5.0173862E2,2.1333334E0,1E0,-7.7E0,-1.5E0,1.08E0,3E0,3.3333333E0,4.5454547E-1,-1.8E0,8.177188E-1,1.17E0,-2.6E0,1.3887484E3,2.2941177E0,1E0,-2.1340471E2,2.0803167E3,1.4647058E0,7.1428573E-1,6.0971224E-1,3E-1,9E-1,1.5714286E-1,1.7809279E3,1.7142857E0,1.8129865E3,9.052632E-1,1.9118508E3,1.1809539E3,1.3478261E0,2.1111112E0,2.2222223E0,6.666667E-1,1.7451119E-2,1.2844037E0,2E0,1.25E0,5E-1,2E-1,1.125E0,-6E-1,2.2E1,3.8E1,2E-1,2E0,2.2941177E0,1.15E0,7.683794E-2,1.5416666E0,3.6666667E0,2.5861188E2,5E-1,2.9281614E0,1.6E1,1.7115883E3,1.9118508E3,1.1425387E-2,2.8890714E-2,6.0453634E-3,1.4768984E-2,3.041778E-2,5.7468597E-2,1.849021E-2,-9.774385E-2,-8.0840096E-2,-1.0582663E-2,-6.32417E-3,4.2927605E-3,4.224344E-2,-8.10175E-2,5.217601E-3,2.2425551E-2,3.587741E-2,8.5044175E-2,1.5879594E-2,5.9109055E-2,9.817237E-3,-5.706294E-2,1.1523974E-2,3.706771E-2,8.3742915E-3,5.0680354E-2,-7.504341E-2,2.907542E-2,1.5317342E-2,-6.7582995E-2,-8.457781E-2,-1.405027E-2,6.655012E-2,-9.590971E-4,-9.822696E-3,6.856112E-3,8.300629E-3,-5.7528713E-3,-2.3717564E-2,-5.5558868E-2,-1.8512167E-2,-1.2104696E-3,-1.2477135E-2,4.0928535E-2,-2.8284652E-2,2.097644E-3,-3.5704967E-2,2.2152508E-2,4.746091E-4,-9.3046196E-2,-4.9213856E-2,3.4881696E-2,1.6695768E-2,-8.51604E-2,-1.0275505E-1,1.4290217E-2,-4.8982102E-2,-6.5110866E-3,-8.739544E-2,-4.164136E-2],"split_indices":[2,39,3,3,45,2,2,40,5,11,45,48,13,13,40,33,3,48,45,0,41,5,2,0,39,17,36,45,43,44,0,13,1,41,0,0,40,12,12,28,0,40,32,40,28,47,16,45,32,32,33,41,41,19,0,24,14,2,22,34,32,0,0,0,0,0,0,0,0,0,0,0,0,0,0,0,0,0,0,0,0,0,0,0,0,0,0,0,0,0,0,0,0,0,0,0,0,0,0,0,0,0,0,0,0,0,0,0,0,0,0,0,0,0,0,0,0,0,0,0,0,0,0],"split_type":[0,0,0,0,0,0,0,0,0,0,0,0,0,0,0,0,0,0,0,0,0,0,0,0,0,0,0,0,0,0,0,0,0,0,0,0,0,0,0,0,0,0,0,0,0,0,0,0,0,0,0,0,0,0,0,0,0,0,0,0,0,0,0,0,0,0,0,0,0,0,0,0,0,0,0,0,0,0,0,0,0,0,0,0,0,0,0,0,0,0,0,0,0,0,0,0,0,0,0,0,0,0,0,0,0,0,0,0,0,0,0,0,0,0,0,0,0,0,0,0,0,0,0],"sum_hessian":[1.8213086E4,1.0337428E4,7.8756577E3,8.31755E3,2.0198785E3,6.065839E3,1.8098187E3,4.1584517E3,4.159098E3,3.2075485E2,1.6991237E3,3.7665422E3,2.2992966E3,1.6249911E3,1.8482764E2,3.3430754E3,8.153762E2,2.8127024E3,1.3463958E3,9.169046E1,2.2906438E2,9.1237445E2,7.867492E2,1.2332478E3,2.5332944E3,2.2782793E3,2.1017374E1,1.5917141E3,3.327703E1,5.531293E1,1.2951471E2,7.8238916E2,2.560686E3,2.5641495E2,5.589613E2,7.529473E2,2.0597551E3,4.1818195E1,1.3045775E3,9.024832E1,1.4421412E0,2.172602E2,1.1804185E1,5.707595E2,3.4161493E2,3.7262262E2,4.141266E2,1.2181382E3,1.5109562E1,1.6361289E3,8.9716547E2,3.349691E2,1.9433102E3,9.209386E0,1.1807989E1,2.503692E2,1.3413448E3,5.730925E0,2.7546108E1,6.2860355E0,4.9026897E1,5.4090034E1,7.5424675E1,4.570544E2,3.2533478E2,1.8349558E3,7.257304E2,2.0240146E2,5.4013477E1,5.5676544E2,2.1958835E0,7.0264077E0,7.4592096E2,7.8252136E2,1.2772336E3,4.077904E1,1.0391524E0,1.1648517E3,1.3972577E2,2.1513658E0,8.8096954E1,1.4603382E1,2.0265681E2,8.064326E0,3.7398586E0,1.2564662E2,4.451129E2,2.142373E1,3.201912E2,3.2261305E0,3.6939648E2,4.0531985E2,8.806739E0,7.903927E0,1.2102343E3,1.0102632E1,5.00693E0,1.4679316E3,1.681973E2,5.168098E2,3.8035562E2,2.7172433E2,6.3244736E1,1.729598E3,2.1371225E2,5.490614E0,3.718772E0,1.5483664E2,9.553256E1,1.3217404E3,1.960455E1,4.0048943E0,1.7260307E0,1.8883173E0,2.565779E1,5.063857E0,1.2221783E0,4.700376E1,2.0231352E0,3.0050804E1,2.403923E1,3.3157135E1,4.2267536E1],"tree_param":{"num_deleted":"0","num_feature":"49","num_nodes":"123","size_leaf_vector":"1"}},{"base_weights":[4.145583E-4,2.728482E-1,-1.9529335E-1,1.9492652E-1,6.4180386E-1,-6.330748E-2,-4.0667197E-1,3.0387193E-1,1.0675593E-1,1.3629955E0,5.8937436E-1,-7.8912996E-2,3.271245E-1,-3.5588476E-1,-7.818596E-1,5.9192514E-1,2.7812076E-1,8.658754E-2,4.682911E-1,1.4058666E0,8.8500535E-1,6.4003575E-1,1.6452426E-1,-1.2574723E-1,1.2407496E-2,3.7948352E-1,-1.1098363E0,-4.1158602E-1,-2.2852579E-1,-3.5260448E-1,-9.1121125E-1,5.3435695E-1,7.808632E-2,5.3313E-1,2.5553605E-1,4.4392988E-2,1.9331992E-1,-9.855634E-2,4.9971738E-1,5.9157494E-2,8.841674E-2,6.405332E-2,3.7184194E-2,5.1711416E-1,8.17046E-1,4.5147946E-1,-2.941888E-1,-2.2247294E-1,-8.529946E-2,-4.198183E-2,1.1688385E-1,8.1740725E-1,2.4774654E-1,-1.0790818E-1,-2.1733446E-1,-5.00186E-1,-3.1647632E-1,-2.4980888E-1,6.296908E-1,7.580315E-2,-6.293012E-1,-8.5904646E-1,-1.6381733E0,3.5442494E-2,3.136988E-3,2.0147195E-2,4.6253495E-2,4.5597274E-3,1.710312E-2,3.1100183E-3,-3.3279937E-2,2.2190984E-3,1.6448356E-2,8.297528E-3,3.673625E-2,4.282101E-2,2.5395447E-2,6.2861554E-2,4.4822343E-2,2.9439138E-2,-8.6310826E-2,-6.7590424E-3,-1.08925775E-1,-1.4118929E-2,5.272463E-2,-3.007102E-3,-1.2818035E-2,-1.8928995E-3,-5.8509983E-2,-9.549866E-2,7.3550707E-3,5.2308634E-2,-8.138341E-2,3.9539266E-2,7.6253144E-3,1.5188985E-2,-2.8996838E-2,-2.5125453E-2,-3.6723707E-2,-1.794784E-2,-6.004443E-2,-1.3616763E-2,-4.9664732E-2,4.6190977E-2,-1.6697435E-2,-9.874887E-3,5.436975E-2,-4.937879E-2,3.192446E-2,-3.0383602E-2,-5.763395E-2,-1.0972396E-1,-2.7700828E-2],"categories":[],"categories_nodes":[],"categories_segments":[],"categories_sizes":[],"default_left":[0,0,0,0,0,0,0,0,0,0,0,0,0,0,0,0,0,0,0,0,0,0,0,0,0,0,0,0,0,0,0,0,0,0,0,0,0,0,0,0,0,0,0,0,0,0,0,0,0,0,0,0,0,0,0,0,0,0,0,0,0,0,0,0,0,0,0,0,0,0,0,0,0,0,0,0,0,0,0,0,0,0,0,0,0,0,0,0,0,0,0,0,0,0,0,0,0,0,0,0,0,0,0,0,0,0,0,0,0,0,0,0,0],"id":9,"left_children":[1,3,5,7,9,11,13,15,17,19,21,23,25,27,29,31,33,35,37,39,41,43,45,47,49,51,53,55,57,59,61,63,-1,65,67,69,71,-1,73,-1,-1,-1,-1,75,77,79,81,83,85,87,89,91,93,-1,95,97,99,101,103,105,107,109,111,-1,-1,-1,-1,-1,-1,-1,-1,-1,-1,-1,-1,-1,-1,-1,-1,-1,-1,-1,-1,-1,-1,-1,-1,-1,-1,-1,-1,-1,-1,-1,-1,-1,-1,-1,-1,-1,-1,-1,-1,-1,-1,-1,-1,-1,-1,-1,-1,-1,-1],"loss_changes":[9.6715594E2,2.1795477E2,2.9449667E2,6.0132553E1,4.9588318E1,3.9611504E1,7.71781E1,2.0691864E1,2.522033E1,1.2061768E0,2.649356E1,2.6730537E1,1.9011267E1,2.5312653E1,2.6677704E1,9.021362E0,1.4743332E1,1.4764198E1,1.2536312E1,1.5784607E0,9.015179E-2,2.376178E1,1.74516E1,1.6152954E1,1.2044105E1,1.3829384E1,5.282175E0,2.0873291E1,1.9967083E1,1.33882265E1,1.3369751E1,5.7711487E0,0E0,9.666367E0,1.2513931E1,1.0493064E1,1.1732235E1,0E0,7.3000298E0,0E0,0E0,0E0,0E0,1.187056E1,6.885742E0,6.3829174E0,1.4017835E1,1.7326385E1,1.3150404E1,1.3556957E1,7.165036E0,7.169449E0,9.20457E0,0E0,6.180139E-1,1.159082E1,1.4099319E1,1.3949928E1,3.4784403E0,8.994659E0,1.5639017E1,1.2191193E1,5.024811E0,0E0,0E0,0E0,0E0,0E0,0E0,0E0,0E0,0E0,0E0,0E0,0E0,0E0,0E0,0E0,0E0,0E0,0E0,0E0,0E0,0E0,0E0,0E0,0E0,0E0,0E0,0E0,0E0,0E0,0E0,0E0,0E0,0E0,0E0,0E0,0E0,0E0,0E0,0E0,0E0,0E0,0E0,0E0,0E0,0E0,0E0,0E0,0E0,0E0,0E0],"parents":[2147483647,0,0,1,1,2,2,3,3,4,4,5,5,6,6,7,7,8,8,9,9,10,10,11,11,12,12,13,13,14,14,15,15,16,16,17,17,18,18,19,19,20,20,21,21,22,22,23,23,24,24,25,25,26,26,27,27,28,28,29,29,30,30,31,31,33,33,34,34,35,35,36,36,38,38,43,43,44,44,45,45,46,46,47,47,48,48,49,49,50,50,51,51,52,52,54,54,55,55,56,56,57,57,58,58,59,59,60,60,61,61,62,62],"right_children":[2,4,6,8,10,12,14,16,18,20,22,24,26,28,30,32,34,36,38,40,42,44,46,48,50,52,54,56,58,60,62,64,-1,66,68,70,72,-1,74,-1,-1,-1,-1,76,78,80,82,84,86,88,90,92,94,-1,96,98,100,102,104,106,108,110,112,-1,-1,-1,-1,-1,-1,-1,-1,-1,-1,-1,-1,-1,-1,-1,-1,-1,-1,-1,-1,-1,-1,-1,-1,-1,-1,-1,-1,-1,-1,-1,-1,-1,-1,-1,-1,-1,-1,-1,-1,-1,-1,-1,-1,-1,-1,-1,-1,-1,-1],"split_conditions":[-7.6996254E1,2.8796296E0,1.2946918E2,-2.1340471E2,-7.7E0,2.7142856E0,1.2975401E0,-3.4E0,4.32E0,4E1,2.235294E0,1E0,6.4E0,1E0,-5E-1,4.034483E0,-4.9736627E2,1E0,2E-1,5.230769E0,1.1246213E3,3.3333333E0,7E0,1.08E0,1.625E0,-2.8333333E-1,2.25E-1,1.2E0,3.5E0,1.2E0,1.6382416E0,1.6E0,7.808632E-2,4E-1,1.7287077E0,3.0357143E-1,1.44E0,-9.855634E-2,-3.3333334E-1,5.9157494E-2,8.841674E-2,6.405332E-2,3.7184194E-2,6.901492E-1,8.666667E-1,8.6E0,-2E-1,6E1,1.0465951E0,2.5E0,-3.9E0,-1.7E0,1.4E0,-1.0790818E-1,1.1246213E3,1.5185186E0,2.5217392E0,3.4444444E0,2.3966478E2,5.8E1,3.25E2,7.8431374E-1,1.5530303E0,3.5442494E-2,3.136988E-3,2.0147195E-2,4.6253495E-2,4.5597274E-3,1.710312E-2,3.1100183E-3,-3.3279937E-2,2.2190984E-3,1.6448356E-2,8.297528E-3,3.673625E-2,4.282101E-2,2.5395447E-2,6.2861554E-2,4.4822343E-2,2.9439138E-2,-8.6310826E-2,-6.7590424E-3,-1.08925775E-1,-1.4118929E-2,5.272463E-2,-3.007102E-3,-1.2818035E-2,-1.8928995E-3,-5.8509983E-2,-9.549866E-2,7.3550707E-3,5.2308634E-2,-8.138341E-2,3.9539266E-2,7.6253144E-3,1.5188985E-2,-2.8996838E-2,-2.5125453E-2,-3.6723707E-2,-1.794784E-2,-6.004443E-2,-1.3616763E-2,-4.9664732E-2,4.6190977E-2,-1.6697435E-2,-9.874887E-3,5.436975E-2,-4.937879E-2,3.192446E-2,-3.0383602E-2,-5.763395E-2,-1.0972396E-1,-2.7700828E-2],"split_indices":[2,39,2,2,11,13,3,33,48,6,41,5,28,5,21,34,2,5,14,39,0,13,8,48,12,44,46,40,13,45,3,16,0,30,35,44,48,0,44,0,0,0,0,3,41,48,45,6,3,13,16,45,28,0,0,38,42,18,2,9,8,42,43,0,0,0,0,0,0,0,0,0,0,0,0,0,0,0,0,0,0,0,0,0,0,0,0,0,0,0,0,0,0,0,0,0,0,0,0,0,0,0,0,0,0,0,0,0,0,0,0,0,0],"split_type":[0,0,0,0,0,0,0,0,0,0,0,0,0,0,0,0,0,0,0,0,0,0,0,0,0,0,0,0,0,0,0,0,0,0,0,0,0,0,0,0,0,0,0,0,0,0,0,0,0,0,0,0,0,0,0,0,0,0,0,0,0,0,0,0,0,0,0,0,0,0,0,0,0,0,0,0,0,0,0,0,0,0,0,0,0,0,0,0,0,0,0,0,0,0,0,0,0,0,0,0,0,0,0,0,0,0,0,0,0,0,0,0,0],"sum_hessian":[1.8138586E4,7.582805E3,1.055578E4,6.2612275E3,1.3215775E3,6.498644E3,4.0571365E3,2.8001191E3,3.4611086E3,8.87183E1,1.2328593E3,6.2492607E3,2.4938327E2,3.574279E3,4.8285748E2,2.2887901E2,2.57124E3,3.278818E3,1.8229045E2,8.052536E1,8.192936E0,1.1012831E3,1.3157608E2,4.130647E3,2.118614E3,2.4097089E2,8.412381E0,2.485927E3,1.088352E3,1.1224245E2,3.7061505E2,2.1251282E2,1.6366196E1,2.082735E2,2.3629666E3,2.3503582E3,9.2845996E2,2.29803E0,1.7999242E2,1.2267124E1,6.825824E1,3.9573753E0,4.2355604E0,6.5109955E2,4.501836E2,8.0946556E1,5.062952E1,1.217323E3,2.9133237E3,1.3934811E3,7.25133E2,5.512394E1,1.8584694E2,4.4620357E0,3.9503453E0,1.2859052E3,1.2000219E3,1.0623608E3,2.599124E1,4.418858E1,6.805386E1,3.468191E2,2.3795937E1,1.9017046E2,2.2342363E1,1.144694E2,9.38041E1,3.338716E2,2.029095E3,2.3219746E3,2.8383532E1,3.166565E2,6.118035E2,4.3006546E1,1.3698587E2,2.0934807E2,4.4175146E2,1.0319888E2,3.4698474E2,7.966557E1,1.2809875E0,4.5711533E1,4.917985E0,1.2036787E3,1.3644334E1,2.287055E3,6.262688E2,1.3785846E3,1.4896416E1,1.9488455E0,7.2318414E2,5.4070206E1,1.0537362E0,4.1652157E1,1.441948E2,1.4352714E0,2.5150738E0,7.455963E2,5.4030884E2,1.1710549E3,2.8966837E1,1.0226036E3,3.9757217E1,2.2581547E1,3.409693E0,3.4579033E1,9.609548E0,5.845175E1,9.602114E0,7.81924E1,2.686267E2,2.024036E1,3.5555763E0],"tree_param":{"num_deleted":"0","num_feature":"49","num_nodes":"113","size_leaf_vector":"1"}},{"base_weights":[4.7417074E-3,2.5286466E-1,-1.9009116E-1,1.8148619E-1,6.305568E-1,-9.982745E-2,-4.5138064E-1,3.9256063E-1,1.2940428E-1,1.3016889E0,5.851348E-1,-1.198312E-1,2.8950176E-1,-3.85133E-1,-7.132779E-1,3.6366984E-1,7.6632535E-1,2.1883087E-1,8.835054E-2,1.3453858E0,9.732104E-3,5.973499E-1,-1.2856562E0,-5.816218E-2,-2.067393E-1,9.707133E-2,6.06215E-1,-6.585945E-1,-3.549493E-1,-7.6137835E-1,2.142693E-1,5.6734145E-1,3.122687E-1,7.97361E-1,-4.5666672E-2,1.6656122E-1,4.090459E-1,4.7480732E-2,1.7021549E-1,3.171102E-2,1.3650135E0,6.533648E-1,2.2550389E-1,-1.1024025E-1,-1.08848006E-1,-1.1091493E-1,4.3770585E-2,2.6158407E-1,-2.1540746E-1,-1.2102569E0,1.4866473E-1,-9.675123E-2,6.458066E-1,-7.299547E-1,2.668249E-1,-3.8597587E-1,-4.3807108E-2,-1.4984977E0,-7.179814E-1,-7.0627815E-1,3.9021835E-1,3.148645E-2,6.5014295E-2,1.4374455E-2,2.6471859E-2,3.9023727E-2,5.8544856E-2,-1.8019045E-3,1.2023127E-2,1.5747875E-2,4.1236557E-2,3.1514817E-3,-4.2231616E-2,-2.3470623E-2,1.0990588E-2,4.938448E-2,8.2925536E-2,1.8097498E-2,4.1480046E-2,1.5431855E-2,-9.757556E-2,-2.351758E-2,8.699904E-3,-2.0478282E-2,-5.463694E-3,-1.6788922E-2,4.2975303E-3,2.279528E-2,-2.4165573E-2,-5.281047E-2,-1.2531714E-2,-2.0178454E-2,-9.170767E-2,2.678748E-2,-1.1661036E-4,-4.1501436E-2,4.1674435E-2,-1.7957503E-2,-5.0161753E-2,2.6891854E-2,-2.5519684E-2,-5.054166E-3,-2.5109861E-2,6.249554E-3,-5.3916447E-2,1.8451715E-4,-9.8927766E-2,-2.2182427E-2,-4.758343E-2,1.4970106E-2,-9.463409E-2,-3.200345E-2,3.4266584E-2],"categories":[],"categories_nodes":[],"categories_segments":[],"categories_sizes":[],"default_left":[0,0,0,0,0,0,0,0,0,0,0,0,0,0,0,0,0,0,0,0,0,0,0,0,0,0,0,0,0,0,0,0,0,0,0,0,0,0,0,0,0,0,0,0,0,0,0,0,0,0,0,0,0,0,0,0,0,0,0,0,0,0,0,0,0,0,0,0,0,0,0,0,0,0,0,0,0,0,0,0,0,0,0,0,0,0,0,0,0,0,0,0,0,0,0,0,0,0,0,0,0,0,0,0,0,0,0,0,0,0,0,0,0],"id":10,"left_children":[1,3,5,7,9,11,13,15,17,19,21,23,25,27,29,31,33,35,37,39,-1,41,43,45,47,49,51,53,55,57,59,61,63,65,-1,67,69,71,73,-1,75,77,79,81,-1,83,85,87,89,91,93,-1,95,97,99,101,103,105,107,109,111,-1,-1,-1,-1,-1,-1,-1,-1,-1,-1,-1,-1,-1,-1,-1,-1,-1,-1,-1,-1,-1,-1,-1,-1,-1,-1,-1,-1,-1,-1,-1,-1,-1,-1,-1,-1,-1,-1,-1,-1,-1,-1,-1,-1,-1,-1,-1,-1,-1,-1,-1,-1],"loss_changes":[8.7436456E2,2.1441458E2,2.3892648E2,7.353708E1,3.8160126E1,5.866712E1,4.4993164E1,1.4158936E1,1.9697998E1,3.8610382E0,2.7464722E1,3.8384773E1,2.2408625E1,1.7027802E1,2.348462E1,1.2788895E1,4.7858086E0,1.6755188E1,1.2308203E1,8.693695E-1,0E0,2.4456848E1,4.77384E0,2.2536476E1,1.2096817E1,1.5577322E1,1.2735596E1,1.3694008E1,1.8060593E1,1.541803E1,4.3896794E0,5.149208E0,9.163033E0,2.1186333E0,0E0,8.8169365E0,1.4740948E1,9.32311E0,8.95055E0,0E0,1.2174988E-1,1.3561737E1,9.302916E0,2.4168044E-1,0E0,1.2616222E1,1.2894781E1,4.341593E0,1.2610275E1,2.18252E0,9.927642E0,0E0,9.174393E0,8.613197E0,1.9916884E0,1.6683731E1,2.1584763E1,6.1577263E0,1.2195465E1,3.8514504E0,3.8881958E0,0E0,0E0,0E0,0E0,0E0,0E0,0E0,0E0,0E0,0E0,0E0,0E0,0E0,0E0,0E0,0E0,0E0,0E0,0E0,0E0,0E0,0E0,0E0,0E0,0E0,0E0,0E0,0E0,0E0,0E0,0E0,0E0,0E0,0E0,0E0,0E0,0E0,0E0,0E0,0E0,0E0,0E0,0E0,0E0,0E0,0E0,0E0,0E0,0E0,0E0,0E0,0E0],"parents":[2147483647,0,0,1,1,2,2,3,3,4,4,5,5,6,6,7,7,8,8,9,9,10,10,11,11,12,12,13,13,14,14,15,15,16,16,17,17,18,18,19,19,21,21,22,22,23,23,24,24,25,25,26,26,27,27,28,28,29,29,30,30,31,31,32,32,33,33,35,35,36,36,37,37,38,38,40,40,41,41,42,42,43,43,45,45,46,46,47,47,48,48,49,49,50,50,52,52,53,53,54,54,55,55,56,56,57,57,58,58,59,59,60,60],"right_children":[2,4,6,8,10,12,14,16,18,20,22,24,26,28,30,32,34,36,38,40,-1,42,44,46,48,50,52,54,56,58,60,62,64,66,-1,68,70,72,74,-1,76,78,80,82,-1,84,86,88,90,92,94,-1,96,98,100,102,104,106,108,110,112,-1,-1,-1,-1,-1,-1,-1,-1,-1,-1,-1,-1,-1,-1,-1,-1,-1,-1,-1,-1,-1,-1,-1,-1,-1,-1,-1,-1,-1,-1,-1,-1,-1,-1,-1,-1,-1,-1,-1,-1,-1,-1,-1,-1,-1,-1,-1,-1,-1,-1,-1,-1],"split_conditions":[9.603488E-1,2.625E0,1.1307272E0,-3.265813E2,-7.7E0,2.4827585E0,1.2887083E0,2.516129E0,-2.0903458E2,-1.5460551E2,1.7003E4,1.0451409E0,3.42E0,5.272727E-1,2.6666667E0,-5.304189E2,1.1666667E-1,2.047619E0,1.4444444E0,6.666667E-1,9.732104E-3,-1.5E0,-4.294393E2,1E0,-1.8E0,5.1E-1,8.888889E-1,6.25E-1,1.7434555E0,1.8181819E-1,1.6129032E0,4.2058825E0,1.125E0,1.5126051E0,-4.5666672E-2,2.6320345E0,1E0,2.4285715E0,8E-1,3.171102E-2,-1.8E1,1E0,2.1E1,-6.230844E2,-1.08848006E-1,1.3887484E3,6.5E-1,1.6164669E3,1.8181819E-1,2.5E-1,2.75E0,-9.675123E-2,1.5555556E0,3E1,4E1,1.6979938E0,2.25E0,1.2E0,7.6086956E-1,1.3354092E0,9.166667E-1,3.148645E-2,6.5014295E-2,1.4374455E-2,2.6471859E-2,3.9023727E-2,5.8544856E-2,-1.8019045E-3,1.2023127E-2,1.5747875E-2,4.1236557E-2,3.1514817E-3,-4.2231616E-2,-2.3470623E-2,1.0990588E-2,4.938448E-2,8.2925536E-2,1.8097498E-2,4.1480046E-2,1.5431855E-2,-9.757556E-2,-2.351758E-2,8.699904E-3,-2.0478282E-2,-5.463694E-3,-1.6788922E-2,4.2975303E-3,2.279528E-2,-2.4165573E-2,-5.281047E-2,-1.2531714E-2,-2.0178454E-2,-9.170767E-2,2.678748E-2,-1.1661036E-4,-4.1501436E-2,4.1674435E-2,-1.7957503E-2,-5.0161753E-2,2.6891854E-2,-2.5519684E-2,-5.054166E-3,-2.5109861E-2,6.249554E-3,-5.3916447E-2,1.8451715E-4,-9.8927766E-2,-2.2182427E-2,-4.758343E-2,1.4970106E-2,-9.463409E-2,-3.200345E-2,3.4266584E-2],"split_indices":[3,13,3,2,11,39,3,40,2,2,37,3,48,40,23,2,44,39,12,28,0,45,2,5,21,48,17,25,39,40,39,39,12,43,0,34,5,38,40,0,33,40,32,2,0,0,47,0,40,22,39,0,13,6,6,35,33,45,42,3,38,0,0,0,0,0,0,0,0,0,0,0,0,0,0,0,0,0,0,0,0,0,0,0,0,0,0,0,0,0,0,0,0,0,0,0,0,0,0,0,0,0,0,0,0,0,0,0,0,0,0,0,0],"split_type":[0,0,0,0,0,0,0,0,0,0,0,0,0,0,0,0,0,0,0,0,0,0,0,0,0,0,0,0,0,0,0,0,0,0,0,0,0,0,0,0,0,0,0,0,0,0,0,0,0,0,0,0,0,0,0,0,0,0,0,0,0,0,0,0,0,0,0,0,0,0,0,0,0,0,0,0,0,0,0,0,0,0,0,0,0,0,0,0,0,0,0,0,0,0,0,0,0,0,0,0,0,0,0,0,0,0,0,0,0,0,0,0,0],"sum_hessian":[1.8085871E4,7.954954E3,1.0130917E4,6.69116E3,1.2637941E3,7.530248E3,2.6006694E3,1.3236172E3,5.367543E3,7.9234695E1,1.1845593E3,7.1625806E3,3.6766736E2,2.0766182E3,5.2405115E2,1.2295626E3,9.405459E1,1.688138E3,3.679405E3,7.622143E1,3.013272E0,1.1772133E3,7.3460846E0,4.1901396E3,2.9724412E3,2.2911414E2,1.3855322E2,2.0539043E2,1.8712278E3,4.9830005E2,2.5751112E1,2.4676477E2,9.827978E2,9.2415794E1,1.638792E0,1.324981E3,3.631569E2,2.454716E3,1.224689E3,2.1161137E0,7.4105316E1,1.0227652E3,1.5444803E2,2.4658806E0,4.8802037E0,2.7611377E3,1.4290018E3,5.375168E1,2.9186895E3,8.272328E0,2.2084181E2,2.080781E0,1.3647244E2,1.9078441E2,1.460601E1,1.7014425E3,1.6978523E2,2.6773489E1,4.7152658E2,3.890317E0,2.1860794E1,2.2889856E2,1.7866207E1,6.2936816E2,3.534296E2,5.1944115E1,4.0471684E1,1.9450964E2,1.1304713E3,2.3848586E2,1.24671036E2,2.4388088E3,1.5907369E1,2.7307346E1,1.1973816E3,3.0154738E0,7.1089836E1,1.0008367E2,9.226816E2,1.5227237E2,2.175652E0,1.0448256E0,1.4210551E0,2.1841612E2,2.5427217E3,1.12903076E2,1.3160988E3,4.58064E1,7.945278E0,2.7807684E1,2.8908818E3,2.4825208E0,5.7898073E0,7.384602E1,1.4699579E2,4.5690618E0,1.3190338E2,3.8082012E1,1.5270241E2,1.171296E1,2.8930497E0,1.6571558E2,1.5357269E3,1.4510634E2,2.46789E1,2.4805949E0,2.4292894E1,8.41446E1,3.8738196E2,2.0249362E0,1.8653805E0,3.420713E0,1.8440083E1],"tree_param":{"num_deleted":"0","num_feature":"49","num_nodes":"113","size_leaf_vector":"1"}},{"base_weights":[-4.1722835E-4,1.821839E-1,-2.2669713E-1,1.06470436E-1,4.9572515E-1,-1.6232406E-1,-5.069501E-1,1.9397624E-1,1.2070694E-2,9.15046E-1,4.1387603E-1,-7.61474E-2,-2.5172532E-1,-4.5460117E-1,-9.2814875E-1,2.8613552E-1,1.4320968E-1,-4.344447E-2,1.293338E-1,1.2616506E0,7.838913E-1,2.679101E-1,5.2464926E-1,-8.07179E-2,1.2217079E0,-2.626303E-1,5.4215765E-1,-4.7681478E-1,8.056386E-2,-1.4094381E0,-7.137046E-1,2.59246E-1,6.722567E-1,9.2399344E-2,2.7250943E-1,-5.1591057E-1,-3.6429238E-2,1.0260636E-1,5.1484984E-1,1.3019204E0,-1.9228961E-2,2.894284E-2,8.521666E-1,3.542603E-1,1.3865647E-2,6.4378726E-1,4.1201383E-1,-9.230288E-2,3.8982245E-1,8.406327E-2,5.211755E-2,-3.2542846E-1,-1.7384736E-1,3.2764384E-1,7.825482E-2,-7.728327E-1,-4.349137E-1,5.488798E-1,-2.9839844E-1,-1.3042882E-1,-1.5560824E0,-1.8087481E-1,-8.5327286E-1,3.7875596E-2,1.4537416E-2,4.2417962E-2,-8.5367E-2,-7.881647E-2,5.842578E-3,-5.461385E-2,1.702794E-2,-3.967614E-3,-7.099466E-2,-6.3840463E-3,1.1410561E-3,-1.4448154E-3,9.438506E-3,-5.7371266E-2,3.3671226E-2,5.366973E-2,8.177155E-2,1.2629972E-2,-3.0182157E-2,5.2031703E-2,-8.273575E-2,-2.6653202E-2,2.3344003E-2,4.406826E-3,-5.398995E-2,3.9734334E-2,-2.2625068E-2,2.7074197E-2,3.0991697E-4,-3.4156997E-2,-4.86601E-3,3.2848947E-2,-4.9135564E-3,-6.9640234E-2,-1.8706102E-2,-1.21979825E-2,1.4857267E-2,2.5138667E-2,-3.2914776E-2,-2.2846641E-2,-6.509648E-2,-2.8001968E-2,-7.0255883E-3,-1.4754289E-2,3.7612386E-2,2.6542675E-2,-3.725643E-2,2.073523E-2,-8.399894E-2,-9.876349E-2,1.733137E-2,-7.2488405E-2,3.0956292E-3,-1.1358906E-1,-4.382416E-2],"categories":[],"categories_nodes":[],"categories_segments":[],"categories_sizes":[],"default_left":[0,0,0,0,0,0,0,0,0,0,0,0,0,0,0,0,0,0,0,0,0,0,0,0,0,0,0,0,0,0,0,0,0,0,0,0,0,0,0,0,0,0,0,0,0,0,0,0,0,0,0,0,0,0,0,0,0,0,0,0,0,0,0,0,0,0,0,0,0,0,0,0,0,0,0,0,0,0,0,0,0,0,0,0,0,0,0,0,0,0,0,0,0,0,0,0,0,0,0,0,0,0,0,0,0,0,0,0,0,0,0,0,0,0,0,0,0,0,0],"id":11,"left_children":[1,3,5,7,9,11,13,15,17,19,21,23,25,27,29,31,33,35,37,39,41,43,45,47,49,51,53,55,57,59,61,63,65,67,69,71,73,75,77,79,-1,81,83,85,87,89,91,93,95,-1,-1,97,99,101,-1,103,105,107,109,111,113,115,117,-1,-1,-1,-1,-1,-1,-1,-1,-1,-1,-1,-1,-1,-1,-1,-1,-1,-1,-1,-1,-1,-1,-1,-1,-1,-1,-1,-1,-1,-1,-1,-1,-1,-1,-1,-1,-1,-1,-1,-1,-1,-1,-1,-1,-1,-1,-1,-1,-1,-1,-1,-1,-1,-1,-1,-1],"loss_changes":[7.450135E2,2.3685535E2,1.4522876E2,6.639859E1,6.641965E1,5.0445526E1,3.294821E1,1.9495804E1,2.5178576E1,1.3895233E1,2.6199982E1,1.9833986E1,2.7896805E1,1.5932373E1,1.6605774E1,1.5291122E1,1.7664886E1,8.69135E0,1.2778479E1,5.6928253E0,1.1892731E1,1.5397739E1,1.2255814E1,1.8138311E1,1.3463783E-1,1.7650803E1,6.93281E0,1.5774445E1,9.625716E0,9.385445E0,8.52594E0,8.6631775E0,7.492405E0,1.3586288E1,1.0261402E1,1.1477664E1,1.0038647E1,8.059994E0,5.7518654E0,1.477005E0,0E0,1.9530668E0,7.699341E0,1.4647278E1,9.756372E0,8.559128E0,7.5936737E0,1.7314503E1,5.969861E0,0E0,0E0,2.100267E1,1.634536E1,2.8983798E0,0E0,1.9216667E1,1.1358749E1,1.5789456E0,7.3166256E0,3.715918E0,7.762909E0,5.917083E0,1.1004524E1,0E0,0E0,0E0,0E0,0E0,0E0,0E0,0E0,0E0,0E0,0E0,0E0,0E0,0E0,0E0,0E0,0E0,0E0,0E0,0E0,0E0,0E0,0E0,0E0,0E0,0E0,0E0,0E0,0E0,0E0,0E0,0E0,0E0,0E0,0E0,0E0,0E0,0E0,0E0,0E0,0E0,0E0,0E0,0E0,0E0,0E0,0E0,0E0,0E0,0E0,0E0,0E0,0E0,0E0,0E0,0E0],"parents":[2147483647,0,0,1,1,2,2,3,3,4,4,5,5,6,6,7,7,8,8,9,9,10,10,11,11,12,12,13,13,14,14,15,15,16,16,17,17,18,18,19,19,20,20,21,21,22,22,23,23,24,24,25,25,26,26,27,27,28,28,29,29,30,30,31,31,32,32,33,33,34,34,35,35,36,36,37,37,38,38,39,39,41,41,42,42,43,43,44,44,45,45,46,46,47,47,48,48,51,51,52,52,53,53,55,55,56,56,57,57,58,58,59,59,60,60,61,61,62,62],"right_children":[2,4,6,8,10,12,14,16,18,20,22,24,26,28,30,32,34,36,38,40,42,44,46,48,50,52,54,56,58,60,62,64,66,68,70,72,74,76,78,80,-1,82,84,86,88,90,92,94,96,-1,-1,98,100,102,-1,104,106,108,110,112,114,116,118,-1,-1,-1,-1,-1,-1,-1,-1,-1,-1,-1,-1,-1,-1,-1,-1,-1,-1,-1,-1,-1,-1,-1,-1,-1,-1,-1,-1,-1,-1,-1,-1,-1,-1,-1,-1,-1,-1,-1,-1,-1,-1,-1,-1,-1,-1,-1,-1,-1,-1,-1,-1,-1,-1,-1,-1],"split_conditions":[9.988976E-1,2.4827585E0,1.1827006E0,9.1954505E-1,-4.3E0,1.0672584E0,5.0173862E2,-2.760781E2,1E0,-7.7E0,3E0,1.08E1,3.142857E0,2.8E0,4.5454547E-1,2.5882354E0,1E0,1.2229706E3,6.744186E-1,-1.4521597E2,1.275E0,1.8125E0,-2.3333333E0,4E0,1.3887484E3,1.2545455E0,-1.7777778E0,-4.4E1,3.0666666E0,1.5714286E-1,1.2E0,-5.691195E2,3.5E0,4.5E-1,3.75E-1,1.6744186E0,1.1111112E0,1E0,4E-1,5.230769E0,-1.9228961E-2,-3.17444E2,2.4285715E0,4.5555556E-1,9.853667E-1,3.0666666E0,1.0867E4,4.2E-1,1.6111552E3,8.406327E-2,5.211755E-2,2.5E-1,1.7580062E3,8E0,7.825482E-2,7.1428573E-1,6.25E-1,-3.6666667E0,5.1995E-1,5.799048E2,1.6E1,1.1E0,-3.3E1,3.7875596E-2,1.4537416E-2,4.2417962E-2,-8.5367E-2,-7.881647E-2,5.842578E-3,-5.461385E-2,1.702794E-2,-3.967614E-3,-7.099466E-2,-6.3840463E-3,1.1410561E-3,-1.4448154E-3,9.438506E-3,-5.7371266E-2,3.3671226E-2,5.366973E-2,8.177155E-2,1.2629972E-2,-3.0182157E-2,5.2031703E-2,-8.273575E-2,-2.6653202E-2,2.3344003E-2,4.406826E-3,-5.398995E-2,3.9734334E-2,-2.2625068E-2,2.7074197E-2,3.0991697E-4,-3.4156997E-2,-4.86601E-3,3.2848947E-2,-4.9135564E-3,-6.9640234E-2,-1.8706102E-2,-1.21979825E-2,1.4857267E-2,2.5138667E-2,-3.2914776E-2,-2.2846641E-2,-6.509648E-2,-2.8001968E-2,-7.0255883E-3,-1.4754289E-2,3.7612386E-2,2.6542675E-2,-3.725643E-2,2.073523E-2,-8.399894E-2,-9.876349E-2,1.733137E-2,-7.2488405E-2,3.0956292E-3,-1.1358906E-1,-4.382416E-2],"split_indices":[3,39,3,3,45,3,2,2,5,11,48,48,13,39,40,40,5,0,36,2,40,41,33,22,0,39,11,9,41,44,22,2,26,48,43,41,13,23,28,39,0,2,18,36,3,41,37,48,1,0,0,48,1,32,0,17,25,21,36,2,32,14,9,0,0,0,0,0,0,0,0,0,0,0,0,0,0,0,0,0,0,0,0,0,0,0,0,0,0,0,0,0,0,0,0,0,0,0,0,0,0,0,0,0,0,0,0,0,0,0,0,0,0,0,0,0,0,0,0],"split_type":[0,0,0,0,0,0,0,0,0,0,0,0,0,0,0,0,0,0,0,0,0,0,0,0,0,0,0,0,0,0,0,0,0,0,0,0,0,0,0,0,0,0,0,0,0,0,0,0,0,0,0,0,0,0,0,0,0,0,0,0,0,0,0,0,0,0,0,0,0,0,0,0,0,0,0,0,0,0,0,0,0,0,0,0,0,0,0,0,0,0,0,0,0,0,0,0,0,0,0,0,0,0,0,0,0,0,0,0,0,0,0,0,0,0,0,0,0,0,0],"sum_hessian":[1.8029787E4,9.977965E3,8.0518223E3,8.0377026E3,1.9402622E3,6.5484556E3,1.5033667E3,4.170886E3,3.8668164E3,3.1604486E2,1.6242174E3,3.3348328E3,3.2136228E3,1.3381E3,1.6526682E2,1.4806547E3,2.6902314E3,2.6245881E3,1.2422283E3,8.557765E1,2.3046722E2,7.0152594E2,9.226914E2,3.3235972E3,1.1235405E1,3.170408E3,4.3215023E1,1.2848241E3,5.3275875E1,5.008095E1,1.1518586E2,1.3850363E3,9.5618385E1,1.9319133E3,7.5831805E2,3.7869358E1,2.586719E3,1.1622815E3,7.9946724E1,8.353988E1,2.0377748E0,1.9173197E1,2.1129402E2,5.234179E2,1.7810805E2,4.4725653E2,4.754349E2,3.244127E3,7.947039E1,6.4666567E0,4.768748E0,1.8561672E3,1.3142406E3,3.4280636E1,8.93439E0,1.5823335E2,1.1265907E3,2.3728437E1,2.9547438E1,5.2485533E0,4.48324E1,2.4147171E1,9.103869E1,5.9586002E1,1.3254502E3,9.438594E1,1.2324519E0,6.350698E0,1.9255626E3,6.7934904E0,7.515246E2,2.2950346E1,1.4919011E1,1.1433724E3,1.4433464E3,3.5059808E2,8.116835E2,2.141588E0,7.780514E1,1.1889347E1,7.165053E1,1.4519914E1,4.653283E0,2.101839E2,1.1101222E0,2.1617527E1,5.0180038E2,1.6763643E2,1.0471616E1,4.394887E2,7.7678213E0,4.335804E2,4.1854496E1,7.387392E1,3.170253E3,5.9502674E1,1.9967716E1,2.919286E1,1.8269744E3,1.2286416E3,8.559906E1,3.1280954E1,2.9996805E0,7.062623E1,8.7607124E1,1.02394946E3,1.0264122E2,2.0242312E0,2.1704206E1,8.906432E0,2.0641005E1,4.081936E0,1.1666176E0,4.2799034E1,2.0333664E0,4.0688148E0,2.0078356E1,8.85901E0,8.217967E1],"tree_param":{"num_deleted":"0","num_feature":"49","num_nodes":"119","size_leaf_vector":"1"}},{"base_weights":[-1.4694599E-3,1.961938E-1,-1.867082E-1,1.4570433E-1,6.1538184E-1,-1.017066E-1,-4.085577E-1,2.6651394E-1,8.464624E-2,7.0487905E-1,3.1424135E-1,-1.198362E-1,2.7624634E-1,-3.7264553E-1,-9.411709E-1,5.081345E-1,2.3379587E-1,4.2388156E-2,1.8376982E-1,1.1867914E0,6.539926E-1,-1.3540452E0,3.4675437E-1,-7.852571E-2,-2.2462738E-1,8.8351876E-2,5.8364797E-1,-3.0511317E-1,-4.8430908E-1,-1.1823347E0,-5.3292686E-1,9.7414005E-1,4.152826E-1,4.2573586E-1,1.9914442E-1,-7.7400595E-2,7.487733E-2,2.1969339E-2,2.3512925E-1,1.232381E0,1.0216894E-2,6.696381E-1,-3.3944654E-1,-9.780554E-2,-3.8993668E-2,5.0660634E-1,1.6651724E-1,-1.1043934E-1,2.6407413E-2,6.4847857E-1,-2.3204523E-1,2.7731067E-2,1.00481E0,7.308017E-1,-2.7883851E-3,-1.11770116E-1,-3.6838478E-1,-4.736921E-1,-1.11211516E-1,-5.1605225E-1,-1.3436494E0,-3.814084E-1,-1.5675122E0,4.1732006E-2,7.303664E-2,-5.839708E-3,2.7037738E-2,-6.576201E-2,2.6218666E-2,9.782581E-3,2.1457687E-2,-5.431107E-2,-3.781269E-3,-8.654955E-4,7.4309115E-3,4.119664E-3,-3.4544647E-2,1.2393446E-2,2.7207565E-2,5.119527E-2,7.844932E-2,-8.786447E-4,4.1098945E-2,3.1478066E-2,-5.0074413E-2,4.5084644E-2,8.1769535E-3,2.629851E-2,-1.7720477E-3,-8.409699E-3,3.2948134E-3,-3.5213178E-4,2.3895612E-2,5.0951112E-2,-1.9964736E-2,-1.7817168E-2,-8.977412E-3,2.5093673E-2,-5.5679064E-3,2.0259378E-2,6.98738E-2,5.150451E-2,1.8115615E-2,5.922241E-2,-2.6632722E-2,-1.7547367E-2,6.7891907E-3,-6.9411166E-2,-2.0889279E-2,-2.9112542E-2,3.625248E-2,-1.0347146E-1,-1.5051076E-2,-8.70519E-2,-1.4166793E-2,-8.122831E-3,-4.8449576E-2,-1.1098296E-1,1.165695E-2],"categories":[],"categories_nodes":[],"categories_segments":[],"categories_sizes":[],"default_left":[0,0,0,0,0,0,0,0,0,0,0,0,0,0,0,0,0,0,0,0,0,0,0,0,0,0,0,0,0,0,0,0,0,0,0,0,0,0,0,0,0,0,0,0,0,0,0,0,0,0,0,0,0,0,0,0,0,0,0,0,0,0,0,0,0,0,0,0,0,0,0,0,0,0,0,0,0,0,0,0,0,0,0,0,0,0,0,0,0,0,0,0,0,0,0,0,0,0,0,0,0,0,0,0,0,0,0,0,0,0,0,0,0,0,0,0,0,0,0],"id":12,"left_children":[1,3,5,7,9,11,13,15,17,19,21,23,25,27,29,31,33,35,37,39,41,43,45,47,49,51,53,55,57,59,61,63,65,67,69,71,73,75,77,79,-1,81,83,-1,-1,85,87,89,91,93,95,97,99,101,103,105,107,109,-1,111,113,115,117,-1,-1,-1,-1,-1,-1,-1,-1,-1,-1,-1,-1,-1,-1,-1,-1,-1,-1,-1,-1,-1,-1,-1,-1,-1,-1,-1,-1,-1,-1,-1,-1,-1,-1,-1,-1,-1,-1,-1,-1,-1,-1,-1,-1,-1,-1,-1,-1,-1,-1,-1,-1,-1,-1,-1,-1],"loss_changes":[6.600962E2,1.8454312E2,1.7547763E2,5.7411484E1,2.5153198E1,4.612571E1,4.913217E1,2.059964E1,2.1659859E1,1.732306E1,1.1932631E1,2.7789719E1,1.7773283E1,1.8143799E1,1.5684509E1,1.3264908E1,1.5271889E1,1.4117328E1,1.2842041E1,3.0632553E0,1.0284363E1,2.9148817E-1,6.0640774E0,1.5427975E1,1.1832962E1,1.06443815E1,1.0081631E1,1.8411743E1,1.2783707E1,1.0589432E1,9.30402E0,3.0544014E0,4.740097E0,6.2558365E0,1.11356125E1,9.184612E0,1.2478453E1,1.0428833E1,7.2717667E0,1.3030624E0,0E0,6.770996E0,4.7015176E0,0E0,0E0,1.0109364E1,5.3543143E0,1.7364403E1,1.2899644E1,3.1791625E0,9.610077E0,8.512916E0,1.0704699E0,4.981056E0,1.0667109E1,1.5144062E1,1.7903214E1,1.1359863E1,0E0,6.4000664E0,9.518845E0,5.616011E0,3.9905033E0,0E0,0E0,0E0,0E0,0E0,0E0,0E0,0E0,0E0,0E0,0E0,0E0,0E0,0E0,0E0,0E0,0E0,0E0,0E0,0E0,0E0,0E0,0E0,0E0,0E0,0E0,0E0,0E0,0E0,0E0,0E0,0E0,0E0,0E0,0E0,0E0,0E0,0E0,0E0,0E0,0E0,0E0,0E0,0E0,0E0,0E0,0E0,0E0,0E0,0E0,0E0,0E0,0E0,0E0,0E0,0E0],"parents":[2147483647,0,0,1,1,2,2,3,3,4,4,5,5,6,6,7,7,8,8,9,9,10,10,11,11,12,12,13,13,14,14,15,15,16,16,17,17,18,18,19,19,20,20,21,21,22,22,23,23,24,24,25,25,26,26,27,27,28,28,29,29,30,30,31,31,32,32,33,33,34,34,35,35,36,36,37,37,38,38,39,39,41,41,42,42,45,45,46,46,47,47,48,48,49,49,50,50,51,51,52,52,53,53,54,54,55,55,56,56,57,57,59,59,60,60,61,61,62,62],"right_children":[2,4,6,8,10,12,14,16,18,20,22,24,26,28,30,32,34,36,38,40,42,44,46,48,50,52,54,56,58,60,62,64,66,68,70,72,74,76,78,80,-1,82,84,-1,-1,86,88,90,92,94,96,98,100,102,104,106,108,110,-1,112,114,116,118,-1,-1,-1,-1,-1,-1,-1,-1,-1,-1,-1,-1,-1,-1,-1,-1,-1,-1,-1,-1,-1,-1,-1,-1,-1,-1,-1,-1,-1,-1,-1,-1,-1,-1,-1,-1,-1,-1,-1,-1,-1,-1,-1,-1,-1,-1,-1,-1,-1,-1,-1,-1,-1,-1,-1,-1],"split_conditions":[-3.999128E1,3.3333333E0,1.1307272E0,8.6132854E-1,-1.4E0,2.4827585E0,5.0173862E2,-3.25E0,1E0,-7.7E0,6.3E-1,1.0733769E0,3.4E0,1.6E0,7.3333335E-1,1.14E2,-4.7173233E2,1.19E0,1E0,-1.4521597E2,3.1875E0,2.5E-1,5.41E2,2.07E0,-1.9E0,1.3997917E2,4E0,-3.3333334E-1,1.7156E4,1.1E0,5.277778E-1,4E0,4.5868465E-1,1E-1,2.1333334E0,4E-1,1.3793104E0,3.2E1,1.8972914E3,5.230769E0,1.0216894E-2,4.4414717E-1,-3.10761E2,-9.780554E-2,-3.8993668E-2,2.3333333E0,1.108983E3,1.8447046E3,5E1,3E1,2.7E1,2.6363637E0,1.2E0,3.4E1,9.5049506E-1,1.2E0,3.9115646E-1,6.1E1,-1.11211516E-1,-4E0,2.6419754E0,1.1666666E0,2E0,4.1732006E-2,7.303664E-2,-5.839708E-3,2.7037738E-2,-6.576201E-2,2.6218666E-2,9.782581E-3,2.1457687E-2,-5.431107E-2,-3.781269E-3,-8.654955E-4,7.4309115E-3,4.119664E-3,-3.4544647E-2,1.2393446E-2,2.7207565E-2,5.119527E-2,7.844932E-2,-8.786447E-4,4.1098945E-2,3.1478066E-2,-5.0074413E-2,4.5084644E-2,8.1769535E-3,2.629851E-2,-1.7720477E-3,-8.409699E-3,3.2948134E-3,-3.5213178E-4,2.3895612E-2,5.0951112E-2,-1.9964736E-2,-1.7817168E-2,-8.977412E-3,2.5093673E-2,-5.5679064E-3,2.0259378E-2,6.98738E-2,5.150451E-2,1.8115615E-2,5.922241E-2,-2.6632722E-2,-1.7547367E-2,6.7891907E-3,-6.9411166E-2,-2.0889279E-2,-2.9112542E-2,3.625248E-2,-1.0347146E-1,-1.5051076E-2,-8.70519E-2,-1.4166793E-2,-8.122831E-3,-4.8449576E-2,-1.1098296E-1,1.165695E-2],"split_indices":[2,39,3,3,45,39,2,33,5,11,47,3,48,33,19,37,2,48,23,2,41,20,37,48,11,2,32,21,37,12,36,8,36,12,40,36,40,32,1,39,0,36,2,0,0,18,0,0,32,7,8,39,22,7,41,14,43,32,0,16,43,29,9,0,0,0,0,0,0,0,0,0,0,0,0,0,0,0,0,0,0,0,0,0,0,0,0,0,0,0,0,0,0,0,0,0,0,0,0,0,0,0,0,0,0,0,0,0,0,0,0,0,0,0,0,0,0,0,0],"split_type":[0,0,0,0,0,0,0,0,0,0,0,0,0,0,0,0,0,0,0,0,0,0,0,0,0,0,0,0,0,0,0,0,0,0,0,0,0,0,0,0,0,0,0,0,0,0,0,0,0,0,0,0,0,0,0,0,0,0,0,0,0,0,0,0,0,0,0,0,0,0,0,0,0,0,0,0,0,0,0,0,0,0,0,0,0,0,0,0,0,0,0,0,0,0,0,0,0,0,0,0,0,0,0,0,0,0,0,0,0,0,0,0,0,0,0,0,0,0,0],"sum_hessian":[1.8027078E4,8.721052E3,9.306027E3,7.784156E3,9.368956E2,6.7286685E3,2.5773591E3,2.6127942E3,5.1713613E3,7.21731E2,2.1516463E2,6.421008E3,3.0766055E2,2.4153503E3,1.6200858E2,3.107397E2,2.3020544E3,3.6261748E3,1.5451865E3,6.786492E1,6.538661E2,3.7246509E0,2.1143997E2,4.606085E3,1.8149231E3,1.913466E2,1.16313934E2,1.5062566E3,9.090938E2,1.0124915E2,6.0759422E1,5.0839638E1,2.5990005E2,3.5117825E2,1.9508763E3,7.735131E2,2.8526619E3,3.7247415E2,1.1727124E3,6.4850266E1,3.0146587E0,6.4388855E2,9.977517E0,2.2033765E0,1.5212743E0,1.1157709E2,9.9862885E1,3.531893E3,1.0741918E3,1.4925553E1,1.7999976E3,1.7995807E2,1.1388528E1,9.288367E1,2.3430267E1,3.7172775E2,1.1345289E3,9.027667E2,6.327119E0,2.0144663E1,8.1104485E1,5.359464E1,7.1647844E0,2.4591278E1,2.624836E1,1.6708464E1,2.4319159E2,2.2214565E0,3.4895682E2,1.5897561E3,3.6112018E2,1.2678405E1,7.608347E2,1.0104292E3,1.8422325E3,3.4589624E2,2.6577896E1,1.037865E3,1.3484734E2,1.1744915E1,5.310535E1,1.4122373E1,6.2976624E2,3.6237168E0,6.3538003E0,6.686265E1,4.4714436E1,4.1589043E1,5.827384E1,2.9938264E3,5.380666E2,9.8885284E2,8.533887E1,1.2446865E1,2.4786885E0,1.0062603E3,7.9373724E2,4.2153225E1,1.3780484E2,2.5009599E0,8.8875675E0,7.119856E1,2.1685104E1,7.031768E0,1.63985E1,2.0605165E2,1.6567609E2,2.7678217E1,1.1068507E3,8.93495E2,9.271726E0,3.1300848E0,1.7014578E1,7.380478E1,7.29971E0,3.4393917E1,1.920072E1,6.1540737E0,1.0107107E0],"tree_param":{"num_deleted":"0","num_feature":"49","num_nodes":"119","size_leaf_vector":"1"}},{"base_weights":[-6.430502E-4,1.6497652E-1,-2.0643207E-1,1.1482573E-1,5.5969584E-1,-1.2006013E-1,-3.828763E-1,2.9166982E-1,6.1283607E-2,1.1643674E0,5.130104E-1,-1.2979744E-1,3.8962924E-1,-3.271484E-1,-6.415806E-1,2.6570946E-1,6.315394E-1,1.8546304E-2,1.5805107E-1,1.2048941E0,-1.90816E-2,2.271095E-1,5.977008E-1,-4.1373992E-1,-1.1521475E-1,5.1137286E-1,-5.107106E-1,-3.948119E-1,-1.6424479E-1,-1.0684968E0,-5.4042715E-1,3.9677668E-1,2.2016099E-1,