{"learner":{"attributes":{"best_iteration":"97","best_score":"1.319183652679898","scikit_learn":"{\"_estimator_type\": \"regressor\"}"},"feature_names":["elo_home","elo_away","elo_diff","elo_ratio","elo_diff_normalized","neutral","tournament_weight","days_since_home_last","days_since_away_last","days_diff","home_form_10_winrate","home_form_10_goaldiff_avg","home_form_10_goals_scored_avg","home_form_10_goals_conceded_avg","home_form_10_weighted_points","away_form_10_winrate","away_form_10_goaldiff_avg","away_form_10_goals_scored_avg","away_form_10_goals_conceded_avg","away_form_10_weighted_points","home_form_5_winrate","home_form_5_goaldiff_avg","home_form_5_goals_scored_avg","home_form_5_goals_conceded_avg","home_form_5_weighted_points","away_form_5_winrate","away_form_5_goaldiff_avg","away_form_5_goals_scored_avg","away_form_5_goals_conceded_avg","away_form_5_weighted_points","h2h_home_winrate","h2h_draw_rate","h2h_count","h2h_home_goal_diff_avg","tournament_avg_goals","tournament_std_goals","tournament_over_2_5_rate","tournament_match_count","home_tournament_gf_avg","home_tournament_ga_avg","away_tournament_gf_avg","away_tournament_ga_avg","home_tournament_attack_bias","away_tournament_attack_bias","form_diff_winrate","form_diff_goaldiff","form_diff_5_winrate","attack_vs_defense_home","attack_vs_defense_away"],"feature_types":["float","float","float","float","float","int","int","int","int","int","float","float","float","float","float","float","float","float","float","float","float","float","float","float","float","float","float","float","float","float","float","float","int","float","float","float","float","int","float","float","float","float","float","float","float","float","float","float","float"],"gradient_booster":{"model":{"cats":{"enc":[],"feature_segments":[],"sorted_idx":[]},"gbtree_model_param":{"num_parallel_tree":"1","num_trees":"128"},"iteration_indptr":[0,1,2,3,4,5,6,7,8,9,10,11,12,13,14,15,16,17,18,19,20,21,22,23,24,25,26,27,28,29,30,31,32,33,34,35,36,37,38,39,40,41,42,43,44,45,46,47,48,49,50,51,52,53,54,55,56,57,58,59,60,61,62,63,64,65,66,67,68,69,70,71,72,73,74,75,76,77,78,79,80,81,82,83,84,85,86,87,88,89,90,91,92,93,94,95,96,97,98,99,100,101,102,103,104,105,106,107,108,109,110,111,112,113,114,115,116,117,118,119,120,121,122,123,124,125,126,127,128],"tree_info":[0,0,0,0,0,0,0,0,0,0,0,0,0,0,0,0,0,0,0,0,0,0,0,0,0,0,0,0,0,0,0,0,0,0,0,0,0,0,0,0,0,0,0,0,0,0,0,0,0,0,0,0,0,0,0,0,0,0,0,0,0,0,0,0,0,0,0,0,0,0,0,0,0,0,0,0,0,0,0,0,0,0,0,0,0,0,0,0,0,0,0,0,0,0,0,0,0,0,0,0,0,0,0,0,0,0,0,0,0,0,0,0,0,0,0,0,0,0,0,0,0,0,0,0,0,0,0,0],"trees":[{"base_weights":[-1.3782785E-3,3.096015E-1,-1.3232042E-1,2.0202467E-1,7E-1,-4.5011394E-2,-2.4736997E-1,4.4612408E-1,1.5344921E-1,4.8476928E-1,7E-1,-4.8027374E-2,7E-1,-2.525706E-1,4.5277083E-1,2.8838668E-2,5.5999998E-2,8.399264E-3,2.3583781E-2,3.0548735E-2,5.5999998E-2,5.5999998E-2,-2.8057257E-3,-6.618855E-3,2.1939664E-3,-3.248144E-2,5.5999998E-2,-1.689738E-2,-2.517112E-2,-1.755079E-2,5.5999998E-2],"categories":[],"categories_nodes":[],"categories_segments":[],"categories_sizes":[],"default_left":[0,0,0,0,0,0,0,0,0,0,0,0,0,0,0,0,0,0,0,0,0,0,0,0,0,0,0,0,0,0,0],"id":0,"left_children":[1,3,5,7,9,11,13,15,17,19,21,23,25,27,29,-1,-1,-1,-1,-1,-1,-1,-1,-1,-1,-1,-1,-1,-1,-1,-1],"loss_changes":[1.5182677E3,6.353268E2,2.6352716E2,1.1087488E2,2.8091064E1,4.921525E1,4.146936E1,3.510956E1,5.343509E1,1.8536636E1,9.985718E0,3.9024487E1,9.361057E0,2.87771E1,1.8340538E1,0E0,0E0,0E0,0E0,0E0,0E0,0E0,0E0,0E0,0E0,0E0,0E0,0E0,0E0,0E0,0E0],"parents":[2147483647,0,0,1,1,2,2,3,3,4,4,5,5,6,6,7,7,8,8,9,9,10,10,11,11,12,12,13,13,14,14],"right_children":[2,4,6,8,10,12,14,16,18,20,22,24,26,28,30,-1,-1,-1,-1,-1,-1,-1,-1,-1,-1,-1,-1,-1,-1,-1,-1],"split_conditions":[-9.415048E1,2.6842105E0,1.2946918E2,-3.265813E2,3E0,5.428571E0,3.142857E0,2.1076922E0,1E0,1E0,6E-1,1E0,1E0,2.707231E2,2.5172415E0,2.8838668E-2,5.5999998E-2,8.399264E-3,2.3583781E-2,3.0548735E-2,5.5999998E-2,5.5999998E-2,-2.8057257E-3,-6.618855E-3,2.1939664E-3,-3.248144E-2,5.5999998E-2,-1.689738E-2,-2.517112E-2,-1.755079E-2,5.5999998E-2],"split_indices":[2,39,2,2,48,13,13,40,5,5,30,5,5,2,39,0,0,0,0,0,0,0,0,0,0,0,0,0,0,0,0],"split_type":[0,0,0,0,0,0,0,0,0,0,0,0,0,0,0,0,0,0,0,0,0,0,0,0,0,0,0,0,0,0,0],"sum_hessian":[3.7279766E4,1.1045195E4,2.6234568E4,9.352282E3,1.6929126E3,1.4917259E4,1.1317311E4,1.5501637E3,7.8021187E3,6.17835E2,1.0750775E3,1.4886032E4,3.1226318E1,1.1234783E4,8.25267E1,1.1754479E3,3.7471582E2,5.812556E3,1.9895626E3,4.7062524E2,1.472098E2,1.0572339E3,1.784361E1,1.0197624E4,4.6884087E3,6.691354E0,2.4534966E1,6.747115E3,4.487668E3,2.6765415E1,5.5761284E1],"tree_param":{"num_deleted":"0","num_feature":"49","num_nodes":"31","size_leaf_vector":"1"}},{"base_weights":[3.6961904E-3,3.4488612E-1,-1.0679504E-1,2.1469499E-1,7E-1,-1.1399017E-2,-2.2985776E-1,4.6927553E-1,1.7288794E-1,7E-1,4.18537E-1,-2.1879265E-2,5.668458E-1,-2.3584741E-1,3.5503975E-1,3.139481E-2,5.5999998E-2,1.2099723E-2,3.6107946E-2,2.9406039E-2,5.5999998E-2,1.7052053E-2,4.1857053E-2,-4.5714383E-3,4.5546778E-3,1.402012E-2,5.5999998E-2,-1.5329359E-2,-2.457359E-2,1.2101204E-2,5.5999998E-2],"categories":[],"categories_nodes":[],"categories_segments":[],"categories_sizes":[],"default_left":[0,0,0,0,0,0,0,0,0,0,0,0,0,0,0,0,0,0,0,0,0,0,0,0,0,0,0,0,0,0,0],"id":1,"left_children":[1,3,5,7,9,11,13,15,17,19,21,23,25,27,29,-1,-1,-1,-1,-1,-1,-1,-1,-1,-1,-1,-1,-1,-1,-1,-1],"loss_changes":[1.4069299E3,5.1395605E2,3.3089996E2,7.523239E1,6.209912E1,9.6368744E1,4.3320923E1,1.936087E1,3.6604065E1,1.105188E1,1.6884308E1,4.339196E1,4.652082E1,3.83808E1,1.5853995E1,0E0,0E0,0E0,0E0,0E0,0E0,0E0,0E0,0E0,0E0,0E0,0E0,0E0,0E0,0E0,0E0],"parents":[2147483647,0,0,1,1,2,2,3,3,4,4,5,5,6,6,7,7,8,8,9,9,10,10,11,11,12,12,13,13,14,14],"right_children":[2,4,6,8,10,12,14,16,18,20,22,24,26,28,30,-1,-1,-1,-1,-1,-1,-1,-1,-1,-1,-1,-1,-1,-1,-1,-1],"split_conditions":[9.1954505E-1,2.4827585E0,1.0718024E0,-3.6499014E2,-1.5E0,3.2222223E0,3.142857E0,1.2631578E0,2.3437464E0,1.6666666E0,1.4497354E3,1E0,-7.5E-1,1.1827006E0,3.125E-1,3.139481E-2,5.5999998E-2,1.2099723E-2,3.6107946E-2,2.9406039E-2,5.5999998E-2,1.7052053E-2,4.1857053E-2,-4.5714383E-3,4.5546778E-3,1.402012E-2,5.5999998E-2,-1.5329359E-2,-2.457359E-2,1.2101204E-2,5.5999998E-2],"split_indices":[3,39,3,2,45,13,13,38,35,23,1,5,16,3,10,0,0,0,0,0,0,0,0,0,0,0,0,0,0,0,0],"split_type":[0,0,0,0,0,0,0,0,0,0,0,0,0,0,0,0,0,0,0,0,0,0,0,0,0,0,0,0,0,0,0],"sum_hessian":[3.7312586E4,9.12741E3,2.8185176E4,7.071172E3,2.0562388E3,1.5878873E4,1.2306303E4,9.9530975E2,6.0758623E3,1.2657635E3,7.9047516E2,1.5597488E4,2.813846E2,1.2182486E4,1.23816185E2,7.6984454E2,2.2546518E2,5.63981E3,4.3605185E2,1.0464768E2,1.1611158E3,2.6853204E2,5.219431E2,1.0777882E4,4.8196074E3,1.8847546E2,9.290916E1,7.5233774E3,4.659109E3,1.0287675E2,2.093944E1],"tree_param":{"num_deleted":"0","num_feature":"49","num_nodes":"31","size_leaf_vector":"1"}},{"base_weights":[4.613031E-3,3.465955E-1,-1.02954805E-1,2.3724033E-1,7E-1,-2.0151904E-2,-2.353638E-1,4.6891534E-1,1.9058004E-1,7E-1,4.2218882E-1,-3.0520001E-2,5.178217E-1,-2.4046162E-1,3.560847E-1,4.2805932E-2,2.228388E-2,1.1992082E-2,2.5199722E-2,5.5999998E-2,-3.2810196E-2,2.2415655E-2,5.5999998E-2,1.7021849E-3,-6.8326676E-3,1.3532203E-2,5.5999998E-2,-1.588204E-2,-2.3894578E-2,8.1355665E-3,5.5999998E-2],"categories":[],"categories_nodes":[],"categories_segments":[],"categories_sizes":[],"default_left":[0,0,0,0,0,0,0,0,0,0,0,0,0,0,0,0,0,0,0,0,0,0,0,0,0,0,0,0,0,0,0],"id":2,"left_children":[1,3,5,7,9,11,13,15,17,19,21,23,25,27,29,-1,-1,-1,-1,-1,-1,-1,-1,-1,-1,-1,-1,-1,-1,-1,-1],"loss_changes":[1.3671514E3,4.695365E2,3.0991864E2,7.973535E1,3.5964844E1,9.714469E1,3.299518E1,1.5392029E1,3.1075134E1,9.883179E0,1.8993843E1,4.8563858E1,4.954493E1,2.6270264E1,1.55110035E1,0E0,0E0,0E0,0E0,0E0,0E0,0E0,0E0,0E0,0E0,0E0,0E0,0E0,0E0,0E0,0E0],"parents":[2147483647,0,0,1,1,2,2,3,3,4,4,5,5,6,6,7,7,8,8,9,9,10,10,11,11,12,12,13,13,14,14],"right_children":[2,4,6,8,10,12,14,16,18,20,22,24,26,28,30,-1,-1,-1,-1,-1,-1,-1,-1,-1,-1,-1,-1,-1,-1,-1,-1],"split_conditions":[9.1431016E-1,2.8796296E0,1.2946918E2,-3.7635196E2,-1.5E0,3.142857E0,3.142857E0,6E0,1E0,6.666667E-1,1E0,3.8896964E0,-9E-1,1.1827006E0,3.125E-1,4.2805932E-2,2.228388E-2,1.1992082E-2,2.5199722E-2,5.5999998E-2,-3.2810196E-2,2.2415655E-2,5.5999998E-2,1.7021849E-3,-6.8326676E-3,1.3532203E-2,5.5999998E-2,-1.588204E-2,-2.3894578E-2,8.1355665E-3,5.5999998E-2],"split_indices":[3,39,2,2,45,13,13,32,5,30,5,2,16,3,10,0,0,0,0,0,0,0,0,0,0,0,0,0,0,0,0],"split_type":[0,0,0,0,0,0,0,0,0,0,0,0,0,0,0,0,0,0,0,0,0,0,0,0,0,0,0,0,0,0,0],"sum_hessian":[3.715654E4,8.890683E3,2.8265855E4,7.379904E3,1.5107792E3,1.739219E4,1.0873666E4,1.2349355E3,6.1449683E3,1.0379994E3,4.7277975E2,1.7064627E4,3.2756296E2,1.0781668E4,9.199798E1,9.143181E2,3.206175E2,4.6337407E3,1.5112277E3,1.0309424E3,7.0569324E0,3.1736075E2,1.55419E2,8.777963E3,8.286664E3,2.1574686E2,1.1181611E2,6.2718906E3,4.5097773E3,7.4711365E1,1.7286612E1],"tree_param":{"num_deleted":"0","num_feature":"49","num_nodes":"31","size_leaf_vector":"1"}},{"base_weights":[2.441009E-3,2.5163364E-1,-1.2794971E-1,1.7230943E-1,7E-1,-3.949161E-2,-2.242057E-1,2.9975548E-1,1.0496109E-1,7E-1,3.467521E-1,-7.8120686E-2,4.030595E-2,-1.816398E-1,-2.991182E-1,4.790688E-2,2.172537E-2,5.005533E-3,1.7396362E-2,2.5444765E-2,5.5999998E-2,1.8800726E-2,4.9715355E-2,-1.1751068E-2,-4.399223E-3,2.3772568E-3,5.5999998E-2,-1.500104E-2,2.1803867E-2,-2.4324208E-2,1.0533397E-2],"categories":[],"categories_nodes":[],"categories_segments":[],"categories_sizes":[],"default_left":[0,0,0,0,0,0,0,0,0,0,0,0,0,0,0,0,0,0,0,0,0,0,0,0,0,0,0,0,0,0,0],"id":3,"left_children":[1,3,5,7,9,11,13,15,17,19,21,23,25,27,29,-1,-1,-1,-1,-1,-1,-1,-1,-1,-1,-1,-1,-1,-1,-1,-1],"loss_changes":[1.2098705E3,5.186669E2,2.080958E2,9.52366E1,6.4812805E1,3.9308846E1,3.727008E1,3.222635E1,3.463842E1,1.0870789E1,1.5984676E1,1.3657223E1,3.7521393E1,2.006398E1,9.135925E0,0E0,0E0,0E0,0E0,0E0,0E0,0E0,0E0,0E0,0E0,0E0,0E0,0E0,0E0,0E0,0E0],"parents":[2147483647,0,0,1,1,2,2,3,3,4,4,5,5,6,6,7,7,8,8,9,9,10,10,11,11,12,12,13,13,14,14],"right_children":[2,4,6,8,10,12,14,16,18,20,22,24,26,28,30,-1,-1,-1,-1,-1,-1,-1,-1,-1,-1,-1,-1,-1,-1,-1,-1],"split_conditions":[-7.6996254E1,2.8796296E0,1.0733769E0,8.6132854E-1,-1.4E0,1E0,2.707231E2,-3.25E0,1E0,1.6666666E0,1.6236438E3,9.8E-1,4.8235292E0,3.142857E0,2.8796296E0,4.790688E-2,2.172537E-2,5.005533E-3,1.7396362E-2,2.5444765E-2,5.5999998E-2,1.8800726E-2,4.9715355E-2,-1.1751068E-2,-4.399223E-3,2.3772568E-3,5.5999998E-2,-1.500104E-2,2.1803867E-2,-2.4324208E-2,1.0533397E-2],"split_indices":[2,39,3,3,45,5,2,33,5,23,1,48,39,13,39,0,0,0,0,0,0,0,0,0,0,0,0,0,0,0,0],"split_type":[0,0,0,0,0,0,0,0,0,0,0,0,0,0,0,0,0,0,0,0,0,0,0,0,0,0,0,0,0,0,0],"sum_hessian":[3.722809E4,1.2788434E4,2.4439658E4,1.10968545E4,1.6915791E3,1.2737519E4,1.170214E4,3.8344138E3,7.2624404E3,1.1681194E3,5.2345984E2,8.584425E3,4.1530938E3,7.4659946E3,4.2361445E3,3.2791144E2,3.5065024E3,5.2771416E3,1.9852988E3,7.79259E1,1.0901935E3,3.7392987E2,1.4952994E2,2.1571445E3,6.4272803E3,4.107479E3,4.561488E1,7.3716973E3,9.429759E1,4.188921E3,4.722356E1],"tree_param":{"num_deleted":"0","num_feature":"49","num_nodes":"31","size_leaf_vector":"1"}},{"base_weights":[-2.1007395E-4,2.7628556E-1,-1.08067535E-1,2.0800172E-1,7E-1,-1.7339626E-2,-2.1703446E-1,3.753199E-1,1.5342174E-1,7E-1,3.676251E-1,-2.915482E-2,3.592687E-1,-1.7040607E-1,-2.8166187E-1,5.5999998E-2,2.6344694E-2,1.0810946E-2,3.330775E-2,5.5999998E-2,-1.7828163E-2,3.4457203E-2,-1.5286325E-2,-5.054879E-3,3.6026044E-3,5.5999998E-2,9.752554E-3,-1.4086311E-2,3.6863554E-2,-2.1177191E-2,-3.16209E-2],"categories":[],"categories_nodes":[],"categories_segments":[],"categories_sizes":[],"default_left":[0,0,0,0,0,0,0,0,0,0,0,0,0,0,0,0,0,0,0,0,0,0,0,0,0,0,0,0,0,0,0],"id":4,"left_children":[1,3,5,7,9,11,13,15,17,19,21,23,25,27,29,-1,-1,-1,-1,-1,-1,-1,-1,-1,-1,-1,-1,-1,-1,-1,-1],"loss_changes":[1.1108267E3,3.9036993E2,2.648883E2,8.5499084E1,2.9966614E1,6.515795E1,3.6635498E1,3.5036926E1,3.3958115E1,5.157654E0,9.992096E0,3.583558E1,4.092476E1,2.5543854E1,9.729309E0,0E0,0E0,0E0,0E0,0E0,0E0,0E0,0E0,0E0,0E0,0E0,0E0,0E0,0E0,0E0,0E0],"parents":[2147483647,0,0,1,1,2,2,3,3,4,4,5,5,6,6,7,7,8,8,9,9,10,10,11,11,12,12,13,13,14,14],"right_children":[2,4,6,8,10,12,14,16,18,20,22,24,26,28,30,-1,-1,-1,-1,-1,-1,-1,-1,-1,-1,-1,-1,-1,-1,-1,-1],"split_conditions":[9.2734975E-1,3.3333333E0,1.0672584E0,8.1341636E-1,-1.4E0,2.7142856E0,1.1676767E0,-3.5E0,2.4623854E0,4.032258E0,1.27E2,1E0,-1.8E0,3.142857E0,5.0173862E2,5.5999998E-2,2.6344694E-2,1.0810946E-2,3.330775E-2,5.5999998E-2,-1.7828163E-2,3.4457203E-2,-1.5286325E-2,-5.054879E-3,3.6026044E-3,5.5999998E-2,9.752554E-3,-1.4086311E-2,3.6863554E-2,-2.1177191E-2,-3.16209E-2],"split_indices":[3,39,3,3,45,13,3,33,35,41,8,5,45,13,2,0,0,0,0,0,0,0,0,0,0,0,0,0,0,0,0],"split_type":[0,0,0,0,0,0,0,0,0,0,0,0,0,0,0,0,0,0,0,0,0,0,0,0,0,0,0,0,0,0,0],"sum_hessian":[3.724239E4,1.045003E4,2.6792361E4,9.365191E3,1.0848391E3,1.4621347E4,1.2171014E4,2.3011958E3,7.063995E3,8.0894293E2,2.758962E2,1.4177999E4,4.433475E2,7.0739346E3,5.0970796E3,2.7736392E2,2.023832E3,6.606805E3,4.571902E2,8.03745E2,5.1979513E0,2.4843007E2,2.7466145E1,9.721435E3,4.4565645E3,1.6577232E2,2.7757516E2,7.0119536E3,6.1980843E1,4.4398286E3,6.5725085E2],"tree_param":{"num_deleted":"0","num_feature":"49","num_nodes":"31","size_leaf_vector":"1"}},{"base_weights":[3.8447229E-3,2.248165E-1,-1.17823966E-1,7E-1,1.6895206E-1,-3.960253E-2,-2.1930867E-1,4.0476173E-1,7E-1,4.040255E-1,1.3073887E-1,7E-1,-4.2814046E-2,-1.7811088E-1,-2.8521845E-1,2.4268694E-2,5.5999998E-2,5.5999998E-2,-3.3137616E-2,5.384633E-2,2.8194824E-2,7.89954E-3,2.1694148E-2,-2.6062846E-3,5.5999998E-2,-6.3523967E-3,2.6349197E-3,-1.4569147E-2,4.2326014E-2,-2.1118741E-2,-3.18384E-2],"categories":[],"categories_nodes":[],"categories_segments":[],"categories_sizes":[],"default_left":[0,0,0,0,0,0,0,0,0,0,0,0,0,0,0,0,0,0,0,0,0,0,0,0,0,0,0,0,0,0,0],"id":5,"left_children":[1,3,5,7,9,11,13,15,17,19,21,23,25,27,29,-1,-1,-1,-1,-1,-1,-1,-1,-1,-1,-1,-1,-1,-1,-1,-1],"loss_changes":[1.00570685E3,4.142738E2,1.9146664E2,4.4969116E1,1.0872424E2,4.582893E1,2.8458344E1,2.1801437E1,1.0455261E1,2.3283783E1,4.679019E1,4.078514E0,3.7707893E1,1.854161E1,9.572723E0,0E0,0E0,0E0,0E0,0E0,0E0,0E0,0E0,0E0,0E0,0E0,0E0,0E0,0E0,0E0,0E0],"parents":[2147483647,0,0,1,1,2,2,3,3,4,4,5,5,6,6,7,7,8,8,9,9,10,10,11,11,12,12,13,13,14,14],"right_children":[2,4,6,8,10,12,14,16,18,20,22,24,26,28,30,-1,-1,-1,-1,-1,-1,-1,-1,-1,-1,-1,-1,-1,-1,-1,-1],"split_conditions":[-7.6996254E1,-2.8E0,1.2946918E2,3.1791046E0,-3.6499014E2,-4.9E0,2.707231E2,1.2063493E0,6E-1,-5.691195E2,2.047619E0,1E0,1E0,4.5E0,5.0173862E2,2.4268694E-2,5.5999998E-2,5.5999998E-2,-3.3137616E-2,5.384633E-2,2.8194824E-2,7.89954E-3,2.1694148E-2,-2.6062846E-3,5.5999998E-2,-6.3523967E-3,2.6349197E-3,-1.4569147E-2,4.2326014E-2,-2.1118741E-2,-3.18384E-2],"split_indices":[2,45,2,39,2,11,2,43,30,2,39,5,5,39,2,0,0,0,0,0,0,0,0,0,0,0,0,0,0,0,0],"split_type":[0,0,0,0,0,0,0,0,0,0,0,0,0,0,0,0,0,0,0,0,0,0,0,0,0,0,0,0,0,0,0],"sum_hessian":[3.7399426E4,1.3280498E4,2.4118928E4,1.176548E3,1.210395E4,1.3622481E4,1.0496447E4,5.2188025E2,6.546678E2,1.6904038E3,1.0413546E4,3.3602764E1,1.3588879E4,6.463245E3,4.0332017E3,4.3065094E2,9.122931E1,6.472105E2,7.457286E0,2.694165E2,1.4209873E3,8.483874E3,1.9296715E3,6.966663E0,2.66361E1,9.164571E3,4.424307E3,6.427882E3,3.536348E1,3.398368E3,6.3483374E2],"tree_param":{"num_deleted":"0","num_feature":"49","num_nodes":"31","size_leaf_vector":"1"}},{"base_weights":[1.0869489E-3,2.6676288E-1,-9.368971E-2,2.024781E-1,7E-1,-1.9326845E-2,-2.1944194E-1,4.749458E-1,1.7650288E-1,4.0781653E-1,7E-1,-2.9334543E-2,2.773061E-1,-1.7334023E-1,-2.847124E-1,1.920741E-2,4.7506943E-2,4.2951558E-2,1.2896051E-2,4.9215402E-2,1.8834312E-2,1.6406454E-2,5.5999998E-2,1.0621746E-3,-6.06833E-3,7.1565714E-3,4.5450952E-2,-1.4214312E-2,5.5999998E-2,-2.3392312E-2,3.1867307E-3],"categories":[],"categories_nodes":[],"categories_segments":[],"categories_sizes":[],"default_left":[0,0,0,0,0,0,0,0,0,0,0,0,0,0,0,0,0,0,0,0,0,0,0,0,0,0,0,0,0,0,0],"id":6,"left_children":[1,3,5,7,9,11,13,15,17,19,21,23,25,27,29,-1,-1,-1,-1,-1,-1,-1,-1,-1,-1,-1,-1,-1,-1,-1,-1],"loss_changes":[9.3365106E2,3.2875812E2,2.5552037E2,6.169522E1,2.7739685E1,5.1051826E1,3.050409E1,2.0995468E1,4.3909134E1,1.1732243E1,1.5124573E1,3.297016E1,3.0558002E1,2.502118E1,1.0563385E1,0E0,0E0,0E0,0E0,0E0,0E0,0E0,0E0,0E0,0E0,0E0,0E0,0E0,0E0,0E0,0E0],"parents":[2147483647,0,0,1,1,2,2,3,3,4,4,5,5,6,6,7,7,8,8,9,9,10,10,11,11,12,12,13,13,14,14],"right_children":[2,4,6,8,10,12,14,16,18,20,22,24,26,28,30,-1,-1,-1,-1,-1,-1,-1,-1,-1,-1,-1,-1,-1,-1,-1,-1],"split_conditions":[9.161741E-1,3.5E0,1.2946918E2,7.2740906E-1,3.74E0,2.7142856E0,1.1827006E0,2.5E-1,-3.75E0,5.92E2,1.3051703E3,3.8896964E0,-7.5E-1,3.142857E0,2.8796296E0,1.920741E-2,4.7506943E-2,4.2951558E-2,1.2896051E-2,4.9215402E-2,1.8834312E-2,1.6406454E-2,5.5999998E-2,1.0621746E-3,-6.06833E-3,7.1565714E-3,4.5450952E-2,-1.4214312E-2,5.5999998E-2,-2.3392312E-2,3.1867307E-3],"split_indices":[3,39,2,3,48,13,3,16,33,37,1,2,16,13,39,0,0,0,0,0,0,0,0,0,0,0,0,0,0,0,0],"split_type":[0,0,0,0,0,0,0,0,0,0,0,0,0,0,0,0,0,0,0,0,0,0,0,0,0,0,0,0,0,0,0],"sum_hessian":[3.7070176E4,9.747234E3,2.7322943E4,8.721094E3,1.02614E3,1.717145E4,1.0151495E4,7.568724E2,7.9642217E3,3.3103888E2,6.951011E2,1.6612555E4,5.5889325E2,5.953295E3,4.1981997E3,2.5595976E2,5.009126E2,3.2246698E2,7.6417544E3,1.4857716E2,1.8246172E2,6.3555763E1,6.3154535E2,8.668586E3,7.9439697E3,3.407783E2,2.1811497E2,5.9276875E3,2.5607298E1,4.101708E3,9.649197E1],"tree_param":{"num_deleted":"0","num_feature":"49","num_nodes":"31","size_leaf_vector":"1"}},{"base_weights":[2.212523E-3,1.9409852E-1,-1.1866152E-1,7E-1,1.4492798E-1,-4.6535887E-2,-2.114535E-1,3.8561282E-1,7E-1,3.2911187E-1,1.0329401E-1,7E-1,-4.9731415E-2,-1.8303186E-1,-3.023378E-1,2.462687E-2,5.4715727E-2,5.5999998E-2,-3.525132E-3,4.637987E-2,2.218419E-2,5.9975088E-3,1.871989E-2,5.5999998E-2,-0E0,-6.8572396E-3,1.9311926E-3,5.5999998E-2,-1.475437E-2,-2.1855671E-2,-3.0863006E-2],"categories":[],"categories_nodes":[],"categories_segments":[],"categories_sizes":[],"default_left":[0,0,0,0,0,0,0,0,0,0,0,0,0,0,0,0,0,0,0,0,0,0,0,0,0,0,0,0,0,0,0],"id":7,"left_children":[1,3,5,7,9,11,13,15,17,19,21,23,25,27,29,-1,-1,-1,-1,-1,-1,-1,-1,-1,-1,-1,-1,-1,-1,-1,-1],"loss_changes":[8.639113E2,3.6026013E2,1.5290674E2,5.5212036E1,1.0065814E2,4.3489586E1,2.5764221E1,1.2939705E1,1.0447449E1,3.128952E1,3.9651268E1,4.1973915E0,3.413447E1,1.2419189E1,5.685669E0,0E0,0E0,0E0,0E0,0E0,0E0,0E0,0E0,0E0,0E0,0E0,0E0,0E0,0E0,0E0,0E0],"parents":[2147483647,0,0,1,1,2,2,3,3,4,4,5,5,6,6,7,7,8,8,9,9,10,10,11,11,12,12,13,13,14,14],"right_children":[2,4,6,8,10,12,14,16,18,20,22,24,26,28,30,-1,-1,-1,-1,-1,-1,-1,-1,-1,-1,-1,-1,-1,-1,-1,-1],"split_conditions":[9.603488E-1,-2.8E0,1.2946918E2,3.25E0,-3.265813E2,-4.5555553E0,1.2457808E0,7.35E0,-9.639117E1,-5.304189E2,3E0,5E0,1E0,-1.1E1,5.0173862E2,2.462687E-2,5.4715727E-2,5.5999998E-2,-3.525132E-3,4.637987E-2,2.218419E-2,5.9975088E-3,1.871989E-2,5.5999998E-2,-0E0,-6.8572396E-3,1.9311926E-3,5.5999998E-2,-1.475437E-2,-2.1855671E-2,-3.0863006E-2],"split_indices":[3,45,2,23,2,11,3,48,2,2,48,7,5,26,2,0,0,0,0,0,0,0,0,0,0,0,0,0,0,0,0],"split_type":[0,0,0,0,0,0,0,0,0,0,0,0,0,0,0,0,0,0,0,0,0,0,0,0,0,0,0,0,0,0,0],"sum_hessian":[3.7239133E4,1.4392412E4,2.2846719E4,1.2661753E3,1.3126236E4,1.2856914E4,9.989806E3,5.6383527E2,7.023401E2,2.4179214E3,1.0708315E4,3.1133558E1,1.282578E4,7.6139585E3,2.375847E3,4.493817E2,1.1445354E2,6.84122E2,1.8218075E1,4.1178702E2,2.0061344E3,8.803584E3,1.9047312E3,2.2867252E1,8.266305E0,8.626299E3,4.1994814E3,7.5478234E0,7.606411E3,1.7658544E3,6.099925E2],"tree_param":{"num_deleted":"0","num_feature":"49","num_nodes":"31","size_leaf_vector":"1"}},{"base_weights":[5.7209714E-4,1.8757525E-1,-1.10031575E-1,1.405401E-1,7E-1,-4.6526305E-2,-2.1746002E-1,2.7226454E-1,8.5548356E-2,7E-1,1.3624382E-1,-5.56579E-2,3.6438772E-1,-1.8828513E-1,-2.9709542E-1,1.936655E-2,5.215186E-2,3.9407825E-3,1.4661858E-2,4.147827E-2,5.5999998E-2,1.3157859E-3,4.1553263E-2,-6.8646823E-3,5.785247E-4,1.281442E-2,5.5999998E-2,5.5999998E-2,-1.5194365E-2,-2.426772E-2,3.815459E-2],"categories":[],"categories_nodes":[],"categories_segments":[],"categories_sizes":[],"default_left":[0,0,0,0,0,0,0,0,0,0,0,0,0,0,0,0,0,0,0,0,0,0,0,0,0,0,0,0,0,0,0],"id":8,"left_children":[1,3,5,7,9,11,13,15,17,19,21,23,25,27,29,-1,-1,-1,-1,-1,-1,-1,-1,-1,-1,-1,-1,-1,-1,-1,-1],"loss_changes":[7.7119556E2,3.5251773E2,1.5980469E2,9.236064E1,3.3082336E1,5.535704E1,2.0169891E1,4.2927277E1,3.1914406E1,1.7105896E1,4.9255323E0,2.7346016E1,3.497995E1,1.1635666E1,1.1574173E1,0E0,0E0,0E0,0E0,0E0,0E0,0E0,0E0,0E0,0E0,0E0,0E0,0E0,0E0,0E0,0E0],"parents":[2147483647,0,0,1,1,2,2,3,3,4,4,5,5,6,6,7,7,8,8,9,9,10,10,11,11,12,12,13,13,14,14],"right_children":[2,4,6,8,10,12,14,16,18,20,22,24,26,28,30,-1,-1,-1,-1,-1,-1,-1,-1,-1,-1,-1,-1,-1,-1,-1,-1],"split_conditions":[-7.6996254E1,3.2222223E0,1.521604E2,-2.760781E2,-1.5E0,3.142857E0,3.3537402E2,3.5E0,1E0,1E0,3.62E2,1E0,-7.5E-1,-1.1E1,3E0,1.936655E-2,5.215186E-2,3.9407825E-3,1.4661858E-2,4.147827E-2,5.5999998E-2,1.3157859E-3,4.1553263E-2,-6.8646823E-3,5.785247E-4,1.281442E-2,5.5999998E-2,5.5999998E-2,-1.5194365E-2,-2.426772E-2,3.815459E-2],"split_indices":[2,13,2,2,45,13,2,39,5,5,37,5,16,26,39,0,0,0,0,0,0,0,0,0,0,0,0,0,0,0,0],"split_type":[0,0,0,0,0,0,0,0,0,0,0,0,0,0,0,0,0,0,0,0,0,0,0,0,0,0,0,0,0,0,0],"sum_hessian":[3.7277527E4,1.3854368E4,2.342316E4,1.2750487E4,1.1038806E3,1.4723062E4,8.700099E3,3.7530447E3,8.997443E3,9.9853827E2,1.0534242E2,1.4404312E4,3.1875052E2,6.3716743E3,2.3284243E3,3.4786409E3,2.7440366E2,6.563677E3,2.433766E3,5.352192E2,4.633191E2,8.144424E1,2.3898186E1,9.738345E3,4.665967E3,2.4459233E2,7.4158195E1,8.219557E0,6.363455E3,2.31063E3,1.7794302E1],"tree_param":{"num_deleted":"0","num_feature":"49","num_nodes":"31","size_leaf_vector":"1"}},{"base_weights":[1.2314419E-3,1.7417896E-1,-1.1328591E-1,1.3282894E-1,6.4906335E-1,-4.364936E-2,-2.0394091E-1,3.3812803E-1,9.787235E-2,7E-1,4.4300836E-1,-4.6191726E-2,7E-1,-2.0813987E-1,3.9268407E-1,3.929712E-2,2.195103E-2,1.3715192E-2,4.8259455E-3,5.5999998E-2,1.43503435E-2,4.1452393E-2,1.0737509E-2,-8.395056E-3,-1.5570235E-3,-1.2382377E-3,5.5999998E-2,-1.3216908E-2,-2.1689001E-2,5.5999998E-2,1.7485002E-2],"categories":[],"categories_nodes":[],"categories_segments":[],"categories_sizes":[],"default_left":[0,0,0,0,0,0,0,0,0,0,0,0,0,0,0,0,0,0,0,0,0,0,0,0,0,0,0,0,0,0,0],"id":9,"left_children":[1,3,5,7,9,11,13,15,17,19,21,23,25,27,29,-1,-1,-1,-1,-1,-1,-1,-1,-1,-1,-1,-1,-1,-1,-1,-1],"loss_changes":[7.352999E2,2.903857E2,1.4097256E2,9.763936E1,4.937607E1,3.6376835E1,2.4504395E1,1.9186584E1,3.211682E1,6.2372437E0,1.8512024E1,1.9809277E1,3.7294464E0,2.6001343E1,6.7451506E0,0E0,0E0,0E0,0E0,0E0,0E0,0E0,0E0,0E0,0E0,0E0,0E0,0E0,0E0,0E0,0E0],"parents":[2147483647,0,0,1,1,2,2,3,3,4,4,5,5,6,6,7,7,8,8,9,9,10,10,11,11,12,12,13,13,14,14],"right_children":[2,4,6,8,10,12,14,16,18,20,22,24,26,28,30,-1,-1,-1,-1,-1,-1,-1,-1,-1,-1,-1,-1,-1,-1,-1,-1],"split_conditions":[9.603488E-1,3.2222223E0,1.2946918E2,-3.7635196E2,-4.3E0,5.9E0,3.5E0,-5.304189E2,-2.1340471E2,9.0242714E-1,2.235294E0,1.08E0,-3.8050503E1,1.1827006E0,1.4205103E2,3.929712E-2,2.195103E-2,1.3715192E-2,4.8259455E-3,5.5999998E-2,1.43503435E-2,4.1452393E-2,1.0737509E-2,-8.395056E-3,-1.5570235E-3,-1.2382377E-3,5.5999998E-2,-1.3216908E-2,-2.1689001E-2,5.5999998E-2,1.7485002E-2],"split_indices":[3,13,2,2,45,13,13,2,2,3,41,48,2,3,2,0,0,0,0,0,0,0,0,0,0,0,0,0,0,0,0],"split_type":[0,0,0,0,0,0,0,0,0,0,0,0,0,0,0,0,0,0,0,0,0,0,0,0,0,0,0,0,0,0,0],"sum_hessian":[3.711767E4,1.4787052E4,2.233062E4,1.3604184E4,1.1828678E3,1.2631463E4,9.699157E3,1.9772798E3,1.1626904E4,3.810776E2,8.0179016E2,1.2611738E4,1.9724167E1,9.632353E3,6.6804634E1,5.7836523E2,1.3989146E3,3.9259426E3,7.7009614E3,3.5648962E2,2.4588005E1,6.437922E2,1.5799797E2,3.9405496E3,8.671189E3,6.6834936E0,1.3040672E1,5.7317876E3,3.9005647E3,8.660801E0,5.8143833E1],"tree_param":{"num_deleted":"0","num_feature":"49","num_nodes":"31","size_leaf_vector":"1"}},{"base_weights":[3.4052413E-3,1.7348143E-1,-1.06382355E-1,1.3290556E-1,6.243257E-1,-5.480371E-2,-2.213605E-1,3.1749254E-1,9.972088E-2,3.931357E-1,7E-1,-6.385131E-2,2.4703094E-1,-1.9765292E-1,-3.1773487E-1,5.5999998E-2,2.3437409E-2,5.422855E-3,1.5066544E-2,1.2426794E-2,5.1787462E-2,5.5999998E-2,6.157433E-3,-2.4173623E-3,-9.242967E-3,1.4086405E-2,5.5999998E-2,-1.7641779E-2,-1.1042268E-2,-2.6178561E-2,1.7115826E-2],"categories":[],"categories_nodes":[],"categories_segments":[],"categories_sizes":[],"default_left":[0,0,0,0,0,0,0,0,0,0,0,0,0,0,0,0,0,0,0,0,0,0,0,0,0,0,0,0,0,0,0],"id":10,"left_children":[1,3,5,7,9,11,13,15,17,19,21,23,25,27,29,-1,-1,-1,-1,-1,-1,-1,-1,-1,-1,-1,-1,-1,-1,-1,-1],"loss_changes":[6.9234717E2,2.6605405E2,1.3360416E2,8.174037E1,5.353824E1,4.255907E1,1.5888245E1,2.328688E1,3.201352E1,3.905831E1,1.9088165E1,2.6255852E1,2.1477259E1,7.601288E0,7.1187744E0,0E0,0E0,0E0,0E0,0E0,0E0,0E0,0E0,0E0,0E0,0E0,0E0,0E0,0E0,0E0,0E0],"parents":[2147483647,0,0,1,1,2,2,3,3,4,4,5,5,6,6,7,7,8,8,9,9,10,10,11,11,12,12,13,13,14,14],"right_children":[2,4,6,8,10,12,14,16,18,20,22,24,26,28,30,-1,-1,-1,-1,-1,-1,-1,-1,-1,-1,-1,-1,-1,-1,-1,-1],"split_conditions":[9.555001E-1,3.2222223E0,1.8218387E2,-3.7635196E2,1E0,2.7142856E0,1.2975401E0,1.14E2,1E0,1.5357143E0,-1.2E0,1.0451409E0,5.2222223E0,1E0,2.75E0,5.5999998E-2,2.3437409E-2,5.422855E-3,1.5066544E-2,1.2426794E-2,5.1787462E-2,5.5999998E-2,6.157433E-3,-2.4173623E-3,-9.242967E-3,1.4086405E-2,5.5999998E-2,-1.7641779E-2,-1.1042268E-2,-2.6178561E-2,1.7115826E-2],"split_indices":[3,13,2,2,5,13,3,37,5,40,45,3,13,5,39,0,0,0,0,0,0,0,0,0,0,0,0,0,0,0,0],"split_type":[0,0,0,0,0,0,0,0,0,0,0,0,0,0,0,0,0,0,0,0,0,0,0,0,0,0,0,0,0,0,0],"sum_hessian":[3.7070293E4,1.454277E4,2.2527523E4,1.3343589E4,1.1991815E3,1.5553511E4,6.974013E3,2.031111E3,1.1312478E4,6.467273E2,5.5245416E2,1.5102266E4,4.512448E2,5.601259E3,1.3727545E3,9.392986E1,1.9371812E3,8.318521E3,2.993956E3,3.3538562E2,3.113417E2,5.0237506E2,5.0079105E1,9.15206E3,5.9502065E3,4.1718207E2,3.4062756E1,4.044078E3,1.5571809E3,1.3494114E3,2.334311E1],"tree_param":{"num_deleted":"0","num_feature":"49","num_nodes":"31","size_leaf_vector":"1"}},{"base_weights":[1.9598622E-3,1.6518702E-1,-1.00977205E-1,1.2020574E-1,5.9055674E-1,-2.727558E-2,-1.8127619E-1,3.8026342E-1,1.0382295E-1,7E-1,3.863472E-1,-3.1094283E-2,7E-1,-1.4324689E-1,-2.5279054E-1,5.5999998E-2,2.4561131E-2,1.502575E-2,5.763116E-3,2.2878246E-2,5.5999998E-2,1.7412957E-2,4.3477606E-2,-4.4686226E-3,3.7166046E-3,5.5999998E-2,-6.7029637E-3,-1.173768E-2,4.2321384E-2,-2.0929515E-2,6.277101E-3],"categories":[],"categories_nodes":[],"categories_segments":[],"categories_sizes":[],"default_left":[0,0,0,0,0,0,0,0,0,0,0,0,0,0,0,0,0,0,0,0,0,0,0,0,0,0,0,0,0,0,0],"id":11,"left_children":[1,3,5,7,9,11,13,15,17,19,21,23,25,27,29,-1,-1,-1,-1,-1,-1,-1,-1,-1,-1,-1,-1,-1,-1,-1,-1],"loss_changes":[6.2148096E2,2.7367313E2,1.3421E2,5.5126083E1,5.8072754E1,3.915903E1,2.9483704E1,2.312828E1,3.2494568E1,1.7589813E1,2.009076E1,2.2652674E1,1.4253872E1,1.6769943E1,1.1100342E1,0E0,0E0,0E0,0E0,0E0,0E0,0E0,0E0,0E0,0E0,0E0,0E0,0E0,0E0,0E0,0E0],"parents":[2147483647,0,0,1,1,2,2,3,3,4,4,5,5,6,6,7,7,8,8,9,9,10,10,11,11,12,12,13,13,14,14],"right_children":[2,4,6,8,10,12,14,16,18,20,22,24,26,28,30,-1,-1,-1,-1,-1,-1,-1,-1,-1,-1,-1,-1,-1,-1,-1,-1],"split_conditions":[-7.6996254E1,3.5E0,1.0672584E0,-3.2E0,-3.3333333E0,6.4444447E0,1.1827006E0,2.26E2,-2.760781E2,6.666667E-1,1.5364248E3,2.09E0,5.1E1,4.8235292E0,2.8796296E0,5.5999998E-2,2.4561131E-2,1.502575E-2,5.763116E-3,2.2878246E-2,5.5999998E-2,1.7412957E-2,4.3477606E-2,-4.4686226E-3,3.7166046E-3,5.5999998E-2,-6.7029637E-3,-1.173768E-2,4.2321384E-2,-2.0929515E-2,6.277101E-3],"split_indices":[2,39,3,33,21,39,3,37,2,29,1,48,37,39,39,0,0,0,0,0,0,0,0,0,0,0,0,0,0,0,0],"split_type":[0,0,0,0,0,0,0,0,0,0,0,0,0,0,0,0,0,0,0,0,0,0,0,0,0,0,0,0,0,0,0],"sum_hessian":[3.697919E4,1.430195E4,2.2677242E4,1.2935791E4,1.3661595E3,1.1826363E4,1.085088E4,7.6457855E2,1.2171212E4,6.0459094E2,7.615686E2,1.1777308E4,4.9055344E1,7.087662E3,3.7632178E3,1.0567692E2,6.589017E2,3.338089E3,8.833123E3,1.0544069E2,4.9915027E2,3.6903513E2,3.9253345E2,8.928999E3,2.8483083E3,2.6565454E1,2.248989E1,7.0522964E3,3.5365532E1,3.666319E3,9.689875E1],"tree_param":{"num_deleted":"0","num_feature":"49","num_nodes":"31","size_leaf_vector":"1"}},{"base_weights":[-2.1747657E-5,1.3324593E-1,-1.1231479E-1,8.93893E-2,4.3037033E-1,-6.1893776E-2,-2.1333238E-1,3.3833206E-1,7.39485E-2,7E-1,3.5625255E-1,-6.482615E-2,7E-1,-1.9943777E-1,-3.768409E-1,2.3183256E-2,5.5999998E-2,4.239062E-3,1.5432802E-2,1.32620735E-2,5.5999998E-2,1.7960135E-2,3.6975678E-2,-5.8876765E-3,1.0990706E-2,5.5999998E-2,2.4468913E-3,-1.6345277E-2,2.1966954E-3,-3.3918142E-2,-2.2943566E-2],"categories":[],"categories_nodes":[],"categories_segments":[],"categories_sizes":[],"default_left":[0,0,0,0,0,0,0,0,0,0,0,0,0,0,0,0,0,0,0,0,0,0,0,0,0,0,0,0,0,0,0],"id":12,"left_children":[1,3,5,7,9,11,13,15,17,19,21,23,25,27,29,-1,-1,-1,-1,-1,-1,-1,-1,-1,-1,-1,-1,-1,-1,-1,-1],"loss_changes":[5.5625165E2,2.2145767E2,1.027305E2,5.694953E1,6.832034E1,3.870542E1,1.5207733E1,1.6439034E1,3.4785957E1,9.765091E0,2.6786438E1,2.3856064E1,6.294636E0,6.906601E0,2.0921478E0,0E0,0E0,0E0,0E0,0E0,0E0,0E0,0E0,0E0,0E0,0E0,0E0,0E0,0E0,0E0,0E0],"parents":[2147483647,0,0,1,1,2,2,3,3,4,4,5,5,6,6,7,7,8,8,9,9,10,10,11,11,12,12,13,13,14,14],"right_children":[2,4,6,8,10,12,14,16,18,20,22,24,26,28,30,-1,-1,-1,-1,-1,-1,-1,-1,-1,-1,-1,-1,-1,-1,-1,-1],"split_conditions":[-3.999128E1,2.625E0,1.8218387E2,7.390907E-1,-5.2777777E0,5.2222223E0,5.0173862E2,2.1664283E0,2.1333334E0,1.4497354E3,1.4131944E0,2.4827585E0,2.067425E1,2.6842105E0,6.666667E-1,2.3183256E-2,5.5999998E-2,4.239062E-3,1.5432802E-2,1.32620735E-2,5.5999998E-2,1.7960135E-2,3.6975678E-2,-5.8876765E-3,1.0990706E-2,5.5999998E-2,2.4468913E-3,-1.6345277E-2,2.1966954E-3,-3.3918142E-2,-2.2943566E-2],"split_indices":[2,13,2,3,45,13,2,35,40,1,40,39,2,39,29,0,0,0,0,0,0,0,0,0,0,0,0,0,0,0,0],"split_type":[0,0,0,0,0,0,0,0,0,0,0,0,0,0,0,0,0,0,0,0,0,0,0,0,0,0,0,0,0,0,0],"sum_hessian":[3.716181E4,1.6992912E4,2.0168896E4,1.4809021E4,2.1838906E3,1.3456121E4,6.7127754E3,8.6291376E2,1.3946108E4,2.580335E2,1.925857E3,1.3420132E4,3.598915E1,6.1901885E3,5.225867E2,7.712725E2,9.164124E1,1.1859645E4,2.0864639E3,3.5681774E1,2.2235173E2,8.6061115E2,1.0652458E3,1.28638545E4,5.562773E2,2.1251225E1,1.4737926E1,6.060863E3,1.2932605E2,3.3913342E2,1.8345326E2],"tree_param":{"num_deleted":"0","num_feature":"49","num_nodes":"31","size_leaf_vector":"1"}},{"base_weights":[1.139692E-3,1.9020927E-1,-7.631872E-2,7E-1,1.6223393E-1,-6.02806E-3,-1.6970788E-1,4.831242E-1,7E-1,1.1032202E-1,2.9565117E-1,-8.589038E-3,7E-1,-1.3190113E-1,-2.4174295E-1,5.5999998E-2,1.0077517E-2,5.5999998E-2,4.6871635E-3,6.770667E-3,1.768186E-2,1.752321E-2,3.7771527E-2,-2.0074258E-3,9.467384E-3,5.5999998E-2,-9.55883E-4,-1.0992949E-2,2.9159123E-2,-1.9996889E-2,8.5945865E-3],"categories":[],"categories_nodes":[],"categories_segments":[],"categories_sizes":[],"default_left":[0,0,0,0,0,0,0,0,0,0,0,0,0,0,0,0,0,0,0,0,0,0,0,0,0,0,0,0,0,0,0],"id":13,"left_children":[1,3,5,7,9,11,13,15,17,19,21,23,25,27,29,-1,-1,-1,-1,-1,-1,-1,-1,-1,-1,-1,-1,-1,-1,-1,-1],"loss_changes":[5.457897E2,1.7943347E2,1.735011E2,1.7968994E1,7.1693695E1,3.9360825E1,3.088266E1,3.2848717E1,3.1784363E0,2.1202354E1,3.9108032E1,3.1571526E1,3.6609535E0,2.052298E1,1.1302109E1,0E0,0E0,0E0,0E0,0E0,0E0,0E0,0E0,0E0,0E0,0E0,0E0,0E0,0E0,0E0,0E0],"parents":[2147483647,0,0,1,1,2,2,3,3,4,4,5,5,6,6,7,7,8,8,9,9,10,10,11,11,12,12,13,13,14,14],"right_children":[2,4,6,8,10,12,14,16,18,20,22,24,26,28,30,-1,-1,-1,-1,-1,-1,-1,-1,-1,-1,-1,-1,-1,-1,-1,-1],"split_conditions":[9.1431016E-1,-4.3E0,1.0597461E0,8.2E0,2.32E0,5.9E0,1.176215E0,1.3478261E0,-1.4521597E2,2.1333334E0,1E0,5.6632656E-1,4.818182E0,3.142857E0,3E0,5.5999998E-2,1.0077517E-2,5.5999998E-2,4.6871635E-3,6.770667E-3,1.768186E-2,1.752321E-2,3.7771527E-2,-2.0074258E-3,9.467384E-3,5.5999998E-2,-9.55883E-4,-1.0992949E-2,2.9159123E-2,-1.9996889E-2,8.5945865E-3],"split_indices":[3,45,3,13,39,13,3,41,2,40,5,36,34,13,39,0,0,0,0,0,0,0,0,0,0,0,0,0,0,0,0],"split_type":[0,0,0,0,0,0,0,0,0,0,0,0,0,0,0,0,0,0,0,0,0,0,0,0,0,0,0,0,0,0,0],"sum_hessian":[3.7257117E4,1.0827997E4,2.6429121E4,4.7517615E2,1.0352821E4,1.5081229E4,1.1347892E4,3.9329706E2,8.187908E1,7.4553223E3,2.8974988E3,1.5051771E4,2.945667E1,7.445708E3,3.9021838E3,2.3640468E2,1.568924E2,7.333869E1,8.540391E0,6.0540303E3,1.4012917E3,2.0228192E3,8.746796E2,1.3322005E4,1.7297672E3,2.2829132E1,6.6275377E0,7.36507E3,8.063823E1,3.8132915E3,8.889239E1],"tree_param":{"num_deleted":"0","num_feature":"49","num_nodes":"31","size_leaf_vector":"1"}},{"base_weights":[3.763367E-3,1.2379505E-1,-1.0918295E-1,9.0958945E-2,4.729607E-1,-5.3421963E-2,-1.8807423E-1,1.600602E-1,3.9340083E-2,7E-1,3.794822E-1,7E-1,-5.6374844E-2,-1.6566981E-1,-3.0414987E-1,1.2113265E-2,5.1265612E-2,6.307668E-4,9.080363E-3,5.5999998E-2,-1.668035E-2,3.5782803E-2,7.232305E-3,5.5999998E-2,2.2995057E-2,-6.944865E-3,3.1212755E-4,-1.34120565E-2,3.4543786E-2,-2.5302023E-2,3.5525497E-2],"categories":[],"categories_nodes":[],"categories_segments":[],"categories_sizes":[],"default_left":[0,0,0,0,0,0,0,0,0,0,0,0,0,0,0,0,0,0,0,0,0,0,0,0,0,0,0,0,0,0,0],"id":14,"left_children":[1,3,5,7,9,11,13,15,17,19,21,23,25,27,29,-1,-1,-1,-1,-1,-1,-1,-1,-1,-1,-1,-1,-1,-1,-1,-1],"loss_changes":[5.0273538E2,2.0610715E2,8.4020065E1,5.860756E1,7.023532E1,3.6490166E1,2.0533875E1,2.9188385E1,2.1956734E1,7.599411E0,2.8604233E1,4.948349E-1,2.0525093E1,8.042389E0,1.1880852E1,0E0,0E0,0E0,0E0,0E0,0E0,0E0,0E0,0E0,0E0,0E0,0E0,0E0,0E0,0E0,0E0],"parents":[2147483647,0,0,1,1,2,2,3,3,4,4,5,5,6,6,7,7,8,8,9,9,10,10,11,11,12,12,13,13,14,14],"right_children":[2,4,6,8,10,12,14,16,18,20,22,24,26,28,30,-1,-1,-1,-1,-1,-1,-1,-1,-1,-1,-1,-1,-1,-1,-1,-1],"split_conditions":[9.832923E-1,3.5E0,3.8040102E-1,-4.8442933E-1,-7.7E0,-4.9E0,1.2975401E0,6.813187E-1,1E0,9.0242714E-1,2.235294E0,1.0105085E0,1E0,3.6E0,2.8796296E0,1.2113265E-2,5.1265612E-2,6.307668E-4,9.080363E-3,5.5999998E-2,-1.668035E-2,3.5782803E-2,7.232305E-3,5.5999998E-2,2.2995057E-2,-6.944865E-3,3.1212755E-4,-1.34120565E-2,3.4543786E-2,-2.5302023E-2,3.5525497E-2],"split_indices":[3,39,4,4,11,11,3,36,5,3,41,3,5,11,39,0,0,0,0,0,0,0,0,0,0,0,0,0,0,0,0],"split_type":[0,0,0,0,0,0,0,0,0,0,0,0,0,0,0,0,0,0,0,0,0,0,0,0,0,0,0,0,0,0,0],"sum_hessian":[3.707374E4,1.7973936E4,1.9099805E4,1.6430607E4,1.5433275E3,1.1192833E4,7.9069707E3,7.0230283E3,9.407579E3,8.063143E1,1.462696E3,2.2593655E1,1.1170239E4,6.631197E3,1.2757742E3,6.90068E3,1.2234791E2,6.6085054E3,2.7990737E3,7.227091E1,8.360515E0,1.183799E3,2.7889716E2,1.6838009E1,5.7556458E0,7.4242954E3,3.7459443E3,6.6103345E3,2.0862305E1,1.2562601E3,1.951401E1],"tree_param":{"num_deleted":"0","num_feature":"49","num_nodes":"31","size_leaf_vector":"1"}},{"base_weights":[2.3041738E-3,1.1626029E-1,-1.0848513E-1,8.188041E-2,4.6304294E-1,-6.453806E-2,-2.0644239E-1,1.722555E-1,4.1106403E-2,7E-1,3.8046274E-1,7E-1,-6.670512E-2,-1.7924668E-1,-2.9735002E-1,1.2615176E-2,4.4729304E-2,1.1741561E-3,8.377492E-3,5.5999998E-2,3.7080464E-3,2.3011502E-2,4.5659833E-2,5.5999998E-2,-1.4579067E-2,-7.470924E-3,-1.0697591E-3,-1.4519009E-2,2.5955256E-2,-2.4884522E-2,2.2044005E-2],"categories":[],"categories_nodes":[],"categories_segments":[],"categories_sizes":[],"default_left":[0,0,0,0,0,0,0,0,0,0,0,0,0,0,0,0,0,0,0,0,0,0,0,0,0,0,0,0,0,0,0],"id":15,"left_children":[1,3,5,7,9,11,13,15,17,19,21,23,25,27,29,-1,-1,-1,-1,-1,-1,-1,-1,-1,-1,-1,-1,-1,-1,-1,-1],"loss_changes":[4.6876068E2,2.1820784E2,8.1023575E1,6.1362717E1,6.70625E1,2.7813816E1,1.4365768E1,2.914746E1,1.9302109E1,3.4166412E0,2.7571259E1,9.015892E0,1.8450294E1,5.228424E0,1.07198105E1,0E0,0E0,0E0,0E0,0E0,0E0,0E0,0E0,0E0,0E0,0E0,0E0,0E0,0E0,0E0,0E0],"parents":[2147483647,0,0,1,1,2,2,3,3,4,4,5,5,6,6,7,7,8,8,9,9,10,10,11,11,12,12,13,13,14,14],"right_children":[2,4,6,8,10,12,14,16,18,20,22,24,26,28,30,-1,-1,-1,-1,-1,-1,-1,-1,-1,-1,-1,-1,-1,-1,-1,-1],"split_conditions":[9.832923E-1,3.5E0,1.1307272E0,8.58803E-1,-7.7E0,1E-1,1.2887083E0,2.592138E0,1E0,-1.5460551E2,2.0655737E0,5.1E1,1E0,5.2E0,3E0,1.2615176E-2,4.4729304E-2,1.1741561E-3,8.377492E-3,5.5999998E-2,3.7080464E-3,2.3011502E-2,4.5659833E-2,5.5999998E-2,-1.4579067E-2,-7.470924E-3,-1.0697591E-3,-1.4519009E-2,2.5955256E-2,-2.4884522E-2,2.2044005E-2],"split_indices":[3,39,3,3,11,12,3,35,5,2,40,37,5,22,23,0,0,0,0,0,0,0,0,0,0,0,0,0,0,0,0],"split_type":[0,0,0,0,0,0,0,0,0,0,0,0,0,0,0,0,0,0,0,0,0,0,0,0,0,0,0,0,0,0,0],"sum_hessian":[3.712004E4,1.8299363E4,1.8820678E4,1.6650457E4,1.6489061E3,1.2994562E4,5.826116E3,5.174068E3,1.1476389E4,8.0668785E1,1.5682374E3,2.521133E1,1.2969351E4,4.488515E3,1.3376012E3,4.988181E3,1.858867E2,8.110877E3,3.3655112E3,7.191334E1,8.755453E0,1.0564673E3,5.117701E2,1.4451759E1,1.0759571E1,8.641627E3,4.327723E3,4.469666E3,1.8849049E1,1.3071345E3,3.0466742E1],"tree_param":{"num_deleted":"0","num_feature":"49","num_nodes":"31","size_leaf_vector":"1"}},{"base_weights":[2.8051632E-3,9.901643E-2,-1.1810219E-1,6.290828E-2,3.705458E-1,-8.6822756E-2,-2.3560667E-1,1.444912E-1,1.7579738E-2,7E-1,3.045812E-1,-4.847116E-2,-1.2217226E-1,-2.4565001E-1,8.190295E-2,8.200008E-3,1.6675098E-2,-6.5875746E-4,6.0879616E-3,1.3447711E-2,5.5999998E-2,5.3784377E-3,3.026386E-2,-5.5659735E-3,2.544561E-3,-1.0057774E-2,2.0203909E-2,-1.8108657E-2,-2.8391222E-2,-8.351734E-3,5.299345E-2],"categories":[],"categories_nodes":[],"categories_segments":[],"categories_sizes":[],"default_left":[0,0,0,0,0,0,0,0,0,0,0,0,0,0,0,0,0,0,0,0,0,0,0,0,0,0,0,0,0,0,0],"id":16,"left_children":[1,3,5,7,9,11,13,15,17,19,21,23,25,27,29,-1,-1,-1,-1,-1,-1,-1,-1,-1,-1,-1,-1,-1,-1,-1,-1],"loss_changes":[4.3129007E2,2.0242131E2,6.0367554E1,6.739163E1,9.964276E1,1.7583908E1,1.1095093E1,1.7455017E1,1.7740576E1,1.1260529E0,4.056906E1,1.0581498E1,9.0858E0,6.989746E0,1.1914266E1,0E0,0E0,0E0,0E0,0E0,0E0,0E0,0E0,0E0,0E0,0E0,0E0,0E0,0E0,0E0,0E0],"parents":[2147483647,0,0,1,1,2,2,3,3,4,4,5,5,6,6,7,7,8,8,9,9,10,10,11,11,12,12,13,13,14,14],"right_children":[2,4,6,8,10,12,14,16,18,20,22,24,26,28,30,-1,-1,-1,-1,-1,-1,-1,-1,-1,-1,-1,-1,-1,-1,-1,-1],"split_conditions":[6.018559E0,2.7142856E0,1.1827006E0,-2.0097363E2,-7.7E0,1.0672584E0,2.8E0,1.875E0,1E0,6.666667E-1,1.0151515E0,1.7142857E0,3.142857E0,5.0173862E2,1.0151515E0,8.200008E-3,1.6675098E-2,-6.5875746E-4,6.0879616E-3,1.3447711E-2,5.5999998E-2,5.3784377E-3,3.026386E-2,-5.5659735E-3,2.544561E-3,-1.0057774E-2,2.0203909E-2,-1.8108657E-2,-2.8391222E-2,-8.351734E-3,5.299345E-2],"split_indices":[2,13,3,2,11,3,39,39,5,28,40,17,13,2,40,0,0,0,0,0,0,0,0,0,0,0,0,0,0,0,0],"split_type":[0,0,0,0,0,0,0,0,0,0,0,0,0,0,0,0,0,0,0,0,0,0,0,0,0,0,0,0,0,0,0],"sum_hessian":[3.706678E4,2.0642486E4,1.6424295E4,1.8221365E4,2.421121E3,1.2974066E4,3.4502273E3,6.5057065E3,1.1715659E4,1.00136185E2,2.3209849E3,6.2266465E3,6.74742E3,3.3452673E3,1.04959946E2,3.930487E3,2.5752192E3,8.1277803E3,3.5878792E3,5.4641247E0,9.467206E1,5.5112463E2,1.7698604E3,4.932593E3,1.294054E3,6.685285E3,6.2135E1,2.8473325E3,4.9793494E2,7.981975E1,2.5140203E1],"tree_param":{"num_deleted":"0","num_feature":"49","num_nodes":"31","size_leaf_vector":"1"}},{"base_weights":[2.6095563E-3,9.941169E-2,-1.137053E-1,7E-1,8.7007925E-2,-6.784363E-2,-1.9215985E-1,7E-1,4.3539166E-1,4.7381237E-2,2.1654892E-1,-1.05524845E-1,-3.213074E-2,-1.6895153E-1,-2.9239237E-1,5.5999998E-2,-1.7551186E-2,5.5999998E-2,1.2634486E-2,-4.1018715E-3,5.3628534E-3,9.459676E-3,2.410852E-2,-9.844212E-3,-7.8452466E-4,-3.5719972E-3,9.329555E-3,-1.5514526E-2,-8.402009E-3,-1.2243983E-2,-2.599203E-2],"categories":[],"categories_nodes":[],"categories_segments":[],"categories_sizes":[],"default_left":[0,0,0,0,0,0,0,0,0,0,0,0,0,0,0,0,0,0,0,0,0,0,0,0,0,0,0,0,0,0,0],"id":17,"left_children":[1,3,5,7,9,11,13,15,17,19,21,23,25,27,29,-1,-1,-1,-1,-1,-1,-1,-1,-1,-1,-1,-1,-1,-1,-1,-1],"loss_changes":[4.1735117E2,1.790026E2,6.055655E1,1.5428665E1,1.02131744E2,1.4296108E1,1.4405869E1,8.100708E0,2.840165E1,2.9579079E1,3.880069E1,8.65237E0,1.0209378E1,8.027084E0,5.2018814E0,0E0,0E0,0E0,0E0,0E0,0E0,0E0,0E0,0E0,0E0,0E0,0E0,0E0,0E0,0E0,0E0],"parents":[2147483647,0,0,1,1,2,2,3,3,4,4,5,5,6,6,7,7,8,8,9,9,10,10,11,11,12,12,13,13,14,14],"right_children":[2,4,6,8,10,12,14,16,18,20,22,24,26,28,30,-1,-1,-1,-1,-1,-1,-1,-1,-1,-1,-1,-1,-1,-1,-1,-1],"split_conditions":[9.988976E-1,-5.2777777E0,1.8218387E2,-7.7E0,2.142857E0,1.2857143E0,1.2975401E0,9.0242714E-1,1.0454545E0,1.08E0,1.4666667E0,1.7527135E3,2.2142856E0,1E0,1.2E0,5.5999998E-2,-1.7551186E-2,5.5999998E-2,1.2634486E-2,-4.1018715E-3,5.3628534E-3,9.459676E-3,2.410852E-2,-9.844212E-3,-7.8452466E-4,-3.5719972E-3,9.329555E-3,-1.5514526E-2,-8.402009E-3,-1.2243983E-2,-2.599203E-2],"split_indices":[3,45,2,11,39,48,3,3,41,48,40,1,39,5,45,0,0,0,0,0,0,0,0,0,0,0,0,0,0,0,0],"split_type":[0,0,0,0,0,0,0,0,0,0,0,0,0,0,0,0,0,0,0,0,0,0,0,0,0,0,0,0,0,0,0],"sum_hessian":[3.7057266E4,2.022611E4,1.6831158E4,3.3260782E2,1.9893502E4,1.0624737E4,6.20642E3,1.0474318E2,2.2786465E2,1.5235776E4,4.6577256E3,5.166223E3,5.4585146E3,5.0433413E3,1.1630784E3,9.601508E1,8.728099E0,7.5626945E1,1.522377E2,2.529129E3,1.2706647E4,2.1594246E3,2.4983008E3,4.3646064E3,8.0161633E2,5.03666E3,4.2185483E2,3.6226018E3,1.4207395E3,2.2225664E2,9.408217E2],"tree_param":{"num_deleted":"0","num_feature":"49","num_nodes":"31","size_leaf_vector":"1"}},{"base_weights":[6.418243E-5,8.330371E-2,-1.1139708E-1,5.887101E-2,3.6805728E-1,-7.64975E-2,-2.0475458E-1,1.2588523E-1,2.0078339E-2,7E-1,3.035699E-1,-1.0063194E-1,-2.7296707E-2,-1.8629627E-1,-3.6235037E-1,2.2711474E-2,8.645719E-3,-3.6571324E-3,3.455283E-3,6.0011265E-3,5.5999998E-2,1.3416253E-2,3.399887E-2,-8.43492E-3,1.7488088E-2,-5.8483356E-3,1.8161705E-3,-1.53265875E-2,2.099424E-2,-3.13971E-2,-1.5590864E-2],"categories":[],"categories_nodes":[],"categories_segments":[],"categories_sizes":[],"default_left":[0,0,0,0,0,0,0,0,0,0,0,0,0,0,0,0,0,0,0,0,0,0,0,0,0,0,0,0,0,0,0],"id":18,"left_children":[1,3,5,7,9,11,13,15,17,19,21,23,25,27,29,-1,-1,-1,-1,-1,-1,-1,-1,-1,-1,-1,-1,-1,-1,-1,-1],"loss_changes":[3.458938E2,1.4849277E2,5.191211E1,5.109852E1,6.3269516E1,1.3768379E1,1.2566727E1,2.0274689E1,1.8963448E1,3.5628357E0,2.6114853E1,1.2023239E1,8.793119E0,9.352463E0,2.1762848E0,0E0,0E0,0E0,0E0,0E0,0E0,0E0,0E0,0E0,0E0,0E0,0E0,0E0,0E0,0E0,0E0],"parents":[2147483647,0,0,1,1,2,2,3,3,4,4,5,5,6,6,7,7,8,8,9,9,10,10,11,11,12,12,13,13,14,14],"right_children":[2,4,6,8,10,12,14,16,18,20,22,24,26,28,30,-1,-1,-1,-1,-1,-1,-1,-1,-1,-1,-1,-1,-1,-1,-1,-1],"split_conditions":[1.0062128E0,3.2222223E0,1.1557971E0,-2.0097363E2,-7.7E0,1E0,5.0173862E2,-5.304189E2,1.19E0,2.1150064E0,-1E-1,3.3E0,2.9229114E0,3.5E0,1.2E0,2.2711474E-2,8.645719E-3,-3.6571324E-3,3.455283E-3,6.0011265E-3,5.5999998E-2,1.3416253E-2,3.399887E-2,-8.43492E-3,1.7488088E-2,-5.8483356E-3,1.8161705E-3,-1.53265875E-2,2.099424E-2,-3.13971E-2,-1.5590864E-2],"split_indices":[3,13,3,2,11,5,2,2,48,35,16,12,34,13,27,0,0,0,0,0,0,0,0,0,0,0,0,0,0,0,0],"split_type":[0,0,0,0,0,0,0,0,0,0,0,0,0,0,0,0,0,0,0,0,0,0,0,0,0,0,0,0,0,0,0],"sum_hessian":[3.7271355E4,2.1338076E4,1.5933278E4,1.9653645E4,1.6844324E3,1.1600613E4,4.3326646E3,7.2030303E3,1.2450614E4,9.7869675E1,1.5865626E3,7.7794526E3,3.821161E3,3.881498E3,4.5116672E2,7.271385E2,6.4758916E3,3.234285E3,9.21633E3,1.0015732E1,8.785394E1,7.5062616E2,8.359365E2,7.665383E3,1.14070114E2,1.9960114E3,1.8251497E3,3.8373123E3,4.418575E1,3.8025217E2,7.091455E1],"tree_param":{"num_deleted":"0","num_feature":"49","num_nodes":"31","size_leaf_vector":"1"}},{"base_weights":[4.238449E-3,8.675671E-2,-1.0801675E-1,7E-1,7.794358E-2,-6.720615E-2,-1.8340759E-1,1.014404E-2,7E-1,3.4845695E-2,1.965093E-1,-8.442554E-2,1.8877677E-3,-1.6797718E-1,-3.5829142E-1,2.682372E-2,5.5999998E-2,8.594823E-3,5.1623513E-4,4.5485638E-2,1.4370369E-2,-8.123037E-3,-3.907844E-4,-1.3887227E-3,2.891114E-2,-1.404906E-2,-2.5554309E-3,8.171461E-3,-2.9521545E-2],"categories":[],"categories_nodes":[],"categories_segments":[],"categories_sizes":[],"default_left":[0,0,0,0,0,0,0,0,0,0,0,0,0,0,0,0,0,0,0,0,0,0,0,0,0,0,0,0,0],"id":19,"left_children":[1,3,5,7,9,11,13,-1,15,17,19,21,23,25,27,-1,-1,-1,-1,-1,-1,-1,-1,-1,-1,-1,-1,-1,-1],"loss_changes":[3.4427396E2,1.8467899E2,4.842752E1,1.5452423E0,1.0881271E2,1.2179287E1,1.488446E1,0E0,2.1099854E-1,3.219872E1,3.5609375E1,1.1121868E1,1.4319052E1,5.246811E0,2.3398705E0,0E0,0E0,0E0,0E0,0E0,0E0,0E0,0E0,0E0,0E0,0E0,0E0,0E0,0E0],"parents":[2147483647,0,0,1,1,2,2,3,3,4,4,5,5,6,6,8,8,9,9,10,10,11,11,12,12,13,13,14,14],"right_children":[2,4,6,8,10,12,14,-1,16,18,20,22,24,26,28,-1,-1,-1,-1,-1,-1,-1,-1,-1,-1,-1,-1,-1,-1],"split_conditions":[1.0062128E0,-7.7E0,1.1307272E0,6.666667E-1,3E0,2.07E0,5.0173862E2,1.014404E-2,1.2078547E3,-2.1340471E2,2.631579E-1,1.74561E3,5E1,1.7073472E3,1.5336045E3,2.682372E-2,5.5999998E-2,8.594823E-3,5.1623513E-4,4.5485638E-2,1.4370369E-2,-8.123037E-3,-3.907844E-4,-1.3887227E-3,2.891114E-2,-1.404906E-2,-2.5554309E-3,8.171461E-3,-2.9521545E-2],"split_indices":[3,11,3,28,48,48,2,0,1,2,42,1,32,1,0,0,0,0,0,0,0,0,0,0,0,0,0,0,0],"split_type":[0,0,0,0,0,0,0,0,0,0,0,0,0,0,0,0,0,0,0,0,0,0,0,0,0,0,0,0,0],"sum_hessian":[3.7156375E4,2.1415762E4,1.5740615E4,1.2401677E2,2.1291744E4,1.021537E4,5.5252446E3,5.892338E0,1.18124435E2,1.5617767E4,5.673978E3,8.179557E3,2.0358134E3,5.0801177E3,4.451266E2,5.3669925E0,1.1275744E2,4.388414E3,1.1229352E4,2.4431302E2,5.429665E3,6.729071E3,1.4504863E3,1.932735E3,1.0307836E2,4.8084424E3,2.7167545E2,9.516594E0,4.3561E2],"tree_param":{"num_deleted":"0","num_feature":"49","num_nodes":"29","size_leaf_vector":"1"}},{"base_weights":[2.4144875E-3,8.203414E-2,-1.03353746E-1,5.8488363E-1,6.627635E-2,-5.782514E-2,-1.7798366E-1,7E-1,3.750346E-1,3.2392267E-2,1.6852999E-1,-6.2754616E-2,1.98592E-1,-1.6484278E-1,-3.4457E-1,9.713106E-3,5.5999998E-2,-8.503873E-3,3.6058243E-2,7.4600107E-3,5.805482E-4,2.3974214E-2,1.0376769E-2,-5.142029E-3,4.2223327E-2,4.8133223E-3,5.5999998E-2,-1.331705E-2,4.249134E-2,-3.0963477E-2,-1.8461859E-2],"categories":[],"categories_nodes":[],"categories_segments":[],"categories_sizes":[],"default_left":[0,0,0,0,0,0,0,0,0,0,0,0,0,0,0,0,0,0,0,0,0,0,0,0,0,0,0,0,0,0,0],"id":20,"left_children":[1,3,5,7,9,11,13,15,17,19,21,23,25,27,29,-1,-1,-1,-1,-1,-1,-1,-1,-1,-1,-1,-1,-1,-1,-1,-1],"loss_changes":[3.121743E2,1.6761272E2,5.4075043E1,4.5717194E1,7.1052216E1,1.25658455E1,1.3170853E1,1.605957E0,1.9095627E1,2.3569565E1,2.595398E1,8.8673935E0,1.4679065E1,6.5335846E0,2.0170403E0,0E0,0E0,0E0,0E0,0E0,0E0,0E0,0E0,0E0,0E0,0E0,0E0,0E0,0E0,0E0,0E0],"parents":[2147483647,0,0,1,1,2,2,3,3,4,4,5,5,6,6,7,7,8,8,9,9,10,10,11,11,12,12,13,13,14,14],"right_children":[2,4,6,8,10,12,14,16,18,20,22,24,26,28,30,-1,-1,-1,-1,-1,-1,-1,-1,-1,-1,-1,-1,-1,-1,-1,-1],"split_conditions":[6.018559E0,-4.3E0,1.8218387E2,-7.7E0,3E0,3.142857E0,5.0173862E2,6.666667E-1,1.2844037E0,-2.1340471E2,-2.8E0,2.1089382E3,3.125E-1,4E0,7.3333335E-1,9.713106E-3,5.5999998E-2,-8.503873E-3,3.6058243E-2,7.4600107E-3,5.805482E-4,2.3974214E-2,1.0376769E-2,-5.142029E-3,4.2223327E-2,4.8133223E-3,5.5999998E-2,-1.331705E-2,4.249134E-2,-3.0963477E-2,-1.8461859E-2],"split_indices":[2,45,2,11,48,13,2,28,40,2,33,0,10,11,19,0,0,0,0,0,0,0,0,0,0,0,0,0,0,0,0],"split_type":[0,0,0,0,0,0,0,0,0,0,0,0,0,0,0,0,0,0,0,0,0,0,0,0,0,0,0,0,0,0,0],"sum_hessian":[3.705973E4,2.1144672E4,1.5915059E4,6.40994E2,2.0503678E4,9.887538E3,6.0275205E3,1.2307906E2,5.179149E2,1.540286E4,5.100817E3,9.702547E3,1.849908E2,5.5897715E3,4.3774918E2,5.9524136E0,1.1712665E2,6.996468E1,4.4795026E2,4.499063E3,1.0903797E4,1.1623048E3,3.9385122E3,9.678853E3,2.3694607E1,1.5040782E2,3.4582973E1,5.5778335E3,1.1937857E1,3.1574277E2,1.220064E2],"tree_param":{"num_deleted":"0","num_feature":"49","num_nodes":"31","size_leaf_vector":"1"}},{"base_weights":[1.6236742E-4,5.739759E-2,-1.2401363E-1,5.081932E-2,7E-1,-9.410918E-2,-2.1126734E-1,1.8530324E-2,1.6542393E-1,7E-1,-1.685574E-2,-1.2283947E-1,-3.2888E-2,-1.8999378E-1,-3.3451158E-1,-4.3784054E-3,2.9458904E-3,6.750389E-3,1.8698938E-2,5.5999998E-2,9.303385E-3,-1.1288694E-2,-4.5614876E-4,-3.8551595E-3,1.6506901E-2,-1.55194765E-2,3.262478E-2,-2.8628265E-2,-1.1495519E-2],"categories":[],"categories_nodes":[],"categories_segments":[],"categories_sizes":[],"default_left":[0,0,0,0,0,0,0,0,0,0,0,0,0,0,0,0,0,0,0,0,0,0,0,0,0,0,0,0,0],"id":21,"left_children":[1,3,5,7,9,11,13,15,17,19,-1,21,23,25,27,-1,-1,-1,-1,-1,-1,-1,-1,-1,-1,-1,-1,-1,-1],"loss_changes":[2.6344385E2,1.5954794E2,3.0496368E1,9.339836E1,7.6971283E0,1.5310066E1,7.7740326E0,2.6417427E1,3.0680603E1,1.6650848E0,0E0,1.2660446E1,1.0263794E1,6.2895126E0,1.8579369E0,0E0,0E0,0E0,0E0,0E0,0E0,0E0,0E0,0E0,0E0,0E0,0E0,0E0,0E0],"parents":[2147483647,0,0,1,1,2,2,3,3,4,4,5,5,6,6,7,7,8,8,9,9,11,11,12,12,13,13,14,14],"right_children":[2,4,6,8,10,12,14,16,18,20,-1,22,24,26,28,-1,-1,-1,-1,-1,-1,-1,-1,-1,-1,-1,-1,-1,-1],"split_conditions":[1.0438495E0,8.2E0,2.707231E2,2.142857E0,6.666667E-1,1E0,5.0173862E2,1.08E0,3E0,3.7E0,-1.685574E-2,2.16E0,2.4E0,4.5333333E0,1.25E0,-4.3784054E-3,2.9458904E-3,6.750389E-3,1.8698938E-2,5.5999998E-2,9.303385E-3,-1.1288694E-2,-4.5614876E-4,-3.8551595E-3,1.6506901E-2,-1.55194765E-2,3.262478E-2,-2.8628265E-2,-1.1495519E-2],"split_indices":[3,13,2,39,12,5,2,48,48,43,0,48,39,24,27,0,0,0,0,0,0,0,0,0,0,0,0,0,0],"split_type":[0,0,0,0,0,0,0,0,0,0,0,0,0,0,0,0,0,0,0,0,0,0,0,0,0,0,0,0,0],"sum_hessian":[3.705664E4,2.5366744E4,1.16898955E4,2.5234988E4,1.317565E2,8.709321E3,2.9805737E3,1.96903E4,5.544688E3,1.233242E2,8.432295E0,5.924676E3,2.784646E3,2.5453738E3,4.3520016E2,3.9317283E3,1.5758572E4,2.538389E3,3.0062988E3,1.1731369E2,6.010511E0,5.123659E3,8.010164E2,2.618776E3,1.6587009E2,2.52946E3,1.59136095E1,3.8605276E2,4.914741E1],"tree_param":{"num_deleted":"0","num_feature":"49","num_nodes":"29","size_leaf_vector":"1"}},{"base_weights":[2.6767526E-3,8.913882E-2,-8.2122505E-2,7E-1,8.1430286E-2,-4.2682286E-2,-1.6899595E-1,7E-1,-3.064842E-2,5.7204995E-2,2.25386E-1,-4.634512E-2,4.9101183E-1,-1.22923985E-1,-2.1429057E-1,8.913605E-3,5.5999998E-2,3.0851439E-3,1.2182949E-2,2.110272E-2,-2.1922577E-4,-7.390144E-3,-1.8214161E-3,-4.7653806E-3,5.5999998E-2,2.9214615E-2,-1.0219621E-2,-1.7664047E-2,1.44922985E-2],"categories":[],"categories_nodes":[],"categories_segments":[],"categories_sizes":[],"default_left":[0,0,0,0,0,0,0,0,0,0,0,0,0,0,0,0,0,0,0,0,0,0,0,0,0,0,0,0,0],"id":22,"left_children":[1,3,5,7,9,11,13,15,-1,17,19,21,23,25,27,-1,-1,-1,-1,-1,-1,-1,-1,-1,-1,-1,-1,-1,-1],"loss_changes":[2.7160095E2,1.2654309E2,6.405971E1,7.144287E0,6.353795E1,2.5273003E1,1.2151367E1,1.722641E0,0E0,2.7649673E1,2.3040573E1,1.3866909E1,2.2084028E1,6.965931E0,7.689331E0,0E0,0E0,0E0,0E0,0E0,0E0,0E0,0E0,0E0,0E0,0E0,0E0,0E0,0E0],"parents":[2147483647,0,0,1,1,2,2,3,3,4,4,5,5,6,6,7,7,9,9,10,10,11,11,12,12,13,13,14,14],"right_children":[2,4,6,8,10,12,14,16,-1,18,20,22,24,26,28,-1,-1,-1,-1,-1,-1,-1,-1,-1,-1,-1,-1,-1,-1],"split_conditions":[-3.999128E1,-7.7E0,1.8218387E2,9.0242714E-1,2.625E0,5.230769E0,2.707231E2,6.666667E-1,-3.064842E-2,2.1076922E0,2.235294E0,1.08E0,6.132597E-1,-1.5E0,2.8796296E0,8.913605E-3,5.5999998E-2,3.0851439E-3,1.2182949E-2,2.110272E-2,-2.1922577E-4,-7.390144E-3,-1.8214161E-3,-4.7653806E-3,5.5999998E-2,2.9214615E-2,-1.0219621E-2,-1.7664047E-2,1.44922985E-2],"split_indices":[2,11,2,3,13,39,2,28,0,40,41,48,36,33,39,0,0,0,0,0,0,0,0,0,0,0,0,0,0],"split_type":[0,0,0,0,0,0,0,0,0,0,0,0,0,0,0,0,0,0,0,0,0,0,0,0,0,0,0,0,0],"sum_hessian":[3.703225E4,1.833749E4,1.869476E4,1.2220636E2,1.8215285E4,1.2860109E4,5.834649E3,1.1706797E2,5.1383934E0,1.5593886E4,2.6213987E3,1.27737295E4,8.6380356E1,2.8965344E3,2.9381147E3,6.0666895E0,1.1100128E2,1.3040768E4,2.5531187E3,2.2443518E3,3.7704694E2,4.32275E3,8.4509795E3,4.4070415E1,4.2309937E1,2.7193882E1,2.8693406E3,2.8914612E3,4.6653423E1],"tree_param":{"num_deleted":"0","num_feature":"49","num_nodes":"29","size_leaf_vector":"1"}},{"base_weights":[2.619171E-3,7.265588E-2,-9.418429E-2,7E-1,6.527616E-2,-5.519634E-2,-1.7146672E-1,-5.501958E-2,7E-1,3.4010842E-2,1.9440535E-1,-7.999952E-2,-6.486539E-3,-1.5756942E-1,-3.3385667E-1,1.6609227E-2,-1.9951338E-2,3.319693E-2,5.5999998E-2,5.864914E-3,-2.0801497E-4,8.581374E-3,2.1133061E-2,-6.5105343E-3,5.5999998E-2,-1.7552008E-3,1.5395888E-2,-1.2988041E-2,1.4565319E-2,-1.9106638E-2,-3.0921929E-2],"categories":[],"categories_nodes":[],"categories_segments":[],"categories_sizes":[],"default_left":[0,0,0,0,0,0,0,0,0,0,0,0,0,0,0,0,0,0,0,0,0,0,0,0,0,0,0,0,0,0,0],"id":23,"left_children":[1,3,5,7,9,11,13,15,17,19,21,23,25,27,29,-1,-1,-1,-1,-1,-1,-1,-1,-1,-1,-1,-1,-1,-1,-1,-1],"loss_changes":[2.5184052E2,1.39988E2,4.696666E1,9.748199E0,8.640659E1,1.2516432E1,1.1768433E1,1.1107213E0,1.9180756E0,2.4822548E1,2.5314667E1,1.0630936E1,1.0815318E1,7.920746E0,1.9504395E0,0E0,0E0,0E0,0E0,0E0,0E0,0E0,0E0,0E0,0E0,0E0,0E0,0E0,0E0,0E0,0E0],"parents":[2147483647,0,0,1,1,2,2,3,3,4,4,5,5,6,6,7,7,8,8,9,9,10,10,11,11,12,12,13,13,14,14],"right_children":[2,4,6,8,10,12,14,16,18,20,22,24,26,28,30,-1,-1,-1,-1,-1,-1,-1,-1,-1,-1,-1,-1,-1,-1,-1,-1],"split_conditions":[6.018559E0,-7.7E0,1.1307272E0,5.3333336E-1,2.4827585E0,1E0,5.0173862E2,1.0762428E3,5.230769E0,-1.4521597E2,1.4869109E0,2.0325897E3,2.2142856E0,3.3333333E0,3.5555556E-1,1.6609227E-2,-1.9951338E-2,3.319693E-2,5.5999998E-2,5.864914E-3,-2.0801497E-4,8.581374E-3,2.1133061E-2,-6.5105343E-3,5.5999998E-2,-1.7552008E-3,1.5395888E-2,-1.2988041E-2,1.4565319E-2,-1.9106638E-2,-3.0921929E-2],"split_indices":[2,11,3,19,39,5,2,0,39,2,40,1,39,13,44,0,0,0,0,0,0,0,0,0,0,0,0,0,0,0,0],"split_type":[0,0,0,0,0,0,0,0,0,0,0,0,0,0,0,0,0,0,0,0,0,0,0,0,0,0,0,0,0,0,0],"sum_hessian":[3.7134676E4,2.1547506E4,1.5587173E4,1.4946426E2,2.1398041E4,1.036332E4,5.223852E3,1.6430214E1,1.3303406E2,1.7229236E4,4.168805E3,6.863604E3,3.499716E3,4.8149883E3,4.088639E2,6.5214148E0,9.908799E0,3.0042381E1,1.0299167E2,8.311553E3,8.917683E3,1.8559048E3,2.3129006E3,6.857554E3,6.050127E0,3.2492092E3,2.505066E2,4.749243E3,6.574496E1,1.4913087E2,2.59733E2],"tree_param":{"num_deleted":"0","num_feature":"49","num_nodes":"31","size_leaf_vector":"1"}},{"base_weights":[1.8858912E-3,8.2402386E-2,-7.836991E-2,7E-1,7.4146114E-2,-3.377457E-2,-1.3834225E-1,2.3169653E-2,7E-1,3.644016E-2,1.5165788E-1,-3.6473375E-2,7E-1,-1.432419E-1,2.2176492E-1,2.2640359E-2,5.5999998E-2,1.1278122E-3,7.933809E-3,8.538571E-3,1.945352E-2,-4.794947E-3,7.783811E-4,5.5999998E-2,3.2447386E-3,-9.809611E-3,-1.7785085E-2,5.5999998E-2,9.516588E-3],"categories":[],"categories_nodes":[],"categories_segments":[],"categories_sizes":[],"default_left":[0,0,0,0,0,0,0,0,0,0,0,0,0,0,0,0,0,0,0,0,0,0,0,0,0,0,0,0,0],"id":24,"left_children":[1,3,5,7,9,11,13,-1,15,17,19,21,23,25,27,-1,-1,-1,-1,-1,-1,-1,-1,-1,-1,-1,-1,-1,-1],"loss_changes":[2.3988586E2,1.3822351E2,4.9704796E1,1.9798279E0,5.376822E1,2.6229763E1,1.4087677E1,0E0,9.707031E-1,1.7357021E1,2.4725662E1,1.1551753E1,2.7246609E0,1.2733597E1,8.797244E0,0E0,0E0,0E0,0E0,0E0,0E0,0E0,0E0,0E0,0E0,0E0,0E0,0E0,0E0],"parents":[2147483647,0,0,1,1,2,2,3,3,4,4,5,5,6,6,8,8,9,9,10,10,11,11,12,12,13,13,14,14],"right_children":[2,4,6,8,10,12,14,-1,16,18,20,22,24,26,28,-1,-1,-1,-1,-1,-1,-1,-1,-1,-1,-1,-1,-1,-1],"split_conditions":[-3.999128E1,-7.7E0,1.2946918E2,1.3558949E3,2E0,5.9E0,3.142857E0,2.3169653E-2,-1.8E1,1.8358174E3,1E0,1E0,1.6056822E1,3.3537402E2,3.3E0,2.2640359E-2,5.5999998E-2,1.1278122E-3,7.933809E-3,8.538571E-3,1.945352E-2,-4.794947E-3,7.783811E-4,5.5999998E-2,3.2447386E-3,-9.809611E-3,-1.7785085E-2,5.5999998E-2,9.516588E-3],"split_indices":[2,11,2,1,39,13,13,0,33,1,5,5,2,2,13,0,0,0,0,0,0,0,0,0,0,0,0,0,0],"split_type":[0,0,0,0,0,0,0,0,0,0,0,0,0,0,0,0,0,0,0,0,0,0,0,0,0,0,0,0,0],"sum_hessian":[3.7111066E4,1.8526676E4,1.858439E4,1.3146368E2,1.8395213E4,1.066145E4,7.9229404E3,1.4640411E1,1.1682328E2,1.2377952E4,6.0172607E3,1.0632709E4,2.8741116E1,7.8177295E3,1.05210846E2,8.359519E0,1.0846376E2,9.13049E3,3.2474614E3,4.0388245E3,1.9784364E3,7.054324E3,3.578385E3,2.1742178E1,6.998937E0,6.2046494E3,1.6130802E3,6.6294703E0,9.8581375E1],"tree_param":{"num_deleted":"0","num_feature":"49","num_nodes":"29","size_leaf_vector":"1"}},{"base_weights":[3.7817333E-3,6.837278E-2,-8.828705E-2,6.0305953E-2,7E-1,-5.5765923E-2,-1.8423544E-1,2.4311101E-2,1.5534161E-1,-7.460345E-3,7E-1,-1.2560666E-1,-3.6788058E-2,-2.7594513E-1,-1.5684496E-1,2.465381E-4,6.455831E-3,1.5092795E-2,1.936396E-3,5.5999998E-2,-2.0065336E-2,-1.0394387E-2,5.5999998E-2,-3.301326E-3,2.0178033E-2,-1.0261334E-2,-2.424278E-2,-1.3000221E-2,2.6307711E-2],"categories":[],"categories_nodes":[],"categories_segments":[],"categories_sizes":[],"default_left":[0,0,0,0,0,0,0,0,0,0,0,0,0,0,0,0,0,0,0,0,0,0,0,0,0,0,0,0,0],"id":25,"left_children":[1,3,5,7,9,11,13,15,17,-1,19,21,23,25,27,-1,-1,-1,-1,-1,-1,-1,-1,-1,-1,-1,-1,-1,-1],"loss_changes":[2.2067448E2,1.4220628E2,4.7726448E1,7.391836E1,7.1546173E0,1.514957E1,9.69014E0,1.876891E1,2.5901428E1,0E0,6.13118E0,1.23499565E1,1.1704639E1,3.4852982E0,8.353119E0,0E0,0E0,0E0,0E0,0E0,0E0,0E0,0E0,0E0,0E0,0E0,0E0,0E0,0E0],"parents":[2147483647,0,0,1,1,2,2,3,3,4,4,5,5,6,6,7,7,8,8,10,10,11,11,12,12,13,13,14,14],"right_children":[2,4,6,8,10,12,14,16,18,-1,20,22,24,26,28,-1,-1,-1,-1,-1,-1,-1,-1,-1,-1,-1,-1,-1,-1],"split_conditions":[6.018559E0,7.3E0,1.1557971E0,3E0,1E0,8E-1,5.714286E-1,1E0,1.0638E4,-7.460345E-3,1.4285715E0,5.230769E0,4.2E0,3.5E-1,3.142857E0,2.465381E-4,6.455831E-3,1.5092795E-2,1.936396E-3,5.5999998E-2,-2.0065336E-2,-1.0394387E-2,5.5999998E-2,-3.301326E-3,2.0178033E-2,-1.0261334E-2,-2.424278E-2,-1.3000221E-2,2.6307711E-2],"split_indices":[2,13,3,48,5,48,40,5,37,0,12,39,22,10,13,0,0,0,0,0,0,0,0,0,0,0,0,0,0],"split_type":[0,0,0,0,0,0,0,0,0,0,0,0,0,0,0,0,0,0,0,0,0,0,0,0,0,0,0,0,0],"sum_hessian":[3.709636E4,2.1802912E4,1.5293448E4,2.1605188E4,1.977257E2,1.142476E4,3.868688E3,1.5672552E4,5.9326353E3,1.0644493E1,1.8708119E2,2.4376755E3,8.987085E3,8.85949E2,2.982739E3,1.1389179E4,4.283373E3,4.7291265E3,1.203509E3,1.8117801E2,5.9031816E0,2.430974E3,6.701481E0,8.851473E3,1.3561208E2,1.3935832E2,7.465907E2,2.949458E3,3.3280952E1],"tree_param":{"num_deleted":"0","num_feature":"49","num_nodes":"29","size_leaf_vector":"1"}},{"base_weights":[1.7322617E-3,5.084895E-2,-1.1272987E-1,7E-1,4.5421083E-2,-8.6086646E-2,-1.8825239E-1,1.4236013E-2,7E-1,2.4359647E-2,1.7278647E-1,-1.1630927E-1,-2.4577076E-2,-1.9843367E-1,1.1745102E-1,5.5999998E-2,-6.021658E-3,6.978697E-3,4.7155532E-5,2.5723597E-2,1.0978415E-2,-1.0646745E-2,-3.027901E-3,-3.2748496E-3,1.7089007E-2,-1.4318379E-2,-2.5895089E-2,-5.0709522E-3,4.815259E-2],"categories":[],"categories_nodes":[],"categories_segments":[],"categories_sizes":[],"default_left":[0,0,0,0,0,0,0,0,0,0,0,0,0,0,0,0,0,0,0,0,0,0,0,0,0,0,0,0,0],"id":26,"left_children":[1,3,5,7,9,11,13,-1,15,17,19,21,23,25,27,-1,-1,-1,-1,-1,-1,-1,-1,-1,-1,-1,-1,-1,-1],"loss_changes":[2.08146E2,1.24764595E2,2.2354294E1,3.8654175E0,6.9134094E1,1.5268967E1,9.10183E0,0E0,3.667038E0,3.3055267E1,1.9308868E1,7.2326202E0,1.0630116E1,6.793129E0,8.539826E0,0E0,0E0,0E0,0E0,0E0,0E0,0E0,0E0,0E0,0E0,0E0,0E0,0E0,0E0],"parents":[2147483647,0,0,1,1,2,2,3,3,4,4,5,5,6,6,8,8,9,9,10,10,11,11,12,12,13,13,14,14],"right_children":[2,4,6,8,10,12,14,-1,16,18,20,22,24,26,28,-1,-1,-1,-1,-1,-1,-1,-1,-1,-1,-1,-1,-1,-1],"split_conditions":[1.0451409E0,-7.7E0,1.1827006E0,4.8235292E0,3.91E0,1E0,2.8796296E0,1.4236013E-2,1.4272825E3,-2.0903458E2,4.2592594E-1,1.96E0,2.4E0,5.0173862E2,1.0151515E0,5.5999998E-2,-6.021658E-3,6.978697E-3,4.7155532E-5,2.5723597E-2,1.0978415E-2,-1.0646745E-2,-3.027901E-3,-3.2748496E-3,1.7089007E-2,-1.4318379E-2,-2.5895089E-2,-5.0709522E-3,4.815259E-2],"split_indices":[3,11,3,39,48,5,39,0,0,2,38,48,39,2,40,0,0,0,0,0,0,0,0,0,0,0,0,0,0],"split_type":[0,0,0,0,0,0,0,0,0,0,0,0,0,0,0,0,0,0,0,0,0,0,0,0,0,0,0,0,0],"sum_hessian":[3.7012137E4,2.590037E4,1.1111769E4,1.3544264E2,2.5764926E4,8.217532E3,2.894236E3,1.5747207E1,1.1969544E2,2.211131E4,3.6536157E3,5.507358E3,2.7101743E3,2.8019246E3,9.231139E1,1.1429504E2,5.4004083E0,6.063031E3,1.6048279E4,7.021846E2,2.9514312E3,4.534604E3,9.727541E2,2.5375654E3,1.7260876E2,2.4287324E3,3.7319217E2,6.7551926E1,2.4759466E1],"tree_param":{"num_deleted":"0","num_feature":"49","num_nodes":"29","size_leaf_vector":"1"}},{"base_weights":[1.0338685E-3,5.833575E-2,-8.2227044E-2,5.270977E-2,7E-1,-4.7626946E-2,-1.5336621E-1,2.9704208E-2,1.7192169E-1,3.9017656E-1,7E-1,-5.6704022E-2,9.769914E-2,-2.5327328E-1,-1.2969509E-1,6.5512047E-3,2.9122198E-4,1.1985602E-2,3.460092E-2,4.1851673E-2,-3.1505685E-2,5.5999998E-2,-5.8500534E-3,-6.804422E-3,-1.848303E-3,5.7533537E-3,5.5999998E-2,-1.2633533E-2,-2.4726842E-2,-1.0600714E-2,3.573902E-2],"categories":[],"categories_nodes":[],"categories_segments":[],"categories_sizes":[],"default_left":[0,0,0,0,0,0,0,0,0,0,0,0,0,0,0,0,0,0,0,0,0,0,0,0,0,0,0,0,0,0,0],"id":27,"left_children":[1,3,5,7,9,11,13,15,17,19,21,23,25,27,29,-1,-1,-1,-1,-1,-1,-1,-1,-1,-1,-1,-1,-1,-1,-1,-1],"loss_changes":[1.7768938E2,1.02307495E2,3.7356888E1,6.0129295E1,3.639862E0,1.3513815E1,1.1721527E1,2.49999E1,2.0395386E1,5.062313E0,3.6255417E0,9.156832E0,1.3284434E1,4.9892693E0,6.691307E0,0E0,0E0,0E0,0E0,0E0,0E0,0E0,0E0,0E0,0E0,0E0,0E0,0E0,0E0,0E0,0E0],"parents":[2147483647,0,0,1,1,2,2,3,3,4,4,5,5,6,6,7,7,8,8,9,9,10,10,11,11,12,12,13,13,14,14],"right_children":[2,4,6,8,10,12,14,16,18,20,22,24,26,28,30,-1,-1,-1,-1,-1,-1,-1,-1,-1,-1,-1,-1,-1,-1,-1,-1],"split_conditions":[6.018559E0,8.4E0,1.1307272E0,2.5E0,6.4444447E0,2.1111112E0,5.714286E-1,-2.1340471E2,4.66E0,1.1809539E3,1.4272825E3,1.3114754E0,2.1E0,2.1428572E-1,5.2E0,6.5512047E-3,2.9122198E-4,1.1985602E-2,3.460092E-2,4.1851673E-2,-3.1505685E-2,5.5999998E-2,-5.8500534E-3,-6.804422E-3,-1.848303E-3,5.7533537E-3,5.5999998E-2,-1.2633533E-2,-2.4726842E-2,-1.0600714E-2,3.573902E-2],"split_indices":[2,13,3,13,39,39,40,2,34,0,0,40,19,44,22,0,0,0,0,0,0,0,0,0,0,0,0,0,0,0,0],"split_type":[0,0,0,0,0,0,0,0,0,0,0,0,0,0,0,0,0,0,0,0,0,0,0,0,0,0,0,0,0,0,0],"sum_hessian":[3.723088E4,2.2054924E4,1.5175954E4,2.1918541E4,1.363816E2,1.021308E4,4.9628745E3,1.837538E4,3.5431611E3,4.3314697E1,9.30669E1,9.614541E3,5.985388E2,9.471511E2,4.0157234E3,6.1173184E3,1.22580625E4,3.2683057E3,2.7485562E2,3.7536217E1,5.778481E0,8.769892E1,5.367986E0,5.210519E3,4.404022E3,5.8527136E2,1.3267419E1,3.5243536E2,5.9471576E2,3.9973276E3,1.8395885E1],"tree_param":{"num_deleted":"0","num_feature":"49","num_nodes":"31","size_leaf_vector":"1"}},{"base_weights":[2.5429572E-3,8.275989E-2,-5.5187467E-2,7E-1,7.481171E-2,-1.8642543E-2,-1.1896948E-1,7E-1,-1.07121535E-1,5.0840165E-2,1.7706184E-1,-4.654296E-2,3.4596592E-2,-1.2409929E-1,3.1245556E-1,2.0696668E-2,5.5999998E-2,7.210638E-3,-3.1282425E-2,1.644932E-3,7.0139025E-3,1.3050872E-2,5.2064314E-2,-3.9430927E-3,3.1381853E-2,7.3373285E-3,-2.610133E-4,-9.178084E-3,-2.5175506E-2,-6.195844E-3,4.8272476E-2],"categories":[],"categories_nodes":[],"categories_segments":[],"categories_sizes":[],"default_left":[0,0,0,0,0,0,0,0,0,0,0,0,0,0,0,0,0,0,0,0,0,0,0,0,0,0,0,0,0,0,0],"id":28,"left_children":[1,3,5,7,9,11,13,15,17,19,21,23,25,27,29,-1,-1,-1,-1,-1,-1,-1,-1,-1,-1,-1,-1,-1,-1,-1,-1],"loss_changes":[1.7130342E2,8.394187E1,5.012117E1,9.361351E0,3.7512344E1,2.0338123E1,1.7456757E1,6.629242E0,1.0641717E0,1.3827232E1,1.9144608E1,1.0921164E1,1.0204943E1,1.3825935E1,1.071705E1,0E0,0E0,0E0,0E0,0E0,0E0,0E0,0E0,0E0,0E0,0E0,0E0,0E0,0E0,0E0,0E0],"parents":[2147483647,0,0,1,1,2,2,3,3,4,4,5,5,6,6,7,7,8,8,9,9,10,10,11,11,12,12,13,13,14,14],"right_children":[2,4,6,8,10,12,14,16,18,20,22,24,26,28,30,-1,-1,-1,-1,-1,-1,-1,-1,-1,-1,-1,-1,-1,-1,-1,-1],"split_conditions":[-9.415048E1,-7.7E0,1.2474033E2,-1.4521597E2,2.8796296E0,1E0,3.5E0,5.230769E0,1.2078547E3,2.25E0,-1.1136838E2,3.5555556E0,4E0,5.0173862E2,1.125E0,2.0696668E-2,5.5999998E-2,7.210638E-3,-3.1282425E-2,1.644932E-3,7.0139025E-3,1.3050872E-2,5.2064314E-2,-3.9430927E-3,3.1381853E-2,7.3373285E-3,-2.610133E-4,-9.178084E-3,-2.5175506E-2,-6.195844E-3,4.8272476E-2],"split_indices":[2,11,2,2,39,5,39,39,1,48,2,12,32,2,12,0,0,0,0,0,0,0,0,0,0,0,0,0,0,0,0],"split_type":[0,0,0,0,0,0,0,0,0,0,0,0,0,0,0,0,0,0,0,0,0,0,0,0,0,0,0,0,0,0,0],"sum_hessian":[3.6976062E4,1.54756045E4,2.1500457E4,1.7499086E2,1.5300614E4,1.3671551E4,7.8289062E3,1.6136412E2,1.36267395E1,1.2397576E4,2.9030376E3,8.973037E3,4.6985137E3,7.738073E3,9.083292E1,3.6464348E1,1.2489977E2,8.027476E0,5.599263E0,6.808083E3,5.589493E3,2.8218538E3,8.118361E1,8.918576E3,5.4460556E1,1.8743917E3,2.8241218E3,7.3778877E3,3.601856E2,3.88356E1,5.1997314E1],"tree_param":{"num_deleted":"0","num_feature":"49","num_nodes":"31","size_leaf_vector":"1"}},{"base_weights":[2.716283E-3,5.006394E-2,-8.3158374E-2,7E-1,4.450931E-2,-5.5853553E-2,-1.6376123E-1,7E-1,1.3561934E-1,1.5202259E-2,1.168971E-1,-5.684428E-2,5.5999998E-2,-1.4564581E-1,-3.1709993E-1,1.9491335E-2,5.5999998E-2,1.6334333E-2,-5.8925035E-3,-1.3287002E-4,5.8867293E-3,8.340523E-3,3.1123336E-2,-6.3169543E-3,-9.589493E-4,-1.2401155E-2,9.060193E-3,-2.9162817E-2,-1.581648E-2],"categories":[],"categories_nodes":[],"categories_segments":[],"categories_sizes":[],"default_left":[0,0,0,0,0,0,0,0,0,0,0,0,0,0,0,0,0,0,0,0,0,0,0,0,0,0,0,0,0],"id":29,"left_children":[1,3,5,7,9,11,13,15,17,19,21,23,-1,25,27,-1,-1,-1,-1,-1,-1,-1,-1,-1,-1,-1,-1,-1,-1],"loss_changes":[1.5050783E2,9.983084E1,2.8943352E1,7.494972E0,5.0255753E1,1.12862E1,9.2174835E0,7.2887115E0,4.678815E-1,1.6640207E1,2.348574E1,9.738321E0,0E0,7.2953835E0,1.8918686E0,0E0,0E0,0E0,0E0,0E0,0E0,0E0,0E0,0E0,0E0,0E0,0E0,0E0,0E0],"parents":[2147483647,0,0,1,1,2,2,3,3,4,4,5,5,6,6,7,7,8,8,9,9,10,10,11,11,13,13,14,14],"right_children":[2,4,6,8,10,12,14,16,18,20,22,24,-1,26,28,-1,-1,-1,-1,-1,-1,-1,-1,-1,-1,-1,-1,-1,-1],"split_conditions":[1.0213617E0,-7.7E0,1.1676767E0,1.96E2,1.9736842E0,2.15E1,5.0173862E2,5.230769E0,1.1428809E3,1.8358174E3,4.66E0,1E0,5.5999998E-2,2.8796296E0,7.3333335E-1,1.9491335E-2,5.5999998E-2,1.6334333E-2,-5.8925035E-3,-1.3287002E-4,5.8867293E-3,8.340523E-3,3.1123336E-2,-6.3169543E-3,-9.589493E-4,-1.2401155E-2,9.060193E-3,-2.9162817E-2,-1.581648E-2],"split_indices":[3,11,3,37,39,41,2,39,0,1,34,5,0,39,19,0,0,0,0,0,0,0,0,0,0,0,0,0,0],"split_type":[0,0,0,0,0,0,0,0,0,0,0,0,0,0,0,0,0,0,0,0,0,0,0,0,0,0,0,0,0],"sum_hessian":[3.700328E4,2.385396E4,1.314932E4,1.6909148E2,2.368487E4,9.82515E3,3.3241697E3,1.4431409E2,2.477739E1,1.6862045E4,6.822825E3,9.82E3,5.150669E0,2.9758567E3,3.4831308E2,3.7226902E1,1.0708719E2,1.9401413E1,5.3759756E0,1.3081192E4,3.7808523E3,6.522009E3,3.008162E2,6.573576E3,3.2464238E3,2.8730642E3,1.027925E2,2.4660745E2,1.0170562E2],"tree_param":{"num_deleted":"0","num_feature":"49","num_nodes":"29","size_leaf_vector":"1"}},{"base_weights":[6.235035E-5,3.7296213E-2,-1.01279214E-1,3.2254953E-2,6.812723E-1,-7.401936E-2,-1.7820466E-1,1.3266793E-2,1.3794273E-1,3.2946983E-1,7E-1,-7.919675E-2,2.6958358E-1,-2.1741723E-1,-9.852104E-2,-5.1610433E-3,2.505091E-3,2.197982E-2,8.208285E-3,5.5999998E-2,1.089406E-2,1.5624425E-2,5.5999998E-2,5.5999998E-2,-6.4224415E-3,9.395093E-3,5.5999998E-2,-1.833173E-2,4.850473E-3,-1.0695173E-2,3.2075206E-3],"categories":[],"categories_nodes":[],"categories_segments":[],"categories_sizes":[],"default_left":[0,0,0,0,0,0,0,0,0,0,0,0,0,0,0,0,0,0,0,0,0,0,0,0,0,0,0,0,0,0,0],"id":30,"left_children":[1,3,5,7,9,11,13,15,17,19,21,23,25,27,29,-1,-1,-1,-1,-1,-1,-1,-1,-1,-1,-1,-1,-1,-1,-1,-1],"loss_changes":[1.397384E2,8.8006256E1,2.0853157E1,5.3932426E1,1.1145317E1,1.3163692E1,8.093536E0,3.200113E1,1.9766113E1,7.8279114E0,1.9943314E0,7.1333733E0,1.2082039E1,5.7506256E0,4.251025E0,0E0,0E0,0E0,0E0,0E0,0E0,0E0,0E0,0E0,0E0,0E0,0E0,0E0,0E0,0E0,0E0],"parents":[2147483647,0,0,1,1,2,2,3,3,4,4,5,5,6,6,7,7,8,8,9,9,10,10,11,11,12,12,13,13,14,14],"right_children":[2,4,6,8,10,12,14,16,18,20,22,24,26,28,30,-1,-1,-1,-1,-1,-1,-1,-1,-1,-1,-1,-1,-1,-1,-1,-1],"split_conditions":[8.405098E1,8.2E0,2.707231E2,2.1076922E0,1.1166667E0,3.142857E0,-3.3333334E-1,1.08E0,1.2736406E3,-1.4E1,1.3558949E3,5.5555556E-2,-1.8333334E0,2.5E0,2.0012917E3,-5.1610433E-3,2.505091E-3,2.197982E-2,8.208285E-3,5.5999998E-2,1.089406E-2,1.5624425E-2,5.5999998E-2,5.5999998E-2,-6.4224415E-3,9.395093E-3,5.5999998E-2,-1.833173E-2,4.850473E-3,-1.0695173E-2,3.2075206E-3],"split_indices":[2,13,2,40,19,13,16,48,0,11,1,10,11,23,0,0,0,0,0,0,0,0,0,0,0,0,0,0,0,0,0],"split_type":[0,0,0,0,0,0,0,0,0,0,0,0,0,0,0,0,0,0,0,0,0,0,0,0,0,0,0,0,0,0,0],"sum_hessian":[3.7019805E4,2.7074852E4,9.944955E3,2.6865896E4,2.0895456E2,7.3462476E3,2.5987075E3,2.2776775E4,4.089121E3,8.5309715E1,1.2364485E2,7.2385293E3,1.0771831E2,1.7387998E3,8.5990765E2,4.286932E3,1.8489844E4,8.3689557E2,3.2522256E3,2.2625988E1,6.2683727E1,9.545865E0,1.1409898E2,7.576236E0,7.2309526E3,9.557047E1,1.2147838E1,1.6692767E3,6.952305E1,6.870672E2,1.7284047E2],"tree_param":{"num_deleted":"0","num_feature":"49","num_nodes":"31","size_leaf_vector":"1"}},{"base_weights":[1.0095242E-3,3.969775E-2,-9.43126E-2,6.7221874E-1,3.526441E-2,-6.423213E-2,-1.6304152E-1,1.694654E-1,7E-1,1.19895004E-1,1.4468769E-2,-7.178262E-2,1.5725966E-1,-3.705912E-2,-1.8218477E-1,2.3653265E-2,-2.2051813E-2,2.3446223E-2,5.5999998E-2,7.827352E-3,1.9851401E-2,-7.0297375E-4,5.3945435E-3,-7.564619E-3,-1.9435427E-3,6.98759E-3,5.5999998E-2,-8.7849945E-3,8.884867E-3,-1.479358E-2,3.893025E-2],"categories":[],"categories_nodes":[],"categories_segments":[],"categories_sizes":[],"default_left":[0,0,0,0,0,0,0,0,0,0,0,0,0,0,0,0,0,0,0,0,0,0,0,0,0,0,0,0,0,0,0],"id":31,"left_children":[1,3,5,7,9,11,13,15,17,19,21,23,25,27,29,-1,-1,-1,-1,-1,-1,-1,-1,-1,-1,-1,-1,-1,-1,-1,-1],"loss_changes":[1.3688377E2,7.41188E1,2.214093E1,1.4506012E1,4.614427E1,1.2525724E1,7.8293304E0,3.3074284E0,2.9741516E0,1.4614876E1,2.5958645E1,7.790413E0,1.48764925E1,4.7450485E0,5.3958206E0,0E0,0E0,0E0,0E0,0E0,0E0,0E0,0E0,0E0,0E0,0E0,0E0,0E0,0E0,0E0,0E0],"parents":[2147483647,0,0,1,1,2,2,3,3,4,4,5,5,6,6,7,7,8,8,9,9,10,10,11,11,12,12,13,13,14,14],"right_children":[2,4,6,8,10,12,14,16,18,20,22,24,26,28,30,-1,-1,-1,-1,-1,-1,-1,-1,-1,-1,-1,-1,-1,-1,-1,-1],"split_conditions":[1.0451409E0,-7.7E0,1.1676767E0,1.2038217E0,-1.8E0,2.5172415E0,3E-1,1.1698186E3,5.230769E0,2.4623854E0,1E0,1E0,2.2666667E0,1.5416666E0,4.5333333E0,2.3653265E-2,-2.2051813E-2,2.3446223E-2,5.5999998E-2,7.827352E-3,1.9851401E-2,-7.0297375E-4,5.3945435E-3,-7.564619E-3,-1.9435427E-3,6.98759E-3,5.5999998E-2,-8.7849945E-3,8.884867E-3,-1.479358E-2,3.893025E-2],"split_indices":[3,11,3,40,33,39,45,0,39,35,5,5,24,24,24,0,0,0,0,0,0,0,0,0,0,0,0,0,0,0,0],"split_type":[0,0,0,0,0,0,0,0,0,0,0,0,0,0,0,0,0,0,0,0,0,0,0,0,0,0,0,0,0,0,0],"sum_hessian":[3.7104082E4,2.6394195E4,1.0709885E4,1.823469E2,2.621185E4,7.452852E3,3.2570327E3,5.3495228E1,1.2885165E2,5.1675293E3,2.104432E4,7.208692E3,2.4415993E2,4.3139447E2,2.8256382E3,4.2290043E1,1.1205187E1,2.0903751E1,1.0794791E2,4.4121504E3,7.5537915E2,1.462123E4,6.42309E3,4.868558E3,2.340134E3,2.3241246E2,1.1747466E1,2.9037665E2,1.4101782E2,2.815149E3,1.0489454E1],"tree_param":{"num_deleted":"0","num_feature":"49","num_nodes":"31","size_leaf_vector":"1"}},{"base_weights":[3.4750428E-4,3.802804E-2,-9.458208E-2,3.3137903E-2,6.0054934E-1,-8.027912E-2,-2.1365994E-1,1.4667527E-1,1.8969126E-2,3.5102597E-1,5.5999998E-2,-8.1286676E-2,5.5999998E-2,-2.443491E-1,-5.5164013E-2,8.819597E-3,2.4473675E-2,-4.1628256E-3,2.7207553E-3,5.5999998E-2,1.46072395E-2,-8.178877E-3,-2.8268099E-3,-2.0154132E-2,2.5201533E-2,-6.961284E-3,5.5999998E-2],"categories":[],"categories_nodes":[],"categories_segments":[],"categories_sizes":[],"default_left":[0,0,0,0,0,0,0,0,0,0,0,0,0,0,0,0,0,0,0,0,0,0,0,0,0,0,0],"id":32,"left_children":[1,3,5,7,9,11,13,15,17,19,-1,21,-1,23,25,-1,-1,-1,-1,-1,-1,-1,-1,-1,-1,-1,-1],"loss_changes":[1.3254372E2,7.303965E1,1.7927963E1,4.2312103E1,1.1564224E1,1.05786705E1,5.440052E0,1.6903557E1,2.4990353E1,1.1164546E1,0E0,9.0331E0,0E0,4.1900864E0,5.4306583E0,0E0,0E0,0E0,0E0,0E0,0E0,0E0,0E0,0E0,0E0,0E0,0E0],"parents":[2147483647,0,0,1,1,2,2,3,3,4,4,5,5,6,6,7,7,8,8,9,9,11,11,13,13,14,14],"right_children":[2,4,6,8,10,12,14,16,18,20,-1,22,-1,24,26,-1,-1,-1,-1,-1,-1,-1,-1,-1,-1,-1,-1],"split_conditions":[7.120475E1,7.3E0,3.6545956E2,-2.6666667E0,1.15E0,2.15E1,1.5051124E3,2.4779294E0,1.08E0,2.2222222E-1,5.5999998E-2,1E0,5.5999998E-2,3E0,3.3E1,8.819597E-3,2.4473675E-2,-4.1628256E-3,2.7207553E-3,5.5999998E-2,1.46072395E-2,-8.178877E-3,-2.8268099E-3,-2.0154132E-2,2.5201533E-2,-6.961284E-3,5.5999998E-2],"split_indices":[2,13,2,33,19,41,1,35,48,17,0,5,0,23,9,0,0,0,0,0,0,0,0,0,0,0,0],"split_type":[0,0,0,0,0,0,0,0,0,0,0,0,0,0,0,0,0,0,0,0,0,0,0,0,0,0,0],"sum_hessian":[3.704082E4,2.6517785E4,1.0523036E4,2.6290648E4,2.2713661E2,9.397603E3,1.1254333E3,2.9142983E3,2.337635E4,1.17328514E2,1.0980809E2,9.39151E3,6.092916E0,9.413572E2,1.8407622E2,2.374123E3,5.4017535E2,4.0833474E3,1.9293002E4,2.0715225E1,9.661329E1,6.4468276E3,2.9446826E3,9.296705E2,1.1686704E1,1.7893681E2,5.139409E0],"tree_param":{"num_deleted":"0","num_feature":"49","num_nodes":"27","size_leaf_vector":"1"}},{"base_weights":[1.9387447E-3,8.740338E-2,-3.84682E-2,7.940353E-2,6.5474296E-1,-5.442444E-3,-1.0741878E-1,1.8521579E-1,6.600792E-2,7E-1,1.2510932E-2,-3.1345416E-2,4.578502E-2,-7.760856E-2,-1.7583394E-1,2.0327074E-2,7.5047337E-3,3.1849109E-3,1.0833286E-2,5.5999998E-2,2.2291008E-2,-5.6818435E-3,-7.998998E-4,3.1159865E-3,3.615942E-2,-6.3396064E-3,5.5999998E-2,-1.4393588E-2,3.470683E-2],"categories":[],"categories_nodes":[],"categories_segments":[],"categories_sizes":[],"default_left":[0,0,0,0,0,0,0,0,0,0,0,0,0,0,0,0,0,0,0,0,0,0,0,0,0,0,0,0,0],"id":33,"left_children":[1,3,5,7,9,11,13,15,17,19,-1,21,23,25,27,-1,-1,-1,-1,-1,-1,-1,-1,-1,-1,-1,-1,-1,-1],"loss_changes":[1.2829375E2,5.4169357E1,5.741624E1,1.6671837E1,6.347458E0,2.265083E1,1.6641914E1,8.275322E0,1.8985249E1,3.3028412E0,0E0,9.596615E0,1.5953805E1,1.0093227E1,6.366516E0,0E0,0E0,0E0,0E0,0E0,0E0,0E0,0E0,0E0,0E0,0E0,0E0,0E0,0E0],"parents":[2147483647,0,0,1,1,2,2,3,3,4,4,5,5,6,6,7,7,8,8,9,9,11,11,12,12,13,13,14,14],"right_children":[2,4,6,8,10,12,14,16,18,20,-1,22,24,26,28,-1,-1,-1,-1,-1,-1,-1,-1,-1,-1,-1,-1,-1,-1],"split_conditions":[-1.5460551E2,8.4E0,1.0733769E0,-5.304189E2,4E-1,1E0,2.707231E2,3.3E1,1E0,3.529412E-1,1.2510932E-2,1.2E0,5.7E0,2.15E1,4.5333333E0,2.0327074E-2,7.5047337E-3,3.1849109E-3,1.0833286E-2,5.5999998E-2,2.2291008E-2,-5.6818435E-3,-7.998998E-4,3.1159865E-3,3.615942E-2,-6.3396064E-3,5.5999998E-2,-1.4393588E-2,3.470683E-2],"split_indices":[2,13,3,2,22,5,2,7,5,38,0,38,13,41,24,0,0,0,0,0,0,0,0,0,0,0,0,0,0],"split_type":[0,0,0,0,0,0,0,0,0,0,0,0,0,0,0,0,0,0,0,0,0,0,0,0,0,0,0,0,0],"sum_hessian":[3.7131203E4,1.1920972E4,2.5210232E4,1.17566875E4,1.6428438E2,1.704841E4,8.161821E3,1.3180013E3,1.0438686E4,1.4032683E2,2.3957558E1,1.1325837E4,5.7225737E3,5.688329E3,2.4734917E3,7.49388E2,5.6861334E2,7.581628E3,2.8570579E3,1.1901507E2,2.1311756E1,3.9577546E3,7.3680825E3,5.6294365E3,9.313731E1,5.6818853E3,6.443854E0,2.4580513E3,1.5440504E1],"tree_param":{"num_deleted":"0","num_feature":"49","num_nodes":"29","size_leaf_vector":"1"}},{"base_weights":[2.207833E-3,6.1962087E-2,-5.383351E-2,5.8110565E-2,7E-1,-1.9357843E-2,-1.0734821E-1,3.662345E-2,1.4451757E-1,5.5999998E-2,5.263517E-1,-4.7221642E-2,3.364181E-2,-9.910816E-2,-2.926237E-1,5.6533306E-3,8.4496004E-4,4.04196E-3,1.6050259E-2,2.625967E-2,5.420186E-2,-3.963616E-3,4.5363907E-2,2.073045E-3,2.6974885E-2,-8.246183E-3,2.1575877E-2,-1.3974015E-2,-2.893981E-2],"categories":[],"categories_nodes":[],"categories_segments":[],"categories_sizes":[],"default_left":[0,0,0,0,0,0,0,0,0,0,0,0,0,0,0,0,0,0,0,0,0,0,0,0,0,0,0,0,0],"id":34,"left_children":[1,3,5,7,9,11,13,15,17,-1,19,21,23,25,27,-1,-1,-1,-1,-1,-1,-1,-1,-1,-1,-1,-1,-1,-1],"loss_changes":[1.24079834E2,4.855208E1,3.526177E1,3.3115116E1,3.0412674E-1,1.7199245E1,1.1434616E1,1.2673733E1,1.8699928E1,0E0,6.2591934E-1,1.1033245E1,9.445065E0,1.0598938E1,2.513197E0,0E0,0E0,0E0,0E0,0E0,0E0,0E0,0E0,0E0,0E0,0E0,0E0,0E0,0E0],"parents":[2147483647,0,0,1,1,2,2,3,3,4,4,5,5,6,6,7,7,8,8,10,10,11,11,12,12,13,13,14,14],"right_children":[2,4,6,8,10,12,14,16,18,-1,20,22,24,26,28,-1,-1,-1,-1,-1,-1,-1,-1,-1,-1,-1,-1,-1,-1],"split_conditions":[-1.5002845E-1,1.0222222E1,3.1185085E-1,2.5E0,1.5E0,1E0,1.2543465E0,-5.3351176E-1,1.4131944E0,5.5999998E-2,1.4878464E3,4E0,4.8235292E0,3.5E0,3.5555556E-1,5.6533306E-3,8.4496004E-4,4.04196E-3,1.6050259E-2,2.625967E-2,5.420186E-2,-3.963616E-3,4.5363907E-2,2.073045E-3,2.6974885E-2,-8.246183E-3,2.1575877E-2,-1.3974015E-2,-2.893981E-2],"split_indices":[4,13,4,13,27,5,4,4,40,0,1,12,39,13,44,0,0,0,0,0,0,0,0,0,0,0,0,0,0],"split_type":[0,0,0,0,0,0,0,0,0,0,0,0,0,0,0,0,0,0,0,0,0,0,0,0,0,0,0,0,0],"sum_hessian":[3.7036992E4,1.7926389E4,1.9110604E4,1.7830928E4,9.546189E1,1.1625943E4,7.48466E3,1.4282893E4,3.548035E3,6.782221E1,2.7639679E1,7.622439E3,4.003504E3,7.16846E3,3.1619983E2,6.189012E3,8.09388E3,1.328343E3,2.2196921E3,1.3908003E1,1.3731675E1,7.594955E3,2.7484028E1,3.9057998E3,9.770402E1,7.0933833E3,7.507702E1,1.1920928E2,1.9699055E2],"tree_param":{"num_deleted":"0","num_feature":"49","num_nodes":"29","size_leaf_vector":"1"}},{"base_weights":[-2.512774E-4,3.162461E-2,-8.2403205E-2,8.840083E-3,1.12511486E-1,-5.787204E-2,-1.5432854E-1,-3.4349405E-3,8.7239005E-2,6.2587047E-1,1.00949E-1,-5.9034493E-2,5.5999998E-2,-1.3574183E-1,-2.8328803E-1,-4.0744166E-3,6.3832616E-4,5.2776695E-3,1.6098095E-2,5.292215E-2,-7.5880587E-3,9.097868E-4,1.1868123E-2,-5.7657706E-3,9.7206567E-4,-1.165078E-2,7.0203096E-3,-2.8551698E-2,-1.1895632E-2],"categories":[],"categories_nodes":[],"categories_segments":[],"categories_sizes":[],"default_left":[0,0,0,0,0,0,0,0,0,0,0,0,0,0,0,0,0,0,0,0,0,0,0,0,0,0,0,0,0],"id":35,"left_children":[1,3,5,7,9,11,13,15,17,19,21,23,-1,25,27,-1,-1,-1,-1,-1,-1,-1,-1,-1,-1,-1,-1,-1,-1],"loss_changes":[9.7715706E1,4.952527E1,1.8398163E1,2.0225534E1,3.5073685E1,9.333103E0,6.3335075E0,9.857344E0,6.891247E0,3.5548172E0,2.4508175E1,7.2361507E0,0E0,5.1901627E0,3.2184086E0,0E0,0E0,0E0,0E0,0E0,0E0,0E0,0E0,0E0,0E0,0E0,0E0,0E0,0E0],"parents":[2147483647,0,0,1,1,2,2,3,3,4,4,5,5,6,6,7,7,8,8,9,9,10,10,11,11,13,13,14,14],"right_children":[2,4,6,8,10,12,14,16,18,20,22,24,-1,26,28,-1,-1,-1,-1,-1,-1,-1,-1,-1,-1,-1,-1,-1,-1],"split_conditions":[1.0451409E0,2.2857144E0,1.1827006E0,2.1333334E0,-9E0,2.15E1,5.0173862E2,1.04E0,1.6E0,1.4272825E3,1.2923077E0,2.16E0,5.5999998E-2,2.8E0,6.666667E-1,-4.0744166E-3,6.3832616E-4,5.2776695E-3,1.6098095E-2,5.292215E-2,-7.5880587E-3,9.097868E-4,1.1868123E-2,-5.7657706E-3,9.7206567E-4,-1.165078E-2,7.0203096E-3,-2.8551698E-2,-1.1895632E-2],"split_indices":[3,39,3,40,21,41,2,48,28,0,40,48,0,39,29,0,0,0,0,0,0,0,0,0,0,0,0,0,0],"split_type":[0,0,0,0,0,0,0,0,0,0,0,0,0,0,0,0,0,0,0,0,0,0,0,0,0,0,0,0,0],"sum_hessian":[3.729182E4,2.6865773E4,1.0426048E4,2.0964105E4,5.9016685E3,7.777877E3,2.6481707E3,1.8124701E4,2.8394033E3,1.2844527E2,5.7732236E3,7.771118E3,6.759038E0,2.3177244E3,3.3044626E2,3.5144912E3,1.4610211E4,2.3957324E3,4.4367105E2,1.227329E2,5.712355E0,1.9997506E3,3.7734727E3,6.5705195E3,1.2005985E3,2.220671E3,9.705364E1,2.1159058E2,1.188557E2],"tree_param":{"num_deleted":"0","num_feature":"49","num_nodes":"29","size_leaf_vector":"1"}},{"base_weights":[2.0906245E-3,6.1607637E-2,-4.302812E-2,3.249976E-2,1.3507481E-1,-2.025563E-2,-1.1586981E-1,1.129558E-1,8.348813E-3,6.671052E-2,1.9950135E-1,-3.5338342E-2,5.2346896E-2,-9.547152E-2,-2.162865E-1,4.2878366E-3,1.4877401E-2,-2.6545103E-3,2.5045385E-3,4.479495E-3,4.9798734E-2,1.7153757E-2,-1.0981266E-2,2.744858E-2,-3.0382206E-3,3.291289E-2,2.763657E-3,-7.814841E-3,4.000821E-2,-1.8140769E-2,2.5676185E-2],"categories":[],"categories_nodes":[],"categories_segments":[],"categories_sizes":[],"default_left":[0,0,0,0,0,0,0,0,0,0,0,0,0,0,0,0,0,0,0,0,0,0,0,0,0,0,0,0,0,0,0],"id":36,"left_children":[1,3,5,7,9,11,13,15,17,19,21,23,25,27,29,-1,-1,-1,-1,-1,-1,-1,-1,-1,-1,-1,-1,-1,-1,-1,-1],"loss_changes":[9.994474E1,3.43128E1,3.5105488E1,2.2344162E1,2.0027962E1,1.7680412E1,1.0312965E1,1.1484577E1,8.454758E0,1.3241573E1,1.18669815E1,1.3427563E1,1.7768023E1,5.6943245E0,4.957905E0,0E0,0E0,0E0,0E0,0E0,0E0,0E0,0E0,0E0,0E0,0E0,0E0,0E0,0E0,0E0,0E0],"parents":[2147483647,0,0,1,1,2,2,3,3,4,4,5,5,6,6,7,7,8,8,9,9,10,10,11,11,12,12,13,13,14,14],"right_children":[2,4,6,8,10,12,14,16,18,20,22,24,26,28,30,-1,-1,-1,-1,-1,-1,-1,-1,-1,-1,-1,-1,-1,-1,-1,-1],"split_conditions":[-9.415048E1,1E0,1.8218387E2,-3.8809103E2,1.8076923E0,2E0,1.2975401E0,5.256E3,1.3880597E0,-9.639117E1,3.0666666E0,5E-2,-7.5E-1,3.7E0,3.3333333E0,4.2878366E-3,1.4877401E-2,-2.6545103E-3,2.5045385E-3,4.479495E-3,4.9798734E-2,1.7153757E-2,-1.0981266E-2,2.744858E-2,-3.0382206E-3,3.291289E-2,2.763657E-3,-7.814841E-3,4.000821E-2,-1.8140769E-2,2.5676185E-2],"split_indices":[2,5,2,2,39,12,3,37,40,2,41,10,21,11,13,0,0,0,0,0,0,0,0,0,0,0,0,0,0,0,0],"split_type":[0,0,0,0,0,0,0,0,0,0,0,0,0,0,0,0,0,0,0,0,0,0,0,0,0,0,0,0,0,0,0],"sum_hessian":[3.7200105E4,1.6042371E4,2.1157736E4,1.1492986E4,4.549385E3,1.6121649E4,5.036086E3,2.6506614E3,8.842325E3,2.209733E3,2.3396519E3,1.3351275E4,2.7703743E3,4.189074E3,8.470114E2,1.4645055E3,1.1861559E3,3.1446284E3,5.697697E3,2.1693623E3,4.037061E1,2.241307E3,9.834498E1,9.105344E1,1.3260222E4,1.292831E2,2.641091E3,4.174727E3,1.4347417E1,8.317472E2,1.5264188E1],"tree_param":{"num_deleted":"0","num_feature":"49","num_nodes":"31","size_leaf_vector":"1"}},{"base_weights":[7.996558E-4,4.9983084E-2,-5.0057925E-2,4.6008652E-1,4.5429215E-2,-2.768876E-2,-1.2044947E-1,1.7088254E-1,5.786398E-1,1.5870093E-1,3.3810947E-2,-3.6666982E-2,1.2741114E-1,-1.0742293E-1,-2.9250562E-1,2.0990236E-2,6.3644294E-3,1.2922673E-2,5.160726E-2,3.450109E-2,1.0394994E-2,1.2310815E-2,2.1203547E-3,-3.0797953E-3,3.1009132E-2,4.402459E-2,6.494274E-3,-6.703356E-3,-1.2675347E-2,-1.3978743E-2,-2.9216789E-2],"categories":[],"categories_nodes":[],"categories_segments":[],"categories_sizes":[],"default_left":[0,0,0,0,0,0,0,0,0,0,0,0,0,0,0,0,0,0,0,0,0,0,0,0,0,0,0,0,0,0,0],"id":37,"left_children":[1,3,5,7,9,11,13,15,17,19,21,23,25,27,29,-1,-1,-1,-1,-1,-1,-1,-1,-1,-1,-1,-1,-1,-1,-1,-1],"loss_changes":[9.269299E1,3.5231148E1,2.8677746E1,6.937889E0,2.4528965E1,1.928734E1,9.836456E0,4.961511E-1,3.8546677E0,1.3563465E1,1.4842941E1,1.0249008E1,1.4797765E1,4.91399E0,2.557705E0,0E0,0E0,0E0,0E0,0E0,0E0,0E0,0E0,0E0,0E0,0E0,0E0,0E0,0E0,0E0,0E0],"parents":[2147483647,0,0,1,1,2,2,3,3,4,4,5,5,6,6,7,7,8,8,9,9,10,10,11,11,12,12,13,13,14,14],"right_children":[2,4,6,8,10,12,14,16,18,20,22,24,26,28,30,-1,-1,-1,-1,-1,-1,-1,-1,-1,-1,-1,-1,-1,-1,-1,-1],"split_conditions":[-5.0424732E1,-7.7E0,1.132504E0,4E-1,-3.4E0,6.666667E-1,5.0173862E2,-3.4442532E2,4.2058825E0,5.1E1,-4.9736627E2,4E0,3.529412E-1,2E0,3.5555556E-1,2.0990236E-2,6.3644294E-3,1.2922673E-2,5.160726E-2,3.450109E-2,1.0394994E-2,1.2310815E-2,2.1203547E-3,-3.0797953E-3,3.1009132E-2,4.402459E-2,6.494274E-3,-6.703356E-3,-1.2675347E-2,-1.3978743E-2,-2.9216789E-2],"split_indices":[2,11,3,15,33,36,2,2,39,37,2,12,38,33,44,0,0,0,0,0,0,0,0,0,0,0,0,0,0,0,0],"split_type":[0,0,0,0,0,0,0,0,0,0,0,0,0,0,0,0,0,0,0,0,0,0,0,0,0,0,0,0,0,0,0],"sum_hessian":[3.7039316E4,1.8831586E4,1.820773E4,2.0523225E2,1.8626354E4,1.3820165E4,4.387565E3,6.0870525E1,1.4436172E2,1.729994E3,1.689636E4,1.3065878E4,7.542873E2,4.0813489E3,3.062162E2,2.837769E1,3.2492836E1,2.0723415E1,1.2363832E2,1.6313942E2,1.5668546E3,9.664483E2,1.5929912E4,1.3011125E4,5.475279E1,7.28343E1,6.81453E2,2.7938525E3,1.2874963E3,1.1923136E2,1.8698482E2],"tree_param":{"num_deleted":"0","num_feature":"49","num_nodes":"31","size_leaf_vector":"1"}},{"base_weights":[3.962619E-3,4.211984E-2,-5.6144696E-2,1.0823771E-1,1.7963586E-2,-3.9806727E-2,-1.3399315E-1,9.807878E-2,5.5618834E-1,-4.4457015E-2,3.142223E-2,7E-1,-4.1396115E-2,-4.4310535E-3,-1.5273494E-1,6.476345E-3,2.0754442E-2,4.70592E-2,-8.044327E-3,2.4218175E-3,-5.429417E-3,8.7076414E-4,5.634273E-3,2.5801666E-2,5.5999998E-2,-1.2298728E-2,-2.7319675E-3,-1.3565925E-2,7.030237E-3,-1.9551232E-2,-9.710135E-3],"categories":[],"categories_nodes":[],"categories_segments":[],"categories_sizes":[],"default_left":[0,0,0,0,0,0,0,0,0,0,0,0,0,0,0,0,0,0,0,0,0,0,0,0,0,0,0,0,0,0,0],"id":38,"left_children":[1,3,5,7,9,11,13,15,17,19,21,23,25,27,29,-1,-1,-1,-1,-1,-1,-1,-1,-1,-1,-1,-1,-1,-1,-1,-1],"loss_changes":[8.527823E1,3.632036E1,1.8360683E1,2.7708572E1,1.4014557E1,1.4269623E1,6.04916E0,1.6443642E1,3.0348969E0,5.1955514E0,1.0981888E1,4.5435047E-1,9.7083435E0,4.986035E0,6.257271E0,0E0,0E0,0E0,0E0,0E0,0E0,0E0,0E0,0E0,0E0,0E0,0E0,0E0,0E0,0E0,0E0],"parents":[2147483647,0,0,1,1,2,2,3,3,4,4,5,5,6,6,7,7,8,8,9,9,10,10,11,11,12,12,13,13,14,14],"right_children":[2,4,6,8,10,12,14,16,18,20,22,24,26,28,30,-1,-1,-1,-1,-1,-1,-1,-1,-1,-1,-1,-1,-1,-1,-1,-1],"split_conditions":[3.8896964E0,-1.6E0,1.1827006E0,1.0222222E1,1.08E0,1E-1,1.25E-2,1.55E0,-1.4521597E2,2E0,1.7142857E0,1E0,4.5E-1,1.3E0,5.4545456E-1,6.476345E-3,2.0754442E-2,4.70592E-2,-8.044327E-3,2.4218175E-3,-5.429417E-3,8.7076414E-4,5.634273E-3,2.5801666E-2,5.5999998E-2,-1.2298728E-2,-2.7319675E-3,-1.3565925E-2,7.030237E-3,-1.9551232E-2,-9.710135E-3],"split_indices":[2,45,3,13,48,12,44,47,2,32,40,5,48,47,40,0,0,0,0,0,0,0,0,0,0,0,0,0,0,0,0],"split_type":[0,0,0,0,0,0,0,0,0,0,0,0,0,0,0,0,0,0,0,0,0,0,0,0,0,0,0,0,0,0,0],"sum_hessian":[3.7164863E4,2.273555E4,1.4429314E4,6.080608E3,1.6654941E4,1.1929719E4,2.4995962E3,5.9473945E3,1.3321364E2,2.9510308E3,1.3703911E4,2.4248064E1,1.1905471E4,3.1738916E2,2.182207E3,5.379231E3,5.6816345E2,1.2740462E2,5.8090224E0,7.018394E2,2.2491912E3,8.981398E3,4.7225127E3,6.6871424E0,1.7560923E1,7.185441E2,1.1186926E4,1.14276115E2,2.0311305E2,5.5292316E2,1.6292839E3],"tree_param":{"num_deleted":"0","num_feature":"49","num_nodes":"31","size_leaf_vector":"1"}},{"base_weights":[1.2052255E-3,-1.892543E-2,1.1405955E-1,5.8872933E-3,-9.361421E-2,9.794959E-2,4.3245557E-1,-5.5212444E-3,6.978629E-2,-8.02167E-2,-2.1555331E-1,3.3564486E-2,1.4682886E-1,2.6645324E-1,5.501377E-1,-1.8203163E-3,2.7762188E-3,8.097559E-3,-5.442444E-4,-7.4702776E-3,9.467427E-4,-1.5767796E-2,-3.3675756E-2,2.4049561E-3,5.5999998E-2,1.06059695E-2,2.6115453E-2,9.058509E-3,3.0550329E-2,4.615776E-2,-7.826274E-3],"categories":[],"categories_nodes":[],"categories_segments":[],"categories_sizes":[],"default_left":[0,0,0,0,0,0,0,0,0,0,0,0,0,0,0,0,0,0,0,0,0,0,0,0,0,0,0,0,0,0,0],"id":39,"left_children":[1,3,5,7,9,11,13,15,17,19,21,23,25,27,29,-1,-1,-1,-1,-1,-1,-1,-1,-1,-1,-1,-1,-1,-1,-1,-1],"loss_changes":[8.42825E1,5.8343376E1,2.8806984E1,1.7252438E1,1.2822212E1,1.6810616E1,5.1068916E0,1.3904297E1,8.652199E0,8.595924E0,2.8908424E0,6.9845023E0,7.7623215E0,1.9725676E0,2.9147491E0,0E0,0E0,0E0,0E0,0E0,0E0,0E0,0E0,0E0,0E0,0E0,0E0,0E0,0E0,0E0,0E0],"parents":[2147483647,0,0,1,1,2,2,3,3,4,4,5,5,6,6,7,7,8,8,9,9,10,10,11,11,12,12,13,13,14,14],"right_children":[2,4,6,8,10,12,14,16,18,20,22,24,26,28,30,-1,-1,-1,-1,-1,-1,-1,-1,-1,-1,-1,-1,-1,-1,-1,-1],"split_conditions":[2.4827585E0,1.0672584E0,8.2E0,1.8656738E3,1.2975401E0,1.4036697E0,2E-1,1E0,2.2E1,2.3333333E0,1.6382416E0,2.15E1,2E0,3.5714287E-1,1.4272825E3,-1.8203163E-3,2.7762188E-3,8.097559E-3,-5.442444E-4,-7.4702776E-3,9.467427E-4,-1.5767796E-2,-3.3675756E-2,2.4049561E-3,5.5999998E-2,1.06059695E-2,2.6115453E-2,9.058509E-3,3.0550329E-2,4.615776E-2,-7.826274E-3],"split_indices":[39,3,13,1,3,40,30,5,32,12,3,41,22,15,0,0,0,0,0,0,0,0,0,0,0,0,0,0,0,0,0],"split_type":[0,0,0,0,0,0,0,0,0,0,0,0,0,0,0,0,0,0,0,0,0,0,0,0,0,0,0,0,0,0,0],"sum_hessian":[3.7065387E4,3.14538E4,5.6115854E3,2.3608838E4,7.8449634E3,5.343172E3,2.6841397E2,2.0030393E4,3.578446E3,7.071331E3,7.7363275E2,2.3083408E3,3.0348308E3,1.1340652E2,1.5500745E2,1.4026558E4,6.003834E3,2.5387866E3,1.0396595E3,6.1886187E3,8.8271216E2,7.1254004E2,6.109269E1,2.3009138E3,7.427097E0,2.814336E3,2.2049487E2,5.03213E1,6.308522E1,1.4924496E2,5.7624793E0],"tree_param":{"num_deleted":"0","num_feature":"49","num_nodes":"31","size_leaf_vector":"1"}},{"base_weights":[2.080609E-3,-2.0015733E-2,8.686056E-2,6.4963554E-3,-7.083113E-2,7.947358E-2,4.7642806E-1,5.425282E-3,5.5999998E-2,-5.8342267E-2,-1.920219E-1,1.5646112E-1,5.0130274E-2,2.2593161E-2,4.2886145E-2,-1.3655855E-3,2.7100137E-3,-6.508711E-3,-6.01423E-4,-1.6544623E-2,2.724961E-2,9.952079E-3,3.052089E-2,1.5017247E-3,8.526508E-3],"categories":[],"categories_nodes":[],"categories_segments":[],"categories_sizes":[],"default_left":[0,0,0,0,0,0,0,0,0,0,0,0,0,0,0,0,0,0,0,0,0,0,0,0,0],"id":40,"left_children":[1,3,5,7,9,11,13,15,-1,17,19,21,23,-1,-1,-1,-1,-1,-1,-1,-1,-1,-1,-1,-1],"loss_changes":[6.958671E1,3.9699863E1,2.2126862E1,1.55091505E1,1.5292175E1,1.7022568E1,1.4665833E0,1.2385922E1,0E0,1.0704969E1,7.5994263E0,1.4976082E1,9.665997E0,0E0,0E0,0E0,0E0,0E0,0E0,0E0,0E0,0E0,0E0,0E0,0E0],"parents":[2147483647,0,0,1,1,2,2,3,3,4,4,5,5,6,6,7,7,9,9,10,10,11,11,12,12],"right_children":[2,4,6,8,10,12,14,16,-1,18,20,22,24,-1,-1,-1,-1,-1,-1,-1,-1,-1,-1,-1,-1],"split_conditions":[3E0,1.0399376E0,1.0222222E1,6.2E0,1.2817388E0,-2.75E0,1.0151515E0,1.5E0,5.5999998E-2,1E0,3E0,2.9128985E0,1E0,2.2593161E-2,4.2886145E-2,-1.3655855E-3,2.7100137E-3,-6.508711E-3,-6.01423E-4,-1.6544623E-2,2.724961E-2,9.952079E-3,3.052089E-2,1.5017247E-3,8.526508E-3],"split_indices":[48,3,13,13,3,33,40,40,0,5,23,35,5,0,0,0,0,0,0,0,0,0,0,0,0],"split_type":[0,0,0,0,0,0,0,0,0,0,0,0,0,0,0,0,0,0,0,0,0,0,0,0,0],"sum_hessian":[3.7114625E4,2.9440025E4,7.674599E3,1.9344361E4,1.0095663E4,7.533467E3,1.4113226E2,1.9317908E4,2.645301E1,9.155327E3,9.403363E2,2.0758762E3,5.457591E3,3.5324253E1,1.0580801E2,1.0784255E4,8.533654E3,6.2984463E3,2.8568806E3,9.1589856E2,2.4437706E1,1.8191635E3,2.5671268E2,3.5117048E3,1.9458857E3],"tree_param":{"num_deleted":"0","num_feature":"49","num_nodes":"25","size_leaf_vector":"1"}},{"base_weights":[-9.061913E-4,2.5805045E-2,-7.3690124E-2,3.1741883E-3,7.6979816E-2,-2.1228811E-1,-6.503294E-2,8.728309E-2,-1.1413986E-2,1.9650449E-1,5.996153E-2,-1.8268256E-1,-4.1771734E-1,-7.506393E-2,4.4036284E-2,3.1847889E-3,1.2014764E-2,-2.442022E-3,2.211522E-3,2.4095979E-2,9.271953E-3,-2.964784E-4,6.6936743E-3,-3.306038E-2,-1.28152035E-2,-3.6435388E-2,-1.2584085E-3,-7.18861E-3,1.5836908E-4,5.5999998E-2,2.456099E-3],"categories":[],"categories_nodes":[],"categories_segments":[],"categories_sizes":[],"default_left":[0,0,0,0,0,0,0,0,0,0,0,0,0,0,0,0,0,0,0,0,0,0,0,0,0,0,0,0,0,0,0],"id":41,"left_children":[1,3,5,7,9,11,13,15,17,19,21,23,25,27,29,-1,-1,-1,-1,-1,-1,-1,-1,-1,-1,-1,-1,-1,-1,-1,-1],"loss_changes":[7.248085E1,3.1567047E1,1.2015823E1,2.3244202E1,1.7000675E1,3.5249252E0,1.033596E1,8.345325E0,1.2041703E1,8.740143E0,1.106982E1,2.646885E0,1.0153389E0,9.857792E0,7.1883397E0,0E0,0E0,0E0,0E0,0E0,0E0,0E0,0E0,0E0,0E0,0E0,0E0,0E0,0E0,0E0,0E0],"parents":[2147483647,0,0,1,1,2,2,3,3,4,4,5,5,6,6,7,7,8,8,9,9,10,10,11,11,12,12,13,13,14,14],"right_children":[2,4,6,8,10,12,14,16,18,20,22,24,26,28,30,-1,-1,-1,-1,-1,-1,-1,-1,-1,-1,-1,-1,-1,-1,-1,-1],"split_conditions":[1.0451409E0,1E0,3.5E-1,-3.8809103E2,-2.8E0,5.799048E2,1.7580062E3,5.256E3,1.6923077E0,6.447368E-1,1.28E0,4.1353384E-1,1.8650794E0,2.09E0,7.5E-1,3.1847889E-3,1.2014764E-2,-2.442022E-3,2.211522E-3,2.4095979E-2,9.271953E-3,-2.964784E-4,6.6936743E-3,-3.306038E-2,-1.28152035E-2,-3.6435388E-2,-1.2584085E-3,-7.18861E-3,1.5836908E-4,5.5999998E-2,2.456099E-3],"split_indices":[3,5,48,2,45,2,1,37,40,38,48,43,43,48,19,0,0,0,0,0,0,0,0,0,0,0,0,0,0,0,0],"split_type":[0,0,0,0,0,0,0,0,0,0,0,0,0,0,0,0,0,0,0,0,0,0,0,0,0,0,0,0,0,0,0],"sum_hessian":[3.7254344E4,2.7251219E4,1.0003126E4,1.8898684E4,8.352535E3,5.853462E2,9.417779E3,2.7946584E3,1.6104025E4,1.0382544E3,7.3142812E3,5.141168E2,7.122939E1,8.62655E3,7.9122986E2,1.5953914E3,1.1992671E3,1.0816697E4,5.2873276E3,4.4936768E2,5.8888666E2,1.982643E3,5.331638E3,4.3360516E1,4.7075632E2,6.454187E1,6.687523E0,7.2389707E3,1.3875786E3,1.4101587E1,7.771283E2],"tree_param":{"num_deleted":"0","num_feature":"49","num_nodes":"31","size_leaf_vector":"1"}},{"base_weights":[1.5672449E-3,-2.7686436E-2,6.5386534E-2,-4.9857274E-3,-9.642394E-2,4.144935E-2,1.528362E-1,-1.9069517E-2,5.363645E-2,-2.2013949E-1,-8.2534015E-2,1.0101663E-1,1.8862233E-2,2.9165745E-1,1.19360045E-1,-1.8834366E-3,6.907927E-3,5.5999998E-2,4.034755E-3,-2.4276866E-2,-1.0789511E-2,1.5844064E-2,-6.9291326E-3,2.2239523E-2,5.976564E-3,-5.645739E-3,3.2302197E-3,1.9810554E-2,5.5999998E-2,7.852157E-3,2.1660332E-2],"categories":[],"categories_nodes":[],"categories_segments":[],"categories_sizes":[],"default_left":[0,0,0,0,0,0,0,0,0,0,0,0,0,0,0,0,0,0,0,0,0,0,0,0,0,0,0,0,0,0,0],"id":42,"left_children":[1,3,5,7,9,11,13,15,17,19,21,23,25,27,29,-1,-1,-1,-1,-1,-1,-1,-1,-1,-1,-1,-1,-1,-1,-1,-1],"loss_changes":[6.935038E1,3.9724716E1,2.4435474E1,1.5821058E1,1.0858398E1,1.2337096E1,1.1631046E1,7.303947E0,7.8322744E0,4.4742146E0,6.5807915E0,1.1730059E1,1.2828091E1,1.1093189E1,6.4909E0,0E0,0E0,0E0,0E0,0E0,0E0,0E0,0E0,0E0,0E0,0E0,0E0,0E0,0E0,0E0,0E0],"parents":[2147483647,0,0,1,1,2,2,3,3,4,4,5,5,6,6,7,7,8,8,9,9,10,10,11,11,12,12,13,13,14,14],"right_children":[2,4,6,8,10,12,14,16,18,20,22,24,26,28,30,-1,-1,-1,-1,-1,-1,-1,-1,-1,-1,-1,-1,-1,-1,-1,-1],"split_conditions":[1.75E0,1.0817074E0,2.009828E0,1.8408275E3,4.3333334E-1,5.92E2,3.529412E-1,2.6513157E0,6.715516E-1,1.2222222E0,4.2780748E-1,2E-1,9.6153843E-1,3.979137E0,1.875E0,-1.8834366E-3,6.907927E-3,5.5999998E-2,4.034755E-3,-2.4276866E-2,-1.0789511E-2,1.5844064E-2,-6.9291326E-3,2.2239523E-2,5.976564E-3,-5.645739E-3,3.2302197E-3,1.9810554E-2,5.5999998E-2,7.852157E-3,2.1660332E-2],"split_indices":[39,3,40,1,19,37,38,40,3,39,42,38,40,35,38,0,0,0,0,0,0,0,0,0,0,0,0,0,0,0,0],"split_type":[0,0,0,0,0,0,0,0,0,0,0,0,0,0,0,0,0,0,0,0,0,0,0,0,0,0,0,0,0,0,0],"sum_hessian":[3.7120754E4,2.5451602E4,1.1669151E4,1.913591E4,6.3156934E3,9.164389E3,2.5047632E3,1.5432409E4,3.7035002E3,6.345552E2,5.6811377E3,2.5162217E3,6.6481665E3,4.8399854E2,2.0207648E3,1.4806758E4,6.256513E2,1.6705326E1,3.686795E3,3.184654E2,3.1608978E2,8.0044716E1,5.6010933E3,3.2342975E2,2.192792E3,1.2869791E3,5.3611875E3,4.508796E2,3.311895E1,1.7750726E3,2.456921E2],"tree_param":{"num_deleted":"0","num_feature":"49","num_nodes":"31","size_leaf_vector":"1"}},{"base_weights":[9.659669E-4,3.5520654E-2,-4.7904044E-2,1.3745383E-2,1.0091245E-1,-1.9948412E-1,-4.093364E-2,2.1890388E-3,6.516454E-2,6.1121304E-2,1.6478764E-1,-2.1110208E-1,2.9452905E-1,-1.6477447E-2,-7.1603E-2,1.4820191E-3,-2.5878057E-3,1.6823635E-2,3.864912E-3,8.220078E-3,-5.024709E-4,2.4408836E-2,1.022394E-2,-1.1297967E-2,-2.2386264E-2,4.322386E-2,-6.997638E-4,-1.4660002E-3,3.587364E-2,-7.3913876E-3,-1.296588E-3],"categories":[],"categories_nodes":[],"categories_segments":[],"categories_sizes":[],"default_left":[0,0,0,0,0,0,0,0,0,0,0,0,0,0,0,0,0,0,0,0,0,0,0,0,0,0,0,0,0,0,0],"id":43,"left_children":[1,3,5,7,9,11,13,15,17,19,21,23,25,27,29,-1,-1,-1,-1,-1,-1,-1,-1,-1,-1,-1,-1,-1,-1,-1,-1],"loss_changes":[6.2825565E1,3.1028496E1,1.6292015E1,9.72141E0,1.3821037E1,4.0450153E0,1.1045006E1,7.550083E0,7.3447266E0,9.453961E0,1.0806091E1,3.1345177E0,1.3713821E0,7.1433644E0,7.5105934E0,0E0,0E0,0E0,0E0,0E0,0E0,0E0,0E0,0E0,0E0,0E0,0E0,0E0,0E0,0E0,0E0],"parents":[2147483647,0,0,1,1,2,2,3,3,4,4,5,5,6,6,7,7,8,8,9,9,10,10,11,11,12,12,13,13,14,14],"right_children":[2,4,6,8,10,12,14,16,18,20,22,24,26,28,30,-1,-1,-1,-1,-1,-1,-1,-1,-1,-1,-1,-1,-1,-1,-1,-1],"split_conditions":[9.905955E-1,3.4E0,3.5E-1,1.9843049E0,1E0,3.8E0,1.2474033E2,1.1633E4,5.729167E-1,2.9729304E0,3.529412E-1,1.484375E0,3.1E0,3.2E0,1.6075272E3,1.4820191E-3,-2.5878057E-3,1.6823635E-2,3.864912E-3,8.220078E-3,-5.024709E-4,2.4408836E-2,1.022394E-2,-1.1297967E-2,-2.2386264E-2,4.322386E-2,-6.997638E-4,-1.4660002E-3,3.587364E-2,-7.3913876E-3,-1.296588E-3],"split_indices":[3,48,48,40,5,21,2,37,42,34,38,38,24,11,1,0,0,0,0,0,0,0,0,0,0,0,0,0,0,0,0],"split_type":[0,0,0,0,0,0,0,0,0,0,0,0,0,0,0,0,0,0,0,0,0,0,0,0,0,0,0,0,0,0,0],"sum_hessian":[3.7183703E4,2.1784691E4,1.5399012E4,1.6345845E4,5.438847E3,6.745159E2,1.4724495E4,1.3350321E4,2.9955234E3,3.3543423E3,2.084505E3,6.599726E2,1.4543372E1,8.196525E3,6.5279697E3,9.067532E3,4.282789E3,3.0923138E2,2.686292E3,2.0751243E3,1.279218E3,4.3220248E2,1.6523025E3,3.3020316E2,3.2976944E2,7.965891E0,6.5774813E0,8.1654663E3,3.1059683E1,4.743508E3,1.784462E3],"tree_param":{"num_deleted":"0","num_feature":"49","num_nodes":"31","size_leaf_vector":"1"}},{"base_weights":[5.7947515E-3,-1.1005547E-2,9.7134724E-2,-6.574217E-2,9.6865175E-3,2.5017893E-2,1.4112318E-1,-1.8831357E-1,-5.400806E-2,2.02238E-2,-4.8117556E-2,6.438202E-2,-7.707734E-2,1.8614538E-1,7.238553E-2,3.870432E-2,-1.5827319E-2,2.4207909E-2,-4.5473734E-3,3.5088923E-4,4.6965466E-3,4.6302002E-2,-4.204281E-3,3.7757804E-5,1.2215374E-2,-4.40313E-3,-2.6702508E-2,1.2507861E-2,2.9438445E-2,1.3612564E-2,3.1961661E-3],"categories":[],"categories_nodes":[],"categories_segments":[],"categories_sizes":[],"default_left":[0,0,0,0,0,0,0,0,0,0,0,0,0,0,0,0,0,0,0,0,0,0,0,0,0,0,0,0,0,0,0],"id":44,"left_children":[1,3,5,7,9,11,13,15,17,19,21,23,25,27,29,-1,-1,-1,-1,-1,-1,-1,-1,-1,-1,-1,-1,-1,-1,-1,-1],"loss_changes":[5.715861E1,3.563315E1,1.8335308E1,1.2415966E1,1.3909054E1,8.865665E0,1.1091446E1,5.0490055E0,8.047831E0,1.1762421E1,9.929075E0,8.952045E0,3.476773E0,1.1712608E1,4.522327E0,0E0,0E0,0E0,0E0,0E0,0E0,0E0,0E0,0E0,0E0,0E0,0E0,0E0,0E0,0E0,0E0],"parents":[2147483647,0,0,1,1,2,2,3,3,4,4,5,5,6,6,7,7,8,8,9,9,10,10,11,11,12,12,13,13,14,14],"right_children":[2,4,6,8,10,12,14,16,18,20,22,24,26,28,30,-1,-1,-1,-1,-1,-1,-1,-1,-1,-1,-1,-1,-1,-1,-1,-1],"split_conditions":[2.4827585E0,1.08E0,1.3214285E0,5.714286E-1,1.0718024E0,5.2E1,4E0,-5.903521E-1,1.4129865E0,1E0,2.631579E-1,3.1E0,4.8235292E0,1.4223163E3,5.198224E-1,3.870432E-2,-1.5827319E-2,2.4207909E-2,-4.5473734E-3,3.5088923E-4,4.6965466E-3,4.6302002E-2,-4.204281E-3,3.7757804E-5,1.2215374E-2,-4.40313E-3,-2.6702508E-2,1.2507861E-2,2.9438445E-2,1.3612564E-2,3.1961661E-3],"split_indices":[39,48,40,40,3,7,32,4,35,5,42,13,39,0,36,0,0,0,0,0,0,0,0,0,0,0,0,0,0,0,0],"split_type":[0,0,0,0,0,0,0,0,0,0,0,0,0,0,0,0,0,0,0,0,0,0,0,0,0,0,0,0,0,0,0],"sum_hessian":[3.7208473E4,3.1426785E4,5.781686E3,8.623244E3,2.2803541E4,2.1928066E3,3.5888794E3,7.505985E2,7.872646E3,1.929103E4,3.5125115E3,1.5842913E3,6.0851544E2,2.165735E3,1.4231443E3,9.502547E0,7.41096E2,6.0683636E1,7.8119624E3,1.367103E4,5.619999E3,2.3453741E1,3.4890576E3,9.2101965E2,6.6327155E2,5.6224023E2,4.627518E1,1.8633499E3,3.023853E2,3.5190482E2,1.0712395E3],"tree_param":{"num_deleted":"0","num_feature":"49","num_nodes":"31","size_leaf_vector":"1"}},{"base_weights":[6.675899E-4,3.8429994E-2,-3.7445318E-2,1.4559367E-1,2.8787637E-2,-2.539033E-2,-1.1867634E-1,4.4095406E-1,1.19588524E-1,2.3771372E-2,2.026886E-1,-1.4363015E-1,-1.9305352E-2,-1.2865393E-1,1.11962825E-1,7.8032063E-3,4.9694017E-2,8.3082006E-4,1.2518322E-2,-1.4957209E-2,2.0959184E-3,1.3693734E-2,5.5999998E-2,-1.6138345E-2,-5.2677942E-3,-2.633859E-3,2.719738E-3,-8.770152E-3,-1.9101106E-2,2.9260192E-2,-6.370222E-3],"categories":[],"categories_nodes":[],"categories_segments":[],"categories_sizes":[],"default_left":[0,0,0,0,0,0,0,0,0,0,0,0,0,0,0,0,0,0,0,0,0,0,0,0,0,0,0,0,0,0,0],"id":45,"left_children":[1,3,5,7,9,11,13,15,17,19,21,23,25,27,29,-1,-1,-1,-1,-1,-1,-1,-1,-1,-1,-1,-1,-1,-1,-1,-1],"loss_changes":[5.3723183E1,1.9381693E1,1.8189888E1,1.1869667E1,1.50312395E1,1.1652957E1,5.5816307E0,7.583946E0,5.7131634E0,8.601162E0,1.0509787E1,3.5511055E0,1.1183901E1,4.8075943E0,5.0374823E0,0E0,0E0,0E0,0E0,0E0,0E0,0E0,0E0,0E0,0E0,0E0,0E0,0E0,0E0,0E0,0E0],"parents":[2147483647,0,0,1,1,2,2,3,3,4,4,5,5,6,6,7,7,8,8,9,9,10,10,11,11,12,12,13,13,14,14],"right_children":[2,4,6,8,10,12,14,16,18,20,22,24,26,28,30,-1,-1,-1,-1,-1,-1,-1,-1,-1,-1,-1,-1,-1,-1,-1,-1],"split_conditions":[9.6174955E-1,-5.304189E2,1.1827006E0,1.14E2,5.4E0,4.5E-1,2.8E0,-4.8E0,1.4333333E0,-2.4285715E0,1.6666666E0,1.6E1,2E0,3.1111112E0,3.0666666E0,7.8032063E-3,4.9694017E-2,8.3082006E-4,1.2518322E-2,-1.4957209E-2,2.0959184E-3,1.3693734E-2,5.5999998E-2,-1.6138345E-2,-5.2677942E-3,-2.633859E-3,2.719738E-3,-8.770152E-3,-1.9101106E-2,2.9260192E-2,-6.370222E-3],"split_indices":[3,2,3,37,23,48,39,33,29,16,22,7,12,18,41,0,0,0,0,0,0,0,0,0,0,0,0,0,0,0,0],"split_type":[0,0,0,0,0,0,0,0,0,0,0,0,0,0,0,0,0,0,0,0,0,0,0,0,0,0,0,0,0,0,0],"sum_hessian":[3.730456E4,1.8741074E4,1.8563482E4,1.5442025E3,1.7196871E4,1.6167883E4,2.3955999E3,1.2304448E2,1.4211581E3,1.671695E4,4.7992255E2,7.886091E2,1.5379274E4,2.297517E3,9.808269E1,4.3261E1,7.978348E1,3.605527E2,1.0606053E3,1.885761E2,1.6528373E4,4.636849E2,1.6237646E1,4.4903864E2,3.3957043E2,1.225296E4,3.126314E3,1.9622512E3,3.3526593E2,4.2250557E1,5.583213E1],"tree_param":{"num_deleted":"0","num_feature":"49","num_nodes":"31","size_leaf_vector":"1"}},