{"learner":{"attributes":{"best_iteration":"47","best_score":"4.947017650116167","scikit_learn":"{\"_estimator_type\": \"regressor\"}"},"feature_names":["elo_home","elo_away","elo_diff","elo_ratio","elo_diff_normalized","neutral","tournament_weight","days_since_home_last","days_since_away_last","days_diff","home_form_10_winrate","home_form_10_goaldiff_avg","home_form_10_goals_scored_avg","home_form_10_goals_conceded_avg","home_form_10_weighted_points","away_form_10_winrate","away_form_10_goaldiff_avg","away_form_10_goals_scored_avg","away_form_10_goals_conceded_avg","away_form_10_weighted_points","home_form_5_winrate","home_form_5_goaldiff_avg","home_form_5_goals_scored_avg","home_form_5_goals_conceded_avg","home_form_5_weighted_points","away_form_5_winrate","away_form_5_goaldiff_avg","away_form_5_goals_scored_avg","away_form_5_goals_conceded_avg","away_form_5_weighted_points","h2h_home_winrate","h2h_draw_rate","h2h_count","h2h_home_goal_diff_avg","tournament_avg_goals","tournament_std_goals","tournament_over_2_5_rate","tournament_match_count","home_tournament_gf_avg","home_tournament_ga_avg","away_tournament_gf_avg","away_tournament_ga_avg","home_tournament_attack_bias","away_tournament_attack_bias","form_diff_winrate","form_diff_goaldiff","form_diff_5_winrate","attack_vs_defense_home","attack_vs_defense_away"],"feature_types":["float","float","float","float","float","int","int","int","int","int","float","float","float","float","float","float","float","float","float","float","float","float","float","float","float","float","float","float","float","float","float","float","int","float","float","float","float","int","float","float","float","float","float","float","float","float","float","float","float"],"gradient_booster":{"model":{"cats":{"enc":[],"feature_segments":[],"sorted_idx":[]},"gbtree_model_param":{"num_parallel_tree":"1","num_trees":"98"},"iteration_indptr":[0,1,2,3,4,5,6,7,8,9,10,11,12,13,14,15,16,17,18,19,20,21,22,23,24,25,26,27,28,29,30,31,32,33,34,35,36,37,38,39,40,41,42,43,44,45,46,47,48,49,50,51,52,53,54,55,56,57,58,59,60,61,62,63,64,65,66,67,68,69,70,71,72,73,74,75,76,77,78,79,80,81,82,83,84,85,86,87,88,89,90,91,92,93,94,95,96,97,98],"tree_info":[0,0,0,0,0,0,0,0,0,0,0,0,0,0,0,0,0,0,0,0,0,0,0,0,0,0,0,0,0,0,0,0,0,0,0,0,0,0,0,0,0,0,0,0,0,0,0,0,0,0,0,0,0,0,0,0,0,0,0,0,0,0,0,0,0,0,0,0,0,0,0,0,0,0,0,0,0,0,0,0,0,0,0,0,0,0,0,0,0,0,0,0,0,0,0,0,0,0],"trees":[{"base_weights":[-2.2575594E-3,-4.273065E-1,3.0852845E-1,-8.711973E-1,-3.0710882E-1,1.1361473E-1,5.874534E-1,-1.3300554E0,-7.848638E-1,-5.096652E-1,-2.3769361E-1,8.456792E-2,7.498451E-1,4.9290636E-1,9.467042E-1,-1.126681E0,-1.5066209E0,-8.721961E-1,-6.069385E-1,-5.448177E-1,-2.7384302E-1,-2.6195547E-1,4.2939505E-1,-7.95023E-3,1.9684838E-1,5.252533E-1,1.1095049E0,3.770956E-1,6.7344916E-1,7.6849425E-1,1.0630382E0,-2.4752387E-1,-1.1849375E0,-1.7779285E0,-1.3343891E0,-2.540653E-1,-9.0107006E-1,-4.1465688E-1,-7.8089255E-1,-1.2796229E0,-5.3158414E-1,3.0627353E-2,-4.552356E-1,-3.4413692E-1,-1.836736E-1,-2.2990698E-1,5.672187E-1,4.7201782E-2,-1.3130939E-1,1.5309855E-1,4.1238105E-1,5.581908E-1,-8.269047E-1,1.1537228E0,-7.0581543E-1,3.4528095E-1,6.081591E-1,5.838034E-1,8.211919E-1,2.785703E-1,8.1573343E-1,8.5372937E-1,1.1519961E0,1.4055184E-3,-8.619712E-2,-7.798486E-2,-5.0118E-2,-1.9246709E-2,-1.0801607E-1,-8.768143E-2,-5.9996746E-2,-7.586976E-2,4.362869E-3,-5.2645095E-2,-9.2416644E-2,-5.9782114E-2,-2.0602176E-2,-6.5154485E-2,-4.0688135E-2,-1.0308073E-1,-4.4985965E-2,-3.6827147E-2,-2.6822902E-2,-9.512948E-2,4.526985E-3,-4.7552854E-2,-1.6417328E-2,-1.7418066E-2,-2.7961906E-2,-1.491239E-2,-2.812743E-3,-5.4022975E-2,6.3750106E-3,2.6223429E-2,6.632044E-2,3.7305054E-4,1.2784058E-2,-1.0948792E-2,1.8530149E-2,4.419946E-3,1.353119E-2,1.801438E-2,4.3301318E-2,4.13238E-2,1.3805112E-2,-9.512948E-2,-4.005715E-3,5.5119216E-2,8.083306E-2,-4.8884675E-2,-1.9246709E-2,1.7802907E-2,2.8608447E-2,3.7989456E-2,-3.5588913E-2,3.1782176E-2,4.3687608E-2,4.431866E-2,5.5262484E-2,-4.336152E-2,2.9781055E-2,4.0136155E-2,5.61146E-2,1.179855E-2,5.334458E-2,7.968154E-2,6.550212E-2],"categories":[],"categories_nodes":[],"categories_segments":[],"categories_sizes":[],"default_left":[0,0,0,0,0,0,0,0,0,0,0,0,0,0,0,0,0,0,0,0,0,0,0,0,0,0,0,0,0,0,0,0,0,0,0,0,0,0,0,0,0,0,0,0,0,0,0,0,0,0,0,0,0,0,0,0,0,0,0,0,0,0,0,0,0,0,0,0,0,0,0,0,0,0,0,0,0,0,0,0,0,0,0,0,0,0,0,0,0,0,0,0,0,0,0,0,0,0,0,0,0,0,0,0,0,0,0,0,0,0,0,0,0,0,0,0,0,0,0,0,0,0,0,0,0,0,0],"id":0,"left_children":[1,3,5,7,9,11,13,15,17,19,21,23,25,27,29,31,33,35,37,39,41,43,45,47,49,51,53,55,57,59,61,63,65,67,69,71,73,75,77,79,81,83,85,87,89,91,93,95,97,99,101,103,105,107,109,111,113,115,117,119,121,123,125,-1,-1,-1,-1,-1,-1,-1,-1,-1,-1,-1,-1,-1,-1,-1,-1,-1,-1,-1,-1,-1,-1,-1,-1,-1,-1,-1,-1,-1,-1,-1,-1,-1,-1,-1,-1,-1,-1,-1,-1,-1,-1,-1,-1,-1,-1,-1,-1,-1,-1,-1,-1,-1,-1,-1,-1,-1,-1,-1,-1,-1,-1,-1,-1],"loss_changes":[2.8206118E3,4.8103357E2,6.7051685E2,7.559277E1,9.9732605E1,1.3415463E2,1.7209204E2,1.0050964E1,2.4881897E1,1.49383545E1,8.562335E1,7.214038E1,2.531157E1,8.387317E1,2.1494629E1,7.1795197E0,6.336731E0,1.923944E1,1.7714706E1,1.4981049E1,1.3037821E1,3.278894E1,1.6941479E1,2.5909512E1,2.9550919E1,8.962963E0,1.0151321E1,1.7895386E1,2.054535E1,9.585388E0,1.1385986E1,3.084525E0,4.837036E0,1.6973267E0,3.5362396E0,1.6254576E1,1.4983704E1,1.0400192E1,8.408798E0,5.7479973E0,1.0623779E1,6.474652E0,8.951223E0,1.626117E1,2.3188133E1,7.36556E0,1.0527981E1,1.7889545E1,2.65275E1,1.4998337E1,1.8242775E1,8.131538E0,2.7518034E0,4.7800446E0,3.4036636E-3,1.3684753E1,9.067497E0,7.446686E0,4.5343323E0,8.381291E0,6.3882904E0,4.376343E0,4.0110474E0,0E0,0E0,0E0,0E0,0E0,0E0,0E0,0E0,0E0,0E0,0E0,0E0,0E0,0E0,0E0,0E0,0E0,0E0,0E0,0E0,0E0,0E0,0E0,0E0,0E0,0E0,0E0,0E0,0E0,0E0,0E0,0E0,0E0,0E0,0E0,0E0,0E0,0E0,0E0,0E0,0E0,0E0,0E0,0E0,0E0,0E0,0E0,0E0,0E0,0E0,0E0,0E0,0E0,0E0,0E0,0E0,0E0,0E0,0E0,0E0,0E0,0E0,0E0,0E0],"parents":[2147483647,0,0,1,1,2,2,3,3,4,4,5,5,6,6,7,7,8,8,9,9,10,10,11,11,12,12,13,13,14,14,15,15,16,16,17,17,18,18,19,19,20,20,21,21,22,22,23,23,24,24,25,25,26,26,27,27,28,28,29,29,30,30,31,31,32,32,33,33,34,34,35,35,36,36,37,37,38,38,39,39,40,40,41,41,42,42,43,43,44,44,45,45,46,46,47,47,48,48,49,49,50,50,51,51,52,52,53,53,54,54,55,55,56,56,57,57,58,58,59,59,60,60,61,61,62,62],"right_children":[2,4,6,8,10,12,14,16,18,20,22,24,26,28,30,32,34,36,38,40,42,44,46,48,50,52,54,56,58,60,62,64,66,68,70,72,74,76,78,80,82,84,86,88,90,92,94,96,98,100,102,104,106,108,110,112,114,116,118,120,122,124,126,-1,-1,-1,-1,-1,-1,-1,-1,-1,-1,-1,-1,-1,-1,-1,-1,-1,-1,-1,-1,-1,-1,-1,-1,-1,-1,-1,-1,-1,-1,-1,-1,-1,-1,-1,-1,-1,-1,-1,-1,-1,-1,-1,-1,-1,-1,-1,-1,-1,-1,-1,-1,-1,-1,-1,-1,-1,-1,-1,-1,-1,-1,-1,-1],"split_conditions":[1.0190378E0,-2.3513524E2,1.159403E0,-4.7515213E2,-1.3715318E2,3.4E0,3.3333333E0,2.79661E0,1.5064552E3,1.7E0,3.090909E0,1.0883621E0,4.2727275E0,1.2674028E0,1.5004446E3,4.4425532E-1,1.0848252E3,3E1,1.1E0,4.0236688E-1,3.78E2,1.2E0,4E-1,1E0,2.025641E0,-7E-1,6E0,2.1581466E0,4.849266E2,2.0445595E2,2.6E0,2E0,2.2222223E0,5E-1,5.287025E-1,5E-1,2.6153846E0,9.230769E-1,2.2333333E0,1.2E0,1.2333333E0,5.555556E-1,7.647059E-1,1E0,9.917398E-1,8.0246913E-1,5.9E0,1.8E0,3.6967418E0,1.5E0,1.98E0,2.0227273E0,2E-1,1.3214722E3,1.3748673E3,1.298969E0,3.7142856E0,2.9680238E0,2.1333334E0,3.76E0,3.2E0,8.333333E-1,-5E0,1.4055184E-3,-8.619712E-2,-7.798486E-2,-5.0118E-2,-1.9246709E-2,-1.0801607E-1,-8.768143E-2,-5.9996746E-2,-7.586976E-2,4.362869E-3,-5.2645095E-2,-9.2416644E-2,-5.9782114E-2,-2.0602176E-2,-6.5154485E-2,-4.0688135E-2,-1.0308073E-1,-4.4985965E-2,-3.6827147E-2,-2.6822902E-2,-9.512948E-2,4.526985E-3,-4.7552854E-2,-1.6417328E-2,-1.7418066E-2,-2.7961906E-2,-1.491239E-2,-2.812743E-3,-5.4022975E-2,6.3750106E-3,2.6223429E-2,6.632044E-2,3.7305054E-4,1.2784058E-2,-1.0948792E-2,1.8530149E-2,4.419946E-3,1.353119E-2,1.801438E-2,4.3301318E-2,4.13238E-2,1.3805112E-2,-9.512948E-2,-4.005715E-3,5.5119216E-2,8.083306E-2,-4.8884675E-2,-1.9246709E-2,1.7802907E-2,2.8608447E-2,3.7989456E-2,-3.5588913E-2,3.1782176E-2,4.3687608E-2,4.431866E-2,5.5262484E-2,-4.336152E-2,2.9781055E-2,4.0136155E-2,5.61146E-2,1.179855E-2,5.334458E-2,7.968154E-2,6.550212E-2],"split_indices":[3,2,3,2,2,28,41,39,0,41,41,3,41,3,0,36,0,37,16,36,37,18,30,5,41,16,23,35,2,2,18,9,17,17,36,22,40,38,19,22,24,39,38,5,3,42,18,41,34,22,48,39,21,1,0,40,12,34,24,41,28,12,26,0,0,0,0,0,0,0,0,0,0,0,0,0,0,0,0,0,0,0,0,0,0,0,0,0,0,0,0,0,0,0,0,0,0,0,0,0,0,0,0,0,0,0,0,0,0,0,0,0,0,0,0,0,0,0,0,0,0,0,0,0,0,0,0],"split_type":[0,0,0,0,0,0,0,0,0,0,0,0,0,0,0,0,0,0,0,0,0,0,0,0,0,0,0,0,0,0,0,0,0,0,0,0,0,0,0,0,0,0,0,0,0,0,0,0,0,0,0,0,0,0,0,0,0,0,0,0,0,0,0,0,0,0,0,0,0,0,0,0,0,0,0,0,0,0,0,0,0,0,0,0,0,0,0,0,0,0,0,0,0,0,0,0,0,0,0,0,0,0,0,0,0,0,0,0,0,0,0,0,0,0,0,0,0,0,0,0,0,0,0,0,0,0,0],"sum_hessian":[2.1351217E4,9.017785E3,1.2333432E4,1.9208711E3,7.096914E3,7.2604844E3,5.0729478E3,3.030377E2,1.6178334E3,1.8105336E3,5.2863804E3,6.9440244E3,3.1645987E2,4.016957E3,1.0559906E3,1.4254268E2,1.6049503E2,1.0838765E3,5.339569E2,1.5750901E3,2.3544354E2,5.1011562E3,1.8522414E2,3.8073035E3,3.136721E3,1.9556705E2,1.2089283E2,2.4481282E3,1.5688289E3,4.1857935E2,6.374112E2,9.021565E0,1.3352112E2,6.051211E1,9.998291E1,4.8588955E1,1.0352875E3,2.5442168E2,2.7953525E2,2.7018335E1,1.5480717E3,8.8055885E1,1.4738765E2,2.4877654E3,2.613391E3,3.1967638E1,1.5325648E2,2.6312292E3,1.1760741E3,2.6081597E3,5.2856134E2,1.912031E2,4.3639655E0,1.18196014E2,2.6968107E0,2.1529414E3,2.9518677E2,9.77928E2,5.909009E2,3.7113983E1,3.8146536E2,1.9168797E2,4.4572324E2,7.7465687E0,1.2749966E0,9.949223E1,3.4028885E1,1.0296562E0,5.9482456E1,7.124912E1,2.8733786E1,1.1523264E1,3.706569E1,9.9949097E2,3.5796494E1,2.706663E1,2.2735504E2,6.9236176E1,2.1029907E2,1.4171781E1,1.2846556E1,7.832844E2,7.647873E2,1.9124949E0,8.6143394E1,5.0994064E1,9.639359E1,1.726801E3,7.6096423E2,1.7724904E3,8.409007E2,1.0395085E1,2.1572554E1,1.2413635E2,2.9120142E1,2.1103064E3,5.20923E2,1.0538483E3,1.22225784E2,1.2443481E3,1.3638114E3,3.8864206E2,1.3991925E2,1.3638983E2,5.4813255E1,1.9124949E0,2.4514704E0,5.4662567E1,6.3533447E1,1.6671546E0,1.0296562E0,1.5735426E3,5.793989E2,2.8940097E2,5.7857795E0,7.129934E2,2.6493457E2,3.257751E2,2.6512582E2,6.4232774E0,3.0690708E1,1.7266928E2,2.087961E2,9.952699E0,1.8173528E2,1.1103672E2,3.3468652E2],"tree_param":{"num_deleted":"0","num_feature":"49","num_nodes":"127","size_leaf_vector":"1"}},{"base_weights":[3.438587E-3,-3.657308E-1,3.2272568E-1,-6.7996347E-1,-1.9493301E-1,1.987181E-1,7.083526E-1,-1.1246752E0,-5.819988E-1,-2.1921389E-1,4.087001E-1,1.7376843E-1,8.505353E-1,6.015611E-1,9.166802E-1,-1.1643054E0,2.655632E-1,-7.44762E-1,-5.224122E-1,-2.9804736E-1,-1.0876953E-1,1.079985E-1,7.9776746E-1,6.0635768E-2,3.065366E-1,5.9147716E-1,1.0753086E0,5.2319956E-1,7.8377277E-1,8.0256647E-1,1.0934762E0,-1.5195158E0,-1.0479676E0,8.190581E-1,-6.858742E-1,-8.617741E-1,-4.8112306E-1,-5.3568E-1,9.5189735E-2,-2.5827208E-1,-3.94086E-1,-1.5008804E-1,1.2827022E-1,-1.1442896E-1,4.664623E-1,1.1510801E0,4.526008E-1,2.888691E-1,2.9873779E-2,2.560629E-1,4.2138192E-1,7.083942E-1,2.4866255E-1,1.5432721E0,9.427254E-1,4.6395007E-1,6.436263E-1,6.623966E-1,8.7685186E-1,4.7563252E-1,8.564344E-1,3.7827763E-1,1.1362292E0,-9.300759E-2,-2.2809794E-2,-7.723949E-2,-5.6553416E-2,7.422633E-2,2.9977176E-2,-2.3914257E-2,-8.531085E-2,-5.9077304E-2,-3.5357293E-2,-7.9905234E-2,-2.5136117E-2,-2.9047506E-2,-4.1334424E-2,-1.2506433E-2,2.5245586E-2,-2.2101117E-2,-1.33565925E-2,-5.0317578E-2,-2.1444606E-2,-5.424461E-3,-1.6998457E-2,4.1769347E-3,3.2325927E-2,2.0177063E-2,-2.4199327E-2,3.6638767E-2,-4.5867085E-2,7.409067E-2,1.0047361E-2,6.511692E-2,1.5855579E-2,1.3162702E-2,4.91917E-2,5.0496208E-3,-6.091407E-3,9.629887E-3,1.947857E-2,2.0753091E-2,3.691585E-2,3.324904E-2,5.7888698E-2,-9.507545E-3,4.1709162E-2,4.902008E-2,9.513053E-2,5.8435135E-2,-1.2522327E-2,2.300721E-2,3.882489E-2,3.9869506E-2,-8.861659E-3,2.675579E-2,4.447788E-2,8.727228E-2,5.1215284E-2,-4.7166794E-4,3.826113E-2,5.218451E-2,1.3227238E-2,-1.3276541E-2,2.9997243E-2,2.7928967E-2,6.9370836E-2],"categories":[],"categories_nodes":[],"categories_segments":[],"categories_sizes":[],"default_left":[0,0,0,0,0,0,0,0,0,0,0,0,0,0,0,0,0,0,0,0,0,0,0,0,0,0,0,0,0,0,0,0,0,0,0,0,0,0,0,0,0,0,0,0,0,0,0,0,0,0,0,0,0,0,0,0,0,0,0,0,0,0,0,0,0,0,0,0,0,0,0,0,0,0,0,0,0,0,0,0,0,0,0,0,0,0,0,0,0,0,0,0,0,0,0,0,0,0,0,0,0,0,0,0,0,0,0,0,0,0,0,0,0,0,0,0,0,0,0,0,0,0,0,0,0,0,0],"id":1,"left_children":[1,3,5,7,9,11,13,15,17,19,21,23,25,27,29,31,33,35,37,39,41,43,45,47,49,51,53,55,57,59,61,63,65,67,69,71,73,75,77,79,81,83,85,87,89,91,93,95,97,99,101,103,105,107,109,111,113,115,117,119,121,123,125,-1,-1,-1,-1,-1,-1,-1,-1,-1,-1,-1,-1,-1,-1,-1,-1,-1,-1,-1,-1,-1,-1,-1,-1,-1,-1,-1,-1,-1,-1,-1,-1,-1,-1,-1,-1,-1,-1,-1,-1,-1,-1,-1,-1,-1,-1,-1,-1,-1,-1,-1,-1,-1,-1,-1,-1,-1,-1,-1,-1,-1,-1,-1,-1],"loss_changes":[2.525141E3,5.331671E2,5.4927234E2,1.5208484E2,9.43967E1,1.4129749E2,6.1907104E1,3.4920044E1,2.7619995E1,5.3868256E1,2.9100468E1,1.2575934E2,1.8335663E1,2.6199646E1,1.8651917E1,2.4560791E1,9.705219E0,2.3465729E1,1.7241882E1,1.3742676E1,2.526294E1,1.1275858E1,1.2973434E1,3.1740854E1,2.2275787E1,5.921463E0,9.876724E0,9.088257E0,5.98114E0,9.957214E0,1.109256E1,4.94635E0,1.1096191E1,1.2322788E0,1.1659203E0,1.7480042E1,1.225946E1,1.6082092E1,4.4538064E0,9.988571E0,1.7076294E1,1.7446003E1,9.202915E0,1.1456489E1,9.838809E0,4.288307E0,6.495674E0,1.9724213E1,2.8429947E1,1.7520676E1,1.709755E1,4.1439247E0,7.126409E0,4.856949E-1,4.9312363E0,1.2693939E1,7.0767517E0,3.984726E0,3.5808563E0,6.4853287E0,4.0910645E0,1.631706E0,4.397278E0,0E0,0E0,0E0,0E0,0E0,0E0,0E0,0E0,0E0,0E0,0E0,0E0,0E0,0E0,0E0,0E0,0E0,0E0,0E0,0E0,0E0,0E0,0E0,0E0,0E0,0E0,0E0,0E0,0E0,0E0,0E0,0E0,0E0,0E0,0E0,0E0,0E0,0E0,0E0,0E0,0E0,0E0,0E0,0E0,0E0,0E0,0E0,0E0,0E0,0E0,0E0,0E0,0E0,0E0,0E0,0E0,0E0,0E0,0E0,0E0,0E0,0E0,0E0,0E0],"parents":[2147483647,0,0,1,1,2,2,3,3,4,4,5,5,6,6,7,7,8,8,9,9,10,10,11,11,12,12,13,13,14,14,15,15,16,16,17,17,18,18,19,19,20,20,21,21,22,22,23,23,24,24,25,25,26,26,27,27,28,28,29,29,30,30,31,31,32,32,33,33,34,34,35,35,36,36,37,37,38,38,39,39,40,40,41,41,42,42,43,43,44,44,45,45,46,46,47,47,48,48,49,49,50,50,51,51,52,52,53,53,54,54,55,55,56,56,57,57,58,58,59,59,60,60,61,61,62,62],"right_children":[2,4,6,8,10,12,14,16,18,20,22,24,26,28,30,32,34,36,38,40,42,44,46,48,50,52,54,56,58,60,62,64,66,68,70,72,74,76,78,80,82,84,86,88,90,92,94,96,98,100,102,104,106,108,110,112,114,116,118,120,122,124,126,-1,-1,-1,-1,-1,-1,-1,-1,-1,-1,-1,-1,-1,-1,-1,-1,-1,-1,-1,-1,-1,-1,-1,-1,-1,-1,-1,-1,-1,-1,-1,-1,-1,-1,-1,-1,-1,-1,-1,-1,-1,-1,-1,-1,-1,-1,-1,-1,-1,-1,-1,-1,-1,-1,-1,-1,-1,-1,-1,-1,-1,-1,-1,-1],"split_conditions":[1.0344665E0,9.1161627E-1,1.2426132E0,7.7860767E-1,3E0,4E0,3.090909E0,2.862069E0,8.3781695E-1,9.874563E-1,3.9E0,1.11963E0,1.4291897E3,4.849266E2,3.4E0,-2.8E0,7.344318E-1,5.291115E-1,3.1E0,1E0,1.8333334E0,8.228427E0,1.25E0,1E0,1.44E0,4.634E3,3.3E-1,2.0636616E0,2E0,8.5E-1,1.3296489E3,3.0701754E0,7.0435536E-1,-7.6E0,6.666667E-1,1.1568627E0,-3E0,1E0,2.5E-1,1.037037E0,5E-1,1E0,2.1E0,-7.121453E1,1.2333333E0,3.0482695E0,-6.7E0,2.6E0,1E0,1.1E0,2.2E0,5.2E0,2E-1,1.4316301E3,2.2E0,3.6E0,1.67E2,2.662E3,-9E-1,1.2819116E0,7.1E1,5.761317E-1,2.5E1,-9.300759E-2,-2.2809794E-2,-7.723949E-2,-5.6553416E-2,7.422633E-2,2.9977176E-2,-2.3914257E-2,-8.531085E-2,-5.9077304E-2,-3.5357293E-2,-7.9905234E-2,-2.5136117E-2,-2.9047506E-2,-4.1334424E-2,-1.2506433E-2,2.5245586E-2,-2.2101117E-2,-1.33565925E-2,-5.0317578E-2,-2.1444606E-2,-5.424461E-3,-1.6998457E-2,4.1769347E-3,3.2325927E-2,2.0177063E-2,-2.4199327E-2,3.6638767E-2,-4.5867085E-2,7.409067E-2,1.0047361E-2,6.511692E-2,1.5855579E-2,1.3162702E-2,4.91917E-2,5.0496208E-3,-6.091407E-3,9.629887E-3,1.947857E-2,2.0753091E-2,3.691585E-2,3.324904E-2,5.7888698E-2,-9.507545E-3,4.1709162E-2,4.902008E-2,9.513053E-2,5.8435135E-2,-1.2522327E-2,2.300721E-2,3.882489E-2,3.9869506E-2,-8.861659E-3,2.675579E-2,4.447788E-2,8.727228E-2,5.1215284E-2,-4.7166794E-4,3.826113E-2,5.218451E-2,1.3227238E-2,-1.3276541E-2,2.9997243E-2,2.7928967E-2,6.9370836E-2],"split_indices":[3,3,3,3,41,28,41,41,3,3,47,3,0,2,45,45,3,36,18,5,41,2,22,32,48,37,48,35,28,14,0,42,3,11,24,38,21,5,31,41,23,5,38,2,14,35,16,45,5,45,28,18,15,0,21,47,7,37,11,3,9,42,6,0,0,0,0,0,0,0,0,0,0,0,0,0,0,0,0,0,0,0,0,0,0,0,0,0,0,0,0,0,0,0,0,0,0,0,0,0,0,0,0,0,0,0,0,0,0,0,0,0,0,0,0,0,0,0,0,0,0,0,0,0,0,0,0],"split_type":[0,0,0,0,0,0,0,0,0,0,0,0,0,0,0,0,0,0,0,0,0,0,0,0,0,0,0,0,0,0,0,0,0,0,0,0,0,0,0,0,0,0,0,0,0,0,0,0,0,0,0,0,0,0,0,0,0,0,0,0,0,0,0,0,0,0,0,0,0,0,0,0,0,0,0,0,0,0,0,0,0,0,0,0,0,0,0,0,0,0,0,0,0,0,0,0,0,0,0,0,0,0,0,0,0,0,0,0,0,0,0,0,0,0,0,0,0,0,0,0,0,0,0,0,0,0,0],"sum_hessian":[2.1421918E4,9.93486E3,1.1487059E4,3.4979194E3,6.4369404E3,8.692525E3,2.7945325E3,6.305032E2,2.8674163E3,6.188336E3,2.4860468E2,8.372678E3,3.1984854E2,1.8487714E3,9.45761E2,6.131071E2,1.7396034E1,7.6688635E2,2.10053E3,3.6104226E3,2.577913E3,1.4058693E2,1.0801775E2,4.521017E3,3.8516602E3,1.4943538E2,1.7041316E2,1.2941482E3,5.5462317E2,5.7645526E2,3.6930573E2,1.4977472E2,4.633324E2,1.1041976E1,6.3540583E0,5.303599E2,2.3652641E2,2.0564187E3,4.411127E1,2.5543567E3,1.0560659E3,2.195413E3,3.825001E2,8.696523E1,5.3621696E1,5.2802097E1,5.5215656E1,5.3648236E2,3.984535E3,2.6768274E3,1.1748326E3,1.11034E2,3.840139E1,3.6447716E1,1.3396544E2,8.6902026E2,4.25128E2,2.424821E2,3.1214105E2,8.224013E1,4.9421515E2,2.1108765E1,3.4819696E2,1.4568051E2,4.094217E0,1.3994682E2,3.2338556E2,4.1606207E0,6.8813553E0,5.1244106E0,1.2296474E0,3.6465286E2,1.6570705E2,1.5418462E1,2.2110796E2,1.5402611E3,5.1615765E2,2.2917778E1,2.1193493E1,6.238942E2,1.9304625E3,7.965482E1,9.7641113E2,1.5167646E3,6.7864844E2,3.3519037E2,4.730972E1,3.393692E1,5.3028313E1,4.8224808E1,5.396889E0,4.8540718E1,4.261376E0,1.2120147E1,4.309551E1,4.7502292E2,6.1459435E1,2.8197422E3,1.1647926E3,1.1190807E3,1.5577468E3,8.465723E2,3.2826035E2,7.031672E1,4.0717274E1,2.0254944E1,1.8146448E1,2.5621777E0,3.388554E1,1.3050696E2,3.4584901E0,6.047469E2,2.6427338E2,4.142843E2,1.0843676E1,6.5662476E1,1.7681963E2,1.08926525E1,3.0124838E2,2.076435E1,6.1475777E1,4.8390598E2,1.0309172E1,3.4921458E0,1.761662E1,1.04094E1,3.3778757E2],"tree_param":{"num_deleted":"0","num_feature":"49","num_nodes":"127","size_leaf_vector":"1"}},{"base_weights":[4.0138926E-4,-3.8439387E-1,2.744733E-1,-7.86137E-1,-2.7593416E-1,1.4085788E-1,5.929801E-1,-1.235402E0,-7.0398647E-1,-4.6038213E-1,-2.1318375E-1,1.1323706E-1,7.639919E-1,4.8135623E-1,8.2061166E-1,-1.4589326E0,-9.954999E-1,-8.468302E-1,-6.0186446E-1,-4.9653563E-1,-2.2291249E-1,-2.347518E-1,3.4502006E-1,-7.4193813E-3,2.2141883E-1,9.18734E-1,4.8745626E-1,4.291175E-1,7.7394277E-1,7.4505025E-1,1.0099206E0,-1.5106796E0,-5.427973E-1,-8.9737165E-1,-1.3986725E0,-2.9036975E-1,-8.9812195E-1,-9.266643E-1,-5.5057526E-1,-1.2031933E0,-4.8318964E-1,-8.7236404E-1,-1.1308819E-1,-1.8690637E-1,-3.4940818E-1,1.8136263E-2,6.6890544E-1,3.9161015E-2,-1.1232263E-1,2.0436312E-1,6.2173295E-1,-9.377486E-1,9.471038E-1,2.3858806E-1,8.070325E-1,3.3093688E-1,5.2402633E-1,6.824126E-1,1.2963716E0,5.6525016E-1,8.2675016E-1,7.9150826E-1,1.0909027E0,-9.745889E-2,-6.40044E-2,-9.337355E-2,-1.0653663E-2,-2.5509521E-2,-5.982068E-2,-1.9680643E-2,-1.0236193E-1,-2.5002649E-2,7.1907654E-2,-8.855943E-2,-5.0975688E-2,-6.2040936E-2,-1.6959045E-2,-4.2993624E-2,-2.6748342E-2,-8.135073E-2,-5.8933473E-3,-2.0761593E-4,-2.97387E-2,-3.0747648E-2,-8.1250496E-2,-3.6839806E-2,-1.1334653E-3,6.5911815E-2,-1.1420629E-2,-2.2942195E-2,-2.608506E-3,-1.2118695E-2,2.5202848E-2,6.251574E-2,2.2354178E-2,2.9233925E-4,1.1863788E-2,-7.626803E-3,4.715993E-2,1.4747128E-2,5.6091505E-3,4.0505107E-2,-4.5365952E-2,7.0923506E-3,-9.507663E-2,4.5385957E-2,6.519047E-2,-3.556083E-2,2.032061E-2,2.265332E-2,6.1161093E-2,1.0800946E-2,2.3324009E-2,2.3047505E-2,3.517819E-2,2.1416517E-2,4.5559444E-2,6.2409166E-2,8.760556E-2,1.1109286E-2,3.7277475E-2,2.9489106E-2,5.149003E-2,1.748591E-2,5.4005448E-2,5.6422565E-2,7.1027435E-2],"categories":[],"categories_nodes":[],"categories_segments":[],"categories_sizes":[],"default_left":[0,0,0,0,0,0,0,0,0,0,0,0,0,0,0,0,0,0,0,0,0,0,0,0,0,0,0,0,0,0,0,0,0,0,0,0,0,0,0,0,0,0,0,0,0,0,0,0,0,0,0,0,0,0,0,0,0,0,0,0,0,0,0,0,0,0,0,0,0,0,0,0,0,0,0,0,0,0,0,0,0,0,0,0,0,0,0,0,0,0,0,0,0,0,0,0,0,0,0,0,0,0,0,0,0,0,0,0,0,0,0,0,0,0,0,0,0,0,0,0,0,0,0,0,0,0,0],"id":2,"left_children":[1,3,5,7,9,11,13,15,17,19,21,23,25,27,29,31,33,35,37,39,41,43,45,47,49,51,53,55,57,59,61,63,65,67,69,71,73,75,77,79,81,83,85,87,89,91,93,95,97,99,101,103,105,107,109,111,113,115,117,119,121,123,125,-1,-1,-1,-1,-1,-1,-1,-1,-1,-1,-1,-1,-1,-1,-1,-1,-1,-1,-1,-1,-1,-1,-1,-1,-1,-1,-1,-1,-1,-1,-1,-1,-1,-1,-1,-1,-1,-1,-1,-1,-1,-1,-1,-1,-1,-1,-1,-1,-1,-1,-1,-1,-1,-1,-1,-1,-1,-1,-1,-1,-1,-1,-1,-1],"loss_changes":[2.2427046E3,3.8533545E2,5.285068E2,6.8958984E1,8.057947E1,1.5055605E2,9.305957E1,1.4824982E1,2.294983E1,1.5122925E1,6.263092E1,1.09372284E2,1.56645355E1,3.7492065E1,1.6887634E1,6.655884E0,4.968567E0,1.876184E1,1.5225891E1,1.4175812E1,1.6676579E1,2.7427612E1,2.0491264E1,1.936063E1,3.01008E1,1.2953308E1,1.0583843E1,1.9404144E1,1.737616E1,1.2465485E1,5.6331177E0,6.23645E0,3.1002107E0,5.206314E0,8.537342E0,1.0896523E1,1.636139E1,8.565094E0,1.38185425E1,4.6727486E0,8.999725E0,5.521845E0,9.485587E0,1.5715393E1,1.4848114E1,8.612127E0,1.0554142E1,1.4918134E1,1.6237616E1,1.9453613E1,1.350872E1,2.70712E0,5.8137817E0,6.4406643E0,5.149391E0,8.944923E0,9.146423E0,7.828171E0,1.5476608E0,5.729393E0,6.0386353E0,5.0038986E0,2.9224854E0,0E0,0E0,0E0,0E0,0E0,0E0,0E0,0E0,0E0,0E0,0E0,0E0,0E0,0E0,0E0,0E0,0E0,0E0,0E0,0E0,0E0,0E0,0E0,0E0,0E0,0E0,0E0,0E0,0E0,0E0,0E0,0E0,0E0,0E0,0E0,0E0,0E0,0E0,0E0,0E0,0E0,0E0,0E0,0E0,0E0,0E0,0E0,0E0,0E0,0E0,0E0,0E0,0E0,0E0,0E0,0E0,0E0,0E0,0E0,0E0,0E0,0E0,0E0,0E0],"parents":[2147483647,0,0,1,1,2,2,3,3,4,4,5,5,6,6,7,7,8,8,9,9,10,10,11,11,12,12,13,13,14,14,15,15,16,16,17,17,18,18,19,19,20,20,21,21,22,22,23,23,24,24,25,25,26,26,27,27,28,28,29,29,30,30,31,31,32,32,33,33,34,34,35,35,36,36,37,37,38,38,39,39,40,40,41,41,42,42,43,43,44,44,45,45,46,46,47,47,48,48,49,49,50,50,51,51,52,52,53,53,54,54,55,55,56,56,57,57,58,58,59,59,60,60,61,61,62,62],"right_children":[2,4,6,8,10,12,14,16,18,20,22,24,26,28,30,32,34,36,38,40,42,44,46,48,50,52,54,56,58,60,62,64,66,68,70,72,74,76,78,80,82,84,86,88,90,92,94,96,98,100,102,104,106,108,110,112,114,116,118,120,122,124,126,-1,-1,-1,-1,-1,-1,-1,-1,-1,-1,-1,-1,-1,-1,-1,-1,-1,-1,-1,-1,-1,-1,-1,-1,-1,-1,-1,-1,-1,-1,-1,-1,-1,-1,-1,-1,-1,-1,-1,-1,-1,-1,-1,-1,-1,-1,-1,-1,-1,-1,-1,-1,-1,-1,-1,-1,-1,-1,-1,-1,-1,-1,-1,-1],"split_conditions":[1.0177451E0,-2.3513524E2,1.2001072E0,-4.7515213E2,-1.3715318E2,3.5E0,1.3605146E0,1.192741E3,9.4186044E-1,1.7E0,3E0,1.0883621E0,3.86E2,3.3333333E0,3.4E0,3.3333334E-1,1.3157895E0,-1E0,-2.4E0,4.0236688E-1,7.2E-1,1E0,3.9E0,1E0,5.25E0,-8E-1,4.1666666E-1,1.6666666E0,4.637931E0,2.882965E0,5.1120657E2,7.8E1,1.6666667E-1,6E-1,1.7480416E3,1.08E1,-2.9E0,2.9166667E0,9.099099E-1,2.3397436E0,-1.1666666E0,2.125E0,8.5714287E-1,1E-1,2.0689654E0,-4E-1,1.2222222E0,1.8461539E0,2.75E2,1E0,1.9E1,1E0,1.4219188E3,1.1576335E3,1.5074627E0,1.4666667E0,3E1,1.2222222E0,4.5E0,-3.3333334E-1,2.5E-1,2.5E1,3.4444444E0,-9.745889E-2,-6.40044E-2,-9.337355E-2,-1.0653663E-2,-2.5509521E-2,-5.982068E-2,-1.9680643E-2,-1.0236193E-1,-2.5002649E-2,7.1907654E-2,-8.855943E-2,-5.0975688E-2,-6.2040936E-2,-1.6959045E-2,-4.2993624E-2,-2.6748342E-2,-8.135073E-2,-5.8933473E-3,-2.0761593E-4,-2.97387E-2,-3.0747648E-2,-8.1250496E-2,-3.6839806E-2,-1.1334653E-3,6.5911815E-2,-1.1420629E-2,-2.2942195E-2,-2.608506E-3,-1.2118695E-2,2.5202848E-2,6.251574E-2,2.2354178E-2,2.9233925E-4,1.1863788E-2,-7.626803E-3,4.715993E-2,1.4747128E-2,5.6091505E-3,4.0505107E-2,-4.5365952E-2,7.0923506E-3,-9.507663E-2,4.5385957E-2,6.519047E-2,-3.556083E-2,2.032061E-2,2.265332E-2,6.1161093E-2,1.0800946E-2,2.3324009E-2,2.3047505E-2,3.517819E-2,2.1416517E-2,4.5559444E-2,6.2409166E-2,8.760556E-2,1.1109286E-2,3.7277475E-2,2.9489106E-2,5.149003E-2,1.748591E-2,5.4005448E-2,5.6422565E-2,7.1027435E-2],"split_indices":[3,2,3,2,2,28,3,0,38,41,41,3,37,33,45,31,43,16,33,36,47,5,47,5,47,45,10,28,34,34,2,8,10,25,1,48,11,19,41,34,16,13,17,13,38,11,12,41,9,5,32,5,0,0,39,38,6,12,41,11,17,6,41,0,0,0,0,0,0,0,0,0,0,0,0,0,0,0,0,0,0,0,0,0,0,0,0,0,0,0,0,0,0,0,0,0,0,0,0,0,0,0,0,0,0,0,0,0,0,0,0,0,0,0,0,0,0,0,0,0,0,0,0,0,0,0,0],"split_type":[0,0,0,0,0,0,0,0,0,0,0,0,0,0,0,0,0,0,0,0,0,0,0,0,0,0,0,0,0,0,0,0,0,0,0,0,0,0,0,0,0,0,0,0,0,0,0,0,0,0,0,0,0,0,0,0,0,0,0,0,0,0,0,0,0,0,0,0,0,0,0,0,0,0,0,0,0,0,0,0,0,0,0,0,0,0,0,0,0,0,0,0,0,0,0,0,0,0,0,0,0,0,0,0,0,0,0,0,0,0,0,0,0,0,0,0,0,0,0,0,0,0,0,0,0,0,0],"sum_hessian":[2.1264607E4,8.84545E3,1.2419157E4,1.8797153E3,6.9657354E3,8.749438E3,3.6697197E3,2.894965E2,1.5902189E3,1.7674225E3,5.1983125E3,8.378641E3,3.7079767E2,2.4633315E3,1.2063881E3,1.4854648E2,1.4095003E2,6.6141504E2,9.288038E2,1.5334216E3,2.3400085E2,5.0052095E3,1.9310318E2,3.9611677E3,4.4174727E3,2.3701123E2,1.3378645E2,2.0911997E3,3.721317E2,8.639974E2,3.4239072E2,1.4029745E2,8.249028E0,1.1465661E2,2.6293419E1,5.610177E1,6.053133E2,1.2550185E2,8.0330194E2,2.7597248E1,1.5058243E3,3.334455E1,2.006563E2,3.5324526E3,1.472757E3,9.6369514E1,9.6733665E1,2.7433472E3,1.2178206E3,4.237678E3,1.797944E2,3.326132E0,2.336851E2,7.570494E1,5.808151E1,1.0289855E3,1.0622144E3,3.1763486E2,5.449688E1,2.7117386E2,5.928235E2,9.406901E1,2.4832172E2,1.1064594E2,2.965151E1,1.753399E0,6.4956293E0,2.043665E1,9.4219955E1,6.095135E0,2.0198282E1,5.20453E1,4.0564704E0,4.57544E1,5.595589E2,1.07311226E2,1.8190615E1,3.0971094E2,4.93591E2,2.414771E1,3.4495373E0,3.8123016E1,1.4677014E3,1.9677588E1,1.3666962E1,3.132442E1,1.6933188E2,8.996325E0,3.5234563E3,1.3294004E3,1.4335664E2,6.242821E1,3.3941303E1,4.226855E1,5.4465115E1,2.2560232E3,4.8732397E2,1.1985164E3,1.9304197E1,3.0846746E3,1.1530038E3,1.7333748E2,6.456928E0,1.4187531E0,1.9073789E0,1.000517E2,1.336334E2,7.8712187E0,6.783372E1,1.9674078E1,3.8407433E1,2.8550897E2,7.4347656E2,3.2829752E2,7.339168E2,6.125191E1,2.5638293E2,2.2679972E1,3.181691E1,3.5120842E1,2.3605302E2,5.150577E1,5.4131775E2,1.711018E1,7.695883E1,9.6882965E1,1.5143875E2],"tree_param":{"num_deleted":"0","num_feature":"49","num_nodes":"127","size_leaf_vector":"1"}},{"base_weights":[2.7616266E-3,-2.508247E-1,3.7174127E-1,-6.009564E-1,-1.0958867E-1,2.5090355E-1,6.3200104E-1,-1.0056344E0,-5.2127516E-1,-2.3099408E-1,-2.5869483E-2,2.0667008E-1,5.8476907E-1,5.640318E-1,9.2039454E-1,-1.0609827E0,-1.7353971E-1,-6.2860227E-1,-4.4485453E-1,-2.4317242E-1,6.351605E-1,5.294072E-1,-4.3462507E-2,1.0232714E-1,2.5574186E-1,4.969179E-1,9.3516535E-1,4.70219E-1,7.0877975E-1,9.7921574E-1,5.239363E-1,-1.4047834E0,-9.578246E-1,-1.08215824E-1,7.991886E-2,-6.073702E-1,-1.3225591E0,-1.3726988E0,-4.3660164E-1,-1.9655858E-1,-3.5567328E-1,3.776137E-1,1.3304594E0,1.1597124E0,3.8137996E-1,6.251948E-2,-1.0114756E-1,1.4697681E-1,-5.4456647E-2,5.866036E-2,2.8249794E-1,2.1914458E-1,6.245469E-1,1.024497E0,1.8861404E-1,3.6835295E-1,5.449608E-1,5.441039E-1,8.024355E-1,4.143645E-1,1.0031993E0,2.6914364E-1,9.2696553E-1,-9.385667E-3,-8.826398E-2,-6.5215714E-2,-3.977446E-2,-1.3423822E-2,5.0362274E-2,-4.2543326E-2,-2.7517099E-2,-1.813302E-2,-9.3597494E-2,-9.716709E-2,-3.03082E-2,-3.9582472E-2,-2.455125E-2,-2.3973506E-2,-1.0415314E-2,-4.6062082E-2,-1.9392338E-2,-8.41625E-3,4.1594647E-2,8.567502E-2,4.502664E-2,2.5359284E-2,7.492091E-2,-9.467953E-2,2.4923058E-2,8.99283E-2,3.153578E-3,-3.146706E-3,-1.2676682E-2,-9.260702E-3,1.0141637E-2,-1.1434479E-2,1.0021878E-2,-4.5551048E-3,1.6516788E-2,1.5429631E-2,2.8033484E-2,3.5313085E-2,4.8512435E-3,3.0750506E-2,5.2607205E-2,4.6394937E-2,7.133338E-2,3.4392845E-2,-3.1036455E-2,1.3679244E-2,2.7816702E-2,-3.2080067E-3,3.3498283E-2,2.5212593E-2,4.4937618E-2,4.66831E-2,7.8023486E-2,5.4001745E-2,1.1689425E-2,6.1642513E-2,2.4048049E-2,-5.812038E-3,3.640957E-2,5.843426E-2,4.4595446E-3],"categories":[],"categories_nodes":[],"categories_segments":[],"categories_sizes":[],"default_left":[0,0,0,0,0,0,0,0,0,0,0,0,0,0,0,0,0,0,0,0,0,0,0,0,0,0,0,0,0,0,0,0,0,0,0,0,0,0,0,0,0,0,0,0,0,0,0,0,0,0,0,0,0,0,0,0,0,0,0,0,0,0,0,0,0,0,0,0,0,0,0,0,0,0,0,0,0,0,0,0,0,0,0,0,0,0,0,0,0,0,0,0,0,0,0,0,0,0,0,0,0,0,0,0,0,0,0,0,0,0,0,0,0,0,0,0,0,0,0,0,0,0,0,0,0],"id":3,"left_children":[1,3,5,7,9,11,13,15,17,19,21,23,25,27,29,31,33,35,37,39,41,43,45,47,49,51,53,55,57,59,61,63,65,-1,67,69,71,73,75,77,79,81,83,85,87,89,91,93,95,97,99,101,103,105,107,109,111,113,115,117,119,121,123,-1,-1,-1,-1,-1,-1,-1,-1,-1,-1,-1,-1,-1,-1,-1,-1,-1,-1,-1,-1,-1,-1,-1,-1,-1,-1,-1,-1,-1,-1,-1,-1,-1,-1,-1,-1,-1,-1,-1,-1,-1,-1,-1,-1,-1,-1,-1,-1,-1,-1,-1,-1,-1,-1,-1,-1,-1,-1,-1,-1,-1,-1],"loss_changes":[1.9869254E3,6.223353E2,2.7194226E2,1.16381836E2,9.115356E1,8.718613E1,5.3493774E1,2.7290161E1,2.4657593E1,3.868802E1,5.1872543E1,2.6701645E1,2.1034668E1,2.9986267E1,1.192218E1,1.909497E1,1.563928E1,1.810736E1,1.3235901E1,1.8896103E1,8.861862E0,1.4993771E1,3.1464645E1,1.1692457E1,1.8701996E1,1.9552399E1,9.101761E0,1.0168884E1,1.3233826E1,5.9451904E0,6.914358E0,1.0440765E1,1.602362E1,0E0,7.724125E0,1.8288391E1,8.694893E0,2.8771782E0,1.0585571E1,1.18721695E1,1.4015381E1,6.232867E0,2.305603E-1,1.7537918E0,9.175989E0,2.5911572E1,1.7869133E1,8.648808E0,1.118501E1,1.2393297E1,1.456163E1,8.91654E0,1.0484421E1,4.6236725E0,4.3163924E0,7.6002502E0,6.21904E0,7.907776E0,6.2323914E0,1.9756348E0,6.134186E0,5.3071585E0,1.0182209E0,0E0,0E0,0E0,0E0,0E0,0E0,0E0,0E0,0E0,0E0,0E0,0E0,0E0,0E0,0E0,0E0,0E0,0E0,0E0,0E0,0E0,0E0,0E0,0E0,0E0,0E0,0E0,0E0,0E0,0E0,0E0,0E0,0E0,0E0,0E0,0E0,0E0,0E0,0E0,0E0,0E0,0E0,0E0,0E0,0E0,0E0,0E0,0E0,0E0,0E0,0E0,0E0,0E0,0E0,0E0,0E0,0E0,0E0,0E0,0E0,0E0,0E0],"parents":[2147483647,0,0,1,1,2,2,3,3,4,4,5,5,6,6,7,7,8,8,9,9,10,10,11,11,12,12,13,13,14,14,15,15,16,16,17,17,18,18,19,19,20,20,21,21,22,22,23,23,24,24,25,25,26,26,27,27,28,28,29,29,30,30,31,31,32,32,34,34,35,35,36,36,37,37,38,38,39,39,40,40,41,41,42,42,43,43,44,44,45,45,46,46,47,47,48,48,49,49,50,50,51,51,52,52,53,53,54,54,55,55,56,56,57,57,58,58,59,59,60,60,61,61,62,62],"right_children":[2,4,6,8,10,12,14,16,18,20,22,24,26,28,30,32,34,36,38,40,42,44,46,48,50,52,54,56,58,60,62,64,66,-1,68,70,72,74,76,78,80,82,84,86,88,90,92,94,96,98,100,102,104,106,108,110,112,114,116,118,120,122,124,-1,-1,-1,-1,-1,-1,-1,-1,-1,-1,-1,-1,-1,-1,-1,-1,-1,-1,-1,-1,-1,-1,-1,-1,-1,-1,-1,-1,-1,-1,-1,-1,-1,-1,-1,-1,-1,-1,-1,-1,-1,-1,-1,-1,-1,-1,-1,-1,-1,-1,-1,-1,-1,-1,-1,-1,-1,-1,-1,-1,-1,-1],"split_conditions":[1.0833468E0,-1.3715318E2,1.2426132E0,7.7860767E-1,-1.573014E1,2.6666667E0,5.46E0,2.25E0,-2.3513524E2,4.25E0,-2.6E0,1.11963E0,4E0,1.3605146E0,1.0777E4,-2.5E0,-3.3333334E-1,3.9705882E0,2.21875E0,1E0,1.3943E4,-6.5E0,4E0,1.4090909E0,1.7053721E0,7.1428573E-1,1.212738E0,1.5504587E0,2.027131E0,1.3296489E3,1.7974143E3,6.166667E-1,8.081E3,-1.08215824E-1,5.5E0,2.0615382E0,8.1666666E-1,1.9666667E0,5.4E-1,7E-1,5E-1,1.1451989E3,-1.0737256E2,-3.5E0,-5.2E0,1E-1,1E0,2E-1,2.9845939E0,2.16E0,2.07E0,8.9E1,5.945946E-1,1.3371569E3,1.1111111E-1,1.8333334E0,2E-1,2.7E0,2.8985507E0,-7.777778E-1,4E-1,1.4557997E0,-8.888889E-1,-9.385667E-3,-8.826398E-2,-6.5215714E-2,-3.977446E-2,-1.3423822E-2,5.0362274E-2,-4.2543326E-2,-2.7517099E-2,-1.813302E-2,-9.3597494E-2,-9.716709E-2,-3.03082E-2,-3.9582472E-2,-2.455125E-2,-2.3973506E-2,-1.0415314E-2,-4.6062082E-2,-1.9392338E-2,-8.41625E-3,4.1594647E-2,8.567502E-2,4.502664E-2,2.5359284E-2,7.492091E-2,-9.467953E-2,2.4923058E-2,8.99283E-2,3.153578E-3,-3.146706E-3,-1.2676682E-2,-9.260702E-3,1.0141637E-2,-1.1434479E-2,1.0021878E-2,-4.5551048E-3,1.6516788E-2,1.5429631E-2,2.8033484E-2,3.5313085E-2,4.8512435E-3,3.0750506E-2,5.2607205E-2,4.6394937E-2,7.133338E-2,3.4392845E-2,-3.1036455E-2,1.3679244E-2,2.7816702E-2,-3.2080067E-3,3.3498283E-2,2.5212593E-2,4.4937618E-2,4.66831E-2,7.8023486E-2,5.4001745E-2,1.1689425E-2,6.1642513E-2,2.4048049E-2,-5.812038E-3,3.640957E-2,5.843426E-2,4.4595446E-3],"split_indices":[3,2,3,3,2,28,47,28,2,18,26,3,45,3,37,21,44,39,34,5,37,16,32,43,35,17,3,38,35,0,0,19,37,0,23,35,19,29,47,47,23,0,2,21,11,13,5,30,34,47,48,37,36,1,15,18,23,45,42,11,31,3,16,0,0,0,0,0,0,0,0,0,0,0,0,0,0,0,0,0,0,0,0,0,0,0,0,0,0,0,0,0,0,0,0,0,0,0,0,0,0,0,0,0,0,0,0,0,0,0,0,0,0,0,0,0,0,0,0,0,0,0,0,0,0],"split_type":[0,0,0,0,0,0,0,0,0,0,0,0,0,0,0,0,0,0,0,0,0,0,0,0,0,0,0,0,0,0,0,0,0,0,0,0,0,0,0,0,0,0,0,0,0,0,0,0,0,0,0,0,0,0,0,0,0,0,0,0,0,0,0,0,0,0,0,0,0,0,0,0,0,0,0,0,0,0,0,0,0,0,0,0,0,0,0,0,0,0,0,0,0,0,0,0,0,0,0,0,0,0,0,0,0,0,0,0,0,0,0,0,0,0,0,0,0,0,0,0,0,0,0,0,0],"sum_hessian":[2.1234055E4,1.2585E4,8.649055E3,3.6168953E3,8.9681045E3,5.907298E3,2.741756E3,5.940545E2,3.0228408E3,3.6598674E3,5.3082373E3,5.2169233E3,6.9037476E2,2.2200159E3,5.217404E2,5.5687537E2,3.717914E1,1.2556958E3,1.767145E3,3.6094768E3,5.0390507E1,1.6257106E2,5.1456665E3,1.669197E3,3.5477263E3,5.529488E2,1.3742595E2,1.3482947E3,8.7172107E2,4.536926E2,6.8047844E1,1.2707085E2,4.2980453E2,4.5915737E0,3.2587563E1,1.2193271E3,3.636856E1,1.4850831E1,1.7522942E3,2.5530247E3,1.0564521E3,3.7333347E1,1.3057159E1,3.0268696E1,1.3230237E2,1.8135944E3,3.3320723E3,1.2992277E3,3.6996936E2,4.2426282E2,3.1234634E3,1.7450737E2,3.7844144E2,1.2257282E2,1.4853124E1,5.718631E2,7.7643164E2,3.1726886E2,5.544522E2,1.885141E1,4.348412E2,4.220194E1,2.5845903E1,6.491507E0,1.2057934E2,2.9800558E2,1.3179893E2,2.3531677E1,9.055886E0,7.231237E2,4.9620346E2,7.079095E0,2.9289465E1,1.1224901E1,3.6259298E0,1.9048929E2,1.5618048E3,2.5868356E2,2.294341E3,7.6340164E1,9.80112E2,1.4242361E1,2.3090984E1,1.0553041E1,2.5041175E0,3.5698562E0,2.669884E1,1.8696241E0,1.3043274E2,1.197494E1,1.8016194E3,2.3108809E3,1.0211913E3,8.8388596E1,1.2108391E3,2.2918861E2,1.4078073E2,2.618861E2,1.6237672E2,2.7477708E3,3.7569263E2,4.7090233E1,1.2741714E2,2.6309662E2,1.1534481E2,4.9607464E1,7.2965355E1,9.675467E0,5.1776576E0,2.3188007E2,3.39983E2,1.690273E1,7.595289E2,1.9865248E2,1.1861637E2,5.297907E2,2.4661474E1,5.386244E0,1.3465167E1,4.177241E2,1.711708E1,2.042262E1,2.1779318E1,2.4429897E1,1.4160049E0],"tree_param":{"num_deleted":"0","num_feature":"49","num_nodes":"125","size_leaf_vector":"1"}},{"base_weights":[-1.3248665E-5,-3.1654868E-1,2.6859584E-1,-6.123393E-1,-1.9210176E-1,1.6464946E-1,6.0730326E-1,-9.7514343E-1,-5.298489E-1,-2.1950626E-1,2.508117E-1,1.3521744E-1,6.3172686E-1,5.0139046E-1,8.0884224E-1,-1.0175436E0,3.4538892E-1,-6.2212217E-1,-4.338651E-1,-2.8443736E-1,-1.1333523E-1,9.9848434E-2,6.7483735E-1,4.387734E-2,2.4508518E-1,1.1220777E0,5.4116154E-1,4.553825E-1,7.099509E-1,6.6609883E-1,9.389414E-1,-1.3388673E0,-9.0755886E-1,6.7445934E-1,-4.7962105E-1,5.928884E-1,-6.3326925E-1,-7.843666E-1,-3.9058465E-1,-2.7214852E-1,-5.4426795E-1,-1.3372089E-1,1.9684035E-1,-9.6686727E-1,1.3205768E-1,8.2160896E-1,6.939754E-2,2.397428E-1,1.8340766E-2,1.9603033E-1,3.6000854E-1,7.065598E-1,1.3078516E0,6.0113406E-1,-1.1494701E-1,2.3699991E-1,4.8176837E-1,5.680694E-1,8.3192116E-1,3.589202E-1,7.3142844E-1,2.7744517E-1,9.707697E-1,-8.721434E-2,-4.4937186E-2,-3.443443E-2,-6.0444888E-2,6.788221E-2,2.3684781E-2,-1.5588142E-2,-4.4331893E-2,5.4475736E-2,-5.3341296E-3,-4.872531E-2,-3.38025E-2,2.5241531E-2,-5.090044E-2,-1.5060791E-2,-2.9094147E-2,-8.955188E-3,-1.8292705E-2,2.9935451E-2,-3.580793E-2,7.057789E-2,-8.2869E-3,2.9335484E-2,-4.727275E-3,-1.0325694E-1,-2.3828227E-2,1.5282154E-2,-1.3151046E-2,3.2840904E-2,6.941201E-2,2.4348684E-2,-4.878093E-2,1.1967055E-2,5.8628056E-2,3.7567196E-3,-5.130195E-3,6.1160666E-3,1.5924528E-2,1.7289277E-2,3.3443872E-2,6.0891457E-2,1.6619714E-2,3.6847778E-2,8.535916E-2,-7.578493E-2,3.7003342E-2,1.6488178E-2,-2.9564444E-2,3.7742523E-4,2.5364682E-2,2.459456E-2,3.3261735E-2,-1.3516264E-3,3.933475E-2,5.8310676E-2,3.9871752E-2,-8.7198585E-2,2.3973797E-2,6.3012026E-2,4.1482408E-2,-4.6254178E-3,3.1089716E-2,5.943129E-2,1.6038239E-2],"categories":[],"categories_nodes":[],"categories_segments":[],"categories_sizes":[],"default_left":[0,0,0,0,0,0,0,0,0,0,0,0,0,0,0,0,0,0,0,0,0,0,0,0,0,0,0,0,0,0,0,0,0,0,0,0,0,0,0,0,0,0,0,0,0,0,0,0,0,0,0,0,0,0,0,0,0,0,0,0,0,0,0,0,0,0,0,0,0,0,0,0,0,0,0,0,0,0,0,0,0,0,0,0,0,0,0,0,0,0,0,0,0,0,0,0,0,0,0,0,0,0,0,0,0,0,0,0,0,0,0,0,0,0,0,0,0,0,0,0,0,0,0,0,0,0,0],"id":4,"left_children":[1,3,5,7,9,11,13,15,17,19,21,23,25,27,29,31,33,35,37,39,41,43,45,47,49,51,53,55,57,59,61,63,65,67,69,71,73,75,77,79,81,83,85,87,89,91,93,95,97,99,101,103,105,107,109,111,113,115,117,119,121,123,125,-1,-1,-1,-1,-1,-1,-1,-1,-1,-1,-1,-1,-1,-1,-1,-1,-1,-1,-1,-1,-1,-1,-1,-1,-1,-1,-1,-1,-1,-1,-1,-1,-1,-1,-1,-1,-1,-1,-1,-1,-1,-1,-1,-1,-1,-1,-1,-1,-1,-1,-1,-1,-1,-1,-1,-1,-1,-1,-1,-1,-1,-1,-1,-1],"loss_changes":[1.7952072E3,3.5671893E2,4.0207855E2,8.563513E1,8.2841934E1,1.2011017E2,5.704431E1,2.991092E1,2.0584778E1,4.4280334E1,2.5429554E1,8.2513245E1,2.2698746E1,1.6720062E1,1.6829407E1,1.7581604E1,4.7484226E0,1.6326843E1,1.7266663E1,1.2655853E1,1.5436846E1,1.0162882E1,9.244358E0,2.2458584E1,2.100801E1,5.735443E0,1.7276367E1,8.256531E0,5.2507324E0,8.736038E0,1.0007172E1,8.265259E0,1.2537537E1,1.3467937E0,1.95194E-1,2.4226925E0,1.4532318E1,9.870163E0,1.3407333E1,1.52934265E1,9.987804E0,1.3258244E1,1.2146002E1,3.3853598E0,1.2337862E1,7.4019394E0,6.3714285E0,1.5289999E1,1.8268654E1,1.707183E1,1.5748993E1,3.2884903E0,3.9348679E0,1.2058975E1,5.533145E0,6.7058105E0,6.598816E0,7.6641464E0,3.6453323E0,6.070406E0,4.283249E0,1.9669337E0,6.250702E0,0E0,0E0,0E0,0E0,0E0,0E0,0E0,0E0,0E0,0E0,0E0,0E0,0E0,0E0,0E0,0E0,0E0,0E0,0E0,0E0,0E0,0E0,0E0,0E0,0E0,0E0,0E0,0E0,0E0,0E0,0E0,0E0,0E0,0E0,0E0,0E0,0E0,0E0,0E0,0E0,0E0,0E0,0E0,0E0,0E0,0E0,0E0,0E0,0E0,0E0,0E0,0E0,0E0,0E0,0E0,0E0,0E0,0E0,0E0,0E0,0E0,0E0,0E0,0E0],"parents":[2147483647,0,0,1,1,2,2,3,3,4,4,5,5,6,6,7,7,8,8,9,9,10,10,11,11,12,12,13,13,14,14,15,15,16,16,17,17,18,18,19,19,20,20,21,21,22,22,23,23,24,24,25,25,26,26,27,27,28,28,29,29,30,30,31,31,32,32,33,33,34,34,35,35,36,36,37,37,38,38,39,39,40,40,41,41,42,42,43,43,44,44,45,45,46,46,47,47,48,48,49,49,50,50,51,51,52,52,53,53,54,54,55,55,56,56,57,57,58,58,59,59,60,60,61,61,62,62],"right_children":[2,4,6,8,10,12,14,16,18,20,22,24,26,28,30,32,34,36,38,40,42,44,46,48,50,52,54,56,58,60,62,64,66,68,70,72,74,76,78,80,82,84,86,88,90,92,94,96,98,100,102,104,106,108,110,112,114,116,118,120,122,124,126,-1,-1,-1,-1,-1,-1,-1,-1,-1,-1,-1,-1,-1,-1,-1,-1,-1,-1,-1,-1,-1,-1,-1,-1,-1,-1,-1,-1,-1,-1,-1,-1,-1,-1,-1,-1,-1,-1,-1,-1,-1,-1,-1,-1,-1,-1,-1,-1,-1,-1,-1,-1,-1,-1,-1,-1,-1,-1,-1,-1,-1,-1,-1,-1],"split_conditions":[5.199424E1,-1.7203995E2,1.2426132E0,7.700969E-1,2.5714285E0,5.25E0,3.090909E0,2.862069E0,1.1568627E0,9.874563E-1,1.8E0,1.11963E0,4.8E-1,5.3769934E2,2.8E0,-2.8E0,7.344318E-1,4E0,-2.3333333E0,2.6666667E0,2.1052632E0,-4.6666665E0,1.625E0,1E0,1.44E0,1E0,1.6E1,1.1525424E0,2.8875258E0,8.5E-1,1.3525865E3,1.2651271E3,3E1,-7.6E0,2.2222222E-1,-1.3333334E0,5.1441747E-1,1.4383788E3,1.5555556E0,2E0,-1.95E2,1E-1,6E0,-7.5E-2,5E0,1E0,3.125E-1,2.8666666E0,1E0,1.1E0,2.2E0,1.1897814E0,1.316216E3,1.3333334E0,1.5714286E-1,2.2E0,1.7142857E0,1.0771102E3,2.0516605E0,1.2E0,6.666667E-1,9.166667E-1,1.0777E4,-8.721434E-2,-4.4937186E-2,-3.443443E-2,-6.0444888E-2,6.788221E-2,2.3684781E-2,-1.5588142E-2,-4.4331893E-2,5.4475736E-2,-5.3341296E-3,-4.872531E-2,-3.38025E-2,2.5241531E-2,-5.090044E-2,-1.5060791E-2,-2.9094147E-2,-8.955188E-3,-1.8292705E-2,2.9935451E-2,-3.580793E-2,7.057789E-2,-8.2869E-3,2.9335484E-2,-4.727275E-3,-1.0325694E-1,-2.3828227E-2,1.5282154E-2,-1.3151046E-2,3.2840904E-2,6.941201E-2,2.4348684E-2,-4.878093E-2,1.1967055E-2,5.8628056E-2,3.7567196E-3,-5.130195E-3,6.1160666E-3,1.5924528E-2,1.7289277E-2,3.3443872E-2,6.0891457E-2,1.6619714E-2,3.6847778E-2,8.535916E-2,-7.578493E-2,3.7003342E-2,1.6488178E-2,-2.9564444E-2,3.7742523E-4,2.5364682E-2,2.459456E-2,3.3261735E-2,-1.3516264E-3,3.933475E-2,5.8310676E-2,3.9871752E-2,-8.7198585E-2,2.3973797E-2,6.3012026E-2,4.1482408E-2,-4.6254178E-3,3.1089716E-2,5.943129E-2,1.6038239E-2],"split_indices":[2,2,3,3,41,47,41,41,38,3,45,3,48,2,45,45,3,37,33,39,41,11,12,32,48,5,32,38,34,14,0,0,6,11,10,21,36,1,17,32,9,13,8,46,32,27,44,14,5,45,28,3,1,18,44,28,18,1,35,28,39,38,37,0,0,0,0,0,0,0,0,0,0,0,0,0,0,0,0,0,0,0,0,0,0,0,0,0,0,0,0,0,0,0,0,0,0,0,0,0,0,0,0,0,0,0,0,0,0,0,0,0,0,0,0,0,0,0,0,0,0,0,0,0,0,0,0],"split_type":[0,0,0,0,0,0,0,0,0,0,0,0,0,0,0,0,0,0,0,0,0,0,0,0,0,0,0,0,0,0,0,0,0,0,0,0,0,0,0,0,0,0,0,0,0,0,0,0,0,0,0,0,0,0,0,0,0,0,0,0,0,0,0,0,0,0,0,0,0,0,0,0,0,0,0,0,0,0,0,0,0,0,0,0,0,0,0,0,0,0,0,0,0,0,0,0,0,0,0,0,0,0,0,0,0,0,0,0,0,0,0,0,0,0,0,0,0,0,0,0,0,0,0,0,0,0,0],"sum_hessian":[2.1113049E4,9.691851E3,1.1421198E4,2.8695127E3,6.8223374E3,8.739778E3,2.68142E3,5.305726E2,2.33894E3,6.425051E3,3.9728677E2,8.22231E3,5.174689E2,1.7588518E3,9.225682E2,5.1417786E2,1.6394697E1,1.1911223E3,1.1478177E3,3.9863047E3,2.4387463E3,2.9343472E2,1.0385203E2,4.4901006E3,3.7322092E3,7.9785995E1,4.376829E2,1.4422802E3,3.1657172E2,4.4136597E2,4.812022E2,1.2969206E2,3.8448578E2,1.1785195E1,4.609501E0,1.0591372E1,1.180531E3,1.2521536E2,1.02260236E3,3.8072617E3,1.7904298E2,2.288616E3,1.5013022E2,8.175245E0,2.852595E2,8.344471E1,2.0407318E1,5.1740576E2,3.9726948E3,2.6166497E3,1.1155597E3,2.5392527E1,5.4393463E1,4.010649E2,3.661799E1,1.5601479E2,1.2862653E3,1.476486E2,1.6892311E2,7.797514E1,3.6339084E2,2.2313463E1,4.5888876E2,1.0796662E2,2.172544E1,8.934121E1,2.951446E2,3.897028E0,7.8881674E0,3.0361547E0,1.5733464E0,7.130625E0,3.460747E0,3.302643E2,8.502666E2,6.171773E0,1.19043594E2,4.1311124E2,6.0949115E2,8.012988E2,3.005963E3,8.379938E0,1.7066304E2,7.2051086E0,2.281411E3,7.270137E1,7.7428856E1,3.0835757E0,5.09167E0,2.1153438E2,7.372511E1,4.662172E1,3.6822994E1,1.4970119E1,5.4371986E0,4.9120123E2,2.6204536E1,2.7854067E3,1.1872881E3,1.1110294E3,1.5056201E3,8.18748E2,2.9681165E2,1.4386263E1,1.1006265E1,8.174037E0,4.621943E1,2.994029E0,3.980709E2,1.8090881E1,1.8527105E1,6.981547E1,8.619932E1,6.4807446E2,6.3819086E2,1.9102007E1,1.285466E2,9.070206E1,7.822105E1,1.3291894E0,7.664595E1,3.915684E1,3.24234E2,9.160887E0,1.3152577E1,4.461576E2,1.2731164E1],"tree_param":{"num_deleted":"0","num_feature":"49","num_nodes":"127","size_leaf_vector":"1"}},{"base_weights":[2.9905648E-3,-2.913471E-1,2.5399426E-1,-6.7316633E-1,-2.0205308E-1,1.4478481E-1,5.2206546E-1,-1.1430959E0,-5.9566677E-1,-2.2558755E-1,2.0776168E-1,1.1236783E-1,6.248814E-1,4.2832577E-1,7.8403866E-1,-1.3594286E0,-9.067083E-1,-7.4560696E-1,-5.0470513E-1,-3.0813015E-1,-1.1940785E-1,-1.9477965E-1,3.1561616E-1,2.4970612E-2,1.914268E-1,4.7124267E-1,8.7378925E-1,3.745569E-1,6.303857E-1,7.376634E-1,1.1363395E0,1.3454568E-1,-1.4030608E0,-1.0059104E0,-3.2497954E-1,-1.982326E-1,-7.9812205E-1,-4.4766197E-1,-8.2722086E-1,-3.8852504E-1,-2.454948E-1,-1.3524699E-1,1.4807951E-1,-9.163506E-1,-5.8874622E-2,1.1244292E-1,4.8315895E-1,1.2623562E-2,7.374253E-1,1.5845215E-1,3.280386E-1,5.201411E-1,-3.082276E-1,-9.483469E-2,9.017352E-1,3.5864773E-1,7.2052914E-1,-5.6934965E-1,6.384272E-1,6.477434E-1,8.734157E-1,1.1869482E0,5.4593426E-1,2.7601419E-2,-1.1705564E-2,-1.0394212E-1,-7.302993E-2,-6.5727174E-2,-2.2577224E-2,-5.02166E-2,1.5323546E-2,-4.26366E-3,-8.633561E-2,-7.925491E-2,-4.505725E-2,-3.6268342E-2,-1.9565444E-2,-7.755755E-2,-3.692671E-2,-3.6078345E-2,-2.116124E-2,-1.2384334E-2,-2.1002049E-2,-5.478344E-3,-1.402958E-2,2.2574669E-2,-2.7975333E-3,-7.729459E-2,5.0506103E-3,1.6812854E-2,-1.7292526E-2,1.4241677E-2,-3.1595625E-2,6.9628164E-2,2.3347951E-2,6.846747E-3,-2.5965266E-3,-2.9022438E-2,5.2739415E-2,1.1658785E-2,3.3273066E-3,1.1720318E-2,2.6621452E-2,-5.4577332E-2,3.2595888E-2,-3.1159148E-3,-1.00124E-1,5.8382586E-2,2.4299707E-2,1.8780151E-2,2.795367E-2,3.275875E-2,6.1892144E-2,-6.7589397E-4,-5.496733E-2,3.1813838E-2,4.321212E-2,3.1984504E-2,4.6244074E-2,1.168247E-3,5.3861815E-2,4.5238256E-2,7.392638E-2,4.2424385E-2,1.5724355E-2],"categories":[],"categories_nodes":[],"categories_segments":[],"categories_sizes":[],"default_left":[0,0,0,0,0,0,0,0,0,0,0,0,0,0,0,0,0,0,0,0,0,0,0,0,0,0,0,0,0,0,0,0,0,0,0,0,0,0,0,0,0,0,0,0,0,0,0,0,0,0,0,0,0,0,0,0,0,0,0,0,0,0,0,0,0,0,0,0,0,0,0,0,0,0,0,0,0,0,0,0,0,0,0,0,0,0,0,0,0,0,0,0,0,0,0,0,0,0,0,0,0,0,0,0,0,0,0,0,0,0,0,0,0,0,0,0,0,0,0,0,0,0,0,0,0],"id":5,"left_children":[1,3,5,7,9,11,13,15,17,19,21,23,25,27,29,31,33,35,37,39,41,43,45,47,49,51,53,55,57,59,61,63,65,67,69,71,73,75,77,79,81,83,85,87,89,91,93,95,97,99,101,103,105,-1,107,109,111,113,115,117,119,121,123,-1,-1,-1,-1,-1,-1,-1,-1,-1,-1,-1,-1,-1,-1,-1,-1,-1,-1,-1,-1,-1,-1,-1,-1,-1,-1,-1,-1,-1,-1,-1,-1,-1,-1,-1,-1,-1,-1,-1,-1,-1,-1,-1,-1,-1,-1,-1,-1,-1,-1,-1,-1,-1,-1,-1,-1,-1,-1,-1,-1,-1,-1],"loss_changes":[1.566168E3,3.3259485E2,3.3492786E2,6.700415E1,7.629938E1,1.2650069E2,8.116016E1,1.2743011E1,2.1475769E1,6.553259E1,1.8689114E1,5.2625885E1,1.9456055E1,2.6392853E1,1.3829895E1,8.920807E0,7.1271744E0,1.7131226E1,1.8031662E1,2.1140472E1,1.3873035E1,8.909103E0,1.1517071E1,3.1823467E1,1.7988754E1,1.2238785E1,1.4132004E1,1.0485565E1,5.1225433E0,9.142181E0,2.6796417E0,5.060684E-1,7.0021973E0,5.8653107E0,5.7950735E0,8.3235E0,1.2971283E1,1.5961914E1,1.4211403E1,1.3938477E1,9.633987E0,1.3371727E1,8.145691E0,5.4153833E0,6.045026E0,1.234967E1,1.1601395E1,2.0182104E1,1.0866074E1,1.1896996E1,1.1883156E1,1.0177223E1,6.6321697E0,0E0,6.666336E0,8.95755E0,4.2939873E0,7.058768E-1,4.3121185E0,6.3722534E0,6.3405914E0,1.3375244E0,3.127215E-1,0E0,0E0,0E0,0E0,0E0,0E0,0E0,0E0,0E0,0E0,0E0,0E0,0E0,0E0,0E0,0E0,0E0,0E0,0E0,0E0,0E0,0E0,0E0,0E0,0E0,0E0,0E0,0E0,0E0,0E0,0E0,0E0,0E0,0E0,0E0,0E0,0E0,0E0,0E0,0E0,0E0,0E0,0E0,0E0,0E0,0E0,0E0,0E0,0E0,0E0,0E0,0E0,0E0,0E0,0E0,0E0,0E0,0E0,0E0,0E0,0E0,0E0],"parents":[2147483647,0,0,1,1,2,2,3,3,4,4,5,5,6,6,7,7,8,8,9,9,10,10,11,11,12,12,13,13,14,14,15,15,16,16,17,17,18,18,19,19,20,20,21,21,22,22,23,23,24,24,25,25,26,26,27,27,28,28,29,29,30,30,31,31,32,32,33,33,34,34,35,35,36,36,37,37,38,38,39,39,40,40,41,41,42,42,43,43,44,44,45,45,46,46,47,47,48,48,49,49,50,50,51,51,52,52,54,54,55,55,56,56,57,57,58,58,59,59,60,60,61,61,62,62],"right_children":[2,4,6,8,10,12,14,16,18,20,22,24,26,28,30,32,34,36,38,40,42,44,46,48,50,52,54,56,58,60,62,64,66,68,70,72,74,76,78,80,82,84,86,88,90,92,94,96,98,100,102,104,106,-1,108,110,112,114,116,118,120,122,124,-1,-1,-1,-1,-1,-1,-1,-1,-1,-1,-1,-1,-1,-1,-1,-1,-1,-1,-1,-1,-1,-1,-1,-1,-1,-1,-1,-1,-1,-1,-1,-1,-1,-1,-1,-1,-1,-1,-1,-1,-1,-1,-1,-1,-1,-1,-1,-1,-1,-1,-1,-1,-1,-1,-1,-1,-1,-1,-1,-1,-1,-1],"split_conditions":[5.199424E1,-2.3513524E2,2.9890942E2,-4.7515213E2,2.5714285E0,5.25E0,3.090909E0,1.192741E3,8.947368E-1,-4.6145508E1,1.4E0,1.5264552E2,4E0,4.849266E2,6.8E0,3.988764E-1,1.1428572E0,-1E0,2E0,-1.3203632E2,2.1052632E0,1.099247E3,9.9603176E-1,4E0,2.2E0,2.4E1,1.25E0,2.7826087E0,2E-1,5.1120657E2,1.1413044E0,9.5309406E2,2.8936548E0,9E0,-3.75E-1,8E0,-2.9E0,9.375E-1,5.227114E-1,6.547619E-1,1E0,1E0,6E0,6E0,1E0,1.0059172E0,-4.8E0,4E0,1.1111111E-1,1E0,5.3333336E-1,-9.52381E-2,1.7341772E0,-9.483469E-2,4E0,4.0364557E2,3.2E0,1.7533143E3,2E0,2.1286395E0,1.8E0,1.25E0,1.3333334E0,2.7601419E-2,-1.1705564E-2,-1.0394212E-1,-7.302993E-2,-6.5727174E-2,-2.2577224E-2,-5.02166E-2,1.5323546E-2,-4.26366E-3,-8.633561E-2,-7.925491E-2,-4.505725E-2,-3.6268342E-2,-1.9565444E-2,-7.755755E-2,-3.692671E-2,-3.6078345E-2,-2.116124E-2,-1.2384334E-2,-2.1002049E-2,-5.478344E-3,-1.402958E-2,2.2574669E-2,-2.7975333E-3,-7.729459E-2,5.0506103E-3,1.6812854E-2,-1.7292526E-2,1.4241677E-2,-3.1595625E-2,6.9628164E-2,2.3347951E-2,6.846747E-3,-2.5965266E-3,-2.9022438E-2,5.2739415E-2,1.1658785E-2,3.3273066E-3,1.1720318E-2,2.6621452E-2,-5.4577332E-2,3.2595888E-2,-3.1159148E-3,-1.00124E-1,5.8382586E-2,2.4299707E-2,1.8780151E-2,2.795367E-2,3.275875E-2,6.1892144E-2,-6.7589397E-4,-5.496733E-2,3.1813838E-2,4.321212E-2,3.1984504E-2,4.6244074E-2,1.168247E-3,5.3861815E-2,4.5238256E-2,7.392638E-2,4.2424385E-2,1.5724355E-2],"split_indices":[2,2,2,2,41,47,41,0,38,2,47,2,45,2,33,36,41,16,39,2,41,0,42,28,28,32,28,38,30,2,43,0,34,32,46,32,11,41,36,42,5,5,8,32,17,43,26,32,15,5,29,44,39,0,32,2,33,0,28,35,47,28,24,0,0,0,0,0,0,0,0,0,0,0,0,0,0,0,0,0,0,0,0,0,0,0,0,0,0,0,0,0,0,0,0,0,0,0,0,0,0,0,0,0,0,0,0,0,0,0,0,0,0,0,0,0,0,0,0,0,0,0,0,0,0],"split_type":[0,0,0,0,0,0,0,0,0,0,0,0,0,0,0,0,0,0,0,0,0,0,0,0,0,0,0,0,0,0,0,0,0,0,0,0,0,0,0,0,0,0,0,0,0,0,0,0,0,0,0,0,0,0,0,0,0,0,0,0,0,0,0,0,0,0,0,0,0,0,0,0,0,0,0,0,0,0,0,0,0,0,0,0,0,0,0,0,0,0,0,0,0,0,0,0,0,0,0,0,0,0,0,0,0,0,0,0,0,0,0,0,0,0,0,0,0,0,0,0,0,0,0,0,0],"sum_hessian":[2.1197855E4,9.756678E3,1.1441178E4,1.8486445E3,7.9080327E3,8.129907E3,3.31127E3,2.6073938E2,1.5879052E3,7.4787734E3,4.292592E2,7.6162607E3,5.1364655E2,2.4396335E3,8.7163654E2,1.3490451E2,1.2583488E2,5.982151E2,9.8969006E2,4.207202E3,3.2715713E3,9.062392E1,3.3863528E2,3.6176829E3,3.9985776E3,3.184992E2,1.9514735E2,1.9280099E3,5.1162363E2,7.7161194E2,1.00024574E2,3.7985792E0,1.3110593E2,1.0719104E2,1.864384E1,5.2577507E1,5.456376E2,8.4196606E2,1.47724E2,1.8412657E3,2.3659365E3,3.08891E3,1.8266132E2,1.3908287E1,7.671563E1,1.5342172E2,1.8521356E2,3.5565557E3,6.1127293E1,3.2219583E3,7.766195E2,2.9985477E2,1.8644415E1,1.8842349E0,1.9326312E2,1.8442236E3,8.378635E1,3.1740692E0,5.084496E2,4.658961E2,3.0571585E2,9.1662224E1,8.362348E0,1.8118384E0,1.9867408E0,4.5804726E1,8.53012E1,9.3520935E1,1.3670101E1,9.78827E0,8.855571E0,4.8168823E1,4.4086843E0,4.4037605E1,5.016E2,3.668252E2,4.7514087E2,4.539989E1,1.0232411E2,2.6427655E2,1.5769893E3,1.7231178E3,6.428187E2,2.1372183E3,9.5169165E2,8.3889404E1,9.877192E1,1.00346575E1,3.8736293E0,3.0906689E1,4.580894E1,1.2859781E2,2.4823914E1,2.1886341E1,1.6332721E2,1.2629867E3,2.2935688E3,6.224721E0,5.4902573E1,2.3895388E3,8.324195E2,3.62281E2,4.143385E2,4.467311E0,2.9538748E2,1.6125698E1,2.5187163E0,1.6858325E2,2.4679865E1,1.2950135E3,5.492101E2,5.454895E1,2.9237394E1,1.4142547E0,1.7598145E0,2.2047733E2,2.8797226E2,2.4248625E2,2.2340984E2,8.477372E0,2.972385E2,9.492862E0,8.2169365E1,4.8587456E0,3.503602E0],"tree_param":{"num_deleted":"0","num_feature":"49","num_nodes":"125","size_leaf_vector":"1"}},{"base_weights":[1.9348009E-3,-2.7238935E-1,2.3909555E-1,-5.76978E-1,-1.729714E-1,1.4733277E-1,5.3545934E-1,-1.0486144E0,-5.1918703E-1,-1.9162554E-1,1.9793744E-1,1.2265991E-1,5.907656E-1,4.502109E-1,7.354641E-1,-1.4956683E0,-9.088934E-1,-5.5043495E-1,-1.5003803E-1,-2.6597995E-1,-1.11751266E-1,4.6732092E-1,-3.9291726E-3,3.9644487E-2,2.226489E-1,7.664428E-1,2.8793272E-1,3.832314E-1,6.0824037E-1,6.156255E-1,8.9238375E-1,-3.8906544E-2,-1.6314702E0,-1.1299868E0,-6.863045E-1,-9.763273E-1,-5.1651883E-1,1.3266392E-1,-3.9154947E-1,-3.577261E-1,-2.317136E-1,-1.3223495E-1,1.00820914E-1,-9.504476E-1,5.796703E-1,-3.5857698E-1,1.2557624E-1,4.113359E-3,1.6740756E-1,6.1961547E-2,2.4730998E-1,1.2330213E0,6.8695086E-1,1.6807842E-1,7.9013175E-1,3.4924594E-1,5.4119015E-1,2.660357E-1,6.380283E-1,5.793825E-1,1.1810418E0,9.135912E-1,3.1868017E-1,2.9286353E-2,-5.004888E-2,-6.358425E-2,-1.096719E-1,-4.5936603E-2,-8.129307E-2,-8.160677E-2,-3.1249221E-2,-8.290748E-2,-4.200536E-2,-3.6052827E-2,-2.3847457E-2,2.0012682E-2,-5.7534613E-2,-5.682502E-2,-1.645887E-2,-1.4594522E-2,-2.5276681E-2,-2.085219E-2,-1.0682398E-2,-5.265528E-3,-1.4030138E-2,-2.2547645E-3,2.2054443E-2,-1.7787913E-2,-9.305866E-2,2.5048591E-2,6.0101558E-2,-4.1186698E-2,1.1538655E-2,9.853989E-3,-4.920568E-2,2.9544474E-3,-5.957271E-3,2.3567466E-2,5.239197E-3,2.1778492E-4,2.4605062E-2,1.1898356E-2,2.0093523E-2,2.4815049E-2,8.432473E-2,4.2080663E-2,-8.691113E-2,-2.051958E-2,1.4851864E-2,5.7066858E-2,4.8055267E-3,1.9906556E-2,4.1604962E-2,-3.157734E-2,3.3424634E-2,3.0122258E-2,-1.5933802E-2,3.3280633E-2,4.7063828E-2,3.5736974E-2,-2.187396E-2,4.656569E-2,7.884772E-2,2.1342086E-2,5.623111E-2,-2.4766833E-2,3.7010577E-2],"categories":[],"categories_nodes":[],"categories_segments":[],"categories_sizes":[],"default_left":[0,0,0,0,0,0,0,0,0,0,0,0,0,0,0,0,0,0,0,0,0,0,0,0,0,0,0,0,0,0,0,0,0,0,0,0,0,0,0,0,0,0,0,0,0,0,0,0,0,0,0,0,0,0,0,0,0,0,0,0,0,0,0,0,0,0,0,0,0,0,0,0,0,0,0,0,0,0,0,0,0,0,0,0,0,0,0,0,0,0,0,0,0,0,0,0,0,0,0,0,0,0,0,0,0,0,0,0,0,0,0,0,0,0,0,0,0,0,0,0,0,0,0,0,0,0,0],"id":6,"left_children":[1,3,5,7,9,11,13,15,17,19,21,23,25,27,29,31,33,35,37,39,41,43,45,47,49,51,53,55,57,59,61,63,65,67,69,71,73,75,77,79,81,83,85,87,89,91,93,95,97,99,101,103,105,107,109,111,113,115,117,119,121,123,125,-1,-1,-1,-1,-1,-1,-1,-1,-1,-1,-1,-1,-1,-1,-1,-1,-1,-1,-1,-1,-1,-1,-1,-1,-1,-1,-1,-1,-1,-1,-1,-1,-1,-1,-1,-1,-1,-1,-1,-1,-1,-1,-1,-1,-1,-1,-1,-1,-1,-1,-1,-1,-1,-1,-1,-1,-1,-1,-1,-1,-1,-1,-1,-1],"loss_changes":[1.369265E3,2.9545813E2,3.0693585E2,6.517566E1,5.0928696E1,9.427112E1,4.5333374E1,1.5661743E1,2.4644836E1,4.159311E1,1.9174103E1,6.777952E1,2.4053574E1,1.9701569E1,1.47074585E1,1.2139099E1,9.484238E0,2.8245361E1,1.14761095E1,1.1364136E1,1.4717266E1,2.4333488E1,9.302142E0,2.0256882E1,1.4671249E1,1.0226593E1,1.0018767E1,6.9720154E0,5.5878296E0,8.947876E0,4.0382385E0,2.6168892E0,5.3489685E0,7.6649094E0,1.0933861E1,1.5752563E1,1.8245514E1,1.7183838E1,5.7685776E0,7.119835E0,1.639856E1,1.3915417E1,1.0979906E1,4.199911E0,9.391464E0,9.850844E0,5.491251E0,1.629654E1,1.7508972E1,1.0021121E1,1.3748978E1,5.5253906E0,8.083908E0,5.5500965E0,3.6365948E0,6.4067535E0,4.0838165E0,5.764971E0,6.023651E0,6.6520844E0,9.3584824E-1,4.194763E0,2.9682312E0,0E0,0E0,0E0,0E0,0E0,0E0,0E0,0E0,0E0,0E0,0E0,0E0,0E0,0E0,0E0,0E0,0E0,0E0,0E0,0E0,0E0,0E0,0E0,0E0,0E0,0E0,0E0,0E0,0E0,0E0,0E0,0E0,0E0,0E0,0E0,0E0,0E0,0E0,0E0,0E0,0E0,0E0,0E0,0E0,0E0,0E0,0E0,0E0,0E0,0E0,0E0,0E0,0E0,0E0,0E0,0E0,0E0,0E0,0E0,0E0,0E0,0E0,0E0,0E0],"parents":[2147483647,0,0,1,1,2,2,3,3,4,4,5,5,6,6,7,7,8,8,9,9,10,10,11,11,12,12,13,13,14,14,15,15,16,16,17,17,18,18,19,19,20,20,21,21,22,22,23,23,24,24,25,25,26,26,27,27,28,28,29,29,30,30,31,31,32,32,33,33,34,34,35,35,36,36,37,37,38,38,39,39,40,40,41,41,42,42,43,43,44,44,45,45,46,46,47,47,48,48,49,49,50,50,51,51,52,52,53,53,54,54,55,55,56,56,57,57,58,58,59,59,60,60,61,61,62,62],"right_children":[2,4,6,8,10,12,14,16,18,20,22,24,26,28,30,32,34,36,38,40,42,44,46,48,50,52,54,56,58,60,62,64,66,68,70,72,74,76,78,80,82,84,86,88,90,92,94,96,98,100,102,104,106,108,110,112,114,116,118,120,122,124,126,-1,-1,-1,-1,-1,-1,-1,-1,-1,-1,-1,-1,-1,-1,-1,-1,-1,-1,-1,-1,-1,-1,-1,-1,-1,-1,-1,-1,-1,-1,-1,-1,-1,-1,-1,-1,-1,-1,-1,-1,-1,-1,-1,-1,-1,-1,-1,-1,-1,-1,-1,-1,-1,-1,-1,-1,-1,-1,-1,-1,-1,-1,-1,-1],"split_conditions":[1.0344665E0,8.8298124E-1,1.2426132E0,-4.7515213E2,2.5714285E0,3.4E0,3.3333333E0,1.0848252E3,2E0,-4.6145508E1,3E1,1.11963E0,1.0427135E0,4.849266E2,4.9E0,5.4029304E-1,8.727477E-1,-2.5E0,3.13E2,1.0169492E0,2.4209747E0,-1.4E0,7.4786323E-1,1.9E0,1.712087E0,3.3E-1,8.84E0,1.298969E0,4.2857143E-1,2.8985507E0,8.7E1,3E1,2.7E0,1.754386E0,2.4E-1,7.956682E-1,2.0615382E0,1.3142318E3,1E0,3.5E1,1.0588236E0,1E0,1.6666666E0,-2.3333333E0,5.5E0,3.75E0,4.637931E0,1E0,1.0666667E0,2.55E0,1.5E0,1.2248872E3,3.0414487E2,9.5E-1,1E0,3.65E2,0E0,2E-1,8.095238E-1,2.7142856E0,2.4404259E0,1.3249111E3,1.4741205E3,2.9286353E-2,-5.004888E-2,-6.358425E-2,-1.096719E-1,-4.5936603E-2,-8.129307E-2,-8.160677E-2,-3.1249221E-2,-8.290748E-2,-4.200536E-2,-3.6052827E-2,-2.3847457E-2,2.0012682E-2,-5.7534613E-2,-5.682502E-2,-1.645887E-2,-1.4594522E-2,-2.5276681E-2,-2.085219E-2,-1.0682398E-2,-5.265528E-3,-1.4030138E-2,-2.2547645E-3,2.2054443E-2,-1.7787913E-2,-9.305866E-2,2.5048591E-2,6.0101558E-2,-4.1186698E-2,1.1538655E-2,9.853989E-3,-4.920568E-2,2.9544474E-3,-5.957271E-3,2.3567466E-2,5.239197E-3,2.1778492E-4,2.4605062E-2,1.1898356E-2,2.0093523E-2,2.4815049E-2,8.432473E-2,4.2080663E-2,-8.691113E-2,-2.051958E-2,1.4851864E-2,5.7066858E-2,4.8055267E-3,1.9906556E-2,4.1604962E-2,-3.157734E-2,3.3424634E-2,3.0122258E-2,-1.5933802E-2,3.3280633E-2,4.7063828E-2,3.5736974E-2,-2.187396E-2,4.656569E-2,7.884772E-2,2.1342086E-2,5.623111E-2,-2.4766833E-2,3.7010577E-2],"split_indices":[3,3,3,2,41,28,41,0,41,2,6,3,43,2,47,43,42,21,37,41,35,33,42,38,35,48,47,40,13,42,7,6,48,40,47,3,35,0,32,6,38,5,23,33,41,47,34,5,29,14,33,1,2,38,5,8,33,31,40,13,35,0,0,0,0,0,0,0,0,0,0,0,0,0,0,0,0,0,0,0,0,0,0,0,0,0,0,0,0,0,0,0,0,0,0,0,0,0,0,0,0,0,0,0,0,0,0,0,0,0,0,0,0,0,0,0,0,0,0,0,0,0,0,0,0,0,0],"split_type":[0,0,0,0,0,0,0,0,0,0,0,0,0,0,0,0,0,0,0,0,0,0,0,0,0,0,0,0,0,0,0,0,0,0,0,0,0,0,0,0,0,0,0,0,0,0,0,0,0,0,0,0,0,0,0,0,0,0,0,0,0,0,0,0,0,0,0,0,0,0,0,0,0,0,0,0,0,0,0,0,0,0,0,0,0,0,0,0,0,0,0,0,0,0,0,0,0,0,0,0,0,0,0,0,0,0,0,0,0,0,0,0,0,0,0,0,0,0,0,0,0,0,0,0,0,0,0],"sum_hessian":[2.1045535E4,9.758172E3,1.1287364E4,2.4006997E3,7.357472E3,8.619321E3,2.6680422E3,2.6111868E2,2.139581E3,7.005391E3,3.5208087E2,8.16562E3,4.5370166E2,1.8718326E3,7.9620966E2,6.1021347E1,2.0009734E2,1.9723768E3,1.6720428E2,3.627454E3,3.377937E3,1.5053716E2,2.0154373E2,4.4618706E3,3.7037495E3,2.8664804E2,1.6705362E2,1.3158381E3,5.5599457E2,4.5284018E2,3.4336948E2,5.258292E0,5.5763054E1,9.9363335E1,1.00734E2,1.4446065E2,1.8279161E3,7.713685E1,9.006743E1,9.851233E2,2.6423308E3,3.0812166E3,2.9672043E2,1.0779369E1,1.3975778E2,5.3674057E1,1.4786967E2,3.4914175E3,9.7045306E2,4.9302676E2,3.210723E3,4.0671394E1,2.4597664E2,1.3540527E2,3.1648342E1,1.0841781E3,2.3165993E2,4.4919907E1,5.1107465E2,4.2651315E2,2.6327026E1,3.3084335E2,1.2526108E1,3.278629E0,1.9796634E0,1.507516E1,4.0687893E1,3.8762646E1,6.0600685E1,1.9150131E1,8.158387E1,5.772718E1,8.673347E1,1.0686755E3,7.592406E2,6.544105E1,1.1695801E1,1.5078169E1,7.498926E1,3.5251242E2,6.326109E2,8.3586694E2,1.806464E3,2.1437239E3,9.3749274E2,1.9564365E2,1.010768E2,5.517548E0,5.2618213E0,1.0167583E2,3.8081963E1,3.357088E1,2.0103176E1,1.4245941E2,5.410256E0,2.430803E3,1.0606144E3,2.5391893E2,7.165342E2,4.2270337E2,7.032338E1,2.0598337E3,1.1508889E3,7.3645506E0,3.3306843E1,2.4466333E2,1.3132986E0,1.802647E1,1.1737881E2,2.56607E1,5.9876413E0,1.0327386E3,5.143956E1,3.1616242E0,2.284983E2,3.112836E1,1.3791546E1,3.2716324E2,1.839114E2,4.1948346E2,7.029677E0,7.3571105E0,1.8969915E1,1.375032E1,3.1709305E2,3.5717041E0,8.954404E0],"tree_param":{"num_deleted":"0","num_feature":"49","num_nodes":"127","size_leaf_vector":"1"}},{"base_weights":[1.8647386E-3,-2.0595698E-1,2.9463568E-1,-4.867058E-1,-9.4114974E-2,2.2708131E-1,6.0790896E-1,-6.938806E-1,-3.6753008E-1,-1.10895954E-1,3.0640015E-1,1.5655762E-1,3.902253E-1,4.6906713E-1,7.7009207E-1,-1.0213543E0,-6.130617E-1,-6.0222465E-1,-3.434718E-1,-1.9957525E-1,-5.1597282E-2,1.9386682E-1,8.760719E-1,2.0082699E-1,6.330957E-2,3.4061933E-1,5.647096E-1,2.5807092E-1,5.6520957E-1,3.969155E-1,8.288582E-1,-1.5318182E0,-9.29226E-1,-1.1882161E-1,-6.465804E-1,-1.8765323E-1,-7.298692E-1,-3.6586186E-1,-5.827084E-2,-1.9617495E-1,-1.186238E0,-7.8461945E-2,1.7490734E-1,2.3116288E-1,-6.291847E-1,4.3034142E-1,1.1400247E0,7.491862E-4,2.3253071E-1,1.2594023E-1,-1.1432977E-1,3.166149E-1,5.817286E-1,7.807245E-2,5.481542E-1,2.079183E-1,8.8013786E-1,-1.3143915E0,5.8383334E-1,3.9502703E-2,5.267452E-1,7.594045E-1,9.9158466E-1,-2.9621603E-2,-1.0595883E-1,-6.4234115E-2,-4.2984456E-2,4.2124945E-3,-7.83133E-2,-6.407353E-2,-3.5496615E-2,-2.632264E-2,1.7646596E-2,-4.0625885E-2,-1.11169234E-1,-1.9615665E-2,-2.9297164E-2,-2.696801E-2,3.3400394E-3,-4.6046782E-2,-1.1417329E-2,-9.116528E-2,2.2312957E-3,-1.8885762E-3,-1.164456E-2,8.282495E-3,5.52323E-2,-1.3016657E-2,1.701534E-2,-6.515649E-2,2.149431E-3,3.196802E-2,-2.7671251E-2,7.108272E-2,-1.632122E-2,-8.652489E-3,7.297838E-3,1.1502753E-2,2.2392243E-2,1.1305714E-2,-1.5303496E-3,-7.196748E-2,-5.1292493E-3,3.495572E-2,1.787848E-2,4.5340646E-2,1.9398067E-2,3.554642E-2,1.7677244E-2,1.4168054E-2,-4.2047486E-2,6.954359E-2,3.8549688E-2,-1.0376085E-1,-2.8240852E-2,3.554405E-2,-7.153611E-2,1.7326724E-2,-3.4758404E-2,3.6512222E-2,6.7836256E-3,7.1722545E-2,4.395676E-2,6.311768E-2,2.9275635E-2],"categories":[],"categories_nodes":[],"categories_segments":[],"categories_sizes":[],"default_left":[0,0,0,0,0,0,0,0,0,0,0,0,0,0,0,0,0,0,0,0,0,0,0,0,0,0,0,0,0,0,0,0,0,0,0,0,0,0,0,0,0,0,0,0,0,0,0,0,0,0,0,0,0,0,0,0,0,0,0,0,0,0,0,0,0,0,0,0,0,0,0,0,0,0,0,0,0,0,0,0,0,0,0,0,0,0,0,0,0,0,0,0,0,0,0,0,0,0,0,0,0,0,0,0,0,0,0,0,0,0,0,0,0,0,0,0,0,0,0,0,0,0,0,0,0],"id":7,"left_children":[1,3,5,7,9,11,13,15,17,19,21,23,25,27,29,31,33,35,37,39,41,43,45,47,49,51,53,55,57,59,61,63,65,67,69,71,73,75,77,79,81,83,85,87,89,91,93,95,97,99,101,103,105,-1,107,109,111,113,115,117,119,121,123,-1,-1,-1,-1,-1,-1,-1,-1,-1,-1,-1,-1,-1,-1,-1,-1,-1,-1,-1,-1,-1,-1,-1,-1,-1,-1,-1,-1,-1,-1,-1,-1,-1,-1,-1,-1,-1,-1,-1,-1,-1,-1,-1,-1,-1,-1,-1,-1,-1,-1,-1,-1,-1,-1,-1,-1,-1,-1,-1,-1,-1,-1],"loss_changes":[1.2817874E3,3.8684576E2,1.8501978E2,8.653174E1,5.923929E1,8.275464E1,3.474713E1,3.3594177E1,1.248349E1,4.4469208E1,2.2639389E1,2.073487E1,1.8697266E1,1.6905685E1,1.5507721E1,1.1179199E1,1.7005219E1,1.0864494E1,1.2908203E1,1.12534485E1,3.0851791E1,9.178677E0,6.6173706E0,2.1609818E1,1.8010777E1,9.700058E0,5.494644E0,8.111E0,2.0496338E1,4.545762E0,6.5963135E0,8.773743E0,6.0976257E0,1.4836965E1,2.1995087E1,6.028576E0,8.72345E0,8.860855E0,6.60294E0,1.1285522E1,4.732277E0,2.4615225E1,1.4714783E1,6.7061653E0,3.9662986E0,2.1779437E0,2.453724E0,8.182915E0,1.6850311E1,1.1326813E1,1.3158663E1,7.5474243E0,6.737404E0,0E0,5.1921387E0,6.3377523E0,9.1759205E-1,1.6204205E0,9.015549E0,4.2027516E0,2.401249E0,4.6377106E0,5.305786E0,0E0,0E0,0E0,0E0,0E0,0E0,0E0,0E0,0E0,0E0,0E0,0E0,0E0,0E0,0E0,0E0,0E0,0E0,0E0,0E0,0E0,0E0,0E0,0E0,0E0,0E0,0E0,0E0,0E0,0E0,0E0,0E0,0E0,0E0,0E0,0E0,0E0,0E0,0E0,0E0,0E0,0E0,0E0,0E0,0E0,0E0,0E0,0E0,0E0,0E0,0E0,0E0,0E0,0E0,0E0,0E0,0E0,0E0,0E0,0E0,0E0,0E0],"parents":[2147483647,0,0,1,1,2,2,3,3,4,4,5,5,6,6,7,7,8,8,9,9,10,10,11,11,12,12,13,13,14,14,15,15,16,16,17,17,18,18,19,19,20,20,21,21,22,22,23,23,24,24,25,25,26,26,27,27,28,28,29,29,30,30,31,31,32,32,33,33,34,34,35,35,36,36,37,37,38,38,39,39,40,40,41,41,42,42,43,43,44,44,45,45,46,46,47,47,48,48,49,49,50,50,51,51,52,52,54,54,55,55,56,56,57,57,58,58,59,59,60,60,61,61,62,62],"right_children":[2,4,6,8,10,12,14,16,18,20,22,24,26,28,30,32,34,36,38,40,42,44,46,48,50,52,54,56,58,60,62,64,66,68,70,72,74,76,78,80,82,84,86,88,90,92,94,96,98,100,102,104,106,-1,108,110,112,114,116,118,120,122,124,-1,-1,-1,-1,-1,-1,-1,-1,-1,-1,-1,-1,-1,-1,-1,-1,-1,-1,-1,-1,-1,-1,-1,-1,-1,-1,-1,-1,-1,-1,-1,-1,-1,-1,-1,-1,-1,-1,-1,-1,-1,-1,-1,-1,-1,-1,-1,-1,-1,-1,-1,-1,-1,-1,-1,-1,-1,-1,-1,-1,-1,-1],"split_conditions":[1.0804371E0,-1.3715318E2,3E0,8.3781695E-1,3E0,3.1055145E2,2.8E0,-4.7515213E2,5.826331E-1,9.874563E-1,7E0,1E1,4.849266E2,1.2E0,1.3664537E3,1.0489353E3,6.166667E-1,-5E-1,1.8059702E0,4.4E0,3.2778542E0,2.0666666E0,-1.1666666E0,1.712087E0,1E0,1.5952381E0,-9E-1,4.322581E0,1.0883621E0,4.7619048E-1,4.857143E0,7.6666665E-1,2.9211898E0,2.3809524E0,-2.5E0,1.25E-1,3.5333333E0,1E0,8E-1,-2.9E0,1E0,1E0,2.9E0,2.5E-1,1.4444444E0,1E2,1.5976345E3,8E-1,2E0,1.113E4,1.5539865E0,-2.5E0,1.509434E0,7.807245E-2,2.8E0,8.621E3,1.235155E3,1.75E0,1E0,6.6820276E-1,1.1111111E-1,7.1666664E-1,6.8E1,-2.9621603E-2,-1.0595883E-1,-6.4234115E-2,-4.2984456E-2,4.2124945E-3,-7.83133E-2,-6.407353E-2,-3.5496615E-2,-2.632264E-2,1.7646596E-2,-4.0625885E-2,-1.11169234E-1,-1.9615665E-2,-2.9297164E-2,-2.696801E-2,3.3400394E-3,-4.6046782E-2,-1.1417329E-2,-9.116528E-2,2.2312957E-3,-1.8885762E-3,-1.164456E-2,8.282495E-3,5.52323E-2,-1.3016657E-2,1.701534E-2,-6.515649E-2,2.149431E-3,3.196802E-2,-2.7671251E-2,7.108272E-2,-1.632122E-2,-8.652489E-3,7.297838E-3,1.1502753E-2,2.2392243E-2,1.1305714E-2,-1.5303496E-3,-7.196748E-2,-5.1292493E-3,3.495572E-2,1.787848E-2,4.5340646E-2,1.9398067E-2,3.554642E-2,1.7677244E-2,1.4168054E-2,-4.2047486E-2,6.954359E-2,3.8549688E-2,-1.0376085E-1,-2.8240852E-2,3.554405E-2,-7.153611E-2,1.7326724E-2,-3.4758404E-2,3.6512222E-2,6.7836256E-3,7.1722545E-2,4.395676E-2,6.311768E-2,2.9275635E-2],"split_indices":[3,2,41,3,41,2,45,2,42,3,41,32,2,38,0,0,19,26,41,29,34,24,11,35,5,40,11,34,3,40,41,29,34,43,21,46,29,5,38,11,20,5,14,27,40,7,1,33,18,37,35,26,43,0,41,37,0,24,31,43,11,14,7,0,0,0,0,0,0,0,0,0,0,0,0,0,0,0,0,0,0,0,0,0,0,0,0,0,0,0,0,0,0,0,0,0,0,0,0,0,0,0,0,0,0,0,0,0,0,0,0,0,0,0,0,0,0,0,0,0,0,0,0,0,0],"split_type":[0,0,0,0,0,0,0,0,0,0,0,0,0,0,0,0,0,0,0,0,0,0,0,0,0,0,0,0,0,0,0,0,0,0,0,0,0,0,0,0,0,0,0,0,0,0,0,0,0,0,0,0,0,0,0,0,0,0,0,0,0,0,0,0,0,0,0,0,0,0,0,0,0,0,0,0,0,0,0,0,0,0,0,0,0,0,0,0,0,0,0,0,0,0,0,0,0,0,0,0,0,0,0,0,0,0,0,0,0,0,0,0,0,0,0,0,0,0,0,0,0,0,0,0,0],"sum_hessian":[2.1065729E4,1.232035E4,8.745378E3,3.5093665E3,8.810983E3,7.19476E3,1.5506187E3,1.2806598E3,2.2287068E3,8.457009E3,3.5397437E2,5.0239795E3,2.1707803E3,8.364749E2,7.1414374E2,2.5234654E2,1.0283134E3,2.0610303E2,2.0226036E3,3.3884727E3,5.068536E3,2.96144E2,5.7830334E1,3.4062773E3,1.6177019E3,1.6913926E3,4.7938776E2,2.6241513E2,5.7405975E2,9.768729E1,6.164565E2,3.738584E1,2.149607E2,6.545386E1,9.6285944E2,4.881004E1,1.5729298E2,1.8752439E3,1.473598E2,3.3774324E3,1.1040075E1,4.531413E3,5.3712305E2,2.8365018E2,1.2493856E1,2.1998018E1,3.5832314E1,4.659901E2,2.9402874E3,1.1961267E3,4.2157523E2,1.5392991E3,1.5209344E2,9.686067E0,4.697017E2,2.4345436E2,1.8960787E1,5.290886E0,5.6876886E2,2.6203335E1,7.148395E1,4.3403726E2,1.824192E2,7.166846E0,3.0218994E1,1.279608E2,8.699989E1,5.6864082E1,8.589778E0,1.10065125E2,8.527943E2,3.2117554E1,1.6692486E1,1.5099855E2,6.2944303E0,1.4241593E3,4.5108456E2,3.2906387E1,1.1445341E2,3.3784878E1,3.3436477E3,8.581935E0,2.458141E0,3.2224446E3,1.3089686E3,5.123822E2,2.4740818E1,2.9545324E1,2.5410484E2,7.2190266E0,5.27483E0,1.9910942E1,2.0870767E0,3.4811134E1,1.0211787E0,2.1184982E2,2.5414029E2,2.2799207E3,6.603667E2,8.466623E2,3.494644E2,1.0389755E1,4.111855E2,9.98202E1,1.4394789E3,9.0329865E1,6.1763577E1,3.9928754E2,7.041415E1,2.3648155E2,6.972809E0,7.8309402E0,1.1129846E1,3.1947756E0,2.0961099E0,5.6637006E2,2.398797E0,1.8868979E1,7.3343554E0,5.948696E1,1.1996992E1,2.386613E1,4.1017114E2,1.6240619E2,2.0013021E1],"tree_param":{"num_deleted":"0","num_feature":"49","num_nodes":"125","size_leaf_vector":"1"}},{"base_weights":[-1.4220432E-3,-1.925512E-1,2.7283186E-1,-4.521704E-1,-8.772747E-2,1.9030595E-1,5.1359284E-1,-8.223805E-1,-3.9031115E-1,-1.04786836E-1,3.1152764E-1,1.6076584E-1,5.6620157E-1,4.4222686E-1,6.936676E-1,-8.7855655E-1,-4.998439E-2,-5.4019654E-1,-3.450601E-1,-1.6941236E-1,-3.131634E-2,1.8570821E-1,7.044752E-1,1.4286569E-1,3.7517536E-1,6.5118134E-1,7.058635E-2,4.0013328E-1,6.108758E-1,7.3133975E-1,5.6429283E-4,-9.8451227E-1,-5.2120996E-1,-9.8844814E-1,3.2026282E-1,-5.857392E-1,-2.2283456E-1,-4.50051E-1,-2.6316464E-1,-1.2985222E-1,-2.6833358E-1,-7.1306504E-2,1.3437693E-1,2.8222772E-1,-2.3982649E-1,2.0517081E-1,9.729684E-1,1.9616169E-1,8.795535E-2,2.4407262E-1,5.392125E-1,-7.5117034E-1,6.77375E-1,-4.3153283E-1,2.0490515E-1,3.5339424E-1,5.6430966E-1,5.0813794E-1,8.560997E-1,6.627384E-1,9.349638E-1,-4.2404836E-1,3.855666E-1,-7.521572E-2,-5.3161893E-2,-6.45669E-2,-1.7014027E-2,-9.540048E-3,-1.0805354E-1,2.8214406E-2,-3.9924204E-2,-4.3144945E-2,-2.7360229E-2,-6.029033E-2,-5.1660594E-3,3.614945E-2,-2.7678227E-2,-3.806946E-2,-1.3605364E-2,-1.1109082E-2,-4.613086E-3,-1.8256435E-2,-1.7610017E-3,-1.1023323E-2,-1.463935E-3,3.9884094E-3,2.6053267E-2,-9.253045E-3,2.1918545E-2,-6.7353906E-4,-4.34376E-2,-8.407851E-2,1.7463004E-2,6.5521784E-2,2.8527118E-2,9.571864E-3,2.2630075E-2,7.948437E-3,-2.7719524E-3,7.860684E-3,3.7580486E-2,4.635566E-2,2.5926976E-2,-2.8212992E-2,-8.822218E-2,-6.711331E-2,4.1365046E-2,-8.734514E-2,-1.6494356E-2,1.5233803E-2,-8.452239E-2,2.1781836E-2,-2.7439717E-2,2.4727283E-2,4.5757983E-2,4.8049908E-2,2.55676E-2,-2.5141729E-2,5.4595806E-2,7.676294E-3,4.118317E-2,5.6882832E-2,-3.369331E-2,-8.133305E-2,-7.628162E-3,3.5315137E-2,-2.1578504E-2],"categories":[],"categories_nodes":[],"categories_segments":[],"categories_sizes":[],"default_left":[0,0,0,0,0,0,0,0,0,0,0,0,0,0,0,0,0,0,0,0,0,0,0,0,0,0,0,0,0,0,0,0,0,0,0,0,0,0,0,0,0,0,0,0,0,0,0,0,0,0,0,0,0,0,0,0,0,0,0,0,0,0,0,0,0,0,0,0,0,0,0,0,0,0,0,0,0,0,0,0,0,0,0,0,0,0,0,0,0,0,0,0,0,0,0,0,0,0,0,0,0,0,0,0,0,0,0,0,0,0,0,0,0,0,0,0,0,0,0,0,0,0,0,0,0,0,0],"id":8,"left_children":[1,3,5,7,9,11,13,15,17,19,21,23,25,27,29,31,33,35,37,39,41,43,45,47,49,51,53,55,57,59,61,63,65,67,69,71,73,75,77,79,81,83,85,87,89,91,93,95,97,99,101,103,105,107,109,111,113,115,117,119,121,123,125,-1,-1,-1,-1,-1,-1,-1,-1,-1,-1,-1,-1,-1,-1,-1,-1,-1,-1,-1,-1,-1,-1,-1,-1,-1,-1,-1,-1,-1,-1,-1,-1,-1,-1,-1,-1,-1,-1,-1,-1,-1,-1,-1,-1,-1,-1,-1,-1,-1,-1,-1,-1,-1,-1,-1,-1,-1,-1,-1,-1,-1,-1,-1,-1],"loss_changes":[1.1007166E3,3.367509E2,1.7130292E2,8.134863E1,6.006302E1,7.1279724E1,2.813446E1,2.2068787E1,2.059732E1,4.014322E1,1.7801556E1,2.2832413E1,1.9679916E1,1.1078674E1,1.6289703E1,1.7712128E1,1.2336103E1,1.0146576E1,2.0099945E1,1.7585815E1,2.6227177E1,1.1304695E1,1.1626316E1,1.6081123E1,9.797279E0,1.4920975E1,4.7000523E0,9.600327E0,7.6983795E0,7.9558105E0,5.4212174E0,9.129547E0,1.4299685E1,6.6210403E0,3.9275377E0,1.0519363E1,9.523742E0,1.2299301E1,1.7751495E1,9.407478E0,1.1028763E1,1.6810312E1,1.5654998E1,8.147215E0,5.6408453E0,4.5112777E0,3.1018906E0,1.846585E1,1.6181429E1,1.1015253E1,4.914688E0,1.1815295E0,8.86824E0,2.1629195E0,4.5111523E0,7.7807236E0,8.272491E0,5.174164E0,6.508293E0,5.575348E0,3.1619263E0,4.2754354E0,2.737076E0,0E0,0E0,0E0,0E0,0E0,0E0,0E0,0E0,0E0,0E0,0E0,0E0,0E0,0E0,0E0,0E0,0E0,0E0,0E0,0E0,0E0,0E0,0E0,0E0,0E0,0E0,0E0,0E0,0E0,0E0,0E0,0E0,0E0,0E0,0E0,0E0,0E0,0E0,0E0,0E0,0E0,0E0,0E0,0E0,0E0,0E0,0E0,0E0,0E0,0E0,0E0,0E0,0E0,0E0,0E0,0E0,0E0,0E0,0E0,0E0,0E0,0E0,0E0,0E0],"parents":[2147483647,0,0,1,1,2,2,3,3,4,4,5,5,6,6,7,7,8,8,9,9,10,10,11,11,12,12,13,13,14,14,15,15,16,16,17,17,18,18,19,19,20,20,21,21,22,22,23,23,24,24,25,25,26,26,27,27,28,28,29,29,30,30,31,31,32,32,33,33,34,34,35,35,36,36,37,37,38,38,39,39,40,40,41,41,42,42,43,43,44,44,45,45,46,46,47,47,48,48,49,49,50,50,51,51,52,52,53,53,54,54,55,55,56,56,57,57,58,58,59,59,60,60,61,61,62,62],"right_children":[2,4,6,8,10,12,14,16,18,20,22,24,26,28,30,32,34,36,38,40,42,44,46,48,50,52,54,56,58,60,62,64,66,68,70,72,74,76,78,80,82,84,86,88,90,92,94,96,98,100,102,104,106,108,110,112,114,116,118,120,122,124,126,-1,-1,-1,-1,-1,-1,-1,-1,-1,-1,-1,-1,-1,-1,-1,-1,-1,-1,-1,-1,-1,-1,-1,-1,-1,-1,-1,-1,-1,-1,-1,-1,-1,-1,-1,-1,-1,-1,-1,-1,-1,-1,-1,-1,-1,-1,-1,-1,-1,-1,-1,-1,-1,-1,-1,-1,-1,-1,-1,-1,-1,-1,-1,-1],"split_conditions":[1.0804371E0,-1.3715318E2,1.2674028E0,7.700969E-1,3E0,5.25E0,4.62E0,2.25E0,8.5714287E-1,1.0078685E0,5.5E0,2.8E0,7E0,3E0,8.5E1,8.621E3,1.6790123E0,1.7321357E3,1.0652174E0,1E0,1.7868853E0,1.4824103E3,8.169014E-1,6E0,2.669176E2,2.5E-1,2.0712314E2,5.3769934E2,8.095238E-1,4.5E0,1.8166667E0,6.696456E-1,2.6666668E-1,2.38E0,5E0,7E0,1.28E0,4E0,-2.4E0,1.2E0,2.2222223E0,1.1E0,1.9726027E0,-9E-1,1.1590909E0,5E-2,3.5E1,2.1384828E0,1E0,2.1428783E0,6.9E2,1.527781E3,-1.4583333E-1,1.15E0,4E0,2.3333333E0,7.2E-1,1E0,9.793552E2,1.05E0,-1.3333334E0,2.9202843E0,1.0307018E0,-7.521572E-2,-5.3161893E-2,-6.45669E-2,-1.7014027E-2,-9.540048E-3,-1.0805354E-1,2.8214406E-2,-3.9924204E-2,-4.3144945E-2,-2.7360229E-2,-6.029033E-2,-5.1660594E-3,3.614945E-2,-2.7678227E-2,-3.806946E-2,-1.3605364E-2,-1.1109082E-2,-4.613086E-3,-1.8256435E-2,-1.7610017E-3,-1.1023323E-2,-1.463935E-3,3.9884094E-3,2.6053267E-2,-9.253045E-3,2.1918545E-2,-6.7353906E-4,-4.34376E-2,-8.407851E-2,1.7463004E-2,6.5521784E-2,2.8527118E-2,9.571864E-3,2.2630075E-2,7.948437E-3,-2.7719524E-3,7.860684E-3,3.7580486E-2,4.635566E-2,2.5926976E-2,-2.8212992E-2,-8.822218E-2,-6.711331E-2,4.1365046E-2,-8.734514E-2,-1.6494356E-2,1.5233803E-2,-8.452239E-2,2.1781836E-2,-2.7439717E-2,2.4727283E-2,4.5757983E-2,4.8049908E-2,2.55676E-2,-2.5141729E-2,5.4595806E-2,7.676294E-3,4.118317E-2,5.6882832E-2,-3.369331E-2,-8.133305E-2,-7.628162E-3,3.5315137E-2,-2.1578504E-2],"split_indices":[3,2,3,3,41,47,47,28,41,3,41,33,32,28,7,37,41,0,38,5,41,0,42,32,2,30,2,2,40,41,14,3,24,48,32,7,48,37,33,18,17,17,38,45,40,10,6,35,5,35,37,0,44,14,12,13,48,32,1,14,16,34,43,0,0,0,0,0,0,0,0,0,0,0,0,0,0,0,0,0,0,0,0,0,0,0,0,0,0,0,0,0,0,0,0,0,0,0,0,0,0,0,0,0,0,0,0,0,0,0,0,0,0,0,0,0,0,0,0,0,0,0,0,0,0,0,0],"split_type":[0,0,0,0,0,0,0,0,0,0,0,0,0,0,0,0,0,0,0,0,0,0,0,0,0,0,0,0,0,0,0,0,0,0,0,0,0,0,0,0,0,0,0,0,0,0,0,0,0,0,0,0,0,0,0,0,0,0,0,0,0,0,0,0,0,0,0,0,0,0,0,0,0,0,0,0,0,0,0,0,0,0,0,0,0,0,0,0,0,0,0,0,0,0,0,0,0,0,0,0,0,0,0,0,0,0,0,0,0,0,0,0,0,0,0,0,0,0,0,0,0,0,0,0,0,0,0],"sum_hessian":[2.0997861E4,1.2374292E4,8.623568E3,3.5587075E3,8.815585E3,6.422885E3,2.2006836E3,5.0861917E2,3.0500884E3,8.454701E3,3.608836E2,5.9555747E3,4.673105E2,1.5773047E3,6.233789E2,4.740714E2,3.4547764E1,7.0602985E2,2.3440586E3,4.497763E3,3.9569382E3,2.7391425E2,8.696937E1,5.497448E3,4.5812604E2,3.9877783E2,6.853264E1,1.2636044E3,3.137003E2,5.91217E2,3.2161922E1,3.64976E2,1.090954E2,9.537715E0,2.5010048E1,6.1705695E2,8.89729E1,1.026205E3,1.3178535E3,3.213708E3,1.284055E3,3.1878367E3,7.6910144E2,2.2340912E2,5.0505135E1,3.0721004E1,5.6248363E1,2.78908E3,2.7083684E3,2.5531537E2,2.0281065E2,7.058208E0,3.9171964E2,1.4230161E1,5.430248E1,9.8481537E2,2.7878903E2,2.221609E2,9.153938E1,4.4382043E2,1.4739659E2,1.5270087E1,1.6891834E1,9.621603E1,2.6875998E2,3.218292E1,7.6912476E1,5.015303E0,4.5224113E0,2.193406E1,3.0759883E0,3.0317728E2,3.138797E2,1.2769181E1,7.620372E1,1.0577285E1,1.0156277E3,1.16943954E2,1.2009095E3,1.5716373E3,1.6420706E3,1.116074E3,1.6798119E2,9.3812695E2,2.2497097E3,6.2758734E2,1.4151408E2,3.5658558E1,1.8775056E2,3.4653736E1,1.5851397E1,1.1703093E0,2.9550695E1,4.490467E1,1.1343693E1,2.3204304E3,4.6864957E2,2.03355E3,6.748184E2,1.9755667E2,5.7758705E1,6.2816124E1,1.3999454E2,5.6700983E0,1.3881097E0,2.3031278E0,3.894165E2,1.337399E0,1.2892761E1,5.311127E1,1.1912075E0,9.7352E2,1.129532E1,1.5861275E2,1.20176285E2,4.766489E1,1.7449602E2,3.5704637E0,8.796892E1,1.8929554E1,4.2489087E2,1.463008E2,1.095792E0,3.2599392E0,1.2010148E1,1.3357817E1,3.5340183E0],"tree_param":{"num_deleted":"0","num_feature":"49","num_nodes":"127","size_leaf_vector":"1"}},{"base_weights":[1.6274616E-3,-2.597718E-1,1.8680026E-1,-6.1534375E-1,-1.9697413E-1,8.982366E-2,4.0914986E-1,-1.041842E0,-5.542036E-1,-2.8170353E-1,-1.05870835E-1,6.737735E-2,5.417382E-1,3.3168027E-1,5.846854E-1,-1.7189851E0,-9.49072E-1,-6.2615377E-1,-3.4848508E-1,-4.003578E-1,-2.3287013E-1,-1.2717882E-1,2.6753053E-1,7.3035727E-3,1.5495484E-1,3.8603616E-1,7.821936E-1,2.7597895E-1,5.359481E-1,4.3219095E-1,6.5369797E-1,-1.8199002E0,-2.4111548E-2,-1.1107886E0,-6.5895706E-1,3.9908394E-1,-6.474721E-1,-2.1797264E-1,-6.8272E-1,-5.5169E-1,-3.4062186E-1,-2.973296E-1,-1.6019285E-1,-2.377128E-1,-5.4187153E-2,-1.2984109E-1,4.115537E-1,1.8917431E-1,-1.7467653E-2,1.21827275E-1,3.225364E-1,3.839266E-2,4.8993498E-1,5.270508E-1,1.0328578E0,2.5676426E-1,4.891668E-1,4.8083732E-1,9.612951E-1,2.8768677E-1,6.174902E-1,6.334524E-1,1.0991496E0,-1.1624948E-1,-2.545923E-2,-8.774E-2,-4.5583636E-2,-8.984475E-2,-2.5912989E-2,3.800753E-2,-9.0842396E-2,-5.7980936E-2,-3.5844814E-2,-7.9241E-3,-4.272485E-2,-8.561522E-2,-3.2740846E-2,-1.8582495E-2,-4.3585993E-2,-4.5402203E-2,-1.8214628E-2,5.1885936E-2,-1.8188817E-2,1.1072143E-2,-1.1643199E-2,-1.12720635E-2,-2.3209954E-2,3.8964927E-4,-1.10359825E-2,1.545485E-2,-3.304667E-2,2.8358242E-2,-4.4619475E-2,7.126969E-3,5.0363425E-2,1.5531229E-3,-7.215755E-3,2.871377E-3,1.0921255E-2,1.3320774E-2,2.9421221E-2,-1.0197906E-2,3.3643145E-2,3.150644E-2,-5.321501E-2,3.4555245E-2,-4.4125333E-2,2.5846023E-2,6.698943E-2,1.2718903E-2,2.0852227E-2,3.1210896E-2,-1.9101512E-2,-2.9524516E-2,3.0257352E-2,6.073184E-2,-1.3704425E-2,-1.2757843E-2,2.2803118E-2,3.8163237E-2,-2.5449432E-2,3.875061E-2,-4.98474E-3,4.5148984E-2,7.779263E-2],"categories":[],"categories_nodes":[],"categories_segments":[],"categories_sizes":[],"default_left":[0,0,0,0,0,0,0,0,0,0,0,0,0,0,0,0,0,0,0,0,0,0,0,0,0,0,0,0,0,0,0,0,0,0,0,0,0,0,0,0,0,0,0,0,0,0,0,0,0,0,0,0,0,0,0,0,0,0,0,0,0,0,0,0,0,0,0,0,0,0,0,0,0,0,0,0,0,0,0,0,0,0,0,0,0,0,0,0,0,0,0,0,0,0,0,0,0,0,0,0,0,0,0,0,0,0,0,0,0,0,0,0,0,0,0,0,0,0,0,0,0,0,0,0,0],"id":9,"left_children":[1,3,5,7,9,11,13,15,17,19,21,23,25,27,29,31,33,35,37,39,41,43,45,47,49,51,53,55,57,59,61,63,-1,65,67,69,71,73,75,77,79,81,83,85,87,89,91,93,95,97,99,101,103,105,107,109,111,113,115,117,119,121,123,-1,-1,-1,-1,-1,-1,-1,-1,-1,-1,-1,-1,-1,-1,-1,-1,-1,-1,-1,-1,-1,-1,-1,-1,-1,-1,-1,-1,-1,-1,-1,-1,-1,-1,-1,-1,-1,-1,-1,-1,-1,-1,-1,-1,-1,-1,-1,-1,-1,-1,-1,-1,-1,-1,-1,-1,-1,-1,-1,-1,-1,-1],"loss_changes":[1.01304694E3,1.9371735E2,2.6413977E2,3.3672424E1,5.692444E1,8.6517654E1,5.049402E1,9.406387E0,1.6766937E1,2.2096832E1,2.8304535E1,4.2760708E1,1.4959686E1,2.9307434E1,1.18402405E1,2.158558E0,6.40094E0,1.857788E1,1.2862423E1,9.972458E0,1.2665039E1,2.713219E1,1.1020198E1,2.1722961E1,1.8338692E1,8.874691E0,9.841759E0,8.25296E0,1.27261505E1,9.448494E0,6.711487E0,2.460476E0,0E0,1.078392E1,9.739267E0,8.327856E0,1.2913696E1,9.03723E0,8.080402E0,1.3179512E1,1.2211388E1,9.831085E0,1.4891289E1,9.90638E0,1.5955912E1,8.466378E0,1.0133104E1,2.6405542E1,1.8914454E1,1.2293095E1,9.147995E0,6.2660036E0,9.401302E0,5.109989E0,3.7501068E0,7.537369E0,4.2725945E0,1.1312286E1,3.9249268E0,9.331602E0,3.14423E0,6.6853943E0,1.7944145E0,0E0,0E0,0E0,0E0,0E0,0E0,0E0,0E0,0E0,0E0,0E0,0E0,0E0,0E0,0E0,0E0,0E0,0E0,0E0,0E0,0E0,0E0,0E0,0E0,0E0,0E0,0E0,0E0,0E0,0E0,0E0,0E0,0E0,0E0,0E0,0E0,0E0,0E0,0E0,0E0,0E0,0E0,0E0,0E0,0E0,0E0,0E0,0E0,0E0,0E0,0E0,0E0,0E0,0E0,0E0,0E0,0E0,0E0,0E0,0E0,0E0,0E0],"parents":[2147483647,0,0,1,1,2,2,3,3,4,4,5,5,6,6,7,7,8,8,9,9,10,10,11,11,12,12,13,13,14,14,15,15,16,16,17,17,18,18,19,19,20,20,21,21,22,22,23,23,24,24,25,25,26,26,27,27,28,28,29,29,30,30,31,31,33,33,34,34,35,35,36,36,37,37,38,38,39,39,40,40,41,41,42,42,43,43,44,44,45,45,46,46,47,47,48,48,49,49,50,50,51,51,52,52,53,53,54,54,55,55,56,56,57,57,58,58,59,59,60,60,61,61,62,62],"right_children":[2,4,6,8,10,12,14,16,18,20,22,24,26,28,30,32,34,36,38,40,42,44,46,48,50,52,54,56,58,60,62,64,-1,66,68,70,72,74,76,78,80,82,84,86,88,90,92,94,96,98,100,102,104,106,108,110,112,114,116,118,120,122,124,-1,-1,-1,-1,-1,-1,-1,-1,-1,-1,-1,-1,-1,-1,-1,-1,-1,-1,-1,-1,-1,-1,-1,-1,-1,-1,-1,-1,-1,-1,-1,-1,-1,-1,-1,-1,-1,-1,-1,-1,-1,-1,-1,-1,-1,-1,-1,-1,-1,-1,-1,-1,-1,-1,-1,-1,-1,-1,-1,-1,-1,-1],"split_conditions":[1.0177451E0,8.3781695E-1,1.1964397E0,-5.330446E2,1.2E0,3.4E0,1.3605146E0,1.4E-1,2.9966571E0,-1.5898955E2,3.1E0,1.6382568E2,4.2727275E0,2.1351764E0,2.8837018E0,-2.5E0,1.1375E0,1.4484725E0,2.1E0,5.168205E-1,1.3797468E0,-9.173999E1,3.36E0,1E0,2E0,3.6666667E-1,1.3214722E3,2.2941177E0,5.5E0,2.7E0,2.8985507E0,1.235155E3,-2.4111548E-2,8.6580086E-1,1.6552622E3,4E0,-5E-1,5E-1,-2.75E0,1.2631578E0,-2.3333333E0,3.5E-1,-3E1,1E0,1.2654321E0,-9.173999E1,5.070588E0,2.4117646E0,1E0,1.5E0,3.125E-1,2.6190476E0,-7E-1,6E0,4.2E0,1.2819116E0,3.6666667E0,2.3966478E2,2E0,-2.857143E-1,2.0297058E0,5E-1,1.6666667E-1,-1.1624948E-1,-2.545923E-2,-8.774E-2,-4.5583636E-2,-8.984475E-2,-2.5912989E-2,3.800753E-2,-9.0842396E-2,-5.7980936E-2,-3.5844814E-2,-7.9241E-3,-4.272485E-2,-8.561522E-2,-3.2740846E-2,-1.8582495E-2,-4.3585993E-2,-4.5402203E-2,-1.8214628E-2,5.1885936E-2,-1.8188817E-2,1.1072143E-2,-1.1643199E-2,-1.12720635E-2,-2.3209954E-2,3.8964927E-4,-1.10359825E-2,1.545485E-2,-3.304667E-2,2.8358242E-2,-4.4619475E-2,7.126969E-3,5.0363425E-2,1.5531229E-3,-7.215755E-3,2.871377E-3,1.0921255E-2,1.3320774E-2,2.9421221E-2,-1.0197906E-2,3.3643145E-2,3.150644E-2,-5.321501E-2,3.4555245E-2,-4.4125333E-2,2.5846023E-2,6.698943E-2,1.2718903E-2,2.0852227E-2,3.1210896E-2,-1.9101512E-2,-2.9524516E-2,3.0257352E-2,6.073184E-2,-1.3704425E-2,-1.2757843E-2,2.2803118E-2,3.8163237E-2,-2.5449432E-2,3.875061E-2,-4.98474E-3,4.5148984E-2,7.779263E-2],"split_indices":[3,3,3,2,18,28,3,47,34,2,18,2,41,35,34,45,41,35,40,36,38,2,47,32,18,19,1,38,45,45,42,0,0,42,1,9,46,10,21,39,33,19,9,5,43,2,39,38,5,22,15,43,16,23,28,3,14,2,9,11,35,31,15,0,0,0,0,0,0,0,0,0,0,0,0,0,0,0,0,0,0,0,0,0,0,0,0,0,0,0,0,0,0,0,0,0,0,0,0,0,0,0,0,0,0,0,0,0,0,0,0,0,0,0,0,0,0,0,0,0,0,0,0,0,0],"split_type":[0,0,0,0,0,0,0,0,0,0,0,0,0,0,0,0,0,0,0,0,0,0,0,0,0,0,0,0,0,0,0,0,0,0,0,0,0,0,0,0,0,0,0,0,0,0,0,0,0,0,0,0,0,0,0,0,0,0,0,0,0,0,0,0,0,0,0,0,0,0,0,0,0,0,0,0,0,0,0,0,0,0,0,0,0,0,0,0,0,0,0,0,0,0,0,0,0,0,0,0,0,0,0,0,0,0,0,0,0,0,0,0,0,0,0,0,0,0,0,0,0,0,0,0,0],"sum_hessian":[2.0927975E4,8.67778E3,1.2250194E4,1.3018826E3,7.375898E3,8.530405E3,3.719789E3,1.622245E2,1.1396581E3,3.821095E3,3.5548032E3,8.127302E3,4.031034E2,2.5818005E3,1.1379884E3,1.849098E1,1.4373352E2,8.4359015E2,2.960679E2,1.1130446E3,2.7080503E3,3.3632126E3,1.9159053E2,4.8209277E3,3.306374E3,2.4546211E2,1.5764128E2,2.0295444E3,5.5225616E2,3.5568216E2,7.823062E2,1.6997791E1,1.4931902E0,9.13812E1,5.2352314E1,1.7003395E1,8.2658673E2,2.1351888E2,8.2549034E1,3.1384564E2,7.991989E2,1.4343451E3,1.2737052E3,1.3371653E3,2.0260475E3,5.098048E1,1.4061006E2,5.7751135E2,4.2434165E3,2.7613694E3,5.450046E2,5.6637817E1,1.8882428E2,7.889151E1,7.874978E1,1.8627557E3,1.6678877E2,4.8985284E2,6.2403328E1,2.0055621E2,1.5512595E2,7.4945496E2,3.2851284E1,1.5497796E1,1.4999943E0,4.486834E1,4.6512863E1,1.0560643E1,4.179167E1,1.5445613E1,1.5577825E0,1.10912415E2,7.156743E2,1.8243489E2,3.1083986E1,1.2105128E1,7.044391E1,1.3218463E2,1.8166101E2,6.4543274E1,7.3465564E2,6.7767267E0,1.4275684E3,1.1371943E2,1.1599858E3,1.0030228E3,3.3414246E2,1.3807532E3,6.4529425E2,2.6648117E1,2.4332365E1,1.3382907E2,6.78099E0,5.216316E2,5.587977E1,2.9849211E3,1.2584952E3,1.2393049E3,1.5220646E3,3.4156607E2,2.0343854E2,4.0728416E1,1.5909403E1,1.8442242E2,4.401857E0,7.621323E1,2.6782844E0,9.979623E0,6.877016E1,1.2484863E3,6.142694E2,1.6079114E2,5.997628E0,1.1294731E1,4.7855814E2,5.9914448E1,2.4888809E0,3.1153742E1,1.6940247E2,1.5260103E2,2.5249066E0,7.367633E2,1.269161E1,1.2791943E1,2.0059341E1],"tree_param":{"num_deleted":"0","num_feature":"49","num_nodes":"125","size_leaf_vector":"1"}},{"base_weights":[1.8115451E-3,-2.175681E-1,1.8898481E-1,-5.2555794E-1,-1.5139158E-1,1.2026101E-1,4.419055E-1,-1.0481031E0,-4.7469383E-1,-1.9571762E-1,-2.5735295E-3,9.742194E-2,4.7446507E-1,3.702194E-1,6.11369E-1,-1.5402673E0,-9.2575675E-1,-6.2991315E-1,-3.727541E-1,-3.0661246E-1,-1.5208308E-1,-4.6820298E-2,3.8033015E-1,2.9509498E-2,1.7517002E-1,9.3701714E-1,4.0090832E-1,2.6543555E-1,4.446866E-1,5.238853E-1,7.9666775E-1,-1.8599342E0,-5.2822524E-1,-1.1378666E0,-5.395701E-1,-7.3844606E-1,-4.4054112E-1,5.634265E-1,-3.904653E-1,-5.5536884E-1,-2.8535503E-1,-4.185095E-2,-1.9446456E-1,-1.4291659E-1,5.0458595E-2,-5.781633E-2,5.090503E-1,-2.8284173E-2,1.14360176E-1,1.3183406E-1,2.6301995E-1,1.0848761E0,4.7297588E-1,-5.78079E-1,4.2495942E-1,2.1146564E-1,4.9155656E-1,3.8911718E-1,5.832062E-1,-8.757278E-2,5.4968417E-1,-4.3907183E-1,8.170912E-1,2.783819E-3,-1.1713243E-1,4.8671686E-3,-9.818534E-2,-1.1042917E-1,-5.2170694E-2,1.1743267E-2,-4.371466E-2,-6.044628E-2,-3.4916803E-2,-2.1832963E-2,-6.453475E-2,5.1186886E-2,-1.0529199E-2,-1.9109052E-2,-4.0849015E-2,3.7652045E-3,-4.0503286E-2,-4.6268445E-2,-1.639957E-2,-5.620706E-2,-1.7463394E-3,-8.700913E-3,-1.8672343E-2,-1.0140118E-2,1.8719947E-2,8.607818E-3,-3.0127452E-3,8.640849E-3,-2.8223878E-2,3.3658788E-2,-2.4030332E-2,1.1738206E-2,-3.5102204E-3,3.1845965E-3,1.4956843E-2,6.269457E-3,2.281075E-2,1.4141417E-2,3.273086E-2,6.684359E-2,8.9155855E-3,1.55510325E-2,6.48495E-2,-5.1676193E-3,-6.356259E-2,2.7807076E-2,-1.2059901E-2,-5.935938E-3,1.5332267E-2,4.1794773E-2,1.6540872E-2,2.392289E-2,-2.2452982E-2,3.1607427E-2,5.2241903E-2,-1.0178553E-1,1.3274214E-2,2.6026089E-2,3.940915E-2,-5.7779066E-3,-3.640479E-2,3.7230924E-2,5.567704E-2],"categories":[],"categories_nodes":[],"categories_segments":[],"categories_sizes":[],"default_left":[0,0,0,0,0,0,0,0,0,0,0,0,0,0,0,0,0,0,0,0,0,0,0,0,0,0,0,0,0,0,0,0,0,0,0,0,0,0,0,0,0,0,0,0,0,0,0,0,0,0,0,0,0,0,0,0,0,0,0,0,0,0,0,0,0,0,0,0,0,0,0,0,0,0,0,0,0,0,0,0,0,0,0,0,0,0,0,0,0,0,0,0,0,0,0,0,0,0,0,0,0,0,0,0,0,0,0,0,0,0,0,0,0,0,0,0,0,0,0,0,0,0,0,0,0,0,0],"id":10,"left_children":[1,3,5,7,9,11,13,15,17,19,21,23,25,27,29,31,33,35,37,39,41,43,45,47,49,51,53,55,57,59,61,63,65,67,69,71,73,75,77,79,81,83,85,87,89,91,93,95,97,99,101,103,105,107,109,111,113,115,117,119,121,123,125,-1,-1,-1,-1,-1,-1,-1,-1,-1,-1,-1,-1,-1,-1,-1,-1,-1,-1,-1,-1,-1,-1,-1,-1,-1,-1,-1,-1,-1,-1,-1,-1,-1,-1,-1,-1,-1,-1,-1,-1,-1,-1,-1,-1,-1,-1,-1,-1,-1,-1,-1,-1,-1,-1,-1,-1,-1,-1,-1,-1,-1,-1,-1,-1],"loss_changes":[8.5517584E2,1.9538623E2,1.9531104E2,4.481888E1,5.206726E1,7.147072E1,2.9054596E1,8.31897E0,2.4347015E1,2.9405167E1,3.0707777E1,4.383745E1,1.802185E1,1.3116486E1,1.134903E1,8.9264145E0,9.636192E0,1.2419357E1,1.5604111E1,8.9991E0,2.0390266E1,1.5191736E1,1.0603468E1,2.1737345E1,1.4719955E1,4.756195E0,1.1016144E1,8.523743E0,7.4786224E0,7.687149E0,5.92601E0,3.9018173E0,5.256549E0,1.3888123E1,6.184127E0,1.6057602E1,1.0721809E1,3.8325825E0,1.9065125E1,9.981243E0,9.142883E0,1.382129E1,1.8178864E1,9.726868E0,7.5666094E0,3.621365E0,6.9690094E0,1.7849525E1,1.4842831E1,1.7589909E1,9.804474E0,1.4205627E0,2.2693086E0,2.6311843E0,1.0933334E1,7.7853813E0,5.8801765E0,5.242691E0,4.334503E0,1.0172717E1,5.6468506E0,2.0225006E-1,4.5972443E0,0E0,0E0,0E0,0E0,0E0,0E0,0E0,0E0,0E0,0E0,0E0,0E0,0E0,0E0,0E0,0E0,0E0,0E0,0E0,0E0,0E0,0E0,0E0,0E0,0E0,0E0,0E0,0E0,0E0,0E0,0E0,0E0,0E0,0E0,0E0,0E0,0E0,0E0,0E0,0E0,0E0,0E0,0E0,0E0,0E0,0E0,0E0,0E0,0E0,0E0,0E0,0E0,0E0,0E0,0E0,0E0,0E0,0E0,0E0,0E0,0E0,0E0,0E0,0E0],"parents":[2147483647,0,0,1,1,2,2,3,3,4,4,5,5,6,6,7,7,8,8,9,9,10,10,11,11,12,12,13,13,14,14,15,15,16,16,17,17,18,18,19,19,20,20,21,21,22,22,23,23,24,24,25,25,26,26,27,27,28,28,29,29,30,30,31,31,32,32,33,33,34,34,35,35,36,36,37,37,38,38,39,39,40,40,41,41,42,42,43,43,44,44,45,45,46,46,47,47,48,48,49,49,50,50,51,51,52,52,53,53,54,54,55,55,56,56,57,57,58,58,59,59,60,60,61,61,62,62],"right_children":[2,4,6,8,10,12,14,16,18,20,22,24,26,28,30,32,34,36,38,40,42,44,46,48,50,52,54,56,58,60,62,64,66,68,70,72,74,76,78,80,82,84,86,88,90,92,94,96,98,100,102,104,106,108,110,112,114,116,118,120,122,124,126,-1,-1,-1,-1,-1,-1,-1,-1,-1,-1,-1,-1,-1,-1,-1,-1,-1,-1,-1,-1,-1,-1,-1,-1,-1,-1,-1,-1,-1,-1,-1,-1,-1,-1,-1,-1,-1,-1,-1,-1,-1,-1,-1,-1,-1,-1,-1,-1,-1,-1,-1,-1,-1,-1,-1,-1,-1,-1,-1,-1,-1,-1,-1,-1],"split_conditions":[1.0344665E0,-2.3944806E2,1.2542775E0,-5.330446E2,2.16E0,5.25E0,3.3333333E0,1.25E0,8.947368E-1,-1.2895076E2,3E0,1.11963E0,4.8E-1,1.6086956E0,2.1415095E0,-1.3E0,1.1375E0,2.0615382E0,1.5539865E0,5.761317E-1,9.5E-1,-2.8202282E1,5E-1,1.44E0,1.298969E0,1.1897814E0,2E-1,3.2E0,5.3769934E2,-1.3333334E0,3.0414487E2,2.1428572E-1,-8E-1,1.1695225E3,1.2037038E0,-1.7E0,6.1E1,2.4E0,1E0,1.1277641E0,2.3397436E0,9.1161627E-1,1E0,1.5384616E0,7E0,-1E0,3.3333334E-1,1E0,1.7830188E0,2.1543808E0,2.7E0,5.5E0,5.6666666E-1,5.5E-1,2.2E1,1.0526316E0,1.1E0,2.5E0,1.2333333E0,2.894675E2,3.2E0,1.2446698E3,4E0,2.783819E-3,-1.1713243E-1,4.8671686E-3,-9.818534E-2,-1.1042917E-1,-5.2170694E-2,1.1743267E-2,-4.371466E-2,-6.044628E-2,-3.4916803E-2,-2.1832963E-2,-6.453475E-2,5.1186886E-2,-1.0529199E-2,-1.9109052E-2,-4.0849015E-2,3.7652045E-3,-4.0503286E-2,-4.6268445E-2,-1.639957E-2,-5.620706E-2,-1.7463394E-3,-8.700913E-3,-1.8672343E-2,-1.0140118E-2,1.8719947E-2,8.607818E-3,-3.0127452E-3,8.640849E-3,-2.8223878E-2,3.3658788E-2,-2.4030332E-2,1.1738206E-2,-3.5102204E-3,3.1845965E-3,1.4956843E-2,6.269457E-3,2.281075E-2,1.4141417E-2,3.273086E-2,6.684359E-2,8.9155855E-3,1.55510325E-2,6.48495E-2,-5.1676193E-3,-6.356259E-2,2.7807076E-2,-1.2059901E-2,-5.935938E-3,1.5332267E-2,4.1794773E-2,1.6540872E-2,2.392289E-2,-2.2452982E-2,3.1607427E-2,5.2241903E-2,-1.0178553E-1,1.3274214E-2,2.6026089E-2,3.940915E-2,-5.7779066E-3,-3.640479E-2,3.7230924E-2,5.567704E-2],"split_indices":[3,2,3,2,47,47,41,27,38,2,41,3,48,38,38,45,41,35,35,42,14,2,30,48,40,3,30,28,2,11,2,15,45,0,41,45,9,48,5,39,34,3,5,42,32,21,11,32,38,35,48,11,29,10,32,38,12,23,29,2,28,0,41,0,0,0,0,0,0,0,0,0,0,0,0,0,0,0,0,0,0,0,0,0,0,0,0,0,0,0,0,0,0,0,0,0,0,0,0,0,0,0,0,0,0,0,0,0,0,0,0,0,0,0,0,0,0,0,0,0,0,0,0,0,0,0,0],"split_type":[0,0,0,0,0,0,0,0,0,0,0,0,0,0,0,0,0,0,0,0,0,0,0,0,0,0,0,0,0,0,0,0,0,0,0,0,0,0,0,0,0,0,0,0,0,0,0,0,0,0,0,0,0,0,0,0,0,0,0,0,0,0,0,0,0,0,0,0,0,0,0,0,0,0,0,0,0,0,0,0,0,0,0,0,0,0,0,0,0,0,0,0,0,0,0,0,0,0,0,0,0,0,0,0,0,0,0,0,0,0,0,0,0,0,0,0,0,0,0,0,0,0,0,0,0,0,0],"sum_hessian":[2.0825451E4,9.587811E3,1.123764E4,1.695124E3,7.8926865E3,8.837143E3,2.4004973E3,1.4949583E2,1.5456282E3,6.0812153E3,1.8114714E3,8.302438E3,5.3470374E2,1.6880249E3,7.1247235E2,2.8610268E1,1.2088557E2,6.1167175E2,9.3395636E2,1.7163049E3,4.36491E3,1.6242219E3,1.8724953E2,4.4318965E3,3.8705425E3,7.255867E1,4.6214508E2,7.0221313E2,9.8581177E2,4.852762E2,2.271961E2,2.1424238E1,7.18603E0,7.740067E1,4.3484894E1,3.8790564E2,2.2376613E2,1.7055004E1,9.1690137E2,1.3413087E2,1.5821741E3,1.2124313E3,3.152479E3,8.169595E2,8.0726245E2,4.258186E1,1.4466766E2,2.636471E3,1.7954253E3,2.5927844E3,1.2777579E3,5.451836E1,1.8040312E1,1.0805257E1,4.5133984E2,5.676869E2,1.3452629E2,7.049243E2,2.8088748E2,1.9597569E1,4.6567865E2,3.5272608E0,2.2366885E2,1.0006058E0,2.0423634E1,4.9355865E0,2.2504435E0,2.05822E1,5.6818474E1,8.888485E0,3.4596405E1,1.4167502E2,2.4623062E2,2.0036559E2,2.3400547E1,1.2196237E1,4.8587675E0,7.355897E2,1.8131165E2,2.1797056E1,1.1233382E2,3.7468113E1,1.5447059E3,1.6515503E1,1.1959158E3,2.2152583E3,9.372208E2,7.7295184E2,4.4007687E1,4.1949707E2,3.877654E2,2.8812544E1,1.3769314E1,1.3703548E2,7.632184E0,3.131738E2,2.323297E3,1.2351105E3,5.603148E2,2.3362688E3,2.5651578E2,1.1658828E3,1.1187509E2,5.277833E1,1.7400281E0,1.3873823E1,4.1664877E0,5.6349936E0,5.1702633E0,4.2531583E2,2.6024017E1,7.0504524E1,4.9718234E2,6.842639E1,6.609989E1,6.96407E2,8.517328E0,2.3599371E2,4.4893784E1,2.7940845E0,1.6803484E1,2.2488545E2,2.407932E2,1.4172232E0,2.1100376E0,8.184325E1,1.418256E2],"tree_param":{"num_deleted":"0","num_feature":"49","num_nodes":"127","size_leaf_vector":"1"}},{"base_weights":[-1.156868E-3,-1.6111578E-1,2.2572474E-1,-3.8657823E-1,-7.392755E-2,1.7566708E-1,5.2606875E-1,-7.3485506E-1,-3.2714444E-1,-1.0106438E-1,1.0407568E-1,1.14402376E-1,3.152035E-1,4.4033718E-1,7.05204E-1,-1.760264E-3,-7.9121625E-1,-4.5837572E-1,-2.8226265E-1,-1.6637847E-1,-4.946357E-2,6.693081E-2,7.237043E-1,7.9882294E-2,2.563252E-1,2.8345016E-1,4.926994E-1,3.656224E-1,5.680747E-1,1.9882272E-1,7.730503E-1,2.626496E-1,-7.845503E-1,-1.0996121E0,-6.928876E-1,-4.861123E-1,1.6497853E-1,-4.7304994E-1,-2.4845558E-1,-1.6383824E-1,-1.5464182E0,-1.2619487E-2,-1.360935E-1,1.8771918E-1,-4.2632088E-2,1.2046208E-1,1.0368041E0,3.443707E-2,1.631606E-1,2.3553118E-1,8.461568E-1,2.2860888E-1,3.5592076E-1,4.6940908E-1,7.4393645E-2,3.3265117E-1,8.370828E-1,-1.752413E-1,6.16181E-1,-5.1029623E-2,5.843867E-1,8.5625994E-1,5.3338784E-1,2.3923157E-2,-5.6981854E-2,1.682894E-2,-8.810631E-2,-9.554897E-2,-5.164881E-2,-5.5389673E-2,-3.2362327E-2,-2.5906583E-2,-4.961408E-2,-3.1381097E-2,2.3542553E-2,-4.332333E-3,-3.2950133E-2,-1.9673703E-2,-1.04393205E-2,-7.852686E-3,-1.4931069E-2,-9.269638E-3,-1.08289994E-1,-4.533849E-3,3.4559187E-3,-7.365153E-3,-6.855271E-2,-3.0025116E-3,1.6355867E-2,-1.5356609E-2,8.656793E-4,3.0963356E-2,-1.5224248E-2,-1.03541035E-2,6.480307E-2,8.8349305E-4,1.4741762E-2,9.989364E-3,-7.694007E-2,7.582706E-3,1.9872189E-2,6.3641004E-2,-3.5544544E-2,6.08423E-3,1.8040644E-2,2.5831794E-2,1.4528947E-2,2.0244148E-2,3.6036633E-2,-5.5661844E-4,2.2924151E-2,5.3197872E-2,2.550616E-2,-4.1346565E-2,2.9829707E-2,-8.744944E-2,3.7707254E-2,1.9458178E-2,-8.7367175E-3,4.6789013E-2,2.3526484E-2,5.7237156E-2,4.3189477E-2,2.3930445E-2,4.538093E-2],"categories":[],"categories_nodes":[],"categories_segments":[],"categories_sizes":[],"default_left":[0,0,0,0,0,0,0,0,0,0,0,0,0,0,0,0,0,0,0,0,0,0,0,0,0,0,0,0,0,0,0,0,0,0,0,0,0,0,0,0,0,0,0,0,0,0,0,0,0,0,0,0,0,0,0,0,0,0,0,0,0,0,0,0,0,0,0,0,0,0,0,0,0,0,0,0,0,0,0,0,0,0,0,0,0,0,0,0,0,0,0,0,0,0,0,0,0,0,0,0,0,0,0,0,0,0,0,0,0,0,0,0,0,0,0,0,0,0,0,0,0,0,0,0,0],"id":11,"left_children":[1,3,5,7,9,11,13,15,17,19,21,23,25,27,29,31,33,35,37,39,41,43,45,47,49,51,53,55,57,59,61,63,65,67,69,71,73,75,77,79,81,83,85,87,89,91,93,95,97,99,101,103,105,107,-1,109,111,113,115,117,119,121,123,-1,-1,-1,-1,-1,-1,-1,-1,-1,-1,-1,-1,-1,-1,-1,-1,-1,-1,-1,-1,-1,-1,-1,-1,-1,-1,-1,-1,-1,-1,-1,-1,-1,-1,-1,-1,-1,-1,-1,-1,-1,-1,-1,-1,-1,-1,-1,-1,-1,-1,-1,-1,-1,-1,-1,-1,-1,-1,-1,-1,-1,-1],"loss_changes":[7.548124E2,2.3977551E2,1.2925339E2,7.029071E1,4.2499565E1,6.3005524E1,1.8709198E1,2.0470978E1,1.7054993E1,2.572348E1,2.67659E1,2.5092247E1,1.26058655E1,7.83757E0,1.35542755E1,7.5280347E0,1.3570862E1,1.2833481E1,1.3919479E1,1.1683601E1,1.3612992E1,1.4544079E1,1.2361679E1,1.559766E1,1.219252E1,7.5460815E0,5.636421E0,8.043671E0,1.1002441E1,4.595713E0,6.7456207E0,4.6747456E0,6.89463E0,1.2305786E1,1.213121E1,1.2941696E1,5.0925283E0,9.916733E0,1.0868172E1,9.407875E0,2.0657158E0,1.3231143E1,1.7018208E1,1.0554739E1,7.0190816E0,3.476343E0,2.354618E0,1.1106412E1,7.1085625E0,1.0095932E1,1.0787275E1,9.959179E0,6.920189E0,5.633461E0,0E0,8.329414E0,5.071869E-1,6.7364187E0,7.7796173E0,1.0642331E0,5.512247E-1,3.105545E0,2.5926132E0,0E0,0E0,0E0,0E0,0E0,0E0,0E0,0E0,0E0,0E0,0E0,0E0,0E0,0E0,0E0,0E0,0E0,0E0,0E0,0E0,0E0,0E0,0E0,0E0,0E0,0E0,0E0,0E0,0E0,0E0,0E0,0E0,0E0,0E0,0E0,0E0,0E0,0E0,0E0,0E0,0E0,0E0,0E0,0E0,0E0,0E0,0E0,0E0,0E0,0E0,0E0,0E0,0E0,0E0,0E0,0E0,0E0,0E0,0E0,0E0,0E0,0E0],"parents":[2147483647,0,0,1,1,2,2,3,3,4,4,5,5,6,6,7,7,8,8,9,9,10,10,11,11,12,12,13,13,14,14,15,15,16,16,17,17,18,18,19,19,20,20,21,21,22,22,23,23,24,24,25,25,26,26,27,27,28,28,29,29,30,30,31,31,32,32,33,33,34,34,35,35,36,36,37,37,38,38,39,39,40,40,41,41,42,42,43,43,44,44,45,45,46,46,47,47,48,48,49,49,50,50,51,51,52,52,53,53,55,55,56,56,57,57,58,58,59,59,60,60,61,61,62,62],"right_children":[2,4,6,8,10,12,14,16,18,20,22,24,26,28,30,32,34,36,38,40,42,44,46,48,50,52,54,56,58,60,62,64,66,68,70,72,74,76,78,80,82,84,86,88,90,92,94,96,98,100,102,104,106,108,-1,110,112,114,116,118,120,122,124,-1,-1,-1,-1,-1,-1,-1,-1,-1,-1,-1,-1,-1,-1,-1,-1,-1,-1,-1,-1,-1,-1,-1,-1,-1,-1,-1,-1,-1,-1,-1,-1,-1,-1,-1,-1,-1,-1,-1,-1,-1,-1,-1,-1,-1,-1,-1,-1,-1,-1,-1,-1,-1,-1,-1,-1,-1,-1,-1,-1,-1,-1],"split_conditions":[1.0804371E0,-1.4046075E2,3.2E0,7.700969E-1,2.94E0,3.1055145E2,3.6E0,5.3333336E-1,8.8E-1,-1.3534058E1,5.5E0,2.2E0,3.3333333E0,5.781818E-1,1.3664537E3,-7E-1,-2.5E0,1.8528303E3,5E-1,3.4666667E0,1E0,4E0,1.3269062E3,2.2597151E2,7.567568E-1,1.7142857E0,3.2857144E0,6.8E0,6.25E-2,6E0,1.0059172E0,5E0,1.0425532E0,1.1111112E0,8.372093E-1,6.876E3,1.3E0,1.3761754E3,-8E-1,1E0,5.555556E-1,5E-1,2.5E0,-3.9682606E1,-3.0270535E1,3E1,1.4E1,2.1E0,3.7142856E0,1E0,1.1647804E0,3.5942523E2,1.2E0,1.8031927E3,7.4393645E-2,1.15E2,1.5555556E0,2.07E0,-3.75E-1,9.466319E2,2.5E0,2.4E1,5.5E0,2.3923157E-2,-5.6981854E-2,1.682894E-2,-8.810631E-2,-9.554897E-2,-5.164881E-2,-5.5389673E-2,-3.2362327E-2,-2.5906583E-2,-4.961408E-2,-3.1381097E-2,2.3542553E-2,-4.332333E-3,-3.2950133E-2,-1.9673703E-2,-1.04393205E-2,-7.852686E-3,-1.4931069E-2,-9.269638E-3,-1.08289994E-1,-4.533849E-3,3.4559187E-3,-7.365153E-3,-6.855271E-2,-3.0025116E-3,1.6355867E-2,-1.5356609E-2,8.656793E-4,3.0963356E-2,-1.5224248E-2,-1.03541035E-2,6.480307E-2,8.8349305E-4,1.4741762E-2,9.989364E-3,-7.694007E-2,7.582706E-3,1.9872189E-2,6.3641004E-2,-3.5544544E-2,6.08423E-3,1.8040644E-2,2.5831794E-2,1.4528947E-2,2.0244148E-2,3.6036633E-2,-5.5661844E-4,2.2924151E-2,5.3197872E-2,2.550616E-2,-4.1346565E-2,2.9829707E-2,-8.744944E-2,3.7707254E-2,1.9458178E-2,-8.7367175E-3,4.6789013E-2,2.3526484E-2,5.7237156E-2,4.3189477E-2,2.3930445E-2,4.538093E-2],"split_indices":[3,2,41,3,47,2,45,29,41,2,41,28,33,36,0,16,21,0,22,14,5,32,1,2,36,18,42,33,15,18,43,32,41,41,42,37,48,1,33,5,16,30,43,2,2,37,37,17,12,33,3,2,23,0,0,37,17,48,46,1,13,8,45,0,0,0,0,0,0,0,0,0,0,0,0,0,0,0,0,0,0,0,0,0,0,0,0,0,0,0,0,0,0,0,0,0,0,0,0,0,0,0,0,0,0,0,0,0,0,0,0,0,0,0,0,0,0,0,0,0,0,0,0,0,0],"split_type":[0,0,0,0,0,0,0,0,0,0,0,0,0,0,0,0,0,0,0,0,0,0,0,0,0,0,0,0,0,0,0,0,0,0,0,0,0,0,0,0,0,0,0,0,0,0,0,0,0,0,0,0,0,0,0,0,0,0,0,0,0,0,0,0,0,0,0,0,0,0,0,0,0,0,0,0,0,0,0,0,0,0,0,0,0,0,0,0,0,0,0,0,0,0,0,0,0,0,0,0,0,0,0,0,0,0,0,0,0,0,0,0,0,0,0,0,0,0,0,0,0,0,0,0,0],"sum_hessian":[2.0797465E4,1.2197779E4,8.599686E3,3.4010896E3,8.796689E3,7.371832E3,1.2278539E3,4.9496378E2,2.9061257E3,7.6332124E3,1.1634768E3,5.1233076E3,2.2485244E3,8.3159393E2,3.9626E2,3.5373497E1,4.5959027E2,7.394417E2,2.166684E3,3.3684546E3,4.264758E3,1.0981973E3,6.527962E1,4.1215894E3,1.0017184E3,1.9084152E3,3.4010928E2,5.259137E2,3.056802E2,4.705122E1,3.4920877E2,2.6690311E1,8.683187E0,1.0987847E2,3.4971182E2,7.0804675E2,3.1394928E1,3.2516232E2,1.8415217E3,3.362824E3,5.630576E0,2.9925754E3,1.2721824E3,5.221703E2,5.76027E2,2.25416E1,4.2738014E1,2.6669395E3,1.4546499E3,9.682821E2,3.343628E1,1.0875223E3,8.2089276E2,3.3061792E2,9.491373E0,4.923354E2,3.3578316E1,1.8500334E1,2.8717987E2,2.8813429E1,1.8237791E1,2.5825684E2,9.0951935E1,2.4298672E1,2.39164E0,3.5107543E0,5.172432E0,3.4936523E1,7.494195E1,1.3888187E2,2.1082996E2,6.116568E2,9.638995E1,7.6374893E0,2.3757439E1,5.204841E1,2.7311392E2,8.901885E2,9.5133325E2,2.4242095E3,9.3861444E2,1.0067508E0,4.623825E0,1.5779962E3,1.4145793E3,1.2560933E3,1.6089071E1,1.3742424E2,3.8474606E2,1.21198814E2,4.5482812E2,1.0865419E1,1.1676179E1,1.4239233E0,4.131409E1,2.439819E3,2.271202E2,1.451749E3,2.9007788E0,4.5281876E2,5.154633E2,2.9211454E1,4.2248273E0,3.9374454E2,6.9377783E2,4.9493338E2,3.2595938E2,1.6569345E2,1.6492445E2,6.2221924E1,4.3011346E2,2.9459227E1,4.119088E0,1.0479331E1,8.021003E0,1.3432863E0,2.858366E2,5.5550075E0,2.325842E1,8.2870655E0,9.9507265E0,1.4875029E2,1.0950656E2,5.7592087E1,3.3359848E1],"tree_param":{"num_deleted":"0","num_feature":"49","num_nodes":"125","size_leaf_vector":"1"}},{"base_weights":[1.639166E-4,-1.4202759E-1,2.2243708E-1,-3.5717288E-1,-6.033873E-2,1.6116048E-1,4.3175837E-1,-6.7164075E-1,-3.062926E-1,-6.758161E-2,6.5710914E-1,1.2835605E-1,4.1242933E-1,3.614459E-1,5.683216E-1,-7.028739E-1,4.0311608E-1,-3.9387032E-1,-2.2966047E-1,-1.4475341E-1,-1.7176857E-2,1.6860607E-1,8.822822E-1,1.1032416E-1,2.8287637E-1,4.228364E-1,-1.2241211E0,3.0573288E-1,4.83171E-1,4.895211E-1,7.5843996E-1,-1.0204114E0,-6.031156E-1,7.185063E-1,-6.788948E-1,-2.8547868E-1,-5.2445036E-1,-1.6342138E-1,-3.68975E-1,-1.4152913E-1,-1.3443657E0,-5.0447974E-2,1.1217843E-1,-8.23733E-2,2.5167486E-1,9.4742554E-1,-2.0283026E-1,6.922487E-2,1.6752465E-1,3.4719333E-1,-7.6807186E-2,-9.343861E-2,4.533355E-1,-3.777467E-2,-9.6429266E-2,-8.397654E-3,3.234908E-1,3.2194906E-1,5.873579E-1,4.3746948E-1,7.4623543E-1,6.875478E-1,1.01592E0,-9.116334E-2,-4.712334E-2,-5.3107742E-2,-2.9918142E-2,6.403202E-2,2.8056271E-2,-6.147101E-3,-5.3763375E-2,3.7808202E-2,-1.8192941E-2,-4.309693E-2,-2.6554482E-2,-1.8140512E-2,-5.9167095E-3,-3.4040764E-2,-1.6220735E-2,-8.36222E-3,-9.150346E-2,-1.10014655E-1,-2.7649041E-2,-3.5915955E-3,2.8161582E-2,4.6379045E-3,2.0982571E-2,2.89321E-2,-8.470358E-3,6.1701484E-2,2.5929652E-2,-2.2487314E-2,4.780409E-3,2.8678246E-3,1.6146038E-2,1.3323892E-3,1.15776E-2,2.7010988E-2,1.035856E-2,-1.0547674E-3,-5.251222E-2,-5.614757E-2,3.2445358E-3,3.0934867E-2,1.1215598E-2,-2.4714796E-2,1.148526E-2,3.3391014E-2,1.7402427E-2,6.2903166E-3,2.8085424E-2,9.107008E-3,3.8077556E-2,3.18396E-2,1.9732093E-2,1.3524882E-2,5.1025998E-2,5.523949E-2,3.5163894E-2,3.7750695E-2,6.2287968E-2],"categories":[],"categories_nodes":[],"categories_segments":[],"categories_sizes":[],"default_left":[0,0,0,0,0,0,0,0,0,0,0,0,0,0,0,0,0,0,0,0,0,0,0,0,0,0,0,0,0,0,0,0,0,0,0,0,0,0,0,0,0,0,0,0,0,0,0,0,0,0,0,0,0,0,0,0,0,0,0,0,0,0,0,0,0,0,0,0,0,0,0,0,0,0,0,0,0,0,0,0,0,0,0,0,0,0,0,0,0,0,0,0,0,0,0,0,0,0,0,0,0,0,0,0,0,0,0,0,0,0,0,0,0,0,0,0,0,0,0,0,0],"id":12,"left_children":[1,3,5,7,9,11,13,15,17,19,21,23,25,27,29,31,33,35,37,39,41,43,45,47,49,51,53,55,57,59,61,63,65,67,69,71,73,75,77,79,81,83,85,-1,87,89,91,93,95,97,99,101,103,-1,-1,105,107,109,111,113,115,117,119,-1,-1,-1,-1,-1,-1,-1,-1,-1,-1,-1,-1,-1,-1,-1,-1,-1,-1,-1,-1,-1,-1,-1,-1,-1,-1,-1,-1,-1,-1,-1,-1,-1,-1,-1,-1,-1,-1,-1,-1,-1,-1,-1,-1,-1,-1,-1,-1,-1,-1,-1,-1,-1,-1,-1,-1,-1,-1],"loss_changes":[6.583765E2,2.2326416E2,1.0420651E2,5.5835205E1,4.787341E1,5.1799484E1,1.7565735E1,1.6471252E1,2.0156494E1,3.546221E1,1.0054317E1,1.5482117E1,1.2621124E1,8.172913E0,9.170593E0,1.4672607E1,5.0403996E0,1.9797592E1,1.4795479E1,1.3837051E1,2.3740328E1,3.9720993E0,4.543068E0,1.1705677E1,1.34524E1,1.1383881E1,5.678191E-1,4.662491E0,6.3044662E0,5.7553787E0,2.9745407E0,1.2576393E1,1.04183655E1,7.2388506E-1,3.8339162E-1,1.2572903E1,9.938232E0,9.796627E0,1.0044762E1,1.0624779E1,3.725584E0,2.1479153E1,9.336589E0,0E0,2.6219444E0,2.2563553E0,2.0801568E-1,1.24126625E1,7.69524E0,8.82193E0,4.17869E0,5.0785584E0,1.125238E1,0E0,0E0,3.6835501E0,6.0840836E0,4.755474E0,4.7038116E0,3.6520004E0,3.9178734E0,3.1445084E0,2.1324158E-3,0E0,0E0,0E0,0E0,0E0,0E0,0E0,0E0,0E0,0E0,0E0,0E0,0E0,0E0,0E0,0E0,0E0,0E0,0E0,0E0,0E0,0E0,0E0,0E0,0E0,0E0,0E0,0E0,0E0,0E0,0E0,0E0,0E0,0E0,0E0,0E0,0E0,0E0,0E0,0E0,0E0,0E0,0E0,0E0,0E0,0E0,0E0,0E0,0E0,0E0,0E0,0E0,0E0,0E0,0E0,0E0,0E0,0E0],"parents":[2147483647,0,0,1,1,2,2,3,3,4,4,5,5,6,6,7,7,8,8,9,9,10,10,11,11,12,12,13,13,14,14,15,15,16,16,17,17,18,18,19,19,20,20,21,21,22,22,23,23,24,24,25,25,26,26,27,27,28,28,29,29,30,30,31,31,32,32,33,33,34,34,35,35,36,36,37,37,38,38,39,39,40,40,41,41,42,42,44,44,45,45,46,46,47,47,48,48,49,49,50,50,51,51,52,52,55,55,56,56,57,57,58,58,59,59,60,60,61,61,62,62],"right_children":[2,4,6,8,10,12,14,16,18,20,22,24,26,28,30,32,34,36,38,40,42,44,46,48,50,52,54,56,58,60,62,64,66,68,70,72,74,76,78,80,82,84,86,-1,88,90,92,94,96,98,100,102,104,-1,-1,106,108,110,112,114,116,118,120,-1,-1,-1,-1,-1,-1,-1,-1,-1,-1,-1,-1,-1,-1,-1,-1,-1,-1,-1,